6.789828091859817505e-02
3.444528877735137939e-01
-8.477730154991149902e-01
5.645185708999633789e-01
2.960367500782012939e-02
1.547959893941879272e-01
1.279656887054443359e-01
-8.524050712585449219e-01
3.882952034473419189e-01
2.587809562683105469e-01
-1.288965195417404175e-01
3.549281954765319824e-01
-6.589357852935791016e-01
1.355786323547363281e-01
1.183465421199798584e-01
2.733522951602935791e-01
6.354240775108337402e-01
-7.850571274757385254e-01
-1.315848678350448608e-01
-1.224482432007789612e-02
1.846884787082672119e-01
7.276404500007629395e-01
-4.519452452659606934e-01
-2.751165330410003662e-01
-2.006231546401977539e-01
7.738157361745834351e-02
1.459031254053115845e-01
3.498049676418304443e-01
2.978072762489318848e-01
2.255547791719436646e-01
8.149586617946624756e-02
3.090760707855224609e-01
3.190078139305114746e-01
2.144034802913665771e-01
1.751783043146133423e-01
2.484254240989685059e-01
1.452562510967254639e-01
1.866845600306987762e-02
7.747825235128402710e-02
5.073297768831253052e-02
-1.050038486719131470e-01
6.461886316537857056e-02
2.591637372970581055e-01
1.374157518148422241e-01
-1.020001918077468872e-01
-5.448140949010848999e-02
5.649153143167495728e-02
1.303239166736602783e-01
9.505466371774673462e-02
6.594454497098922729e-02
-3.082667589187622070e-01
-3.030934929847717285e-01
-5.468914508819580078e-01
-4.587722420692443848e-01
-5.169173479080200195e-01
8.491063117980957031e-02
-2.348614782094955444e-01
-6.427518129348754883e-01
-7.115423679351806641e-01
-1.632000952959060669e-01
3.831739723682403564e-01
1.785563826560974121e-01
2.987095415592193604e-01
-7.968627661466598511e-02
3.378798067569732666e-01
7.957247644662857056e-02
4.607840776443481445e-01
4.670874774456024170e-01
-1.771340519189834595e-01
2.151643037796020508e-01
-9.004694968461990356e-02
4.605008959770202637e-01
5.269553065299987793e-01
-5.227925628423690796e-02
1.502906084060668945e-01
1.752838492393493652e-01
3.933962881565093994e-01
1.563019305467605591e-01
-2.676392197608947754e-01
-6.209859848022460938e-01
2.060767710208892822e-01
2.705100178718566895e-01
2.187047600746154785e-01
-8.552372455596923828e-02
-6.213831305503845215e-01
1.035692021250724792e-01
3.526371121406555176e-01
1.893884390592575073e-01
-8.463137596845626831e-02
-5.239545106887817383e-01
1.055477932095527649e-01
6.962960362434387207e-01
3.306253850460052490e-01
-4.210149049758911133e-01
-7.063573598861694336e-01
-5.235900357365608215e-02
6.446515321731567383e-01
1.181832328438758850e-01
-2.219245880842208862e-01
-4.756260216236114502e-01
3.408973217010498047e-01
4.285818040370941162e-01
-4.746713489294052124e-02
-2.878540940582752228e-02
3.302371129393577576e-02
1.825216859579086304e-01
2.843194007873535156e-01
-1.772160381078720093e-01
2.385288774967193604e-01
1.403084099292755127e-01
-2.171996831893920898e-01
1.767231076955795288e-01
2.441946715116500854e-01
-4.921391978859901428e-02
-7.324032485485076904e-02
-8.616720885038375854e-02
1.315370500087738037e-01
2.190615981817245483e-01
3.641848266124725342e-01
2.336763292551040649e-01
3.312852084636688232e-01
4.025219678878784180e-01
4.290782511234283447e-01
7.538291811943054199e-02
-2.103804238140583038e-02
-2.000384628772735596e-01
-1.560280472040176392e-01
-3.018044233322143555e-01
-2.069340497255325317e-01
-3.210290670394897461e-01
-8.301127701997756958e-02
-1.497862786054611206e-01
-4.316496849060058594e-01
-6.429663896560668945e-01
-5.013443231582641602e-01
2.122686430811882019e-02
-1.111674234271049500e-01
-5.269153118133544922e-01
-6.355386972427368164e-01
-6.061673164367675781e-01
1.782629340887069702e-01
-9.478005766868591309e-02
-2.792408168315887451e-01
-7.024482488632202148e-01
-6.305720806121826172e-01
9.860169142484664917e-02
-6.541708856821060181e-02
-4.221973419189453125e-01
-5.137772560119628906e-01
-4.916041791439056396e-01
