-2.706021368503570557e-01
-5.401377752423286438e-02
2.405026704072952271e-01
1.818688213825225830e-01
5.467012524604797363e-02
6.284495443105697632e-02
1.677283346652984619e-01
1.833791583776473999e-01
1.554034203290939331e-01
2.855592370033264160e-01
2.950561046600341797e-01
4.543800652027130127e-01
3.976243436336517334e-01
1.738566309213638306e-01
1.452198475599288940e-01
1.374697834253311157e-01
7.905548214912414551e-01
7.876192927360534668e-01
5.182181000709533691e-01
1.799612343311309814e-01
3.370343446731567383e-01
1.708608865737915039e-01
5.698370933532714844e-01
7.001067399978637695e-01
5.026290416717529297e-01
-8.956387639045715332e-01
-8.885186314582824707e-01
-1.049710273742675781e+00
-2.576929926872253418e-01
7.040636241436004639e-02
-4.816622138023376465e-01
-1.254729032516479492e+00
-7.859871387481689453e-01
-1.209103986620903015e-01
1.281621307134628296e-01
-1.302856802940368652e-01
-5.794408917427062988e-01
-3.185777366161346436e-01
1.192281171679496765e-01
5.667655467987060547e-01
3.114288672804832458e-02
-4.077613353729248047e-01
-5.119343996047973633e-01
3.459518849849700928e-01
7.478665113449096680e-01
-3.441574797034263611e-02
-5.167871713638305664e-01
-4.065543115139007568e-01
6.241183876991271973e-01
6.889902353286743164e-01
6.510506570339202881e-02
-4.562648534774780273e-01
4.655865728855133057e-01
-6.747011560946702957e-03
-2.970448136329650879e-02
6.731029152870178223e-01
-1.405835509300231934e+00
8.256182074546813965e-01
2.197481095790863037e-01
1.186599675565958023e-02
5.622946191579103470e-03
-1.375851750373840332e+00
1.094646930694580078e+00
6.587630510330200195e-01
5.954403281211853027e-01
-5.901882648468017578e-01
-2.387151002883911133e+00
6.495711207389831543e-01
1.859013319015502930e+00
4.920912533998489380e-02
-2.279120534658432007e-01
-2.161884069442749023e+00
1.661496758460998535e-01
1.325302600860595703e+00
-6.318990141153335571e-02
-1.771792769432067871e+00
-1.316638469696044922e+00
-1.053589582443237305e+00
-8.480257391929626465e-01
-2.504411041736602783e-01
-8.158522844314575195e-01
-6.751510500907897949e-01
-3.347251117229461670e-01
3.752789199352264404e-01
3.828923106193542480e-01
2.924797534942626953e-01
6.329386830329895020e-01
6.986321210861206055e-01
2.733617722988128662e-01
1.161118596792221069e-02
6.962833404541015625e-01
6.897544860839843750e-01
6.115226149559020996e-01
4.314951598644256592e-01
-5.330708622932434082e-02
9.115828871726989746e-01
-1.952304095029830933e-01
-1.292997896671295166e-01
-1.865663081407546997e-01
5.121967568993568420e-02
-5.561012625694274902e-01
-5.919455289840698242e-01
-2.671864330768585205e-01
-1.065215542912483215e-01
8.410793542861938477e-02
-5.082525610923767090e-01
-1.194969654083251953e+00
-1.230305194854736328e+00
-3.685299158096313477e-01
3.934801369905471802e-02
-1.086148172616958618e-01
-7.082521319389343262e-01
-1.180582404136657715e+00
-6.530203223228454590e-01
-1.391223967075347900e-01
-2.268243283033370972e-01
-5.876379609107971191e-01
-4.869875311851501465e-01
-5.068311095237731934e-01
-6.329627335071563721e-02
-4.282068014144897461e-01
-2.155863642692565918e-01
-2.118564546108245850e-01
-4.643955230712890625e-01
-3.204154670238494873e-01
-5.450496077537536621e-02
3.850085139274597168e-01
4.417192339897155762e-01
6.272128224372863770e-01
-1.921600252389907837e-01
-9.197326377034187317e-03
3.020961210131645203e-02
3.885801434516906738e-01
8.681824207305908203e-01
-2.616855502128601074e-01
-3.410871624946594238e-01
-3.717263042926788330e-02
3.370081186294555664e-01
6.030418276786804199e-01
4.171987175941467285e-01
3.359127044677734375e-01
6.160473823547363281e-02
-1.731243282556533813e-01
4.805642962455749512e-01
2.761297821998596191e-01
-1.786904633045196533e-01
-6.136303767561912537e-02
6.073607206344604492e-01
6.264607310295104980e-01
1.941078752279281616e-01
