-3.588455915451049805e-01
-1.685019731521606445e-01
1.732812225818634033e-01
5.768242478370666504e-02
-4.538382887840270996e-01
-1.651506721973419189e-01
1.438505500555038452e-01
2.342091202735900879e-01
2.126331329345703125e-01
-1.913668364286422729e-01
-1.308607906103134155e-01
1.091273725032806396e-01
2.089783102273941040e-01
1.145949140191078186e-01
1.725616678595542908e-02
1.304804980754852295e-01
2.089713066816329956e-01
1.620229780673980713e-01
6.120048463344573975e-02
1.022469922900199890e-01
-1.794399768114089966e-01
-1.249802410602569580e-01
-1.934620738029479980e-01
-1.213379502296447754e-01
1.673113256692886353e-01
8.387548476457595825e-02
1.366284936666488647e-01
-7.220704853534698486e-02
1.334391981363296509e-01
3.615066409111022949e-02
5.965499952435493469e-02
8.649827539920806885e-02
-5.499917641282081604e-02
2.291185967624187469e-02
6.279905885457992554e-02
-1.451464295387268066e-01
1.000678762793540955e-01
1.718420088291168213e-01
-4.289655983448028564e-01
7.403044961392879486e-03
1.686782762408256531e-02
-8.655483275651931763e-02
1.003836393356323242e-01
-4.193120598793029785e-01
-8.336184173822402954e-02
-1.983460932970046997e-01
3.021556884050369263e-03
-1.920911222696304321e-01
-4.001752436161041260e-01
1.303831189870834351e-01
1.663168892264366150e-02
-1.108643040060997009e-01
-1.206267178058624268e-01
-4.136477410793304443e-01
-4.050270095467567444e-02
-1.388995200395584106e-01
-6.225018575787544250e-02
-1.321142166852951050e-02
-1.533776968717575073e-01
1.927781552076339722e-01
-6.791269034147262573e-02
8.157991617918014526e-02
-7.600083947181701660e-02
3.916991129517555237e-02
1.210307031869888306e-01
-1.945773959159851074e-01
-2.188892811536788940e-01
2.150340378284454346e-01
-9.572115540504455566e-02
-2.646423876285552979e-01
-1.690146028995513916e-01
4.849689826369285583e-02
6.555843353271484375e-01
2.307149767875671387e-01
1.400624066591262817e-01
1.944935470819473267e-01
-1.348001956939697266e-01
-3.714810311794281006e-01
2.290577739477157593e-01
4.195418059825897217e-01
9.610482305288314819e-02
8.388981223106384277e-02
-2.147423923015594482e-01
-2.673584222793579102e-01
3.463800549507141113e-01
5.480580404400825500e-02
-1.760678887367248535e-01
-3.478872478008270264e-01
-2.173452973365783691e-01
8.207585662603378296e-02
1.454508453607559204e-01
1.290094107389450073e-01
-7.526089996099472046e-02
-8.771863579750061035e-02
1.826618611812591553e-01
-1.277863085269927979e-01
-6.896203756332397461e-02
1.169647928327322006e-02
5.356109514832496643e-02
-1.120510995388031006e-01
-3.105277940630912781e-02
-4.105553776025772095e-02
-3.087275922298431396e-01
-1.431860681623220444e-02
8.516659736633300781e-01
2.855397462844848633e-01
-1.904308050870895386e-01
-5.031004548072814941e-01
-2.867279015481472015e-02
2.474653571844100952e-01
5.659349635243415833e-02
-9.463141858577728271e-02
1.964147959370166063e-04
-1.587049812078475952e-01
-1.307186037302017212e-01
2.245004475116729736e-01
2.687245607376098633e-01
2.050422430038452148e-01
-3.804564177989959717e-01
-2.391284257173538208e-01
1.946280449628829956e-01
5.295268297195434570e-01
2.994633316993713379e-01
-1.220173463225364685e-01
-1.858330219984054565e-01
-2.239052206277847290e-01
-2.691865265369415283e-01
3.578960523009300232e-02
-3.104649186134338379e-01
-2.886866629123687744e-01
-1.717924773693084717e-01
1.352433562278747559e-01
2.207201868295669556e-01
1.471201479434967041e-01
-1.843703538179397583e-01
-5.107602849602699280e-02
-3.453421965241432190e-02
2.089114040136337280e-01
2.076292596757411957e-02
-1.629773825407028198e-01
-2.975240536034107208e-02
-9.057472646236419678e-02
1.633064746856689453e-01
-1.137828305363655090e-01
-3.999517485499382019e-02
-3.243350610136985779e-02
-9.366054832935333252e-02
-7.627540826797485352e-02
-1.215997785329818726e-01
4.513248056173324585e-02
8.695290982723236084e-02
1.704165190458297729e-01
-2.351152896881103516e-02
6.065241247415542603e-02
-3.076740503311157227e-01
1.768118143081665039e-02
2.545032501220703125e-01
-1.869618743658065796e-01
-1.474941670894622803e-01
-2.479789555072784424e-01
1.023973822593688965e-01
1.555566936731338501e-01
-1.854026764631271362e-01
-8.624639362096786499e-02
-1.452742666006088257e-01
4.532307386398315430e-01
3.382764458656311035e-01
1.354685425758361816e-01
-1.288080662488937378e-01
-2.846469283103942871e-01
-3.011502623558044434e-01
-1.832152158021926880e-02
-1.164852231740951538e-01
6.585655361413955688e-02
-1.874107420444488525e-01
1.046529710292816162e-01
2.020955830812454224e-01
-4.845215752720832825e-02
-5.934929475188255310e-02
-1.690732240676879883e-01
-7.263155281543731689e-02
5.105248466134071350e-02
2.159621268510818481e-01
3.766169846057891846e-01
8.487661927938461304e-02
-2.717074751853942871e-01
-6.715976446866989136e-02
1.083971709012985229e-01
-1.577724069356918335e-01
8.878065645694732666e-02
-4.441043436527252197e-01
-1.559173408895730972e-02
-4.549889266490936279e-02
-1.961850225925445557e-01
1.636075526475906372e-01
1.493130810558795929e-02
2.141969203948974609e-01
1.253034472465515137e-01
1.039841026067733765e-01
3.682757019996643066e-01
-2.929155342280864716e-02
-9.378669783473014832e-03
-1.798158288002014160e-01
-7.167124003171920776e-02
3.161015734076499939e-02
2.940562963485717773e-01
-5.035582557320594788e-02
3.104006350040435791e-01
7.655377686023712158e-02
1.379149407148361206e-01
1.659150049090385437e-02
-5.250555276870727539e-02
2.235749214887619019e-01
-3.907501697540283203e-02
4.772793054580688477e-01
-2.448777407407760620e-01
8.590947091579437256e-02
-1.727713942527770996e-01
1.183940172195434570e-01
3.723594248294830322e-01
1.943006068468093872e-01
9.459004998207092285e-01
5.271704792976379395e-01
6.614202260971069336e-01
6.621800661087036133e-01
-1.438983231782913208e-01
-9.625624865293502808e-02
-1.272038072347640991e-01
-1.445873677730560303e-01
-1.578150093555450439e-01
-3.295857012271881104e-01
-2.935924381017684937e-02
6.130049005150794983e-02
5.189919099211692810e-02
-1.585220247507095337e-01
1.854728013277053833e-01
-1.593581140041351318e-01
-2.512497603893280029e-01
-1.645536124706268311e-01
6.976525485515594482e-02
2.667003273963928223e-01
1.726327389478683472e-01
2.009561955928802490e-01
2.053688513115048409e-03
-6.668289750814437866e-02
-1.237858086824417114e-01
2.243681550025939941e-01
-2.542070113122463226e-02
-4.320489764213562012e-01
-1.856082081794738770e-01
-1.212205924093723297e-02
1.582061946392059326e-01
-5.657244008034467697e-03
-1.441190540790557861e-01
-2.384586781263351440e-01
-5.365372449159622192e-02
-2.017868459224700928e-01
-1.664596796035766602e-02
2.581828832626342773e-02
3.771893084049224854e-01
-3.108309507369995117e-01
-1.850084029138088226e-02
-4.934152215719223022e-02
7.569439709186553955e-02
-1.425197422504425049e-01
-5.104131102561950684e-01
-1.003752723336219788e-01
-1.629729717969894409e-01
2.806423604488372803e-02
-9.093270450830459595e-02
8.632271289825439453e-01
3.815973699092864990e-01
1.650546938180923462e-01
1.863569617271423340e-01
-4.593538045883178711e-01
1.780122891068458557e-02
5.005721002817153931e-02
-6.210858374834060669e-02
-2.384669035673141479e-01
-8.856053650379180908e-02
1.821616590023040771e-01
-1.673649847507476807e-01
-1.375894993543624878e-01
-1.046560555696487427e-01
-1.387703418731689453e-01
2.922215163707733154e-01
2.619120478630065918e-02
1.012590900063514709e-01
-1.668585240840911865e-01
3.383143618702888489e-02
1.306190043687820435e-01
3.578785657882690430e-01
9.506527334451675415e-02
-9.738221019506454468e-02
-1.709237992763519287e-01
-1.845471113920211792e-01
3.350779786705970764e-02
-5.984081700444221497e-02
-4.839959368109703064e-02
-1.643417589366436005e-02
8.647854626178741455e-02
3.416718542575836182e-02
6.774388998746871948e-02
3.807324767112731934e-01
-5.801921710371971130e-02
-5.916010588407516479e-02
-1.575783938169479370e-01
8.379295468330383301e-02
1.662001013755798340e-01
1.656699776649475098e-01
-2.856867015361785889e-01
-5.556922778487205505e-02
3.763789832592010498e-01
2.318702042102813721e-01
1.957174688577651978e-01
-3.404568135738372803e-01
-1.239900216460227966e-01
7.808385789394378662e-02
2.451793402433395386e-01
-1.224333494901657104e-01
2.003790885210037231e-01
1.580273807048797607e-01
8.297978341579437256e-02
1.262335479259490967e-01
5.343756824731826782e-02
-2.343688458204269409e-01
1.851143501698970795e-02
4.521822631359100342e-01
4.029305279254913330e-02
3.340560651849955320e-04
-2.886407077312469482e-01
-7.041388750076293945e-02
8.061479032039642334e-02
-2.690856456756591797e-01
-1.264933794736862183e-01
-6.363640725612640381e-02
2.828273177146911621e-01
2.078589349985122681e-01
-4.680875688791275024e-02
-9.280645847320556641e-02
-1.071002185344696045e-01
2.246792018413543701e-01
-1.161128059029579163e-01
-1.475847661495208740e-01
-1.347426176071166992e-01
6.468858569860458374e-02
6.845712661743164062e-02
-4.102295264601707458e-03
7.533652387792244554e-05
-9.642742574214935303e-02
-3.093997836112976074e-01
-8.293529748916625977e-01
-2.878554761409759521e-01
-3.118935227394104004e-01
-3.477202653884887695e-01
-1.967219114303588867e-01
-8.005456328392028809e-01
-8.274471759796142578e-01
-7.392305135726928711e-01
-1.214379966259002686e-01
-1.236420683562755585e-02
-4.658438563346862793e-01
-7.937798500061035156e-01
-2.196200191974639893e-01
-1.508705317974090576e-01
6.486117094755172729e-02
3.485500812530517578e-02
-3.553133606910705566e-01
-2.584120035171508789e-01
2.549163997173309326e-02
-6.241706758737564087e-02
6.935425847768783569e-02
-1.466221660375595093e-01
1.683314591646194458e-01
-1.196621730923652649e-01
1.291085332632064819e-01
1.857815086841583252e-01
3.117628097534179688e-01
5.062965154647827148e-01
4.923713207244873047e-01
-1.736001968383789062e-01
-1.898124814033508301e-01
9.603781253099441528e-02
4.727700352668762207e-01
3.436438739299774170e-02
1.239039599895477295e-01
3.397115468978881836e-01
6.762600690126419067e-02
1.861051917076110840e-01
3.451342135667800903e-02
-1.389866471290588379e-01
2.296115756034851074e-01
-7.753074914216995239e-02
1.976909488439559937e-02
2.389216721057891846e-01
1.627305597066879272e-01
2.886959016323089600e-01
6.350819021463394165e-02
8.795770816504955292e-03
5.790924280881881714e-02
-2.284926921129226685e-01
-1.743147224187850952e-01
6.855412721633911133e-01
-4.542760178446769714e-02
-2.436109483242034912e-01
3.293438255786895752e-01
4.240325093269348145e-01
1.877186447381973267e-01
-1.467182785272598267e-01
-1.512220203876495361e-01
4.967550337314605713e-01
3.383948802947998047e-01
-8.092648535966873169e-02
-6.586586833000183105e-01
-4.279820322990417480e-01
1.961397379636764526e-01
1.488922834396362305e-01
-3.077189624309539795e-01
-4.435724020004272461e-01
-1.429490298032760620e-01
2.728196382522583008e-01
3.691717386245727539e-01
-5.082788467407226562e-01
-2.906069755554199219e-01
6.397110968828201294e-02
9.455870836973190308e-02
-1.433497071266174316e-01
-1.232249140739440918e-01
1.371801197528839111e-01
2.017501369118690491e-02
-1.300085037946701050e-01
-1.764225512742996216e-01
7.722165435552597046e-02
1.263690646737813950e-02
1.281891465187072754e-01
-1.174860894680023193e-01
-2.055761516094207764e-01
3.824226930737495422e-02
-5.376869067549705505e-02
-4.348071292042732239e-02
-2.430784404277801514e-01
-1.920123398303985596e-01
-1.835144124925136566e-02
-4.274867475032806396e-02
-1.198581382632255554e-01
-1.877312362194061279e-01
-3.516437485814094543e-02
-1.163962036371231079e-01
-8.144114166498184204e-03
-1.140267178416252136e-01
8.148780465126037598e-02
1.080468744039535522e-01
-1.160199567675590515e-01
1.631458103656768799e-02
-1.756401956081390381e-01
3.236681222915649414e-01
-1.311874203383922577e-02
7.590792328119277954e-02
-1.764039844274520874e-01
-2.258715033531188965e-01
1.952755749225616455e-01
-1.618060022592544556e-01
-5.111630074679851532e-03
-3.208387270569801331e-02
-1.438434571027755737e-01
4.033401235938072205e-02
-2.407817542552947998e-01
-1.059213653206825256e-01
2.032087594270706177e-01
1.653151959180831909e-01
-1.517225988209247589e-02
-3.840842470526695251e-02
1.496888995170593262e-01
1.918642818927764893e-01
1.817172951996326447e-02
-6.535789370536804199e-02
-3.249185681343078613e-01
-1.710285097360610962e-01
4.502579942345619202e-02
-1.082704067230224609e-01
-2.933251559734344482e-01
-5.661174654960632324e-02
2.599528990685939789e-02
4.476892352104187012e-01
8.137563616037368774e-02
-9.102337062358856201e-02
1.307838968932628632e-02
-1.860347837209701538e-01
1.202860921621322632e-01
8.455988019704818726e-02
1.020148117095232010e-02
2.299216091632843018e-01
-3.681132793426513672e-01
-5.830767005681991577e-02
-7.665822654962539673e-02
1.239758878946304321e-01
1.073436215519905090e-01
7.390811294317245483e-02
3.164648413658142090e-01
1.552015393972396851e-01
3.300575315952301025e-01
3.465505242347717285e-01
3.605871200561523438e-01
1.110271587967872620e-01
-1.894782334566116333e-01
-2.531248033046722412e-01
5.065676569938659668e-01
3.651617765426635742e-01
-4.083861112594604492e-01
-3.746842443943023682e-01
-1.460926234722137451e-01
-1.148045435547828674e-01
-1.598124653100967407e-01
-3.450908362865447998e-01
-4.180015325546264648e-01
1.212556362152099609e-01
1.794932186603546143e-01
1.388199627399444580e-01
5.603674799203872681e-02
-3.177853226661682129e-01
-2.165904343128204346e-01
6.282927989959716797e-01
1.371908932924270630e-01
-2.953017055988311768e-01
-4.629646539688110352e-01
-1.083682328462600708e-01
-2.322414815425872803e-01
1.032153517007827759e-01
4.863659739494323730e-01
2.156607061624526978e-01
-8.300860971212387085e-02
1.272649387829005718e-03
2.460756897926330566e-01
2.328422963619232178e-01
1.765898764133453369e-01
-2.348599135875701904e-01
-1.730867177248001099e-01
-1.320031136274337769e-01
-3.069326654076576233e-02
4.248953461647033691e-01
-1.094630733132362366e-01
-6.948501616716384888e-02
1.443851888179779053e-01
5.604485422372817993e-02
5.506128817796707153e-02
3.625478222966194153e-02
-1.822488754987716675e-01
-2.156173586845397949e-01
-7.270531356334686279e-02
-1.058858409523963928e-01
-2.612065672874450684e-01
2.279836311936378479e-02
1.723641604185104370e-01
-1.181456521153450012e-01
1.812849193811416626e-02
-4.233273565769195557e-01
1.617060452699661255e-01
3.308276534080505371e-01
1.607224643230438232e-01
2.297615557909011841e-01
-4.689790010452270508e-01
2.999210655689239502e-01
1.558043062686920166e-02
1.179157719016075134e-01
-2.555525004863739014e-01
-1.550926715135574341e-01
4.119775593280792236e-01
1.412782371044158936e-01
-1.126073300838470459e-01
-8.485680073499679565e-02
-6.774773448705673218e-02
2.881961762905120850e-01
-2.549314685165882111e-02
1.347042024135589600e-01
-1.261736303567886353e-01
1.303405407816171646e-02
2.073446810245513916e-01
5.122281983494758606e-02
-1.780836582183837891e-01
-2.627962231636047363e-01
2.028726786375045776e-01
2.179107367992401123e-01
-7.673231512308120728e-02
3.961580246686935425e-02
-1.489315927028656006e-01
1.212544292211532593e-01
1.695928350090980530e-02
1.625042259693145752e-01
-1.714159250259399414e-01
-1.289549022912979126e-01
-2.957323007285594940e-02
-8.445540070533752441e-02
4.227795079350471497e-02
-1.683536320924758911e-01
-9.501175582408905029e-02
-8.779553696513175964e-03
-7.082526385784149170e-02
7.862862944602966309e-02
1.098241508007049561e-01
-1.296097338199615479e-01
-3.771777749061584473e-01
-2.425722032785415649e-01
-2.262622565031051636e-01
-7.693038880825042725e-02
1.104602068662643433e-01
-2.500927746295928955e-01
-1.289858520030975342e-01
-5.925140529870986938e-02
-3.648556768894195557e-02
-4.304744303226470947e-02
-5.683138035237789154e-03
1.016855612397193909e-02
2.371100932359695435e-01
3.189670741558074951e-01
5.394951626658439636e-02
-1.440366208553314209e-01
6.991975754499435425e-02
2.836544215679168701e-01
1.787180751562118530e-01
8.393538743257522583e-02
-1.639239117503166199e-02
7.924150675535202026e-02
1.704477965831756592e-01
2.458087056875228882e-01
4.193016514182090759e-02
-7.489869743585586548e-02
-2.451666146516799927e-01
2.266528159379959106e-01
-6.248102337121963501e-02
-1.522567272186279297e-01
-2.820371091365814209e-01
-2.335409969091415405e-01
-3.079476058483123779e-01
6.761045753955841064e-02
-1.596611738204956055e-02
-1.534039229154586792e-01
-1.411116421222686768e-01
-7.729274779558181763e-02
1.225340664386749268e-01
-3.520347550511360168e-02
-2.680919766426086426e-01
2.208505421876907349e-01
-5.343299731612205505e-02
-9.436580538749694824e-02
6.010584533214569092e-02
-4.005630016326904297e-01
2.970954589545726776e-02
-6.658912450075149536e-02
-1.777482479810714722e-01
-4.309771955013275146e-02
-8.055461943149566650e-02
2.946015298366546631e-01
4.129807054996490479e-01
1.223797947168350220e-01
1.156120002269744873e-01
-1.190894246101379395e-01
5.357506275177001953e-01
4.480948150157928467e-01
-8.116093277931213379e-02
-1.468673050403594971e-01
-3.018149435520172119e-01
7.007394433021545410e-01
1.150392219424247742e-01
-1.660063862800598145e-01
-3.926474973559379578e-02
-3.204002082347869873e-01
3.938593566417694092e-01
2.836026065051555634e-02
2.725148200988769531e-01
-1.314308345317840576e-01
1.835375130176544189e-01
-2.313181161880493164e-01
3.463928997516632080e-01
2.547527849674224854e-01
-1.694124490022659302e-01
-5.609647836536169052e-03
8.189022541046142578e-02
3.671577274799346924e-01
3.234819471836090088e-01
1.979122161865234375e-01
1.593071222305297852e-01
-5.654958635568618774e-02
1.173215955495834351e-01
-1.489405333995819092e-02
-2.914979457855224609e-01
5.215666815638542175e-02
2.016347795724868774e-01
1.103333458304405212e-01
2.816022634506225586e-01
9.792421013116836548e-02
4.127494990825653076e-02
2.634991705417633057e-01
9.476497024297714233e-02
3.650697693228721619e-02
8.925497531890869141e-02
-2.058683931827545166e-01
7.629104703664779663e-02
-4.175428301095962524e-02
-2.075799405574798584e-01
-1.404087394475936890e-01
-3.115721940994262695e-01
-2.641274631023406982e-01
-4.684746637940406799e-02
-8.673254400491714478e-02
-4.835977554321289062e-01
-3.762357831001281738e-01
-4.505050480365753174e-01
-1.251190751791000366e-01
1.637707650661468506e-01
-1.522713005542755127e-01
-2.313189059495925903e-01
-3.041712939739227295e-01
-1.635214537382125854e-01
1.315947622060775757e-01
-1.119789779186248779e-01
-1.487280577421188354e-01
-5.104598402976989746e-02
-1.473923176527023315e-01
1.961447298526763916e-02
-1.134225875139236450e-01
-1.834530085325241089e-01
-3.160086646676063538e-02
-1.712727844715118408e-01
-8.687286823987960815e-02
-1.221645697951316833e-01
-2.344471067190170288e-01
-1.997634768486022949e-01
-1.124352589249610901e-01
-6.956178694963455200e-02
7.349839806556701660e-02
-3.157759904861450195e-01
5.341060087084770203e-02
-1.706075966358184814e-01
6.822262704372406006e-02
-7.079076766967773438e-02
-1.960640251636505127e-01
2.163264006376266479e-01
6.844449043273925781e-02
1.539194732904434204e-01
4.259497299790382385e-02
-7.884324342012405396e-02
1.952470839023590088e-01
1.175193861126899719e-01
1.519285589456558228e-01
-1.094919964671134949e-01
-8.165673166513442993e-02
1.855393201112747192e-01
1.348880082368850708e-01
3.096701800823211670e-01
4.721156135201454163e-02
1.375274211168289185e-01
8.135049790143966675e-02
-2.725448575802147388e-04
-4.407655447721481323e-02
4.305147007107734680e-02
8.241423219442367554e-02
4.188309609889984131e-02
-1.212439462542533875e-01
-1.427977383136749268e-01
-7.957286387681961060e-02
1.420458406209945679e-01
1.015220582485198975e-02
-5.217066779732704163e-02
3.535063005983829498e-03
-1.774355769157409668e-01
2.302188612520694733e-02
-1.072339117527008057e-01
1.825172901153564453e-01
2.302173227071762085e-01
-2.433835901319980621e-02
2.328360378742218018e-01
-9.906651079654693604e-02
-3.138116002082824707e-01
-2.137178033590316772e-01
-1.969189196825027466e-01
-1.792185455560684204e-01
1.586805470287799835e-02
2.454623393714427948e-02
1.262052357196807861e-01
1.924691498279571533e-01
-2.260016798973083496e-01
-2.373854443430900574e-02
1.288979947566986084e-01
5.083113163709640503e-02
2.448941953480243683e-02
-2.280718535184860229e-01
7.229698449373245239e-02
-7.670333981513977051e-02
-6.713176518678665161e-02
3.459521010518074036e-02
-4.270491302013397217e-01
-3.010416962206363678e-02
-1.622575372457504272e-01
-1.316474825143814087e-01
-2.439475506544113159e-01
-2.755742371082305908e-01
-2.852381579577922821e-02
8.407793939113616943e-02
4.932708293199539185e-02
-5.945442616939544678e-02
-4.533391296863555908e-01
5.926929116249084473e-01
-4.077295064926147461e-01
-2.421348094940185547e-01
-3.724662959575653076e-02
-2.316563427448272705e-01
5.516770482063293457e-01
-2.157400846481323242e-01
-4.756307601928710938e-02
-4.789897426962852478e-02
6.477858126163482666e-02
3.871294260025024414e-01
-1.865878701210021973e-01
5.284155532717704773e-02
3.292461484670639038e-02
-1.787384748458862305e-01
7.629110217094421387e-01
-3.277517259120941162e-01
-2.145131528377532959e-01
6.543383002281188965e-02
3.861548379063606262e-02
1.095942139625549316e+00
-6.975606679916381836e-01
9.991273283958435059e-03
-1.374896615743637085e-02
3.461261987686157227e-01
-2.251485586166381836e-01
-9.713885933160781860e-02
-2.585949003696441650e-02
2.815405428409576416e-01
9.549775719642639160e-02
1.572090089321136475e-01
-4.212744534015655518e-01
-1.002688929438591003e-01
-8.257181942462921143e-02
1.785335093736648560e-01
-3.085240896325558424e-04
-3.399389982223510742e-01
2.062875777482986450e-01
1.890805959701538086e-01
1.640513166785240173e-02
-1.444966066628694534e-02
-4.470027387142181396e-01
1.323563456535339355e-01
-3.848602622747421265e-02
2.944405190646648407e-03
3.834496065974235535e-02
6.232308223843574524e-02
5.981283634901046753e-02
2.675578296184539795e-01
1.004025042057037354e-01
2.400729954242706299e-01
1.288266386836767197e-02
1.343985795974731445e-01
1.045841351151466370e-01
-1.198632493615150452e-01
-5.287591740489006042e-02
-1.342198252677917480e-01
-2.355435304343700409e-02
-2.612563669681549072e-01
4.541942104697227478e-02
1.884559541940689087e-01
-1.394735835492610931e-02
-8.043956011533737183e-03
-2.945001423358917236e-01
-1.718486845493316650e-01
1.666684895753860474e-01
1.603374183177947998e-01
-4.525847733020782471e-02
-6.819087266921997070e-02
-2.126473933458328247e-01
2.488296329975128174e-01
-2.460725307464599609e-01
4.914242625236511230e-01
3.514899015426635742e-01
-3.239359008148312569e-03
6.427394598722457886e-02
-7.058294117450714111e-02
-1.936452984809875488e-01
4.531073942780494690e-02
-4.213589057326316833e-02
6.523312628269195557e-02
-1.431000232696533203e-01
-1.298192515969276428e-02
7.662958465516567230e-03
5.488725379109382629e-02
3.394646942615509033e-02
6.442942656576633453e-03
1.593322008848190308e-01
6.542107462882995605e-02
2.184251844882965088e-01
-3.097463771700859070e-02
7.322630286216735840e-02
1.840998381376266479e-01
1.892822384834289551e-01
2.390093207359313965e-01
-2.577581703662872314e-01
-2.223691046237945557e-01
8.181896060705184937e-02
1.124449893832206726e-01
-6.450111418962478638e-02
-1.094500496983528137e-01
7.841033488512039185e-02
-3.722833469510078430e-02
1.370698362588882446e-01
-4.917569831013679504e-02
2.390785329043865204e-02
-2.296763509511947632e-01
-2.373851239681243896e-01
-7.952515780925750732e-02
1.059415787458419800e-01
-1.352739632129669189e-01
-1.932157576084136963e-01
-1.715431064367294312e-01
-2.267918437719345093e-01
4.450614377856254578e-02
-1.482397317886352539e-01
-6.139875575900077820e-02
4.868136346340179443e-02
3.622889984399080276e-03
-7.273887097835540771e-02
-4.122290015220642090e-01
-1.825499683618545532e-01
1.146558523178100586e-01
-4.165245592594146729e-02
2.173008173704147339e-01
1.116152629256248474e-01
-1.752504408359527588e-01
-1.113410815596580505e-01
3.450519591569900513e-02
1.678748875856399536e-01
2.376085519790649414e-01
1.999423801898956299e-01
-1.400907784700393677e-01
7.492530345916748047e-02
1.216669529676437378e-01
2.773321419954299927e-02
4.663360118865966797e-02
-7.219889014959335327e-02
2.158170342445373535e-01
-2.611807584762573242e-01
-1.005173102021217346e-01
-2.896265089511871338e-01
-1.180516928434371948e-01
3.050850145518779755e-02
-8.503031730651855469e-02
-1.278595253825187683e-02
-1.158347353339195251e-01
1.563487648963928223e-01
-2.694634795188903809e-01
2.896014228463172913e-02
9.458742290735244751e-02
1.063514649868011475e-01
-1.263893544673919678e-01
-3.155041038990020752e-01
1.039340272545814514e-01
1.057415753602981567e-01
-2.253664098680019379e-02
-2.465120516717433929e-02
-5.288037061691284180e-01
1.183598637580871582e-01
1.256882548332214355e-01
-6.081606075167655945e-02
1.653500646352767944e-01
-9.396128356456756592e-02
4.695059731602668762e-02
2.815830893814563751e-02
-6.053446233272552490e-02
5.967112630605697632e-02
7.541494444012641907e-03
-2.601653337478637695e-02
2.028616517782211304e-01
5.028098449110984802e-02
-8.966314047574996948e-02
-1.952690258622169495e-02
1.304828524589538574e-01
5.393893271684646606e-02
2.744984030723571777e-01
-1.025461703538894653e-01
6.835865229368209839e-02
1.563365459442138672e-01
2.182141989469528198e-01
3.316179215908050537e-01
2.680325508117675781e-01
1.395832598209381104e-01
-1.948918215930461884e-03
2.550173997879028320e-01
3.373194336891174316e-01
3.258395567536354065e-02
3.147654533386230469e-01
1.229497045278549194e-01
8.142947405576705933e-02
-1.278806030750274658e-01
1.133065968751907349e-01
4.584806263446807861e-01
-6.746329367160797119e-02
-3.169331699609756470e-02
-6.355866789817810059e-02
1.775541752576828003e-01
-2.309713512659072876e-01
2.430552393198013306e-01
4.389992356300354004e-01
9.223013371229171753e-02
-1.505363881587982178e-01
4.056290909647941589e-02
-2.502681910991668701e-01
5.869455337524414062e-01
6.802222877740859985e-02
1.302689164876937866e-01
5.469142794609069824e-01
-2.324155718088150024e-01
-1.765669584274291992e-01
-1.873594522476196289e-01
1.717191189527511597e-02
5.844271779060363770e-01
-1.297438144683837891e-01
-6.384413838386535645e-01
-1.690749824047088623e-02
-2.093718796968460083e-01
-1.991730928421020508e-01
-2.307807505130767822e-01
-2.444663643836975098e-01
-1.779258847236633301e-01
-1.782822459936141968e-01
-6.011981368064880371e-01
-9.570317715406417847e-02
8.151049911975860596e-02
6.552591919898986816e-02
1.767656207084655762e-02
2.706561982631683350e-02
8.530983328819274902e-02
-4.919219389557838440e-02
-1.444241553544998169e-01
-5.797343328595161438e-02
-3.929647803306579590e-02
1.409385651350021362e-01
-8.294913172721862793e-02
-1.119600906968116760e-01
-5.177073925733566284e-02
-2.141180038452148438e-01
2.986042574048042297e-02
4.686611890792846680e-02
-9.611640870571136475e-02
1.754661053419113159e-01
-2.132347077131271362e-01
-2.000599801540374756e-01
-1.260519772768020630e-02
-8.588211983442306519e-02
1.226284503936767578e-01
2.767189405858516693e-02
-2.325446307659149170e-01
-2.237849235534667969e-01
-1.501144468784332275e-01
-7.169662415981292725e-02
2.182373404502868652e-02
3.292419761419296265e-02
1.288474798202514648e-01
1.791199147701263428e-01
-1.237722346559166908e-03
9.304410219192504883e-02
-1.642646491527557373e-01
-8.103819191455841064e-02
1.445253342390060425e-01
-1.637097597122192383e-01
1.394398361444473267e-01
9.746231138706207275e-02
1.505948454141616821e-01
1.786535829305648804e-01
7.920021563768386841e-02
1.259450316429138184e-01
1.314949989318847656e-01
1.850484162569046021e-01
5.998619599267840385e-04
1.608554273843765259e-01
3.288393840193748474e-02
-1.375612616539001465e-01
3.715426921844482422e-01
8.134532719850540161e-02
-1.262899190187454224e-01
-8.751552104949951172e-01
-2.245583236217498779e-01
-2.289766259491443634e-02
1.675087809562683105e-01
3.001250028610229492e-01
1.458550095558166504e-01
-8.452083170413970947e-02
-4.115060716867446899e-02
-6.379458308219909668e-02
-1.417841911315917969e-01
1.043962314724922180e-02
5.141867697238922119e-02
-5.987097695469856262e-02
-9.967859089374542236e-02
2.562484703958034515e-02
1.163237839937210083e-01
1.901167780160903931e-01
-3.810048401355743408e-01
-4.233682453632354736e-01
1.453764885663986206e-01
1.562397778034210205e-01
-2.765846848487854004e-01
-1.859792172908782959e-01
1.913000494241714478e-01
1.597304046154022217e-01
-3.903470635414123535e-01
-1.291020512580871582e-01
-2.250563204288482666e-01
-2.168559134006500244e-01
-1.185138151049613953e-02
-3.619247972965240479e-01
1.159280017018318176e-01
-1.829764246940612793e-01
-9.546377509832382202e-02
-9.119122475385665894e-02
-1.545588374137878418e-01
1.509155482053756714e-01
-5.319890975952148438e-01
-2.431280612945556641e-01
-2.417453527450561523e-01
-2.681834995746612549e-01
2.871677875518798828e-01
-2.089025378227233887e-01
-5.208429098129272461e-01
-1.824175193905830383e-02
-3.096620738506317139e-01
1.033472344279289246e-01
1.297626495361328125e-01
4.800931736826896667e-02
-1.209029033780097961e-01
-3.637465536594390869e-01
-1.123435888439416885e-02
-9.981509298086166382e-02
1.339081581681966782e-02
-7.125774770975112915e-02
8.746294677257537842e-02
-1.201985031366348267e-02
-1.035564169287681580e-01
-9.573174268007278442e-02
-2.716286182403564453e-01
1.069598197937011719e-01
-3.319302946329116821e-02
-1.397722363471984863e-01
5.562558397650718689e-02
8.325296454131603241e-03
1.843667924404144287e-01
1.605546921491622925e-01
-2.626262903213500977e-01
6.233840435743331909e-02
-1.175446202978491783e-03
1.581377685070037842e-01
9.532085806131362915e-02
4.305795729160308838e-01
3.958211839199066162e-01
-1.182284653186798096e-01
-1.172830685973167419e-01
1.138622462749481201e-01
8.085944503545761108e-02
-1.588116884231567383e-01
2.713614702224731445e-01
4.437062442302703857e-01
-2.571018934249877930e-01
-5.687507614493370056e-02
-3.354989290237426758e-01
1.492652595043182373e-01
3.435068428516387939e-01
8.435239642858505249e-02
-1.914114505052566528e-01
-3.773257732391357422e-01
1.636934727430343628e-01
2.904874384403228760e-01
1.465118378400802612e-01
-9.924910962581634521e-02
3.002401590347290039e-01
3.776868283748626709e-01
1.602312624454498291e-01
-2.494449317455291748e-01
-1.019119098782539368e-02
1.260433997958898544e-02
-1.856354251503944397e-02
6.022758409380912781e-02
-4.419743642210960388e-02
1.018498614430427551e-01
4.907219484448432922e-02
5.546772852540016174e-02
7.964439690113067627e-02
-2.421267032623291016e-01
-3.691285103559494019e-02
3.042354620993137360e-02
2.477151714265346527e-02
7.752564549446105957e-02
-6.346005946397781372e-02
-9.546377509832382202e-02
-1.908782124519348145e-01
8.155214786529541016e-02
-5.801098793745040894e-02
-3.148148581385612488e-02
-2.146073430776596069e-02
-1.210339739918708801e-01
1.275199502706527710e-01
1.290180087089538574e-01
1.445983350276947021e-02
6.362609565258026123e-02
-1.896620690822601318e-01
-4.909104704856872559e-01
-3.076113760471343994e-01
-3.150332719087600708e-02
2.009070217609405518e-01
-3.471900895237922668e-02
-2.663194537162780762e-01
-1.676263660192489624e-01
-2.931986153125762939e-01
7.477932143956422806e-03
1.073863133788108826e-01
1.592154800891876221e-02
6.808876246213912964e-02
2.935532666742801666e-02
2.636527121067047119e-01
1.856681257486343384e-01
2.575231790542602539e-01
6.124714761972427368e-02
-1.405547261238098145e-01
3.534481301903724670e-02
1.948030292987823486e-01
2.070415299385786057e-03
-1.019671112298965454e-01
-2.676882548257708549e-03
4.006743729114532471e-01
-2.851682901382446289e-01
3.107769489288330078e-01
-3.468628600239753723e-02
-7.928933948278427124e-02
-9.422564506530761719e-02
3.375583561137318611e-03
9.654324501752853394e-02
1.800691932439804077e-01
-3.286878466606140137e-01
-2.363030100241303444e-03
-1.176796033978462219e-01
-2.550726234912872314e-01
5.277328193187713623e-02
-9.027710556983947754e-02
-5.225485563278198242e-02
-1.801313012838363647e-01
-3.482618033885955811e-01
-1.751033812761306763e-01
2.206961065530776978e-02
-2.635603845119476318e-01
-3.005994260311126709e-01
-1.736937463283538818e-01
-1.035869196057319641e-01
-2.785475738346576691e-02
2.261953502893447876e-01
-1.058214460499584675e-03
-2.389659732580184937e-01
-2.856709063053131104e-02
2.693455852568149567e-02
1.562317609786987305e-01
3.042634129524230957e-01
-2.332563847303390503e-01
-2.098674923181533813e-01
5.413585156202316284e-02
2.228987067937850952e-01
2.523183524608612061e-01
-1.271517481654882431e-02
4.082281666342169046e-04
1.126340478658676147e-01
-1.956672221422195435e-02
1.038272827863693237e-01
-1.598429977893829346e-01
-6.979902088642120361e-02
1.903333961963653564e-01
3.574219718575477600e-02
1.474879682064056396e-01
-5.000985860824584961e-01
4.049408808350563049e-02
2.229521870613098145e-01
-2.507559489458799362e-03
-2.362685278058052063e-02
1.320366710424423218e-01
1.733558475971221924e-01
-1.059317439794540405e-01
-6.474448740482330322e-02
2.228862047195434570e-02
-7.228279858827590942e-02
-1.267814636230468750e-01
8.557572215795516968e-02
-1.956869065761566162e-01
-5.756443738937377930e-02
9.300712496042251587e-02
-2.147980779409408569e-01
3.394866585731506348e-01
1.842026710510253906e-01
2.118679434061050415e-01
-2.325361371040344238e-01
-3.465933799743652344e-01
-1.416226569563150406e-02
2.710322737693786621e-01
3.232169747352600098e-01
-1.820498406887054443e-01
-1.243543401360511780e-01
3.395353257656097412e-01
3.686507940292358398e-01
3.005831539630889893e-01
4.124186038970947266e-01
1.887100040912628174e-01
-2.666499093174934387e-02
2.205464243888854980e-01
-1.546945869922637939e-01
5.830175802111625671e-02
2.637355327606201172e-01
-2.299807369709014893e-01
5.617627501487731934e-02
-1.441387534141540527e-01
-1.689701676368713379e-01
1.361077874898910522e-01
-2.207455597817897797e-02
1.033151745796203613e-01
-3.966096043586730957e-01
-1.870850473642349243e-01
-2.408482283353805542e-01
1.303630173206329346e-01
-3.863255679607391357e-02
-1.677519381046295166e-01
2.214198708534240723e-01
-1.758386641740798950e-01
1.322852522134780884e-01
6.853679567575454712e-02
-2.978207170963287354e-01
-4.041018187999725342e-01
-2.857576124370098114e-02
1.971225291490554810e-01
5.563771352171897888e-02
-2.089389115571975708e-01
-2.426595985889434814e-01
-9.991931915283203125e-02
-6.489787250757217407e-02
9.010250680148601532e-03
8.241740614175796509e-02
-3.387641161680221558e-02
4.510438535362482071e-03
2.652609534561634064e-02
4.807062447071075439e-02
1.049441248178482056e-01
1.132374554872512817e-01
6.817778944969177246e-02
3.188477084040641785e-02
-1.644185371696949005e-02
4.933007806539535522e-02
-8.711481094360351562e-02
-8.454867452383041382e-02
-2.098638266324996948e-01
1.103401631116867065e-01
5.951598286628723145e-02
1.827281415462493896e-01
-2.312563546001911163e-02
-1.788432002067565918e-01
1.119474098086357117e-01
1.364324092864990234e-01
2.958293259143829346e-01
1.643465608358383179e-01
-8.125287294387817383e-02
-8.999636769294738770e-02
3.168382868170738220e-02
1.722232550382614136e-01
2.040796354413032532e-02
-2.134047001600265503e-01
-1.672295969910919666e-03
-1.509880125522613525e-01
1.287797987461090088e-01
6.055055186152458191e-02
2.542184591293334961e-01
1.633418053388595581e-01
-8.646341413259506226e-02
1.023781895637512207e-01
-6.119707599282264709e-02
5.735317245125770569e-02
6.505692005157470703e-01
6.845673322677612305e-01
-2.007584087550640106e-02
-4.451254904270172119e-01
-8.631445467472076416e-02
1.422850936651229858e-01
1.314627230167388916e-01
2.736425697803497314e-01
2.066854387521743774e-01
-4.087752401828765869e-01
-5.522206425666809082e-02
-9.592988342046737671e-02
3.551253676414489746e-02
2.734391391277313232e-02
-2.725117206573486328e-01
-9.041196852922439575e-02
-7.627856731414794922e-02
7.473034411668777466e-02
-3.285122215747833252e-01
3.379470407962799072e-01
-5.508652329444885254e-02
-3.296163678169250488e-01
-5.104374140501022339e-02
-2.251905053853988647e-01
-1.366055607795715332e-01
1.163423284888267517e-01
3.438883125782012939e-01
8.113630414009094238e-01
3.007108569145202637e-01
-2.479027062654495239e-01
4.794960841536521912e-03
-2.355469912290573120e-01
-1.619712859392166138e-01
6.691297292709350586e-01
4.020584002137184143e-02
-9.211675822734832764e-02
-2.213264852762222290e-01
-5.369279384613037109e-01
-4.973902925848960876e-02
-6.970541179180145264e-02
-3.440307378768920898e-01
9.445221722126007080e-02
-8.694422990083694458e-02
-3.409806191921234131e-01
-1.031857952475547791e-01
4.031276702880859375e-02
-2.472501844167709351e-01
-1.990808099508285522e-01
-2.318162173032760620e-01
-3.210761845111846924e-01
3.209885954856872559e-01
7.066779583692550659e-02
-1.346602453850209713e-03
-2.121547013521194458e-01
-3.169867098331451416e-01
2.237955778837203979e-01
3.170562982559204102e-01
5.078864693641662598e-01
2.056052237749099731e-01
5.563069134950637817e-02
2.044962905347347260e-02
1.778022944927215576e-01
4.826604854315519333e-03
2.689472734928131104e-01
-1.461944729089736938e-01
-2.659049816429615021e-02
2.057498097419738770e-01
1.626324281096458435e-02
-7.630346715450286865e-02
-3.598062396049499512e-01
2.936872653663158417e-02
7.338879257440567017e-02
1.724295765161514282e-01
-2.523640394210815430e-01
3.025245666503906250e-01
2.215650379657745361e-01
1.234036535024642944e-01
-3.369303792715072632e-02
-2.495336085557937622e-01
1.391301304101943970e-01
5.856560543179512024e-02
2.396832555532455444e-01
-1.450763791799545288e-01
-8.817455731332302094e-03
-4.219819903373718262e-01
-1.131480094045400620e-02
6.926566362380981445e-03
9.058862924575805664e-02
6.294364482164382935e-02
-2.139525264501571655e-01
-1.727021299302577972e-02
-3.567401170730590820e-01
1.091684550046920776e-01
-1.041748002171516418e-01
-1.042707562446594238e-01
-7.161782681941986084e-02
-2.660409808158874512e-01
-3.182796761393547058e-02
-1.357920840382575989e-02
-7.182427495718002319e-02
-9.916379302740097046e-02
1.243434026837348938e-01
1.327127069234848022e-01
-6.576925516128540039e-02
-2.449690997600555420e-01
3.762931376695632935e-02
1.646852046251296997e-01
1.861983537673950195e-01
1.182313039898872375e-01
-1.707838177680969238e-01
1.438717246055603027e-01
1.157937571406364441e-02
3.109339475631713867e-01
1.606859862804412842e-01
-1.490358114242553711e-01
-1.301616579294204712e-01
-2.308535575866699219e-01
2.187992185354232788e-01
1.649220734834671021e-01
1.838965862989425659e-01
9.317382425069808960e-02
-1.746916770935058594e-01
1.607692688703536987e-01
-1.231153979897499084e-01
8.206092566251754761e-02
-1.092998385429382324e-01
2.136080712080001831e-01
-3.558277850970625877e-03
-9.226452559232711792e-02
2.854334004223346710e-02
-3.786915540695190430e-02
1.573106944561004639e-01
9.435071609914302826e-03
1.432029753923416138e-01
3.976313024759292603e-02
-4.816902056336402893e-02
-1.213644072413444519e-01
-1.013308987021446228e-01
8.582676947116851807e-02
-2.077581882476806641e-01
-3.641962409019470215e-01
-2.383366525173187256e-01
-1.151591911911964417e-01
1.183682829141616821e-01
-9.017974883317947388e-02
5.234912782907485962e-02
1.802118495106697083e-02
3.116002678871154785e-02
-7.124866545200347900e-02
-1.968278363347053528e-02
-1.184364855289459229e-01
-4.484952986240386963e-01
8.440479636192321777e-02
7.350396364927291870e-02
-1.364964395761489868e-01
-4.934175610542297363e-01
-1.795611679553985596e-01
8.985371142625808716e-02
-1.307293921709060669e-01
1.966501213610172272e-02
1.463388353586196899e-01
3.671135902404785156e-01
7.159999012947082520e-02
-1.732777208089828491e-01
3.554569780826568604e-01
3.576787710189819336e-01
2.525830566883087158e-01
7.507466524839401245e-02
-1.629382073879241943e-01
2.295619100332260132e-01
4.418125152587890625e-01
1.998776793479919434e-01
-2.007145136594772339e-01
-4.533252716064453125e-01
-2.503684349358081818e-02
-1.858115494251251221e-01
-6.002399325370788574e-01
-6.603089720010757446e-02
-2.192629724740982056e-01
-3.835531696677207947e-02
-1.235328912734985352e-01
4.111562855541706085e-03
1.943066567182540894e-01
-8.244087547063827515e-02
-2.772076129913330078e-01
2.415380030870437622e-01
-1.740809902548789978e-02
1.571539640426635742e-01
8.491948246955871582e-02
-3.062246143817901611e-01
2.345690280199050903e-01
1.704446375370025635e-01
-1.188187897205352783e-01
1.789705753326416016e-01
1.101972088217735291e-01
-6.676335632801055908e-02
-1.596574932336807251e-01
1.242968216538429260e-01
3.742218911647796631e-01
-3.150143325328826904e-01
1.062702834606170654e-01
3.659563884139060974e-02
-3.921291828155517578e-01
-4.680258035659790039e-02
8.378471434116363525e-02
1.202350705862045288e-01
7.889495044946670532e-02
-7.283986359834671021e-02
1.497137397527694702e-01
2.318060994148254395e-01
-6.133123114705085754e-02
2.540571242570877075e-02
7.379563897848129272e-02
1.927947439253330231e-02
2.409143187105655670e-02
2.432409971952438354e-01
2.551163434982299805e-01
8.038010448217391968e-02
-3.652200698852539062e-01
-1.675412058830261230e-02
4.793346524238586426e-01
2.322685122489929199e-01
1.234170421957969666e-02
-4.682209789752960205e-01
-1.670190095901489258e-01
-4.589874744415283203e-01
-2.070781737565994263e-01
1.246916353702545166e-01
2.598004639148712158e-01
-3.594883382320404053e-01
-3.096412420272827148e-01
-1.480365544557571411e-01
2.233074232935905457e-02
-2.377466857433319092e-01
1.671467572450637817e-01
2.701333463191986084e-01
3.459030687808990479e-01
6.896094232797622681e-02
-2.981127798557281494e-01
3.680292069911956787e-01
5.735342502593994141e-01
-4.425778985023498535e-02
-2.081209272146224976e-01
-1.203793361783027649e-01
1.442149132490158081e-01
2.012894302606582642e-01
5.293100327253341675e-02
-2.120451182126998901e-01
-1.243910416960716248e-01
-6.684034317731857300e-02
-4.305987432599067688e-02
2.028650045394897461e-01
1.421885937452316284e-01
6.037542968988418579e-02
-4.960404839948751032e-05
-1.178527846932411194e-01
3.142635896801948547e-02
7.139386236667633057e-02
2.205395400524139404e-01
-1.130745559930801392e-02
-6.258140504360198975e-02
3.568541258573532104e-02
-2.165842056274414062e-02
2.368659377098083496e-01
-1.649468094110488892e-01
-1.364979892969131470e-01
-1.721256077289581299e-01
-9.809400886297225952e-03
2.790531218051910400e-01
-5.804903805255889893e-02
-4.777041450142860413e-02
-8.195167034864425659e-02
-1.125176772475242615e-01
1.398384720087051392e-01
-1.456131637096405029e-01
-1.188726648688316345e-01
-2.294185757637023926e-02
3.275417536497116089e-02
8.440960943698883057e-02
1.354741901159286499e-01
-1.094915345311164856e-01
2.048746198415756226e-01
1.906004846096038818e-01
1.734010502696037292e-02
-2.017235755920410156e-01
1.407483071088790894e-01
6.151926144957542419e-02
-7.771651446819305420e-02
-1.119874492287635803e-01
5.531860515475273132e-02
1.126652285456657410e-01
2.231660485267639160e-01
-6.212733313441276550e-02
-2.506133317947387695e-01
6.914292275905609131e-02
-1.015109941363334656e-02
-3.445264399051666260e-01
-2.429348826408386230e-01
2.112389206886291504e-01
2.703882008790969849e-02
-1.828862875699996948e-01
4.316247999668121338e-01
-1.741721779108047485e-01
2.182640135288238525e-03
-2.118511646986007690e-01
-1.794266253709793091e-01
8.500999957323074341e-02
-1.632781177759170532e-01
-1.085113175213336945e-02
-1.745444238185882568e-01
-2.560181021690368652e-01
-1.581766009330749512e-01
-1.076165512204170227e-01
3.431193903088569641e-02
-3.385306149721145630e-02
-1.880298554897308350e-02
-4.202524945139884949e-02
-2.458107620477676392e-01
4.617804884910583496e-01
-2.239127010107040405e-01
-3.649505376815795898e-01
1.093413159251213074e-01
-3.174978494644165039e-01
2.856384031474590302e-02
-8.965189754962921143e-02
-3.309109807014465332e-01
-8.047721534967422485e-02
2.427441626787185669e-01
3.478431403636932373e-01
1.182535812258720398e-01
-3.888637125492095947e-01
5.135865136981010437e-02
-5.904320254921913147e-02
-9.785017371177673340e-02
6.506185978651046753e-02
1.736144274473190308e-01
6.222305074334144592e-02
1.036050021648406982e-01
-7.349360734224319458e-02
-2.917928248643875122e-02
-9.711776673793792725e-02
3.730957582592964172e-02
-2.953938245773315430e-01
5.200910568237304688e-02
-1.030528247356414795e-01
-1.130889654159545898e-01
1.915309876203536987e-01
4.669144153594970703e-01
-1.080526784062385559e-02
4.818035960197448730e-01
3.405149281024932861e-01
1.996785253286361694e-01
-5.148276090621948242e-01
-2.981784641742706299e-01
2.206350304186344147e-02
8.660233579576015472e-03
-2.448591738939285278e-01
-1.865336298942565918e-01
1.809689253568649292e-01
2.587386593222618103e-02
1.834330856800079346e-01
-2.994515188038349152e-02
6.805553287267684937e-02
-2.330684512853622437e-01
3.078995347023010254e-01
2.586485445499420166e-02
3.237869217991828918e-02
8.972895890474319458e-02
-1.582531780004501343e-01
3.806910216808319092e-01
4.677564203739166260e-01
2.022624611854553223e-01
-2.308364063501358032e-01
-2.559174597263336182e-01
-9.437601268291473389e-02
-7.860516756772994995e-02
9.531201422214508057e-02
-1.846571117639541626e-01
5.103724002838134766e-01
-3.596588075160980225e-01
-2.676765620708465576e-01
8.959141373634338379e-02
-5.315009132027626038e-02
3.148104548454284668e-01
5.056394636631011963e-02
-4.500331357121467590e-02
-1.266099214553833008e-01
-1.363579034805297852e-01
1.504987105727195740e-02
1.390968561172485352e-01
6.642558425664901733e-02
-2.152747474610805511e-02
-1.769395321607589722e-01
3.654728531837463379e-01
4.492721259593963623e-01
-1.348163783550262451e-01
-1.487874388694763184e-01
-4.554950073361396790e-02
2.806281149387359619e-01
-1.223923787474632263e-01
7.548931986093521118e-02
2.985501289367675781e-02
-1.431102156639099121e-01
-4.481210839003324509e-03
-1.051779314875602722e-01
1.372538059949874878e-01
1.760032773017883301e-01
-1.172208562493324280e-01
6.096337735652923584e-02
1.293129380792379379e-02
-5.415049381554126740e-03
1.890603303909301758e-01
-6.232250481843948364e-02
3.348902240395545959e-02
2.762248041108250618e-03
1.669480353593826294e-01
4.464662075042724609e-02
-8.480233699083328247e-02
-1.738260090351104736e-01
1.760003119707107544e-01
-1.512006223201751709e-01
2.408971451222896576e-02
-5.768064782023429871e-02
-1.828016042709350586e-01
-1.063713505864143372e-01
-2.371909171342849731e-01
-5.777872353792190552e-02
-8.421566337347030640e-02
1.880723237991333008e-01
-7.533328235149383545e-02
4.049381613731384277e-02
2.386784553527832031e-02
1.442136317491531372e-01
1.072017624974250793e-01
-6.295438110828399658e-02
-1.175992339849472046e-01
-2.983002364635467529e-01
-1.286157369613647461e-01
-7.626233156770467758e-03
1.494245678186416626e-01
2.540275827050209045e-02
6.740289181470870972e-02
-1.468545645475387573e-01
-1.097322255373001099e-01
-5.567149817943572998e-02
1.364535242319107056e-01
6.206369400024414062e-02
4.542474076151847839e-02
1.248663291335105896e-01
-4.792367219924926758e-01
3.536322116851806641e-01
6.193672418594360352e-01
3.249670863151550293e-01
1.673573814332485199e-02
-2.002964615821838379e-01
-8.005947619676589966e-02
-2.618315517902374268e-01
-1.488477438688278198e-01
3.778997808694839478e-02
-1.184962466359138489e-01
2.635427117347717285e-01
1.320851296186447144e-01
-2.742081880569458008e-01
2.520276606082916260e-01
-1.654768139123916626e-01
2.148778587579727173e-01
3.278337791562080383e-02
3.868934232741594315e-03
1.040562316775321960e-01
-2.134531587362289429e-01
1.173799633979797363e-01
1.246857121586799622e-01
-2.671897411346435547e-02
-6.977331638336181641e-02
-4.862838089466094971e-01
-2.334441691637039185e-01
4.296919330954551697e-02
8.107348531484603882e-02
5.466125160455703735e-02
3.471557050943374634e-02
3.222019374370574951e-01
1.202943399548530579e-01
2.027699649333953857e-01
2.690670788288116455e-01
-1.869001239538192749e-01
-1.134354248642921448e-01
3.640638664364814758e-02
1.561910659074783325e-01
1.818859875202178955e-01
-2.724311649799346924e-01
-3.549708425998687744e-01
1.682212203741073608e-01
1.017553582787513733e-01
4.808288812637329102e-02
-2.919016778469085693e-01
-3.066619336605072021e-01
-1.727841049432754517e-01
-3.165604546666145325e-02
-1.635447144508361816e-02
-1.660549342632293701e-01
7.397341728210449219e-01
5.385670661926269531e-01
5.436273813247680664e-01
-3.983826339244842529e-01
2.051357775926589966e-01
1.050573065876960754e-01
-3.734408020973205566e-01
1.392859499901533127e-02
-3.856165567412972450e-04
-1.559682749211788177e-02
3.149408400058746338e-01
1.670147478580474854e-01
-8.055464178323745728e-02
-5.782899633049964905e-02
2.144783735275268555e-01
5.288465693593025208e-02
-1.578908711671829224e-01
-1.650823950767517090e-01
-6.199039891362190247e-02
-2.172218821942806244e-02
1.970806121826171875e-01
-2.628319859504699707e-01
-2.534768283367156982e-01
-1.975810080766677856e-01
-3.300768733024597168e-01
1.900955438613891602e-01
4.480307102203369141e-01
3.712702691555023193e-01
1.542526632547378540e-01
-3.194198012351989746e-01
-3.830824494361877441e-01
-7.058518379926681519e-02
1.973637752234935760e-02
2.429017424583435059e-01
-5.053017288446426392e-02
-1.298190932720899582e-02
7.053443789482116699e-02
2.440318837761878967e-02
-3.907237201929092407e-02
-7.590282708406448364e-02
3.278070688247680664e-01
2.972877956926822662e-02
2.174680680036544800e-01
-2.526882290840148926e-01
-3.727770745754241943e-01
1.217243373394012451e-01
7.267424464225769043e-02
3.386578559875488281e-01
-2.222020924091339111e-01
9.279626607894897461e-02
-3.802676126360893250e-02
-1.752839535474777222e-01
-5.422827601432800293e-02
-2.612565085291862488e-02
-2.260574698448181152e-01
-7.725629955530166626e-02
-6.699502468109130859e-02
1.692491769790649414e-01
2.285738587379455566e-01
-1.213506981730461121e-02
-5.514477379620075226e-05
-2.903713285923004150e-02
1.233265176415443420e-01
4.915186762809753418e-02
-1.214876472949981689e-01
1.541884802281856537e-02
1.146167516708374023e-02
6.720351427793502808e-02
-1.092973724007606506e-01
-1.903524696826934814e-01
1.480787694454193115e-01
-6.627504527568817139e-02
6.356541812419891357e-02
6.311551481485366821e-02
1.356489658355712891e-01
-4.762385785579681396e-02
1.961947977542877197e-01
-1.542350184172391891e-02
-1.701774001121520996e-01
5.055218562483787537e-02
1.464255750179290771e-01
8.030641078948974609e-02
-1.788146048784255981e-01
-2.645761966705322266e-01
4.048374481499195099e-03
2.831402719020843506e-01
1.429832875728607178e-01
7.723227143287658691e-02
-3.247872367501258850e-02
2.799827158451080322e-01
3.841723799705505371e-01
3.329761624336242676e-01
-1.557270586490631104e-01
-2.912114262580871582e-01
9.048663824796676636e-02
-2.379233688116073608e-01
-2.737561427056789398e-02
-2.638661265373229980e-01
-4.452080428600311279e-01
-6.532052904367446899e-02
3.538330197334289551e-01
5.423979163169860840e-01
-1.438873708248138428e-01
-2.382685691118240356e-01
2.695074975490570068e-01
-9.373026341199874878e-02
-5.968226492404937744e-02
2.158040702342987061e-01
-3.057360351085662842e-01
1.229641214013099670e-01
-9.363624453544616699e-02
-4.081553220748901367e-01
-7.731835544109344482e-02
-2.939634323120117188e-01
8.829762041568756104e-02
-1.983223110437393188e-01
-1.581136435270309448e-01
1.064148545265197754e-01
-3.440980240702629089e-02
-2.335582487285137177e-02
-6.852808594703674316e-02
-8.069220185279846191e-02
-1.960545629262924194e-01
-2.354322187602519989e-02
-3.380544483661651611e-01
-3.262931108474731445e-01
-1.148675903677940369e-01
-5.133577585220336914e-01
1.050456147640943527e-02
-2.399611324071884155e-01
1.161834876984357834e-02
2.780364751815795898e-01
2.688794396817684174e-02
2.095931917428970337e-01
3.992073237895965576e-02
-3.485785797238349915e-02
-6.328578293323516846e-02
2.846370339393615723e-01
8.695527166128158569e-02
-4.813548177480697632e-02
-1.946728080511093140e-01
-1.906044036149978638e-01
-4.771744459867477417e-02
-1.593139618635177612e-01
-9.133539348840713501e-02
2.706703729927539825e-02
7.663216441869735718e-03
-2.126876115798950195e-01
-3.656598329544067383e-01
8.727435022592544556e-03
6.045123562216758728e-02
2.153040468692779541e-02
1.820054948329925537e-01
-4.761320650577545166e-01
-1.111072488129138947e-03
-3.329274430871009827e-02
2.085916399955749512e-01
1.834807693958282471e-01
-7.115004211664199829e-02
-2.612711191177368164e-01
-2.415950745344161987e-01
-2.298416644334793091e-01
-3.126482963562011719e-01
-9.141054004430770874e-02
-1.353011280298233032e-01
-1.519114077091217041e-01
-2.184896767139434814e-01
1.744962483644485474e-01
9.311624616384506226e-02
4.605807363986968994e-02
3.463077545166015625e-02
2.566044591367244720e-02
3.379164263606071472e-02
-1.005437374114990234e-01
4.219432473182678223e-01
7.117889523506164551e-01
6.624371409416198730e-01
1.576164811849594116e-01
-2.525390088558197021e-01
1.806673705577850342e-01
-5.846922472119331360e-02
1.113319024443626404e-01
-1.692602932453155518e-01
-3.425154089927673340e-01
4.258368015289306641e-01
-4.007784649729728699e-02
1.588960587978363037e-01
-1.389975398778915405e-01
-1.578442454338073730e-01
1.540510207414627075e-01
-1.254633963108062744e-01
1.227261647582054138e-01
-1.534375175833702087e-02
1.784542351961135864e-01
-3.151389211416244507e-02
-9.395868331193923950e-02
-3.658569604158401489e-02
1.412014812231063843e-01
-2.843416295945644379e-02
1.489594578742980957e-01
-9.274650365114212036e-02
8.520137518644332886e-02
-2.771661430597305298e-02
-1.098084971308708191e-01
1.263303607702255249e-01
1.670601814985275269e-01
3.897402063012123108e-02
-7.671066373586654663e-02
-1.485954821109771729e-01
1.587878316640853882e-01
1.928834244608879089e-02
-1.413029432296752930e-01
5.800574272871017456e-02
-1.508891582489013672e-01
1.267251223325729370e-01
2.569149136543273926e-01
-1.553069218061864376e-03
1.000375822186470032e-01
-1.878330856561660767e-01
1.006497442722320557e-01
-7.274266332387924194e-02
-2.518192492425441742e-02
-1.256220936775207520e-01
-3.920462429523468018e-01
2.520885132253170013e-02
1.691149175167083740e-01
2.486055493354797363e-01
4.144752025604248047e-01
-1.783776581287384033e-01
-1.118643432855606079e-01
4.366817697882652283e-02
1.232639551162719727e-01
1.598708182573318481e-01
-1.247361823916435242e-01
-3.261924386024475098e-01
-9.553334861993789673e-02
1.766492053866386414e-02
6.626971811056137085e-02
-1.124350726604461670e-01
-1.678020060062408447e-01
-1.802419871091842651e-01
-1.336073577404022217e-01
-3.690866520628333092e-03
-5.673880130052566528e-02
8.688911795616149902e-02
-1.236895471811294556e-01
-2.391135096549987793e-01
-5.969837903976440430e-01
-2.284984737634658813e-01
2.027608267962932587e-02
1.486503928899765015e-01
2.829620540142059326e-01
-2.590250074863433838e-01
-2.542482018470764160e-01
1.305390149354934692e-01
6.370437890291213989e-02
-7.839688658714294434e-02
-2.075218856334686279e-01
-2.094633579254150391e-01
1.029268279671669006e-01
3.155944645404815674e-01
-1.441246718168258667e-01
-8.075288496911525726e-03
-3.778809681534767151e-02
-8.936713635921478271e-02
1.021055132150650024e-02
-8.945219963788986206e-02
-1.112000420689582825e-01
1.354273706674575806e-01
-3.841418921947479248e-01
-3.292170464992523193e-01
2.063856460154056549e-02
5.190030485391616821e-02
3.562580347061157227e-01
4.674434289336204529e-02
-9.523932822048664093e-04
2.058389037847518921e-01
5.545693915337324142e-03
9.488724917173385620e-02
-1.192985624074935913e-01
2.365344911813735962e-01
3.023859560489654541e-01
2.474922537803649902e-01
1.724694818258285522e-01
-1.372320801019668579e-01
2.044310867786407471e-01
1.973931193351745605e-01
-7.277061231434345245e-03
-2.478495687246322632e-01
2.244452089071273804e-01
-1.219152845442295074e-02
-1.224522665143013000e-01
-8.274689316749572754e-02
-1.393338758498430252e-02
-1.255553662776947021e-01
-3.954041600227355957e-01
-7.094532996416091919e-02
4.191788733005523682e-01
2.268927544355392456e-01
2.282974720001220703e-01
1.085081025958061218e-01
1.029141396284103394e-01
2.105181664228439331e-01
-7.732740789651870728e-02
8.040026575326919556e-02
1.157527416944503784e-01
7.499027997255325317e-02
4.778242856264114380e-02
1.233680322766304016e-01
1.892135664820671082e-02
1.668687611818313599e-01
-1.437717378139495850e-01
-6.652247905731201172e-02
1.765711307525634766e-01
-1.540097594261169434e-01
3.408179283142089844e-01
-2.227707654237747192e-01
2.422406524419784546e-02
4.355789124965667725e-01
2.270049974322319031e-02
5.575408786535263062e-02
1.620580255985260010e-02
1.874842643737792969e-01
7.682295888662338257e-02
-3.626104071736335754e-02
7.154602557420730591e-02
-3.646284043788909912e-01
-5.381270647048950195e-01
-2.158475071191787720e-01
-1.366214603185653687e-01
-8.493100106716156006e-02
-6.974578648805618286e-02
-3.162070512771606445e-01
-5.698584318161010742e-01
5.250451341271400452e-02
-3.630157187581062317e-02
6.093534827232360840e-02
1.947729289531707764e-01
-2.315684407949447632e-01
-5.499362014234066010e-03
-9.843908995389938354e-02
-5.450861528515815735e-02
2.705521583557128906e-01
-2.925168024376034737e-03
-4.908401966094970703e-01
1.909783035516738892e-01
3.901413381099700928e-01
1.031259655952453613e+00
6.967449784278869629e-01
1.201549023389816284e-01
1.920691132545471191e-01
6.014398485422134399e-02
3.324107825756072998e-01
-1.146435067057609558e-01
8.947545662522315979e-03
1.070783585309982300e-01
1.211679950356483459e-01
3.384791612625122070e-01
-7.880084961652755737e-02
-1.939711533486843109e-02
2.116950899362564087e-01
1.341511607170104980e-01
1.724878102540969849e-01
-5.996378138661384583e-03
-2.449033558368682861e-01
5.522975325584411621e-02
-7.920711487531661987e-02
-6.467150151729583740e-02
8.614391088485717773e-03
8.528081327676773071e-02
-4.976156353950500488e-02
-1.779982298612594604e-01
-1.860905736684799194e-01
-1.582280695438385010e-01
-3.974752426147460938e-01
-1.853957176208496094e-01
8.973316848278045654e-02
3.201160207390785217e-02
-5.127395316958427429e-02
8.075068891048431396e-02
-2.479230612516403198e-02
1.998588442802429199e-01
-2.125063389539718628e-01
-3.687898442149162292e-02
-7.678259909152984619e-02
1.526005752384662628e-02
-1.452110335230827332e-02
1.811965703964233398e-01
5.952687561511993408e-02
-6.771969795227050781e-02
-1.858402788639068604e-01
-2.287964075803756714e-01
7.430098950862884521e-02
5.851130187511444092e-02
3.081221282482147217e-01
1.417873352766036987e-01
-1.871177554130554199e-02
-2.205835729837417603e-01
-3.284436166286468506e-01
5.718354582786560059e-01
2.482541054487228394e-01
-2.316488027572631836e-01
-2.240889817476272583e-01
1.207609549164772034e-01
-4.113138467073440552e-02
-2.258595675230026245e-01
3.351087868213653564e-01
-8.793075382709503174e-02
-1.411520540714263916e-01
-6.883577257394790649e-02
9.911096096038818359e-02
-2.866050601005554199e-01
7.370863854885101318e-02
3.351694643497467041e-01
3.949707746505737305e-02
-1.972748339176177979e-01
-8.799719065427780151e-02
-1.102849617600440979e-01
9.588442742824554443e-02
1.350885182619094849e-01
3.247633203864097595e-02
-1.691519170999526978e-01
6.615820527076721191e-02
-1.981001347303390503e-01
2.714044228196144104e-02
5.634499788284301758e-01
1.300587784498929977e-02
3.021181225776672363e-01
1.017797812819480896e-01
4.103778302669525146e-01
3.114962279796600342e-01
-1.053722873330116272e-01
9.133960306644439697e-02
5.768655985593795776e-02
2.480613589286804199e-01
-9.073457121849060059e-02
1.299224197864532471e-01
-7.735320925712585449e-02
4.571813642978668213e-01
-1.266070604324340820e-01
-5.487508326768875122e-02
-1.456781476736068726e-01
8.779301494359970093e-02
2.668996155261993408e-02
-2.758494913578033447e-01
-4.714995250105857849e-02
-1.148190423846244812e-01
5.659713596105575562e-02
2.374866008758544922e-01
7.355657964944839478e-02
2.289738506078720093e-01
-1.671976298093795776e-01
-2.847499847412109375e-01
6.588691473007202148e-01
-2.991033494472503662e-01
1.470568403601646423e-02
2.468264661729335785e-03
-4.068648219108581543e-01
-2.370110154151916504e-01
-1.621668040752410889e-01
-2.977875173091888428e-01
-2.378626912832260132e-01
1.852513551712036133e-01
2.885373234748840332e-01
-1.386959105730056763e-01
-2.216234058141708374e-01
-2.190403789281845093e-01
-2.019742429256439209e-01
1.659720093011856079e-01
1.146239265799522400e-01
-3.765903413295745850e-02
-2.972513139247894287e-01
-3.821958228945732117e-02
-2.032293677330017090e-01
2.925366163253784180e-01
3.586862683296203613e-01
-1.617410480976104736e-01
-3.858431056141853333e-02
3.231363892555236816e-01
1.659933328628540039e-01
-7.401009090244770050e-03
-1.237744167447090149e-01
2.065923996269702911e-02
-1.248763054609298706e-01
1.061311811208724976e-01
-9.330051392316818237e-02
3.357997164130210876e-02
-3.863832354545593262e-02
1.352057605981826782e-01
1.625955998897552490e-01
-2.099213451147079468e-01
-4.336769506335258484e-02
2.918055094778537750e-02
1.004375889897346497e-01
-3.981076925992965698e-02
-1.655862480401992798e-01
-3.310712873935699463e-01
-2.015411108732223511e-02
7.094147801399230957e-02
-9.721467643976211548e-02
-1.105948537588119507e-01
-3.897741138935089111e-01
-1.735471338033676147e-01
2.266795933246612549e-02
1.140384119935333729e-03
8.178973197937011719e-02
-9.457615017890930176e-02
1.738910935819149017e-02
-1.253679976798593998e-03
1.320009529590606689e-01
6.696271896362304688e-02
7.923353463411331177e-02
-1.213904842734336853e-01
-2.406830713152885437e-02
2.937219478189945221e-02
2.664145827293395996e-02
-7.724002934992313385e-03
1.332587003707885742e-01
2.008572965860366821e-01
1.966650038957595825e-01
-1.097318530082702637e-02
-1.563673466444015503e-01
-6.229912862181663513e-02
4.860625602304935455e-03
