-6.634785979986190796e-02
-7.071609050035476685e-02
-1.120660677552223206e-01
-1.921986788511276245e-01
-2.117331326007843018e-02
-7.729111611843109131e-02
-1.329279392957687378e-01
1.609599404036998749e-02
-8.618153631687164307e-02
-1.130576431751251221e-01
-4.261239618062973022e-02
-4.787623137235641479e-02
-1.137025207281112671e-01
9.203130751848220825e-02
-1.092302575707435608e-01
2.043646015226840973e-02
-3.131479769945144653e-02
-1.900411695241928101e-01
-2.609016187489032745e-02
-6.464918702840805054e-02
-1.962595619261264801e-02
-4.348197951912879944e-02
-2.186097651720046997e-01
-9.751459956169128418e-02
-4.432192444801330566e-02
-1.086959764361381531e-01
-8.500992506742477417e-02
-1.404210329055786133e-01
4.220493510365486145e-02
5.992959067225456238e-02
4.849223420023918152e-02
-1.238173572346568108e-03
-1.381197944283485413e-02
1.524142082780599594e-02
-6.200828403234481812e-02
6.820686161518096924e-02
4.625996202230453491e-02
-7.020638138055801392e-02
-2.319058589637279510e-02
-1.435659378767013550e-01
-1.593801192939281464e-02
9.099016338586807251e-02
-1.151785068213939667e-02
4.287708178162574768e-02
-1.910758949816226959e-02
5.207004025578498840e-02
3.085323795676231384e-02
1.125871241092681885e-01
8.427574485540390015e-02
4.755964875221252441e-02
1.658065617084503174e-02
6.220668926835060120e-02
1.189249679446220398e-01
1.930690854787826538e-01
1.755049526691436768e-01
2.930564433336257935e-02
1.168814301490783691e-01
1.433066278696060181e-01
7.608714699745178223e-02
-3.066544979810714722e-02
3.595882281661033630e-02
-3.154288604855537415e-02
-2.996991574764251709e-02
-8.429102599620819092e-02
-1.167378872632980347e-01
6.746084988117218018e-02
-2.380020357668399811e-02
-1.123964041471481323e-01
6.478948052972555161e-03
1.973599754273891449e-02
8.891966193914413452e-02
-3.627187758684158325e-02
6.375350058078765869e-02
1.800296604633331299e-01
2.172797471284866333e-01
5.959936603903770447e-02
2.900704927742481232e-02
8.069878816604614258e-02
-5.769570171833038330e-02
-1.041247174143791199e-01
-2.369819954037666321e-02
-2.357102558016777039e-02
-7.336730509996414185e-02
-1.455177962779998779e-01
2.959029376506805420e-02
-5.203741136938333511e-03
-1.417204551398754120e-02
1.260058209300041199e-02
2.575851418077945709e-02
-4.520850628614425659e-02
-7.353802211582660675e-03
1.101638469845056534e-02
-8.756744675338268280e-03
1.536039263010025024e-01
6.752610951662063599e-02
3.979481384158134460e-02
-9.322663396596908569e-02
-1.172433197498321533e-01
1.083191409707069397e-01
1.302585154771804810e-01
5.203891918063163757e-02
-9.764786064624786377e-02
-1.112787425518035889e-01
-9.532754123210906982e-02
-3.832862153649330139e-02
6.973654776811599731e-02
-4.219529032707214355e-02
-1.838741824030876160e-02
1.396230142563581467e-02
-8.383085578680038452e-02
-3.108206950128078461e-02
-3.698606789112091064e-02
4.207160789519548416e-03
4.797771200537681580e-02
-4.554395005106925964e-02
1.825680211186408997e-02
2.107143960893154144e-02
-2.665803208947181702e-02
1.058209240436553955e-01
3.583904728293418884e-02
6.334292143583297729e-02
9.833954274654388428e-02
9.694496542215347290e-02
1.567709259688854218e-02
7.992671430110931396e-02
2.144879847764968872e-02
6.686312705278396606e-02
1.223838776350021362e-01
-1.350926756858825684e-01
-1.523034870624542236e-01
5.766604840755462646e-02
8.681773906573653221e-04
1.937843486666679382e-02
-1.097444891929626465e-01
-1.508413553237915039e-01
7.473968714475631714e-02
4.865892231464385986e-02
-1.057439073920249939e-01
-9.322429448366165161e-02
7.999803125858306885e-02
-6.865378003567457199e-03
-2.029557712376117706e-02
-4.977652058005332947e-02
6.595523655414581299e-02
1.951303035020828247e-01
-2.300149053335189819e-01
-5.560848489403724670e-02
-6.227445974946022034e-02
1.052853390574455261e-01
1.101685166358947754e-01
4.301150515675544739e-02
1.237853541970252991e-01
2.930190861225128174e-01
1.567274630069732666e-01
1.371566206216812134e-01
2.084144353866577148e-01
2.599965967237949371e-02
6.438495963811874390e-02
1.328814327716827393e-01
6.716973334550857544e-02
-1.101813614368438721e-01
-1.219761651009321213e-02
4.738079383969306946e-02
1.314352005720138550e-01
-1.830574125051498413e-02
-1.390847712755203247e-01
-2.739186212420463562e-02
1.394480019807815552e-01
1.771138757467269897e-01
2.025592699646949768e-02
-1.029033511877059937e-01
-3.657958656549453735e-02
-2.478818176314234734e-03
2.414387017488479614e-01
1.459841132164001465e-01
-2.310255309566855431e-03
-6.820996850728988647e-02
-2.726123109459877014e-02
1.620303094387054443e-02
5.093390494585037231e-02
3.226168081164360046e-02
-8.094941824674606323e-02
3.671906143426895142e-02
7.033328711986541748e-02
3.722862526774406433e-02
9.955091029405593872e-02
-4.009171202778816223e-02
-7.961045950651168823e-02
9.341323375701904297e-02
-8.428750932216644287e-02
7.475935667753219604e-02
-1.302090436220169067e-01
-8.854696899652481079e-02
3.480389341711997986e-02
-6.287691742181777954e-02
2.259765006601810455e-02
-9.565647691488265991e-02
-1.083735823631286621e-01
9.669394791126251221e-02
6.674749404191970825e-02
-1.438543498516082764e-01
2.458006842061877251e-03
3.789716958999633789e-01
1.823418587446212769e-02
-1.887162923812866211e-01
2.423423714935779572e-02
-1.576897948980331421e-01
1.349773406982421875e-01
5.411434546113014221e-02
7.797080278396606445e-02
-4.222755879163742065e-02
-1.250569224357604980e-01
-1.392641365528106689e-01
4.870111122727394104e-02
6.902533024549484253e-02
1.209541186690330505e-01
2.766534686088562012e-02
1.069593280553817749e-01
-8.938751369714736938e-02
-7.923454046249389648e-03
-6.189539656043052673e-02
5.002252385020256042e-02
1.069985106587409973e-01
-1.984714865684509277e-01
-1.030212342739105225e-01
-7.771092653274536133e-02
3.350805640220642090e-01
1.857870370149612427e-01
-2.803483903408050537e-01
-3.073880635201931000e-02
-7.064303755760192871e-02
5.873368680477142334e-02
1.472652852535247803e-01
-7.371183484792709351e-02
-1.865539699792861938e-02
-7.134134322404861450e-02
-1.254513561725616455e-01
1.255985796451568604e-01
-1.839072071015834808e-02
-8.965400978922843933e-03
6.864655017852783203e-02
-5.254254676401615143e-03
-7.193986792117357254e-03
-2.781188115477561951e-02
-3.735295496881008148e-03
-6.066329777240753174e-02
-1.452812254428863525e-01
1.172317042946815491e-01
5.956596508622169495e-02
9.488717466592788696e-02
5.516436696052551270e-02
1.001211702823638916e-01
9.283403307199478149e-02
4.347980767488479614e-02
4.666392132639884949e-02
1.633770465850830078e-01
9.935481473803520203e-03
9.176789224147796631e-02
-4.335095640271902084e-03
8.714679628610610962e-02
3.192426171153783798e-03
-1.108501553535461426e-01
4.230693448334932327e-03
-7.436630781739950180e-03
-2.991212718188762665e-02
1.025677397847175598e-01
-2.728169038891792297e-02
6.400727480649948120e-02
6.839611381292343140e-02
5.108720622956752777e-03
-2.164187431335449219e-01
-1.231865659356117249e-01
-1.268728822469711304e-01
-4.981734976172447205e-02
3.764850646257400513e-02
-3.101511299610137939e-01
-8.006427437067031860e-02
2.877664268016815186e-01
4.878282174468040466e-02
-2.122622728347778320e-02
-9.045029431581497192e-02
-8.339828997850418091e-02
7.359068840742111206e-02
1.392569243907928467e-01
7.075387239456176758e-02
1.287959069013595581e-01
6.533192098140716553e-02
-1.272066086530685425e-01
3.892405703663825989e-02
2.992480760440230370e-03
-3.381084883585572243e-03
1.676752232015132904e-02
-8.542602509260177612e-02
1.554238889366388321e-02
-1.735477894544601440e-02
2.745048999786376953e-01
-8.911063522100448608e-02
-3.623894229531288147e-02
-2.504790574312210083e-02
-1.178025305271148682e-01
7.076522707939147949e-02
-4.692420363426208496e-02
-4.268709570169448853e-02
-5.174780637025833130e-02
8.550618588924407959e-02
8.189371787011623383e-03
-8.821471780538558960e-02
-1.779845915734767914e-02
-4.483480378985404968e-02
-6.388923618942499161e-03
-7.049176841974258423e-02
-9.362814575433731079e-02
-2.128637209534645081e-02
-1.120779812335968018e-01
-5.672017857432365417e-02
-9.805732965469360352e-02
-3.906822204589843750e-02
-9.575780481100082397e-03
-1.045300215482711792e-01
-1.189905703067779541e-01
-3.480112925171852112e-02
6.136164069175720215e-02
-5.555589497089385986e-02
-1.491926163434982300e-01
9.368836879730224609e-03
1.945850253105163574e-02
1.002668123692274094e-02
-8.996110409498214722e-02
-2.136997133493423462e-02
-3.181309252977371216e-02
-3.420558199286460876e-02
-8.144775778055191040e-02
-1.099486500024795532e-01
-5.988964065909385681e-02
-8.369064331054687500e-02
1.944539882242679596e-02
5.002133548259735107e-03
-8.055373281240463257e-02
-6.007535383105278015e-02
-7.313784956932067871e-02
-3.840656206011772156e-02
3.037140890955924988e-02
-2.296681748703122139e-03
3.596299560740590096e-03
3.288805857300758362e-02
-2.852761745452880859e-02
3.737218677997589111e-02
1.413602847605943680e-02
-7.983277738094329834e-02
3.686196729540824890e-02
7.673424482345581055e-02
-1.000290736556053162e-01
-9.044449031352996826e-02
6.114073097705841064e-02
6.665687076747417450e-03
1.622703969478607178e-01
2.998145110905170441e-02
-1.195814162492752075e-01
-5.607234314084053040e-02
6.915210187435150146e-02
1.688003912568092346e-02
2.569852513261139393e-04
-5.650811269879341125e-02
-1.043964102864265442e-01
1.733481884002685547e-02
4.211086407303810120e-02
-1.912800967693328857e-02
-8.809944242238998413e-02
-6.600341945886611938e-02
7.414140552282333374e-02
-2.788170427083969116e-02
3.144356235861778259e-02
-7.848833501338958740e-02
9.721748530864715576e-03
-3.793411701917648315e-02
-7.432230748236179352e-03
-7.460882887244224548e-03
-9.221047163009643555e-02
-4.337188228964805603e-02
3.779467940330505371e-02
-4.769592545926570892e-03
-6.904579699039459229e-02
-1.560938656330108643e-01
-1.784898787736892700e-01
1.273457705974578857e-01
-1.952258311212062836e-02
-5.420741438865661621e-02
8.941169083118438721e-02
-9.632308036088943481e-02
1.706521958112716675e-01
-1.108083594590425491e-02
-6.653547286987304688e-02
1.089773997664451599e-01
2.446183189749717712e-02
-3.142049908638000488e-02
4.168095812201499939e-02
5.811969935894012451e-02
-1.061096042394638062e-02
-3.998419642448425293e-02
-1.022786572575569153e-01
-5.461779609322547913e-02
3.896110877394676208e-02
1.604133285582065582e-02
-5.332744121551513672e-02
-9.261600673198699951e-02
-7.998944818973541260e-02
-4.743030294775962830e-02
-9.595388919115066528e-02
-7.477615028619766235e-02
6.833149120211601257e-03
-4.247931018471717834e-02
-3.660707548260688782e-02
-1.940546371042728424e-02
-3.283022344112396240e-02
-6.237798929214477539e-02
1.767733774613589048e-04
-4.664532840251922607e-02
-3.813473507761955261e-03
1.450836844742298126e-02
-1.471353601664304733e-02
8.453562110662460327e-02
-4.662351682782173157e-02
-1.170671824365854263e-02
8.406784385442733765e-03
1.127497013658285141e-02
-2.422778755426406860e-01
-1.196779757738113403e-01
-6.375738978385925293e-02
-1.547954827547073364e-01
7.939162850379943848e-02
-2.178724408149719238e-01
-5.031619966030120850e-02
-8.851359039545059204e-02
-2.681706845760345459e-01
-9.391081333160400391e-02
-1.568945795297622681e-01
-1.300722658634185791e-01
1.939068175852298737e-02
-9.979788213968276978e-02
1.920472085475921631e-01
-9.240926802158355713e-02
1.222686842083930969e-01
1.932321339845657349e-01
3.009952008724212646e-01
3.202361762523651123e-01
3.249131515622138977e-02
6.442281603813171387e-02
1.373879909515380859e-01
2.838639318943023682e-01
1.848536431789398193e-01
-6.415849179029464722e-02
2.641084194183349609e-01
9.038429707288742065e-02
-1.194567792117595673e-02
-1.465681791305541992e-01
-1.172013282775878906e-01
2.529845237731933594e-01
7.426863908767700195e-02
9.807091951370239258e-02
-1.368911564350128174e-01
-8.319567143917083740e-02
-2.614116482436656952e-02
8.487655222415924072e-02
-1.777868531644344330e-02
-1.082532014697790146e-02
3.312836342956870794e-04
-4.728035256266593933e-02
-8.754241466522216797e-02
-1.274426877498626709e-01
-9.520144760608673096e-02
3.764973208308219910e-02
-6.668493151664733887e-02
1.051940396428108215e-01
7.148192822933197021e-02
-5.692651122808456421e-02
-1.361324544996023178e-02
-9.010297060012817383e-02
-2.577765658497810364e-02
6.599470973014831543e-02
6.990925222635269165e-02
4.366815555840730667e-03
1.014293357729911804e-01
1.242527738213539124e-01
1.079122200608253479e-01
1.322210431098937988e-01
-4.596656933426856995e-02
1.638125032186508179e-01
5.029791221022605896e-02
7.101434748619794846e-03
1.506720185279846191e-01
2.524992823600769043e-02
9.610243886709213257e-02
-4.606790095567703247e-02
1.014974806457757950e-02
6.509897857904434204e-02
-8.672965317964553833e-02
-4.667349904775619507e-02
3.265610337257385254e-02
5.841145664453506470e-02
-1.969090849161148071e-02
2.313531786203384399e-01
-1.109487488865852356e-01
-1.342862844467163086e-01
-1.646346226334571838e-02
2.102692052721977234e-02
-2.629315294325351715e-02
-5.122009292244911194e-02
-2.104508504271507263e-02
-6.681908667087554932e-02
-9.231176972389221191e-02
-1.057436764240264893e-01
-1.565789282321929932e-01
-1.918028444051742554e-01
-1.420617699623107910e-01
-3.442882373929023743e-02
-5.335554480552673340e-02
-1.357378065586090088e-01
6.876306608319282532e-03
7.931056618690490723e-02
-6.148386001586914062e-02
6.971730291843414307e-02
-1.074520647525787354e-01
5.936432629823684692e-03
-3.816564753651618958e-02
-8.087012916803359985e-02
1.019849330186843872e-01
-1.634036004543304443e-01
1.349522769451141357e-01
2.882823646068572998e-01
-4.748688638210296631e-02
-3.719163313508033752e-02
-1.537305414676666260e-01
8.799140900373458862e-02
1.053308881819248199e-02
-2.027963288128376007e-02
-7.072242349386215210e-02
-1.037055253982543945e-01
4.045834019780158997e-02
7.994034886360168457e-02
-4.911787062883377075e-02
-8.458009362220764160e-02
-1.299905031919479370e-01
-2.500747703015804291e-02
-1.340350955724716187e-01
-1.481716483831405640e-01
2.076256647706031799e-02
-8.240117132663726807e-02
1.547562032938003540e-01
-7.593832910060882568e-02
-2.570083597674965858e-04
-1.358935534954071045e-01
4.109083116054534912e-02
9.271266311407089233e-02
4.856281727552413940e-02
-2.728996053338050842e-02
8.809703588485717773e-02
-3.988615795969963074e-02
4.388312995433807373e-02
9.637939929962158203e-02
5.404954776167869568e-02
4.305517300963401794e-02
2.486747689545154572e-03
8.262749761343002319e-02
2.424338646233081818e-02
1.248982921242713928e-01
3.442539274692535400e-02
9.239971637725830078e-03
-9.477127343416213989e-03
4.928110912442207336e-02
2.762836404144763947e-02
-2.654465846717357635e-02
-9.392646141350269318e-03
2.046541869640350342e-02
-1.675753667950630188e-02
8.482928574085235596e-02
3.970743417739868164e-01
5.478541366755962372e-03
-1.509053260087966919e-01
-2.903762273490428925e-02
3.492318093776702881e-02
1.606055796146392822e-01
1.065378915518522263e-02
-9.240569919347763062e-02
-1.478625535964965820e-01
-1.633160859346389771e-01
-7.139864563941955566e-02
-1.604650542140007019e-02
4.010896012187004089e-02
1.322308462113142014e-02
4.778738692402839661e-02
-1.496479846537113190e-02
-2.399018406867980957e-01
1.341158300638198853e-01
2.147655338048934937e-01
6.446203589439392090e-02
1.124847307801246643e-01
-2.733333110809326172e-01
8.025702089071273804e-02
2.317166626453399658e-01
1.835367232561111450e-01
-4.422970861196517944e-02
-9.629048407077789307e-02
3.362674266099929810e-02
1.108563914895057678e-01
-2.868193201720714569e-02
-1.743651926517486572e-01
-1.225740984082221985e-01
8.445593528449535370e-03
-2.553001977503299713e-02
4.310793429613113403e-02
-5.639843177050352097e-03
-1.492082774639129639e-01
7.358179986476898193e-02
9.148780256509780884e-02
-3.458313271403312683e-02
-7.926311343908309937e-02
-5.832328647375106812e-02
3.843403235077857971e-02
-6.533920764923095703e-02
-5.799508094787597656e-02
-8.131194859743118286e-02
7.033293694257736206e-02
9.855715185403823853e-02
2.278302982449531555e-02
-3.966446593403816223e-02
4.391646012663841248e-02
-7.197277992963790894e-02
-3.638790920376777649e-02
-7.457380741834640503e-02
-1.249664351344108582e-01
-2.139746956527233124e-02
-2.584420889616012573e-02
6.586184352636337280e-02
2.539336681365966797e-02
-6.749581545591354370e-02
-4.747442156076431274e-02
-2.173736132681369781e-02
-1.339363306760787964e-01
-2.732870727777481079e-02
-7.455181330442428589e-02
-1.117560639977455139e-02
4.561568424105644226e-02
-6.273033469915390015e-02
-5.820828676223754883e-02
6.995399296283721924e-02
3.513890504837036133e-02
-3.441243991255760193e-02
-1.111540570855140686e-01
-1.610912568867206573e-02
-3.053845092654228210e-02
6.617131829261779785e-02
-2.944067306816577911e-02
5.565062165260314941e-02
1.417711675167083740e-01
2.487844554707407951e-03
6.859672814607620239e-02
-7.217566668987274170e-02
-1.670534163713455200e-02
-1.117813438177108765e-01
-6.557628512382507324e-02
2.081009931862354279e-02
-7.332708686590194702e-02
-1.968676596879959106e-02
-5.915465950965881348e-02
-6.380063295364379883e-02
-6.777708884328603745e-03
-4.290639981627464294e-02
-2.515610121190547943e-02
-5.631745979189872742e-02
-1.472764462232589722e-01
2.448989637196063995e-02
-3.999060951173305511e-03
1.068463735282421112e-02
-1.383729577064514160e-01
-1.444319933652877808e-01
1.960840374231338501e-01
-9.862096048891544342e-03
-2.144623994827270508e-01
3.167355433106422424e-02
-1.490630805492401123e-01
2.011063881218433380e-02
3.647013008594512939e-02
-1.194359585642814636e-01
2.272825986146926880e-01
-1.350770443677902222e-01
2.302706241607666016e-03
1.859651133418083191e-02
-1.156435385346412659e-01
1.304917931556701660e-01
-1.133747994899749756e-01
-2.805656194686889648e-02
1.643237099051475525e-02
6.519337184727191925e-04
1.047931909561157227e-01
-9.942945092916488647e-03
-1.391525659710168839e-02
-1.136057749390602112e-01
-1.167323589324951172e-01
7.395299524068832397e-02
1.161069516092538834e-02
-4.090913012623786926e-02
-3.630454093217849731e-02
-8.054573833942413330e-02
3.726862743496894836e-02
-1.648361682891845703e-01
3.482842072844505310e-02
5.448140576481819153e-02
-4.417897015810012817e-02
8.371790498495101929e-02
1.061729267239570618e-01
9.825378656387329102e-02
-4.998364299535751343e-02
2.698835730552673340e-02
-5.346337705850601196e-02
-3.094574436545372009e-02
-5.841754376888275146e-02
-8.197169005870819092e-02
-1.191374734044075012e-01
-5.037205666303634644e-02
-1.911307498812675476e-02
4.050697386264801025e-02
-2.983479946851730347e-02
-8.689378947019577026e-02
1.047177910804748535e-01
5.509622767567634583e-02
-1.095015406608581543e-01
2.472048103809356689e-01
1.375818997621536255e-01
1.959113776683807373e-01
1.463797502219676971e-02
1.128505729138851166e-02
5.837580189108848572e-02
3.997734561562538147e-02
3.511507809162139893e-02
7.334138453006744385e-02
1.681790803559124470e-03
-3.961544483900070190e-02
-2.524180524051189423e-02
7.902692258358001709e-02
2.343179881572723389e-01
3.430171683430671692e-02
-1.836266741156578064e-02
2.731553651392459869e-02
-7.649362832307815552e-02
1.006077080965042114e-01
5.633925646543502808e-02
-9.454710036516189575e-02
1.194488070905208588e-02
1.191211640834808350e-01
7.842659205198287964e-02
-4.013382270932197571e-02
-1.134105250239372253e-01
1.485756337642669678e-01
2.203403711318969727e-01
6.757605075836181641e-02
-3.489233925938606262e-02
3.670172020792961121e-02
1.618131995201110840e-01
-2.228139713406562805e-02
-2.415568567812442780e-02
5.445544607937335968e-03
-5.854536220431327820e-02
-8.499043434858322144e-02
4.505192860960960388e-02
-6.561650428920984268e-03
8.327209204435348511e-02
-1.441550403833389282e-01
-6.563995778560638428e-02
-3.739326819777488708e-02
-1.274215872399508953e-03
-1.081783324480056763e-01
-6.447499990463256836e-02
2.456044033169746399e-02
3.663258627057075500e-02
1.005747616291046143e-01
1.405620481818914413e-02
-7.436488568782806396e-02
1.869792938232421875e-01
4.631284996867179871e-02
3.903282806277275085e-02
-5.764456931501626968e-03
3.127316385507583618e-02
4.733493179082870483e-02
2.031795494258403778e-02
1.880893111228942871e-02
7.165180891752243042e-02
3.606824204325675964e-02
1.176676899194717407e-01
4.397683590650558472e-02
8.872848004102706909e-02
-2.080169878900051117e-02
-8.158282190561294556e-02
5.101951584219932556e-02
2.653627470135688782e-02
5.924471095204353333e-02
-1.419103704392910004e-03
6.181785464286804199e-02
-7.976826280355453491e-02
-2.261955849826335907e-02
-4.675723612308502197e-02
9.562350809574127197e-02
1.310100108385086060e-01
1.898950710892677307e-02
-1.511530280113220215e-01
-2.587433457374572754e-01
-5.628518387675285339e-02
1.192439645528793335e-01
2.828277349472045898e-01
2.256731241941452026e-01
2.690544128417968750e-01
-3.674796223640441895e-02
3.586739674210548401e-02
5.569350346922874451e-02
1.061140447854995728e-01
-8.434309810400009155e-02
8.624190092086791992e-02
6.179462373256683350e-02
8.345059305429458618e-02
-2.644868008792400360e-02
3.077539242804050446e-02
-3.665484488010406494e-02
-4.328951612114906311e-02
-3.363559767603874207e-02
-4.079758375883102417e-02
7.849222421646118164e-02
-1.242253705859184265e-01
-1.180595532059669495e-01
4.370430856943130493e-02
1.220726296305656433e-01
-1.219285726547241211e-01
-1.431744894944131374e-03
2.278441488742828369e-01
-4.769187048077583313e-02
-1.464458107948303223e-01
2.907272195443511009e-03
3.071676194667816162e-02
8.307409472763538361e-03
-3.608179464936256409e-02
-3.708343207836151123e-02
6.113377213478088379e-02
-2.552794292569160461e-02
-1.290602833032608032e-01
-3.961177542805671692e-02
6.434650160372257233e-03
1.041295081377029419e-01
-4.443041607737541199e-02
4.152748361229896545e-02
5.526532977819442749e-02
6.431088596582412720e-02
1.416639052331447601e-02
-7.665599137544631958e-02
4.612110182642936707e-02
4.471193253993988037e-02
1.277879178524017334e-01
2.430296130478382111e-02
2.014241181313991547e-03
5.208789184689521790e-02
1.203909590840339661e-01
1.336340457201004028e-01
-1.001423038542270660e-02
5.863181129097938538e-02
-6.348570436239242554e-02
7.545778527855873108e-03
-1.840409357100725174e-03
5.790746584534645081e-02
9.175021946430206299e-02
1.337527763098478317e-02
-6.543019786477088928e-03
-8.004488050937652588e-02
-1.043045595288276672e-01
4.019073396921157837e-02
7.792183756828308105e-02
1.312726922333240509e-02
-5.627882853150367737e-02
-3.993437811732292175e-02
3.114717900753021240e-01
1.721322834491729736e-01
1.814422756433486938e-01
2.159199863672256470e-01
-6.369782239198684692e-02
-1.854958087205886841e-01
9.167765825986862183e-02
2.553496062755584717e-01
1.752558648586273193e-01
-2.737462706863880157e-02
-2.252285480499267578e-01
-8.871832489967346191e-02
2.181525528430938721e-02
-8.164318650960922241e-02
-1.424685865640640259e-02
-1.099030226469039917e-01
-9.720424562692642212e-02
-2.514584362506866455e-01
1.858380436897277832e-02
-8.070331811904907227e-02
-1.620311439037322998e-01
-1.341722309589385986e-01
-1.372179836034774780e-01
1.463027112185955048e-02
6.635461747646331787e-02
3.470300883054733276e-02
-8.945564180612564087e-02
-1.452296506613492966e-02
-3.490440547466278076e-02
-1.118589863181114197e-01
-6.620695441961288452e-02
3.377643972635269165e-02
-2.187213161960244179e-03
-7.457604259252548218e-02
1.668984629213809967e-02
-2.451446838676929474e-02
-8.916633576154708862e-02
-1.461644917726516724e-01
-7.360780239105224609e-02
-1.795465499162673950e-02
3.012700006365776062e-02
-1.699103228747844696e-02
-3.552001714706420898e-02
-1.984897628426551819e-02
6.923841428942978382e-04
1.679436415433883667e-01
1.029319092631340027e-01
-5.920119583606719971e-02
-1.524253338575363159e-01
-1.164776384830474854e-01
2.139258198440074921e-02
-3.753098845481872559e-02
3.531835600733757019e-02
1.004399359226226807e-02
5.932644382119178772e-02
-2.626976557075977325e-02
-4.407440498471260071e-02
6.271172314882278442e-02
2.777222730219364166e-02
-4.693023487925529480e-02
-2.793261595070362091e-02
-7.018663734197616577e-02
1.085041835904121399e-02
6.417945027351379395e-02
-3.497492149472236633e-02
-1.436946541070938110e-01
6.665464490652084351e-02
6.257078610360622406e-03
8.662763051688671112e-03
1.238211989402770996e-01
-5.815942585468292236e-02
-5.076830461621284485e-02
-1.252815574407577515e-01
-1.507624536752700806e-01
-4.355756193399429321e-02
-3.696183115243911743e-02
-4.503686726093292236e-02
-6.263542175292968750e-02
-1.436076164245605469e-01
-8.481369912624359131e-02
-1.024296693503856659e-02
1.455192863941192627e-01
-7.831485010683536530e-03
-4.130222275853157043e-02
-4.836111143231391907e-02
8.245220407843589783e-03
-9.515340439975261688e-03
-8.597518503665924072e-02
5.115627497434616089e-02
7.377782464027404785e-02
5.705095082521438599e-02
-8.449080586433410645e-02
3.144190460443496704e-02
8.529651910066604614e-02
-2.227407321333885193e-02
1.473194658756256104e-01
7.588438689708709717e-02
3.732151817530393600e-03
-1.906103044748306274e-01
-2.053468674421310425e-01
-1.113805696368217468e-01
7.083232630975544453e-04
-6.373794376850128174e-02
7.819484174251556396e-02
1.455302983522415161e-01
-2.843566238880157471e-02
-3.251130878925323486e-02
-8.717790246009826660e-02
2.310691922903060913e-01
1.481177210807800293e-01
-3.965957090258598328e-02
-7.329093664884567261e-02
1.316015515476465225e-02
1.394460797309875488e-01
-1.730167679488658905e-02
-7.366647571325302124e-02
-9.818852692842483521e-02
-2.471430972218513489e-02
9.716681391000747681e-02
-9.340722858905792236e-02
2.055464386940002441e-01
1.009614765644073486e-01
1.149045005440711975e-01
-8.170155435800552368e-02
-2.030185163021087646e-01
-6.165098771452903748e-02
-5.250057205557823181e-02
5.915380269289016724e-02
5.757298320531845093e-02
-3.422433137893676758e-02
-2.665174007415771484e-02
-1.527351140975952148e-02
8.196236938238143921e-02
8.006066083908081055e-02
-5.606492981314659119e-02
3.768759965896606445e-02
-4.419440031051635742e-02
3.010096214711666107e-02
9.063844569027423859e-03
6.276654452085494995e-02
-2.058664523065090179e-02
1.208880320191383362e-01
2.468322068452835083e-01
1.601007580757141113e-01
3.780635818839073181e-02
1.173701882362365723e-01
1.045924723148345947e-01
-1.634361147880554199e-01
-2.395716160535812378e-01
-1.873829960823059082e-01
3.956333920359611511e-02
-1.087821573019027710e-01
-3.435029685497283936e-01
5.098544806241989136e-02
-1.007904391735792160e-02
1.780445277690887451e-01
-1.689326316118240356e-01
-9.505775570869445801e-02
3.785621747374534607e-02
-2.999070100486278534e-02
-7.892218977212905884e-02
-1.395970433950424194e-01
1.091365367174148560e-01
-5.193643271923065186e-02
-7.496626675128936768e-02
-1.180144548416137695e-01
-6.272798776626586914e-02
1.772647202014923096e-01
8.700560033321380615e-02
-1.576017588376998901e-01
-7.095852494239807129e-02
3.665300607681274414e-01
5.512620806694030762e-01
4.826224446296691895e-01
1.851689368486404419e-01
-9.121715277433395386e-02
-2.704910039901733398e-01
-1.305457204580307007e-01
-1.303765457123517990e-02
1.669961214065551758e-01
-3.650478646159172058e-02
-1.554318815469741821e-01
1.373125473037362099e-03
-7.372972369194030762e-02
3.019919618964195251e-02
6.291854381561279297e-02
5.625158175826072693e-02
1.069099828600883484e-02
5.773598700761795044e-02
4.013136029243469238e-03
-7.908574491739273071e-02
1.490994393825531006e-01
7.266175467520952225e-03
1.278551667928695679e-01
5.243984982371330261e-02
-3.604605048894882202e-02
-3.877286240458488464e-02
7.973267883062362671e-02
8.240809291601181030e-02
1.451196074485778809e-01
-9.790819883346557617e-02
2.979445643723011017e-02
1.527596861124038696e-01
-1.399499550461769104e-02
1.291870698332786560e-02
-9.633764624595642090e-02
-4.238564521074295044e-02
-2.658082731068134308e-02
2.468775957822799683e-02
-2.897851169109344482e-02
7.990697398781776428e-03
-7.229662686586380005e-02
9.548829868435859680e-03
1.307661384344100952e-01
2.310045249760150909e-02
-4.490401968359947205e-02
-4.281788598746061325e-03
-1.220470853149890900e-02
-5.113854631781578064e-02
-2.149097248911857605e-02
-4.095929488539695740e-02
-5.012197792530059814e-02
-3.802829422056674957e-03
1.699824258685112000e-02
-1.155428960919380188e-02
-4.623299837112426758e-02
-1.386077851057052612e-01
-1.681902408599853516e-01
-5.187583342194557190e-02
1.116502583026885986e-01
-1.002798005938529968e-01
-2.165008103474974632e-03
-5.272828787565231323e-02
1.426816731691360474e-01
2.193681523203849792e-02
-1.678055524826049805e-01
6.063719093799591064e-02
-1.909556984901428223e-01
4.707420989871025085e-02
-8.612266927957534790e-02
-3.323006629943847656e-02
5.226820940151810646e-04
-1.816349327564239502e-01
1.094652637839317322e-01
-1.361333876848220825e-01
3.264816477894783020e-02
1.472455412149429321e-01
-1.087511479854583740e-01
-5.805214866995811462e-03
5.715451203286647797e-03
-6.989542394876480103e-02
-1.671423465013504028e-01
-1.124357357621192932e-01
1.624756455421447754e-01
8.871439844369888306e-02
-3.218143060803413391e-02
-1.117067039012908936e-01
2.148585394024848938e-03
-3.274868428707122803e-02
-2.994373254477977753e-02
-1.054662093520164490e-02
-1.890351772308349609e-01
3.553706035017967224e-02
-7.245799526572227478e-03
1.760480517987161875e-04
-4.059703648090362549e-02
-6.621032953262329102e-02
1.507720444351434708e-02
6.228066608309745789e-02
-1.068970188498497009e-02
5.908149760216474533e-03
-1.301156282424926758e-01
-1.894697695970535278e-01
2.070894539356231689e-01
-2.043526060879230499e-02
-1.443658024072647095e-01
-1.358613520860671997e-01
3.498976351693272591e-03
1.463207900524139404e-01
-4.566101729869842529e-02
-6.469539552927017212e-02
-8.879816532135009766e-02
6.225812062621116638e-02
1.939657516777515411e-02
-1.229109801352024078e-02
-7.824929431080818176e-03
-1.317634284496307373e-01
5.287873372435569763e-02
-1.300738658756017685e-02
7.106014993041753769e-03
-2.963830716907978058e-02
-3.024604357779026031e-02
-6.150622665882110596e-02
2.180077321827411652e-02
1.086145564913749695e-01
-2.499846741557121277e-02
-7.159002125263214111e-02
4.955561831593513489e-02
6.684689968824386597e-02
6.764490902423858643e-02
-4.200328141450881958e-02
1.732188910245895386e-01
-1.473299711942672729e-01
1.610308587551116943e-01
2.324279248714447021e-01
2.085140207782387733e-03
2.502361536026000977e-01
-1.997686028480529785e-01
-6.813808530569076538e-02
1.087542101740837097e-01
1.210267171263694763e-01
1.132170855998992920e-01
-1.989725381135940552e-01
-2.429966069757938385e-02
-9.284415841102600098e-02
1.946831941604614258e-01
-7.021293789148330688e-02
-1.252384632825851440e-01
2.665936350822448730e-01
-3.298223018646240234e-02
1.897610165178775787e-02
-2.273094207048416138e-01
1.245907135307788849e-02
1.164796054363250732e-01
3.826557844877243042e-02
2.328193560242652893e-02
-1.735272631049156189e-02
1.321668643504381180e-02
-8.335841447114944458e-02
-3.045096248388290405e-02
-2.537370473146438599e-02
5.215345695614814758e-02
1.817011237144470215e-01
7.342661917209625244e-02
7.628891617059707642e-02
-8.551204204559326172e-02
1.189687196165323257e-02
1.148876175284385681e-01
6.462564319372177124e-02
1.881194673478603363e-02
-1.573583483695983887e-01
7.718748599290847778e-02
1.231329217553138733e-01
2.847447060048580170e-02
1.848015040159225464e-01
-5.222909525036811829e-02
-5.936889350414276123e-02
1.971319019794464111e-01
-1.947249285876750946e-02
9.885121136903762817e-02
-1.183508411049842834e-01
9.107477962970733643e-02
-1.726031303405761719e-02
-6.013015657663345337e-02
-9.743306785821914673e-02
4.797670990228652954e-02
1.205684691667556763e-01
1.434415131807327271e-01
-3.241815790534019470e-02
2.834025956690311432e-02
2.549079246819019318e-02
7.656513899564743042e-02
5.094569921493530273e-02
-1.185232866555452347e-02
-7.556407898664474487e-02
2.188687212765216827e-02
4.274432733654975891e-02
5.806712061166763306e-02
-8.068727701902389526e-02
-1.075938269495964050e-01
2.207015268504619598e-02
5.847978964447975159e-02
-7.474895566701889038e-02
-8.861187100410461426e-02
-3.171709924936294556e-02
7.772802561521530151e-02
-1.577860414981842041e-01
-4.321697354316711426e-02
1.154116913676261902e-01
8.341806381940841675e-02
-1.405694186687469482e-01
-2.045304328203201294e-01
-4.109843447804450989e-02
-1.757993847131729126e-01
-1.310491710901260376e-01
-2.619793117046356201e-01
-2.149318456649780273e-01
-3.707937896251678467e-02
-2.336699515581130981e-02
-1.242186501622200012e-02
-1.864831894636154175e-01
-2.880029752850532532e-02
7.733752578496932983e-02
4.821274429559707642e-02
5.157189071178436279e-02
-1.343441903591156006e-01
4.522137343883514404e-02
1.676960140466690063e-01
3.492351993918418884e-02
1.096439640969038010e-02
-2.976024746894836426e-01
-1.165267676115036011e-01
2.495073974132537842e-01
-4.247136414051055908e-02
-1.626387536525726318e-01
-1.896139383316040039e-01
-4.054129496216773987e-02
2.369158416986465454e-01
-1.579145342111587524e-01
-6.701408326625823975e-02
-1.598690599203109741e-01
2.987105865031480789e-03
2.926932871341705322e-01
3.146474435925483704e-02
-1.151904985308647156e-01
-9.392414987087249756e-02
4.264612495899200439e-02
1.918161809444427490e-01
-1.981172338128089905e-02
-7.601185142993927002e-02
-1.481391191482543945e-01
2.055852711200714111e-01
5.906606465578079224e-02
-7.425222545862197876e-02
1.962852664291858673e-02
-1.699161976575851440e-01
-1.286085322499275208e-02
1.048627719283103943e-01
-5.835718940943479538e-03
-3.213081508874893188e-02
-1.297250539064407349e-01
5.105689540505409241e-02
3.103618696331977844e-02
-1.333685964345932007e-02
3.766604512929916382e-02
6.489171646535396576e-03
2.520699054002761841e-02
9.730244427919387817e-02
-8.761683106422424316e-02
-5.383095145225524902e-02
6.939318962395191193e-03
6.942519545555114746e-02
7.186882942914962769e-02
5.587257817387580872e-02
4.181280732154846191e-03
7.242459803819656372e-03
2.485297434031963348e-02
2.069782465696334839e-02
1.022455468773841858e-02
2.719865553081035614e-02
3.864518105983734131e-01
-1.595654040575027466e-01
6.182006001472473145e-02
-6.057579815387725830e-02
3.609963133931159973e-02
-5.245910212397575378e-02
-1.435327380895614624e-01
-8.282011374831199646e-03
5.392881110310554504e-03
-5.825418606400489807e-02
-8.231168985366821289e-02
-1.157374382019042969e-01
1.198838278651237488e-01
1.472713649272918701e-01
1.102243810892105103e-01
-1.093948036432266235e-01
-7.296754419803619385e-02
1.693151518702507019e-02
1.646617203950881958e-01
-2.906696125864982605e-02
-1.107302680611610413e-02
4.951304569840431213e-02
-8.981236070394515991e-02
7.118545472621917725e-02
6.557757407426834106e-02
-1.429946571588516235e-01
-3.135395795106887817e-02
1.152250319719314575e-01
1.267185658216476440e-01
4.726102575659751892e-02
2.414102433249354362e-03
-3.970804810523986816e-02
2.065366059541702271e-01
2.704320549964904785e-01
8.471357822418212891e-02
5.882930383086204529e-02
1.033304482698440552e-01
2.323401272296905518e-01
9.611445665359497070e-02
7.300188392400741577e-02
1.307563334703445435e-01
9.778748452663421631e-02
2.639399170875549316e-01
-5.074251070618629456e-02
-2.524120360612869263e-02
2.264481633901596069e-01
2.125196009874343872e-01
4.878194630146026611e-01
1.567948311567306519e-01
8.092109113931655884e-02
-1.569861918687820435e-01
-1.099862623959779739e-02
1.053447872400283813e-01
-4.769996739923954010e-03
-5.059427767992019653e-02
-1.017903164029121399e-01
2.950313687324523926e-02
-8.006470277905464172e-03
-9.003067761659622192e-02
1.096350420266389847e-02
-6.547929253429174423e-03
-6.056042760610580444e-02
-4.019702784717082977e-03
-8.430089801549911499e-02
-8.106458187103271484e-02
-4.637789353728294373e-02
-1.992612332105636597e-02
-8.784355223178863525e-02
-3.709866851568222046e-02
-1.196746155619621277e-02
-7.337912917137145996e-02
-6.573867797851562500e-02
-4.406170547008514404e-02
-8.227258175611495972e-02
3.102955222129821777e-02
3.580752672860398889e-05
1.029839664697647095e-01
9.476888179779052734e-02
-9.419959038496017456e-02
-5.040116608142852783e-03
4.415134713053703308e-02
4.104497656226158142e-02
1.399938166141510010e-01
6.560368463397026062e-03
-5.101067200303077698e-02
7.762883603572845459e-02
-1.703665778040885925e-02
8.507137000560760498e-02
9.488695859909057617e-02
5.997102707624435425e-02
-6.516494601964950562e-02
2.097250148653984070e-02
1.942456141114234924e-02
3.209131071344017982e-03
6.679518520832061768e-02
-1.257050335407257080e-01
2.735917642712593079e-02
2.101750969886779785e-01
-3.124554874375462532e-03
-5.055258423089981079e-02
-8.470402657985687256e-02
-1.970640569925308228e-01
-1.074330955743789673e-01
6.410171091556549072e-02
1.795279085636138916e-01
1.011617705225944519e-01
-1.305507421493530273e-01
7.425066083669662476e-03
8.525020629167556763e-02
-2.001539617776870728e-02
4.196996986865997314e-02
9.950746316462755203e-04
-5.565959215164184570e-02
-1.514976378530263901e-02
-1.056091040372848511e-01
5.108329281210899353e-02
2.053820788860321045e-01
2.433336107060313225e-03
-1.118994355201721191e-01
-6.701692193746566772e-02
1.186505556106567383e-01
2.427972555160522461e-01
1.879128254950046539e-02
-5.881435051560401917e-02
8.048038184642791748e-02
-9.725960344076156616e-02
-4.131881520152091980e-03
4.264964163303375244e-02
8.335077017545700073e-02
1.035768836736679077e-01
-5.910979956388473511e-02
1.771690323948860168e-02
-6.642068736255168915e-03
2.445864304900169373e-02
-9.134313440881669521e-04
-1.145014911890029907e-01
7.112239021807909012e-03
-1.867703534662723541e-02
3.082107193768024445e-02
2.310447581112384796e-02
4.247043281793594360e-02
8.718571066856384277e-02
-1.020262092351913452e-01
1.871380768716335297e-02
7.728961110115051270e-02
-5.324685201048851013e-02
-1.314555555582046509e-01
6.888110190629959106e-02
1.129407733678817749e-01
1.939369887113571167e-01
5.411149933934211731e-02
7.285776734352111816e-02
-2.680518627166748047e-01
-8.049115538597106934e-02
6.018615141510963440e-02
1.921287178993225098e-01
-6.532546132802963257e-02
5.492568016052246094e-02
4.939935356378555298e-02
2.976865470409393311e-01
-1.180047094821929932e-01
-1.499124765396118164e-01
-1.361052691936492920e-01
6.909251958131790161e-02
1.803734600543975830e-01
-1.548484861850738525e-01
-1.158370077610015869e-01
-5.455307662487030029e-02
-1.321770846843719482e-01
6.412848085165023804e-02
2.517223358154296875e-01
6.263192743062973022e-02
-4.872905462980270386e-02
-1.722243130207061768e-01
-7.487787306308746338e-02
-6.679429858922958374e-02
-3.577880561351776123e-02
-1.352975144982337952e-02
4.289417341351509094e-02
1.626385748386383057e-02
5.822606757283210754e-02
-1.013576239347457886e-01
1.078069806098937988e-01
1.110861450433731079e-01
5.932657048106193542e-02
-2.541625290177762508e-04
-1.486750990152359009e-01
4.354667291045188904e-02
1.095890253782272339e-01
2.474025823175907135e-02
-6.813030689954757690e-02
-1.265766173601150513e-01
-4.804522171616554260e-02
2.363247573375701904e-01
1.886103302240371704e-02
4.108103364706039429e-02
3.518402203917503357e-02
1.873129010200500488e-01
3.498200476169586182e-01
1.199164148420095444e-02
4.981224611401557922e-02
1.153818964958190918e-01
1.066372767090797424e-01
6.140522286295890808e-02
-8.535040169954299927e-02
3.636061772704124451e-02
8.138856291770935059e-02
5.234096571803092957e-02
8.238574117422103882e-02
1.019031628966331482e-01
-9.511502459645271301e-03
2.908895723521709442e-02
4.195873439311981201e-02
-5.248543247580528259e-02
-6.543977558612823486e-02
-1.118537113070487976e-01
-2.698689233511686325e-03
-1.247239485383033752e-01
-2.420514635741710663e-02
4.401293117552995682e-03
-8.410064131021499634e-02
-1.052802428603172302e-01
-1.017156094312667847e-01
-1.140343211591243744e-02
3.297388553619384766e-02
1.535152457654476166e-02
-3.436061367392539978e-02
-7.377994805574417114e-02
1.413486897945404053e-01
1.382025331258773804e-01
-9.969383478164672852e-02
-9.202331304550170898e-02
-8.946273475885391235e-03
-1.688764989376068115e-01
-1.331623364239931107e-02
-5.158752202987670898e-02
-3.329371288418769836e-02
8.166423067450523376e-03
-6.284084171056747437e-02
-1.327345222234725952e-01
-1.538020558655261993e-02
2.234943956136703491e-02
7.445431500673294067e-02
6.495992094278335571e-02
-1.034741476178169250e-02
-5.648158863186836243e-02
6.273899227380752563e-02
6.690073758363723755e-02
3.666932508349418640e-02
-2.605970390141010284e-02
-5.233988165855407715e-02
-2.367173880338668823e-01
-2.592067606747150421e-02
8.054368942975997925e-02
2.474938482046127319e-01
1.718963086605072021e-01
-2.017139270901679993e-02
3.786166757345199585e-02
-1.447232067584991455e-01
1.992864012718200684e-01
-1.443699467927217484e-02
1.194884851574897766e-01
-4.205755516886711121e-02
-2.140431553125381470e-01
4.445075057446956635e-03
6.486173369921743870e-04
1.155710741877555847e-01
4.200540855526924133e-02
-6.314343214035034180e-02
-2.533021271228790283e-01
9.973100572824478149e-02
2.269890010356903076e-01
2.521021664142608643e-01
1.817882061004638672e-02
-2.279797196388244629e-01
1.072163358330726624e-01
7.338574528694152832e-02
1.634254604578018188e-01
1.360063403844833374e-01
-1.314195524901151657e-02
1.119954138994216919e-01
-3.423370653763413429e-04
-2.309936285018920898e-02
5.498614162206649780e-02
7.246009260416030884e-02
-4.275089502334594727e-02
2.357929944992065430e-02
2.835479751229286194e-02
-1.634347066283226013e-02
-5.476344004273414612e-02
-1.588018685579299927e-01
-1.630670204758644104e-02
6.406451575458049774e-03
-1.242510676383972168e-01
2.763938903808593750e-02
-4.595337063074111938e-02
2.103701001033186913e-03
7.911912351846694946e-02
-1.568059921264648438e-01
-1.646361947059631348e-01
-1.038278341293334961e-01
-1.183147206902503967e-01
-3.129198551177978516e-01
-3.052554726600646973e-01
2.067226767539978027e-01
2.849290519952774048e-02
1.261314097791910172e-02
-8.065143972635269165e-02
-2.127723097801208496e-01
-2.156541943550109863e-01
1.010677069425582886e-01
1.306824088096618652e-01
2.024091929197311401e-01
4.672137647867202759e-02
-2.495315074920654297e-01
-3.416644409298896790e-02
1.069877147674560547e-01
2.068369537591934204e-01
3.244955837726593018e-02
-7.340086251497268677e-02
-5.108911078423261642e-03
5.955462157726287842e-02
3.111163079738616943e-01
3.631444573402404785e-01
4.936563968658447266e-02
-3.718236088752746582e-02
-1.251532286405563354e-01
-4.945949837565422058e-02
-2.708759009838104248e-01
-4.277658462524414062e-02
-2.182910144329071045e-01
-2.185735106468200684e-01
-2.250659465789794922e-01
1.766911707818508148e-02
-6.356397271156311035e-02
-1.260817945003509521e-01
-2.690480053424835205e-01
-3.028548955917358398e-01
-4.932654649019241333e-02
-6.713700294494628906e-02
-1.851882934570312500e-01
-2.404639422893524170e-01
-2.898655235767364502e-01
-1.045336872339248657e-01
-4.096253588795661926e-02
-1.111109629273414612e-01
-2.972003519535064697e-01
-3.361869752407073975e-01
-2.224444001913070679e-01
-7.793197780847549438e-02
9.962834417819976807e-02
-9.377753734588623047e-02
-2.271765172481536865e-01
-1.006163656711578369e-01
1.234475448727607727e-01
1.975495368242263794e-03
6.707497686147689819e-02
-1.228124275803565979e-01
3.206309303641319275e-02
1.532634999603033066e-02
2.810310386121273041e-02
-3.151939436793327332e-02
-1.318739950656890869e-01
3.090733662247657776e-02
6.463745236396789551e-02
3.912337124347686768e-02
-6.740791350603103638e-02
-1.291912794113159180e-02
7.325581461191177368e-02
-6.871159188449382782e-03
8.534406870603561401e-02
1.114154905080795288e-01
-4.773417953401803970e-03
1.151736676692962646e-01
5.056916177272796631e-02
-2.924277447164058685e-02
1.426364034414291382e-01
5.243404507637023926e-01
2.762908637523651123e-01
-1.595139317214488983e-02
-3.632818907499313354e-02
1.422992162406444550e-02
2.943790331482887268e-02
7.790349423885345459e-02
5.601685494184494019e-03
2.028605900704860687e-02
1.062737554311752319e-01
3.680549561977386475e-02
1.507065594196319580e-01
1.193545311689376831e-01
3.271732106804847717e-02
8.240281790494918823e-02
7.731542736291885376e-02
6.330038607120513916e-02
-4.261381924152374268e-02
6.602194625884294510e-03
2.760763466358184814e-02
8.703494817018508911e-02
5.153934285044670105e-02
3.234202042222023010e-02
2.405659854412078857e-01
2.007338255643844604e-01
1.301408857107162476e-01
-2.119460701942443848e-01
-1.931710354983806610e-02
1.968496479094028473e-02
-3.481343761086463928e-02
-6.977611780166625977e-02
5.406970530748367310e-02
2.736637368798255920e-02
2.219183743000030518e-02
-5.058653652667999268e-02
-1.264627873897552490e-01
4.303971305489540100e-03
-1.278898715972900391e-01
-1.250787172466516495e-02
-1.126861050724983215e-01
-1.415435075759887695e-01
-3.717656061053276062e-02
-5.108187347650527954e-02
-1.799594461917877197e-01
-2.806942462921142578e-01
-2.213718146085739136e-01
-3.145118802785873413e-02
9.239015728235244751e-02
1.427361518144607544e-01
1.612714082002639771e-01
-9.776533395051956177e-02
-1.343107521533966064e-01
5.283117666840553284e-02
1.738231182098388672e-01
-1.192347612231969833e-02
-7.190088182687759399e-02
-1.502112671732902527e-02
5.934489890933036804e-02
4.924009740352630615e-02
6.891235709190368652e-02
1.373860053718090057e-02
3.287879005074501038e-02
1.430814852938055992e-03
-1.178502440452575684e-01
5.018997192382812500e-02
-2.464903146028518677e-02
2.693789079785346985e-02
6.697619706392288208e-02
-8.901781588792800903e-02
8.144112303853034973e-03
6.632766127586364746e-02
1.895371228456497192e-01
4.462242126464843750e-02
-1.100673452019691467e-01
2.859432995319366455e-01
2.492242306470870972e-01
1.433416008949279785e-01
5.320718884468078613e-02
-9.024063497781753540e-02
5.925322696566581726e-02
2.446334622800350189e-02
2.505479194223880768e-02
-4.280702397227287292e-02
-1.610763967037200928e-01
1.091881096363067627e-01
7.860924303531646729e-02
7.365468889474868774e-02
7.517024129629135132e-02
-1.879261136054992676e-01
1.514123827219009399e-01
1.109835579991340637e-01
4.189321398735046387e-02
-6.941802799701690674e-02
-1.023669540882110596e-01
9.850060939788818359e-02
-6.091584917157888412e-03
9.074041247367858887e-02
-2.401162497699260712e-02
8.933525532484054565e-02
2.562187612056732178e-01
8.410360664129257202e-02
-8.610975742340087891e-02
-1.423134207725524902e-01
-3.004546836018562317e-02
2.226145118474960327e-01
9.749221801757812500e-02
-1.057437956333160400e-01
-1.160764619708061218e-01
7.155112177133560181e-02
1.334913633763790131e-02
1.285467203706502914e-02
-2.474965900182723999e-02
-1.072605997323989868e-01
6.393375247716903687e-02
1.374198794364929199e-01
5.388975515961647034e-02
-1.784306019544601440e-01
9.247872233390808105e-02
-2.830291911959648132e-02
1.300038546323776245e-01
-4.296446964144706726e-02
-3.024529218673706055e-01
-2.408769875764846802e-01
-7.089251279830932617e-02
-1.021196041256189346e-02
-1.308815032243728638e-01
-1.454217582941055298e-01
-8.397443592548370361e-02
-3.509839251637458801e-02
-5.298962444067001343e-02
-4.676019772887229919e-02
-2.622835710644721985e-02
-2.910369820892810822e-02
8.448715507984161377e-02
1.500047445297241211e-01
8.587368577718734741e-02
-1.326886564493179321e-01
-7.851972430944442749e-02
7.961007766425609589e-03
6.492204964160919189e-02
5.232920870184898376e-02
-7.316344231367111206e-02
-2.484685368835926056e-02
-5.869370326399803162e-02
5.690645799040794373e-02
3.512420505285263062e-02
-5.259299278259277344e-02
-5.853094533085823059e-02
-8.111638575792312622e-02
-4.950197786092758179e-02
7.148190587759017944e-02
-5.370648577809333801e-02
6.643868982791900635e-02
-4.914531018584966660e-03
1.120190322399139404e-01
5.429673939943313599e-02
3.714049234986305237e-02
4.739997442811727524e-03
-2.301914617419242859e-02
-8.082929998636245728e-02
-1.092853844165802002e-01
3.304421529173851013e-02
-4.434059560298919678e-02
8.203152567148208618e-02
-1.577129215002059937e-01
-1.051128208637237549e-01
1.497367117553949356e-02
1.869154348969459534e-02
6.345445662736892700e-02
-1.151112392544746399e-01
-1.767837256193161011e-02
-4.274897649884223938e-02
-7.398438453674316406e-02
-2.954786829650402069e-02
3.159537315368652344e-01
1.284323930740356445e-01
-1.770575940608978271e-01
-9.387611597776412964e-02
3.548743948340415955e-02
8.726004511117935181e-02
9.642855823040008545e-02
1.291910260915756226e-01
-3.152230009436607361e-02
5.536353588104248047e-02
1.390095055103302002e-01
1.514671742916107178e-01
1.675819158554077148e-01
3.987224772572517395e-03
1.310904882848262787e-02
-5.291643552482128143e-03
1.242728233337402344e-01
1.132322475314140320e-01
4.284633696079254150e-02
1.215321384370326996e-02
5.237279087305068970e-02
8.557151257991790771e-02
-1.649596542119979858e-01
1.086218468844890594e-02
-1.205167323350906372e-01
2.958209626376628876e-02
8.290208131074905396e-02
-2.218648791313171387e-02
-9.538160264492034912e-02
-3.504369780421257019e-02
1.722584851086139679e-02
2.229841426014900208e-02
3.818642813712358475e-03
-1.291213929653167725e-01
5.410735309123992920e-02
3.711000457406044006e-02
7.475350797176361084e-02
-6.450435519218444824e-02
-9.788977354764938354e-02
-4.896048456430435181e-02
1.105770915746688843e-01
1.178700253367424011e-01
1.153691112995147705e-01
9.288263320922851562e-02
5.709485337138175964e-02
8.619764447212219238e-02
6.516688736155629158e-04
-5.236858036369085312e-03
1.073318570852279663e-01
3.913942351937294006e-02
-1.154415495693683624e-02
1.013717427849769592e-01
1.016731411218643188e-01
1.014892607927322388e-01
1.537112332880496979e-02
-1.389645040035247803e-01
7.892003655433654785e-02
1.211519911885261536e-01
2.131665945053100586e-01
5.576285347342491150e-02
-1.508046984672546387e-01
3.193418681621551514e-02
1.239687800407409668e-01
1.224301755428314209e-01
-1.218281965702772141e-02
-2.286683619022369385e-01
5.429854989051818848e-02
-7.525802403688430786e-02
6.369949132204055786e-02
-1.387152075767517090e-01
-2.456173449754714966e-01
1.983029395341873169e-02
-5.305962264537811279e-02
-1.831604689359664917e-01
1.072687562555074692e-02
1.978856325149536133e-01
-1.783009320497512817e-01
-1.172378659248352051e-01
1.064723357558250427e-02
1.169569939374923706e-01
2.428059577941894531e-01
-4.834530502557754517e-02
-7.556866109371185303e-02
3.327078185975551605e-03
1.157396510243415833e-01
1.161517426371574402e-01
5.133523419499397278e-02
-1.094627827405929565e-01
1.281611621379852295e-01
2.669315785169601440e-02
7.360953092575073242e-02
1.217790767550468445e-01
-7.140939123928546906e-03
5.688107386231422424e-02
1.194141209125518799e-01
3.392312228679656982e-01
1.227043420076370239e-01
-2.449321001768112183e-02
7.156840711832046509e-02
-1.225944161415100098e-01
-4.373024404048919678e-02
-5.427777767181396484e-02
-1.417872309684753418e-01
2.510382980108261108e-02
2.006015554070472717e-02
-2.181861735880374908e-02
-1.041982844471931458e-01
-2.127574197947978973e-02
-2.166889794170856476e-02
-3.838044404983520508e-02
5.157766118645668030e-02
-6.702177226543426514e-02
-6.055331602692604065e-02
4.278399795293807983e-02
-5.351985618472099304e-02
2.326801046729087830e-02
-5.605507176369428635e-03
-6.340116262435913086e-02
3.395713493227958679e-02
1.672223769128322601e-02
-2.398369397269561887e-04
-6.674415618181228638e-02
-6.021635979413986206e-02
1.495628245174884796e-02
1.785418391227722168e-01
-3.936090320348739624e-02
2.247080951929092407e-01
1.791786253452301025e-01
2.290861755609512329e-01
8.739155530929565430e-02
-1.360466480255126953e-01
-1.757115870714187622e-01
-7.817533612251281738e-02
-8.242435753345489502e-02
-4.271065071225166321e-02
-4.056754335761070251e-02
-6.756632030010223389e-02
-8.988092839717864990e-02
-4.197574406862258911e-02
-4.119103029370307922e-02
-1.322035491466522217e-01
-1.174761429429054260e-01
-1.099378690123558044e-01
1.485865861177444458e-01
8.642740547657012939e-02
-4.366775974631309509e-03
-7.121938467025756836e-02
-1.288710683584213257e-01
-6.802951544523239136e-02
-1.504989117383956909e-01
3.766295313835144043e-02
9.209790267050266266e-03
-2.289595454931259155e-01
-1.367484685033559799e-02
9.479826688766479492e-02
-3.074522130191326141e-02
-1.113499328494071960e-01
4.586309939622879028e-02
-1.851118728518486023e-02
1.146505847573280334e-01
3.517420217394828796e-02
-8.981229364871978760e-02
-1.255930308252573013e-02
6.932494789361953735e-02
6.511328369379043579e-02
1.102057024836540222e-01
5.154043808579444885e-02
5.954044684767723083e-02
1.331172734498977661e-01
1.901316195726394653e-01
2.385112196207046509e-01
8.726736903190612793e-02
2.476979494094848633e-01
1.158213093876838684e-01
-1.620630621910095215e-01
-1.231096312403678894e-02
-8.288142830133438110e-02
-5.631039664149284363e-02
-7.865300029516220093e-02
3.382738307118415833e-02
1.763989478349685669e-01
-1.702846609987318516e-03
-6.695248186588287354e-03
-3.658159077167510986e-02
-3.385248407721519470e-02
5.675845965743064880e-02
8.605752140283584595e-02
-7.043113559484481812e-02
1.048986911773681641e-01
-1.029323972761631012e-02
5.158167704939842224e-02
1.232178062200546265e-01
1.159834209829568863e-02
1.906491369009017944e-01
7.183071691542863846e-03
1.298260781913995743e-02
4.775757715106010437e-02
-4.298329353332519531e-02
7.113352417945861816e-02
-1.354595571756362915e-01
-1.285600662231445312e-01
1.097833290696144104e-01
1.673527359962463379e-01
1.776727885007858276e-01
8.024309575557708740e-02
1.022093892097473145e-01
-7.231795042753219604e-02
-1.408421397209167480e-01
3.857825696468353271e-02
3.527693077921867371e-02
-3.310431027784943581e-03
-1.396529972553253174e-01
-8.526599965989589691e-03
-1.543889939785003662e-02
-2.429302781820297241e-02
-6.166928261518478394e-02
-1.482587903738021851e-01
-4.460674151778221130e-02
-1.748144999146461487e-02
6.051300093531608582e-02
1.237258315086364746e-01
-8.608394116163253784e-02
-1.371558010578155518e-02
8.339590579271316528e-02
-1.482851207256317139e-01
-4.238488909322768450e-04
-1.131128743290901184e-01
-1.751109724864363670e-03
5.312786623835563660e-02
-8.550450950860977173e-02
-5.574214458465576172e-02
-8.460692316293716431e-02
-1.602041348814964294e-02
5.307224020361900330e-02
-2.435614727437496185e-02
-1.278896722942590714e-02
-2.358081564307212830e-02
-6.713233888149261475e-02
7.837231457233428955e-02
-8.116340637207031250e-02
7.490260899066925049e-02
9.725429862737655640e-02
-7.130288332700729370e-02
1.088540703058242798e-01
8.916032314300537109e-02
-5.426396429538726807e-02
-6.501515395939350128e-03
-2.978934720158576965e-02
6.412978470325469971e-02
-5.546203628182411194e-02
7.024737074971199036e-03
-3.783719241619110107e-02
-2.123137190937995911e-02
6.855536997318267822e-02
-1.119308844208717346e-01
-6.185079924762248993e-03
-3.247094899415969849e-02
-6.492375582456588745e-02
4.386565461754798889e-02
-7.752628624439239502e-02
5.198640376329421997e-02
-6.519702076911926270e-02
-7.089276611804962158e-02
-8.254752308130264282e-02
4.466809332370758057e-02
7.274129986763000488e-02
8.416155725717544556e-02
4.677194356918334961e-02
-5.548969283699989319e-02
-2.284499444067478180e-02
4.918851330876350403e-02
4.836412519216537476e-02
8.487373590469360352e-02
8.480323106050491333e-02
1.726818978786468506e-01
9.130988270044326782e-02
8.365678787231445312e-02
9.509629011154174805e-02
-1.008031442761421204e-01
-7.023571431636810303e-02
-1.024123206734657288e-01
-1.114981099963188171e-01
-9.752961993217468262e-02
-2.988255396485328674e-02
-5.000618472695350647e-02
6.235346943140029907e-02
5.605319514870643616e-02
-1.281812507659196854e-02
-7.513666152954101562e-02
-5.940161645412445068e-02
2.194098196923732758e-03
1.268112808465957642e-01
-2.888460829854011536e-02
-3.493714332580566406e-02
3.805078193545341492e-02
-1.709666475653648376e-02
1.903176121413707733e-02
-3.110610134899616241e-02
-5.291910469532012939e-02
-1.430484000593423843e-02
-1.124974787235260010e-01
-8.866102993488311768e-02
-2.773365937173366547e-02
-1.942402869462966919e-01
-7.285299152135848999e-02
-1.781118847429752350e-02
-3.332210332155227661e-02
-1.921787112951278687e-02
2.018311060965061188e-02
-5.751337856054306030e-02
-1.323044598102569580e-01
-7.928539812564849854e-02
-1.174284797161817551e-02
-3.745032101869583130e-02
4.147443547844886780e-02
-8.576114475727081299e-02
6.547257304191589355e-02
9.674916416406631470e-02
7.439603656530380249e-02
2.885086834430694580e-02
1.535076554864645004e-02
-4.954055417329072952e-03
2.069786638021469116e-01
3.913997113704681396e-02
-1.138674765825271606e-01
-9.398829936981201172e-02
6.346669048070907593e-02
-3.392471373081207275e-02
8.123097568750381470e-02
-1.326961666345596313e-01
-8.768713474273681641e-02
-1.369612012058496475e-02
-5.931119248270988464e-02
-2.539757639169692993e-02
-2.436130121350288391e-02
-1.340254675596952438e-02
-7.442040741443634033e-02
-4.649214446544647217e-02
6.055314093828201294e-02
4.862886667251586914e-02
3.334385901689529419e-02
1.668259501457214355e-02
5.302655976265668869e-03
-5.184993520379066467e-02
-6.818251311779022217e-02
-6.233958154916763306e-02
1.277343463152647018e-02
-4.616114869713783264e-02
-8.965128660202026367e-02
1.223554015159606934e-01
1.007439419627189636e-01
1.239579692482948303e-01
1.314179301261901855e-01
-3.627581894397735596e-02
-2.921040169894695282e-02
1.222216337919235229e-01
1.111495494842529297e-01
8.699810504913330078e-02
-1.098473966121673584e-01
-1.054940149188041687e-01
-1.584481634199619293e-02
9.363572113215923309e-03
6.852164864540100098e-03
-3.718873113393783569e-02
-2.141858935356140137e-01
-1.487014740705490112e-01
-1.716637425124645233e-02
1.170021817088127136e-01
-6.551114469766616821e-02
-2.311089187860488892e-01
-8.347451686859130859e-02
-1.488614231348037720e-01
1.669683903455734253e-01
1.622855961322784424e-01
-6.295885890722274780e-02
-8.675994724035263062e-02
-5.566002801060676575e-02
1.142063215374946594e-01
-6.020161136984825134e-02
9.583665430545806885e-02
2.842284366488456726e-02
-4.400201141834259033e-02
2.015827968716621399e-02
1.587246172130107880e-02
-3.051618114113807678e-02
3.340564668178558350e-02
-9.977184981107711792e-02
6.198836490511894226e-02
-3.076436556875705719e-02
2.961106412112712860e-02
-3.171273972839117050e-03
2.282592654228210449e-01
7.565336674451828003e-02
5.770006403326988220e-02
1.009506657719612122e-01
1.534168608486652374e-02
2.300418615341186523e-01
5.146546289324760437e-02
1.657604575157165527e-01
-1.968394033610820770e-02
-1.323293000459671021e-01
-5.799552053213119507e-02
5.483271926641464233e-02
-6.919019389897584915e-03
-3.607887029647827148e-02
9.660895913839340210e-03
2.340178703889250755e-03
-5.293875187635421753e-02
-3.939481824636459351e-02
-3.403276950120925903e-02
3.828480606898665428e-03
-9.877009689807891846e-02
-9.812649339437484741e-02
1.481686159968376160e-02
8.116290718317031860e-02
2.453468367457389832e-02
-8.765977621078491211e-02
-5.445922166109085083e-02
7.309868186712265015e-02
-2.821313217282295227e-02
-5.610946193337440491e-02
-1.832166872918605804e-02
-1.946524530649185181e-02
1.810795255005359650e-02
1.495921313762664795e-01
1.868938505649566650e-01
9.466265141963958740e-02
1.148813366889953613e-01
-6.540963798761367798e-02
-7.508489489555358887e-02
-9.270613081753253937e-03
6.964705884456634521e-02
2.384932637214660645e-01
2.644455730915069580e-01
-7.169605046510696411e-02
4.991735517978668213e-02
1.834740638732910156e-01
1.803830116987228394e-01
1.982720941305160522e-01
3.778236359357833862e-02
4.157459363341331482e-02
7.397031038999557495e-02
4.888867214322090149e-02
1.390432864427566528e-01
-4.732002038508653641e-03
-5.247555300593376160e-02
1.460719406604766846e-01
2.409994788467884064e-02
-2.118258364498615265e-02
7.552567869424819946e-02
-2.505848705768585205e-01
-6.122725456953048706e-02
1.065678298473358154e-01
-2.020277529954910278e-01
-3.802164271473884583e-02
1.872460842132568359e-01
2.736840024590492249e-02
-1.312845349311828613e-01
-8.828691393136978149e-02
5.956717580556869507e-02
-2.267798408865928650e-02
-5.284155532717704773e-02
-1.617273539304733276e-01
1.440085470676422119e-02
3.710039332509040833e-02
9.669941663742065430e-02
8.214800059795379639e-02
-1.315471231937408447e-01
-8.029168099164962769e-02
1.221509426832199097e-01
1.017438620328903198e-01
2.421708591282367706e-02
-1.228035762906074524e-01
-1.017238423228263855e-01
-2.664129063487052917e-02
-1.357414126396179199e-01
2.457530051469802856e-02
-5.602616816759109497e-02
7.467856258153915405e-02
1.009413450956344604e-01
-5.537632480263710022e-02
1.004648115485906601e-02
-5.055817589163780212e-02
8.280531316995620728e-02
1.310756057500839233e-01
2.901515364646911621e-02
-2.923229895532131195e-02
-5.436599627137184143e-02
-9.308633953332901001e-02
-2.502359822392463684e-02
-6.457985937595367432e-02
-4.474821686744689941e-02
-1.846534386277198792e-02
3.167717531323432922e-02
3.825517371296882629e-02
1.930431649088859558e-02
9.146634489297866821e-02
3.748368471860885620e-02
7.308506406843662262e-03
-1.202748343348503113e-02
2.348650395870208740e-01
5.618618801236152649e-02
1.672010868787765503e-01
-5.664758384227752686e-03
-2.156607508659362793e-01
-1.481871008872985840e-01
-4.218303412199020386e-02
2.407723516225814819e-01
1.731894314289093018e-01
3.137223049998283386e-02
-9.439702332019805908e-02
-1.749536842107772827e-01
-1.485451906919479370e-01
-1.083470061421394348e-01
2.120265215635299683e-01
-2.420441247522830963e-02
6.910558044910430908e-02
-2.290748506784439087e-01
-2.655611336231231689e-01
2.503890991210937500e-01
2.160999551415443420e-02
4.473415017127990723e-02
-7.217234373092651367e-02
1.040915306657552719e-02
