-4.826414398849010468e-03
5.883540958166122437e-02
3.053553216159343719e-02
4.785683751106262207e-02
4.777975380420684814e-02
7.411074638366699219e-02
-8.243919909000396729e-02
-5.466157943010330200e-02
-1.312739867717027664e-02
-5.843782424926757812e-02
-3.052945248782634735e-02
-1.991323567926883698e-02
7.079151924699544907e-03
1.085299532860517502e-02
6.813759356737136841e-02
4.868156835436820984e-02
5.438710562884807587e-03
-3.585131466388702393e-02
1.623720303177833557e-02
-8.041975088417530060e-03
3.835650905966758728e-02
4.045513644814491272e-02
-3.416218236088752747e-02
3.895080089569091797e-02
-5.421021208167076111e-02
2.227312140166759491e-02
-5.450347810983657837e-02
5.425095092505216599e-03
-1.736746728420257568e-02
4.627606645226478577e-02
1.372632570564746857e-02
-5.267335474491119385e-02
3.333346173167228699e-02
4.615791887044906616e-02
4.169160127639770508e-02
-4.109412804245948792e-02
-4.553581401705741882e-02
-4.421165585517883301e-02
4.157132655382156372e-02
-2.114841341972351074e-02
-4.669048637151718140e-02
-5.192921310663223267e-02
-5.365067347884178162e-02
-2.447877824306488037e-02
4.189913347363471985e-02
4.138160124421119690e-02
-3.126621618866920471e-02
1.797681907191872597e-03
-3.233935311436653137e-02
1.193438004702329636e-02
7.569376379251480103e-02
-5.806502699851989746e-02
-4.201409965753555298e-02
4.316378757357597351e-02
8.778127841651439667e-03
6.200866401195526123e-02
1.935588382184505463e-02
2.855619043111801147e-02
-2.211461029946804047e-02
5.359945446252822876e-02
-1.666966266930103302e-02
-8.843445219099521637e-03
-1.260690484195947647e-02
-3.817933844402432442e-03
-1.429157797247171402e-02
5.939731001853942871e-02
-3.667887533083558083e-03
-7.091423869132995605e-02
5.133793130517005920e-02
7.061039097607135773e-03
-5.502858385443687439e-02
9.726476855576038361e-03
-6.495564430952072144e-02
4.708905518054962158e-02
-1.752964965999126434e-02
2.530173584818840027e-02
-7.766960654407739639e-03
-1.333016715943813324e-02
4.881672188639640808e-02
-2.038453333079814911e-02
-2.445482276380062103e-02
-3.687111660838127136e-02
5.493466556072235107e-02
7.224618643522262573e-02
1.027964353561401367e-01
1.978987269103527069e-02
-2.797706425189971924e-02
-2.686880994588136673e-03
-8.666091598570346832e-03
-3.246064856648445129e-02
4.310264810919761658e-02
5.349216982722282410e-02
-1.283644791692495346e-02
-2.675903216004371643e-02
8.329398930072784424e-02
-2.271552197635173798e-02
-2.866495586931705475e-02
-2.120970515534281731e-03
-3.961353749036788940e-02
-6.422028876841068268e-03
4.343690350651741028e-02
8.515509963035583496e-02
-5.690277367830276489e-02
-7.361918687820434570e-02
-2.673301473259925842e-02
3.679494187235832214e-02
-7.623250782489776611e-02
-1.554558519273996353e-02
-5.072589218616485596e-02
8.979131281375885010e-02
-1.069184299558401108e-02
2.847508876584470272e-04
-1.193691510707139969e-02
-1.444965973496437073e-02
-3.003368899226188660e-02
-1.254192646592855453e-02
6.409934908151626587e-02
4.975845292210578918e-02
-6.008998677134513855e-02
4.175940994173288345e-03
