-3.851440921425819397e-02
1.223301794379949570e-02
-5.010509863495826721e-02
2.899654395878314972e-02
-1.365337520837783813e-02
5.706272274255752563e-02
-2.809652499854564667e-02
7.953108847141265869e-02
-4.620671272277832031e-02
4.047230631113052368e-02
1.299266889691352844e-02
-3.353400097694247961e-04
-7.895880937576293945e-02
2.400564961135387421e-02
8.134759846143424511e-04
-4.044486582279205322e-02
9.864614158868789673e-02
6.701912730932235718e-02
5.841651558876037598e-02
-2.032505162060260773e-02
-4.838937893509864807e-02
-4.754663258790969849e-02
-4.752217978239059448e-02
4.535749182105064392e-02
4.314595088362693787e-02
-3.080526553094387054e-02
5.047644302248954773e-02
3.939688950777053833e-02
-5.900700390338897705e-02
4.004287067800760269e-03
-1.288573024794459343e-03
-3.282234072685241699e-02
9.008898399770259857e-03
5.333779007196426392e-02
1.859390921890735626e-02
6.846292316913604736e-02
-5.266069993376731873e-02
-4.030685871839523315e-02
3.663382306694984436e-02
8.311077207326889038e-02
-2.823383361101150513e-02
3.099668305367231369e-03
-5.290209129452705383e-02
-7.507925480604171753e-02
4.963570460677146912e-02
-1.245675794780254364e-02
4.450041055679321289e-02
-4.744590446352958679e-02
6.947427988052368164e-02
1.134306658059358597e-02
5.519746989011764526e-02
5.125302821397781372e-02
-6.192422658205032349e-02
3.857732983306050301e-03
6.979240477085113525e-02
1.341125648468732834e-02
1.617037318646907806e-02
7.869239896535873413e-02
-2.596801891922950745e-02
1.925444789230823517e-02
5.253558233380317688e-02
4.592935740947723389e-02
3.928818553686141968e-02
-2.574154734611511230e-02
6.019957829266786575e-03
-5.439038947224617004e-02
1.599244773387908936e-02
-4.544946923851966858e-02
2.924227342009544373e-02
3.463238105177879333e-02
-5.402871593832969666e-02
2.441734448075294495e-02
4.306568577885627747e-02
-1.702512241899967194e-02
1.809463649988174438e-02
4.921526089310646057e-02
-3.935508430004119873e-03
-5.736643448472023010e-02
-2.445967111270874739e-04
6.728056073188781738e-02
-6.085828319191932678e-02
-2.412279322743415833e-02
2.469323389232158661e-02
-1.235584542155265808e-02
2.095519192516803741e-02
-2.344809845089912415e-02
-5.127363279461860657e-02
3.303577657788991928e-03
4.017157480120658875e-02
6.268000602722167969e-02
7.181475311517715454e-02
9.777341037988662720e-04
-7.315818220376968384e-02
4.148435965180397034e-02
1.900787837803363800e-02
-1.377089601010084152e-02
2.994896844029426575e-02
-4.736436530947685242e-02
3.868120908737182617e-02
-3.568077459931373596e-02
-1.980675384402275085e-02
3.138916566967964172e-02
3.031835705041885376e-02
1.976716332137584686e-03
-5.169263854622840881e-02
-3.646485507488250732e-02
-6.581629812717437744e-02
8.052024058997631073e-03
3.639974817633628845e-02
5.825464054942131042e-02
-2.591780945658683777e-02
-7.407460361719131470e-03
-4.299545288085937500e-02
-4.460829123854637146e-02
3.461343050003051758e-02
9.321058541536331177e-02
-3.091610036790370941e-02
-2.621458843350410461e-02
8.526937104761600494e-03
-2.033356949687004089e-02
