-5.866958573460578918e-02
-2.191861718893051147e-02
8.897037804126739502e-02
-5.120027065277099609e-02
7.276657503098249435e-03
-2.781110443174839020e-02
-5.893341079354286194e-02
-7.913800328969955444e-02
-5.396127016865648329e-05
7.121051102876663208e-02
1.913288980722427368e-02
-3.296842053532600403e-02
-1.691214740276336670e-02
9.278354048728942871e-02
7.516200095415115356e-02
-3.136653080582618713e-02
-1.060818601399660110e-02
4.856296814978122711e-03
6.491923332214355469e-02
1.735592260956764221e-02
-8.313557133078575134e-03
1.594981737434864044e-02
4.305083304643630981e-03
6.474447995424270630e-02
7.717214990407228470e-03
-1.391394436359405518e-01
1.972519792616367340e-02
2.851771563291549683e-02
-1.015280652791261673e-02
-9.180645644664764404e-02
1.149289403110742569e-02
3.259494155645370483e-02
-1.195563748478889465e-02
2.104284986853599548e-02
1.756574586033821106e-02
-2.234289050102233887e-02
-4.277558624744415283e-02
-3.832358866930007935e-02
-2.325464971363544464e-02
-1.885001920163631439e-02
-5.375595018267631531e-02
-1.155644655227661133e-02
-4.346438124775886536e-02
1.384118478745222092e-02
-7.286351919174194336e-02
1.569921337068080902e-02
1.325989514589309692e-01
-2.232961822301149368e-03
2.404536679387092590e-02
1.143991276621818542e-01
3.448389843106269836e-02
5.868711974471807480e-03
-1.506544090807437897e-02
1.719722151756286621e-02
2.965150214731693268e-02
6.481234729290008545e-02
-2.510733029339462519e-04
-1.531067676842212677e-02
1.487876940518617630e-02
-1.232325937598943710e-02
-2.740257047116756439e-02
-3.573031723499298096e-02
-1.291575431823730469e-01
-6.321367621421813965e-02
4.698225855827331543e-02
-1.734652556478977203e-02
-5.772986263036727905e-02
2.589944982901215553e-03
-4.342892765998840332e-02
-9.186612069606781006e-02
-8.790460973978042603e-02
-1.072220597416162491e-02
5.198158789426088333e-03
-1.170575320720672607e-01
2.573540806770324707e-02
-6.248842924833297729e-02
2.094132825732231140e-03
-8.877994120121002197e-02
-5.018890835344791412e-03
5.848680064082145691e-02
-1.741832867264747620e-02
9.142126888036727905e-02
1.227310821413993835e-01
-4.252323135733604431e-02
-7.302798330783843994e-02
7.202032953500747681e-02
-2.511174790561199188e-02
-7.465424388647079468e-02
-5.219162255525588989e-02
-4.303614795207977295e-02
-1.177797932177782059e-02
-5.236297100782394409e-02
-1.114394664764404297e-01
-8.989214897155761719e-02
-2.255357801914215088e-03
-7.331468909978866577e-02
-3.266188502311706543e-02
-1.804136298596858978e-02
1.331126969307661057e-02
-7.064813375473022461e-02
-4.372405633330345154e-02
8.065751940011978149e-02
4.014519974589347839e-02
-3.236999735236167908e-02
-3.775029256939888000e-02
-3.450381383299827576e-02
6.560129672288894653e-02
-3.837074711918830872e-02
1.330577731132507324e-01
2.248449027538299561e-01
-4.603530094027519226e-02
4.243555665016174316e-02
7.130495458841323853e-02
-3.200745675712823868e-03
3.839999809861183167e-02
-2.752907387912273407e-02
6.147921085357666016e-02
-2.075680065900087357e-03
1.129583362489938736e-02
-7.861132733523845673e-03
3.111523948609828949e-02
-4.740346595644950867e-02
9.050353616476058960e-02
-4.998985677957534790e-03
-1.971922256052494049e-02
2.607401646673679352e-02
1.585006713867187500e-02
2.450169622898101807e-02
-7.654632627964019775e-02
4.224785044789314270e-02
-6.326460838317871094e-02
4.249900579452514648e-02
4.543368145823478699e-02
3.522415878251194954e-03
7.974598556756973267e-03
6.714085489511489868e-02
-3.609539568424224854e-02
-1.198443025350570679e-02
1.200265716761350632e-02
5.951602384448051453e-02
-3.119244240224361420e-02
-9.276653081178665161e-02
-5.532715097069740295e-02
-1.515570376068353653e-02
-5.204040789976716042e-04
1.231222525238990784e-01
5.092601850628852844e-02
-6.630900315940380096e-04
4.847621917724609375e-02
4.133673757314682007e-02
-4.333746805787086487e-02
2.977108955383300781e-02
-6.465992331504821777e-02
-7.609838247299194336e-02
-2.074561081826686859e-02
-3.023410961031913757e-02
3.658400848507881165e-02
-2.285920828580856323e-01
-1.369435787200927734e-01
4.605231061577796936e-02
-8.467838779324665666e-05
6.558104604482650757e-02
4.003183916211128235e-02
2.324579283595085144e-02
6.440470367670059204e-02
8.499429374933242798e-02
-3.437539562582969666e-02
6.716874241828918457e-02
1.469254642724990845e-01
-2.012846758589148521e-03
-1.266813836991786957e-02
-4.346708580851554871e-02
5.846339464187622070e-02
-1.669284701347351074e-02
-4.254211857914924622e-02
2.055047079920768738e-02
2.444374747574329376e-02
-1.210645288228988647e-01
-3.747964277863502502e-02
7.769480347633361816e-02
-5.979935824871063232e-02
-4.133814200758934021e-02
3.246394917368888855e-02
-9.173387289047241211e-02
4.250847175717353821e-02
-4.691423475742340088e-02
5.301918461918830872e-02
-1.042694039642810822e-02
-1.160856522619724274e-02
7.131975144147872925e-02
1.167883947491645813e-01
5.377132073044776917e-02
-1.263948082923889160e-01
-6.056201830506324768e-02
9.692239016294479370e-02
-6.686966121196746826e-02
-1.149682626128196716e-01
-7.135284598916769028e-03
1.026554964482784271e-02
3.815257176756858826e-02
1.256435178220272064e-02
1.098637003451585770e-02
-7.270368188619613647e-02
-2.382117137312889099e-02
2.441903017461299896e-02
1.594504527747631073e-02
-6.161706522107124329e-02
-1.444834866560995579e-03
4.468113556504249573e-02
-2.922281809151172638e-02
6.309942156076431274e-02
6.385826319456100464e-02
6.804312020540237427e-02
1.216231752187013626e-02
-2.162315696477890015e-02
-8.056089282035827637e-03
8.027231693267822266e-02
7.572734262794256210e-03
-6.154289841651916504e-02
1.925141783431172371e-03
-8.230118453502655029e-02
-1.167350709438323975e-01
-1.427675187587738037e-01
-7.881767302751541138e-02
-4.008963704109191895e-02
4.479264467954635620e-02
3.890590742230415344e-02
-3.075115196406841278e-02
9.190285578370094299e-03
-5.858907848596572876e-02
-7.443315535783767700e-02
3.135940805077552795e-02
5.714259669184684753e-02
-2.744548022747039795e-02
6.827274709939956665e-02
-5.435580387711524963e-02
-7.458465546369552612e-02
2.424068935215473175e-02
3.028921782970428467e-02
3.089664503931999207e-02
5.045958980917930603e-02
-2.108117938041687012e-02
6.547794491052627563e-02
4.957674816250801086e-02
-6.908216327428817749e-02
-1.091615576297044754e-02
6.013999506831169128e-02
2.303030528128147125e-02
1.053496077656745911e-01
-1.518403552472591400e-02
-1.951441541314125061e-02
3.180846106261014938e-03
4.502206668257713318e-02
7.756979204714298248e-03
-3.836982697248458862e-02
1.339354831725358963e-02
-1.228439249098300934e-02
-6.956978142261505127e-02
1.843311265110969543e-02
7.908669859170913696e-02
-3.887483477592468262e-02
4.909430444240570068e-02
-6.591165810823440552e-02
4.451489448547363281e-02
3.230576589703559875e-02
-2.110256813466548920e-02
-3.066117689013481140e-02
-7.064986974000930786e-02
-3.321403637528419495e-02
-2.817366085946559906e-02
8.210092037916183472e-02
-4.796516150236129761e-03
-2.424588240683078766e-02
-3.889668732881546021e-02
3.527721855789422989e-03
-1.026037782430648804e-01
-3.121408820152282715e-02
6.018308456987142563e-03
4.654807969927787781e-02
7.471818476915359497e-02
-5.067180842161178589e-02
-6.374595314264297485e-02
-6.262437440454959869e-03
-2.327450737357139587e-02
-1.634082570672035217e-02
-7.935067266225814819e-02
5.100619047880172729e-02
8.387523144483566284e-02
1.997264567762613297e-03
2.756434492766857147e-02
-1.518871355801820755e-02
5.357758328318595886e-02
-5.604765936732292175e-02
4.502086341381072998e-02
-9.176966734230518341e-03
2.220845036208629608e-02
9.693162515759468079e-03
-1.385419350117444992e-02
6.669529527425765991e-02
-2.890570461750030518e-02
3.629019856452941895e-02
-4.515783395618200302e-03
7.138637453317642212e-02
-2.716319076716899872e-02
-7.258252799510955811e-02
-1.672193221747875214e-02
-7.741649448871612549e-02
-4.348629340529441833e-02
4.022821784019470215e-03
2.163406088948249817e-02
-2.389450371265411377e-02
-4.286080598831176758e-02
2.442851476371288300e-02
1.218802481889724731e-01
3.982998803257942200e-02
-4.453038796782493591e-02
3.358216956257820129e-02
5.292202904820442200e-02
6.630633492022752762e-03
7.029820978641510010e-02
-1.073002815246582031e-03
-6.303596496582031250e-02
4.939406062476336956e-04
4.166263341903686523e-02
-7.747490704059600830e-02
-4.572267830371856689e-02
-2.643129229545593262e-02
-2.262330055236816406e-02
-2.957409061491489410e-02
3.101390972733497620e-02
7.005015760660171509e-02
2.722469717264175415e-02
-3.162048757076263428e-02
-5.315532535314559937e-02
7.568106055259704590e-02
2.972950413823127747e-02
8.818860352039337158e-02
8.445244282484054565e-02
7.945803552865982056e-02
6.127301603555679321e-02
-4.592967778444290161e-02
1.312908343970775604e-02
-3.654237603768706322e-03
-3.769663348793983459e-02
-4.443847015500068665e-02
6.641577184200286865e-02
3.862035274505615234e-02
-8.687398582696914673e-02
2.892558230087161064e-03
5.498332437127828598e-03
7.630784995853900909e-03
-9.809295088052749634e-02
-6.182982772588729858e-02
-2.716339007019996643e-02
-6.929741799831390381e-02
-7.547645829617977142e-03
3.834223747253417969e-02
5.236218869686126709e-02
2.632290124893188477e-02
5.812870338559150696e-02
-3.483785316348075867e-02
-2.424507401883602142e-02
2.621209248900413513e-02
2.121330797672271729e-02
-3.052662871778011322e-02
1.099897921085357666e-01
7.447843253612518311e-02
6.429687142372131348e-02
-2.933455072343349457e-02
7.920805364847183228e-02
-7.823795080184936523e-02
-1.104269996285438538e-01
4.823843017220497131e-03
-2.962389774620532990e-02
1.160508021712303162e-02
-1.323585957288742065e-01
7.696664333343505859e-02
-2.704455703496932983e-02
-4.767922684550285339e-03
-1.860020309686660767e-02
-3.908157721161842346e-02
5.251161754131317139e-02
-2.487203851342201233e-02
-4.506070166826248169e-02
-6.797028239816427231e-03
2.868223749101161957e-02
-4.786728695034980774e-02
-9.053620696067810059e-02
-5.471005570143461227e-03
6.871218979358673096e-02
4.733338952064514160e-02
1.248302683234214783e-02
-7.998453080654144287e-02
1.106249913573265076e-01
3.973462060093879700e-02
6.767109036445617676e-02
-8.612661063671112061e-02
-1.029015402309596539e-03
5.473494902253150940e-02
-3.604120761156082153e-02
6.137913092970848083e-02
1.003564298152923584e-01
3.107940219342708588e-02
-1.264444887638092041e-01
1.695257425308227539e-02
-4.636860638856887817e-02
3.287364169955253601e-02
-9.521848708391189575e-02
5.506078153848648071e-02
-6.541310809552669525e-03
-4.539479315280914307e-02
3.068408928811550140e-02
-2.672845125198364258e-02
-6.947527080774307251e-02
-1.279229670763015747e-01
5.351079255342483521e-02
-4.582950845360755920e-02
-2.678984543308615685e-03
-9.680705145001411438e-03
4.483108222484588623e-02
2.072297222912311554e-02
-4.846015945076942444e-02
4.161114990711212158e-02
5.033738538622856140e-02
7.888842374086380005e-03
-6.955903768539428711e-02
1.079576835036277771e-02
2.667844668030738831e-02
9.632457792758941650e-02
-2.589857950806617737e-02
-5.056212190538644791e-03
6.551370024681091309e-02
-9.293729439377784729e-03
-1.327440887689590454e-01
-9.451184421777725220e-02
1.092268005013465881e-01
-2.343600615859031677e-02
1.598132401704788208e-02
3.954698517918586731e-02
-4.905439913272857666e-02
-7.460232079029083252e-02
4.288473166525363922e-03
5.831520259380340576e-02
6.613492500036954880e-03
4.319161921739578247e-02
6.794587522745132446e-02
8.973332494497299194e-02
8.431897312402725220e-02
-1.848116889595985413e-02
-8.437858521938323975e-02
4.056502133607864380e-02
-1.376242190599441528e-01
6.218773499131202698e-02
1.223332714289426804e-02
6.266806274652481079e-02
-2.774063870310783386e-02
2.666383050382137299e-02
6.990532577037811279e-02
6.365675944834947586e-03
2.502806484699249268e-03
-2.333172969520092010e-02
1.185948625206947327e-01
-3.414401039481163025e-02
-2.435013279318809509e-02
-1.317487750202417374e-02
3.918831236660480499e-03
7.355645298957824707e-02
-1.189168263226747513e-02
-1.947105117142200470e-02
-4.738325625658035278e-02
5.120605602860450745e-02
-6.475595384836196899e-02
8.018154650926589966e-02
2.241850458085536957e-02
-1.567653194069862366e-02
6.003542616963386536e-02
6.563086062669754028e-02
2.377299778163433075e-02
-4.219173640012741089e-02
-8.524321019649505615e-02
-4.601492360234260559e-02
-8.219975978136062622e-02
-1.077706273645162582e-02
1.484687253832817078e-02
6.615630351006984711e-03
-4.554990306496620178e-02
4.094088450074195862e-02
4.187218472361564636e-02
-5.006353929638862610e-02
-1.806100644171237946e-02
5.324744060635566711e-02
-3.965546842664480209e-03
3.138853237032890320e-02
-3.510272130370140076e-02
-7.399383775918977335e-06
6.157020851969718933e-02
8.581579476594924927e-02
2.386961504817008972e-02
6.184534728527069092e-02
2.265378087759017944e-02
8.680218597874045372e-04
1.227940805256366730e-02
5.752578843384981155e-03
-7.353097945451736450e-02
-3.356054425239562988e-02
-4.899928346276283264e-02
-1.010778397321701050e-01
-7.426773011684417725e-02
1.762656867504119873e-02
9.957031346857547760e-03
-5.159602314233779907e-02
6.221040710806846619e-02
-4.850138723850250244e-02
3.064530342817306519e-02
-5.117386206984519958e-02
3.427071869373321533e-02
5.636250227689743042e-02
-2.689888700842857361e-02
3.848085924983024597e-02
-2.036848105490207672e-02
2.681123465299606323e-02
3.188433870673179626e-02
-4.259145259857177734e-02
-1.007427554577589035e-02
-5.002452060580253601e-02
4.342843964695930481e-02
4.034282639622688293e-03
-6.606708280742168427e-03
-5.964396148920059204e-02
5.964450910687446594e-02
-3.858253126963973045e-03
-5.409009754657745361e-02
-4.629905521869659424e-02
-4.919069260358810425e-02
-6.883512251079082489e-03
4.683712124824523926e-02
-1.215011533349752426e-02
3.719053231179714203e-03
-4.384191706776618958e-02
-2.950103580951690674e-02
-1.488586794584989548e-02
2.112485654652118683e-02
-4.877122864127159119e-02
-1.574560441076755524e-02
4.656490683555603027e-02
4.354257881641387939e-02
-8.403827436268329620e-03
2.546363696455955505e-02
-2.108585089445114136e-02
-1.287218928337097168e-02
-4.683638364076614380e-02
-1.658600009977817535e-02
-4.630640894174575806e-02
5.607695877552032471e-02
6.158264353871345520e-03
-1.884206756949424744e-02
5.950020998716354370e-02
-5.900737643241882324e-02
4.261060617864131927e-03
1.206392981112003326e-02
3.377741947770118713e-02
-5.443038791418075562e-02
1.332400180399417877e-02
5.407480895519256592e-02
-2.415631897747516632e-02
-5.587393417954444885e-03
-4.455158114433288574e-02
-1.224211603403091431e-02
2.339818514883518219e-02
-5.175671074539422989e-03
-3.890481591224670410e-02
1.140942680649459362e-03
6.277708336710929871e-03
4.544748365879058838e-02
4.780646413564682007e-02
-5.952554196119308472e-02
-4.338459298014640808e-02
-3.930759057402610779e-02
-3.761291503906250000e-02
-2.046827785670757294e-02
-1.141784340143203735e-02
-6.156399846076965332e-02
-4.826453700661659241e-02
-1.719667576253414154e-02
-1.965194940567016602e-03
-5.546525865793228149e-02
-1.664112135767936707e-02
-2.554370649158954620e-02
5.973373353481292725e-02
2.416865527629852295e-02
-6.140815094113349915e-02
5.251837149262428284e-02
-2.096028765663504601e-03
-4.427444189786911011e-02
-9.257974103093147278e-03
-4.949390515685081482e-02
-1.414456218481063843e-02
-5.205957591533660889e-02
2.850429527461528778e-02
-6.144879758358001709e-02
-3.038492612540721893e-02
-3.864032775163650513e-02
2.344772964715957642e-02
4.869638010859489441e-03
-6.828290410339832306e-03
-2.242862619459629059e-02
3.485236316919326782e-02
-5.247918306849896908e-04
-2.009859122335910797e-02
1.109011843800544739e-02
-3.604196757078170776e-02
-6.093636155128479004e-02
-1.876921020448207855e-02
-6.167887523770332336e-02
2.972171641886234283e-02
6.130954250693321228e-02
-4.299951717257499695e-03
-6.756776012480258942e-03
4.643367230892181396e-02
-2.609350904822349548e-02
-6.024653464555740356e-02
-1.613793708384037018e-02
4.141441732645034790e-02
-2.357246540486812592e-02
-1.938552595674991608e-02
-4.244555905461311340e-02
-1.254546735435724258e-02
4.328162968158721924e-02
-3.406800329685211182e-02
-2.505703456699848175e-02
6.071463227272033691e-02
1.358540635555982590e-02
6.203622370958328247e-02
1.909245178103446960e-02
6.137693673372268677e-02
-2.121524699032306671e-02
1.543363835662603378e-02
-2.367933094501495361e-02
3.256691247224807739e-02
4.630239307880401611e-02
-2.441665902733802795e-02
4.464599862694740295e-02
-3.813590854406356812e-02
-4.211544990539550781e-02
-5.267760902643203735e-02
5.424933135509490967e-02
3.513469174504280090e-02
-4.091708362102508545e-02
2.438455075025558472e-02
-4.759824648499488831e-02
1.397639699280261993e-02
-1.999759674072265625e-02
1.498615089803934097e-02
-2.182810567319393158e-02
4.319908097386360168e-02
1.285605970770120621e-02
-2.004064247012138367e-02
4.465414956212043762e-02
4.737668484449386597e-02
-3.891316801309585571e-02
5.886767432093620300e-02
-4.951207339763641357e-02
3.951446712017059326e-02
3.710556030273437500e-02
5.078517645597457886e-02
4.129829630255699158e-02
1.774621568620204926e-02
-4.187219962477684021e-02
2.309028431773185730e-02
6.173683702945709229e-02
-1.817003823816776276e-02
-1.889923028647899628e-02
-2.360363304615020752e-02
2.117666788399219513e-02
2.683309838175773621e-03
-2.929484285414218903e-02
3.278307616710662842e-02
-3.536948189139366150e-02
-4.440191388130187988e-02
4.820675030350685120e-02
-6.006421521306037903e-02
-2.822665125131607056e-02
-1.781543157994747162e-02
1.704878918826580048e-02
5.411953665316104889e-03
3.221225738525390625e-02
2.851055748760700226e-02
-7.190424948930740356e-03
5.466379970312118530e-02
1.738595403730869293e-02
5.057603120803833008e-02
2.272699400782585144e-02
-5.938141420483589172e-02
-4.322817176580429077e-02
6.187960132956504822e-02
8.095184341073036194e-03
2.754775434732437134e-02
-5.211891233921051025e-02
-5.452657863497734070e-02
5.314557999372482300e-02
-1.446545030921697617e-02
-1.594612142071127892e-03
-3.017684677615761757e-03
-5.317937955260276794e-02
3.807718306779861450e-02
-6.587028037756681442e-04
9.490715339779853821e-03
1.364838611334562302e-02
-5.558433942496776581e-03
1.195541233755648136e-03
-2.684031846001744270e-03
-5.727351456880569458e-02
4.051136597990989685e-02
-1.883056201040744781e-02
-5.619554594159126282e-02
-3.450803458690643311e-03
-5.447788909077644348e-02
-2.455767802894115448e-02
-1.831526122987270355e-02
3.266298398375511169e-02
-5.191378295421600342e-02
-1.004376914352178574e-02
1.173768658190965652e-02
1.359562273137271404e-03
3.962011262774467468e-02
5.716072628274559975e-04
3.016110509634017944e-02
-2.656690962612628937e-02
-3.978705033659934998e-02
3.886056318879127502e-02
4.539217799901962280e-03
-6.044468656182289124e-02
-1.175826601684093475e-02
3.539327066391706467e-03
-4.609620943665504456e-02
1.232594659086316824e-04
5.865786969661712646e-02
-4.668230190873146057e-03
4.023290053009986877e-02
2.816236577928066254e-02
5.416973680257797241e-02
-1.205212622880935669e-02
4.853647574782371521e-02
4.753811284899711609e-02
-3.504855930805206299e-02
-4.559218883514404297e-02
1.953779533505439758e-02
1.907902024686336517e-02
-2.738429605960845947e-02
5.819366872310638428e-02
-3.624406829476356506e-02
1.744511537253856659e-02
2.385537326335906982e-02
-5.860191956162452698e-02
-2.780470252037048340e-02
-3.484828025102615356e-02
-3.960398212075233459e-02
-3.953566402196884155e-02
-4.991014301776885986e-02
-2.177720330655574799e-02
1.415335759520530701e-02
-2.630611881613731384e-02
6.002806127071380615e-03
-1.764707558322697878e-04
-5.166966095566749573e-02
-2.569695375859737396e-02
-1.931214332580566406e-02
-3.023957088589668274e-02
3.382770717144012451e-02
-4.188846796751022339e-02
-2.352392673492431641e-02
8.022491633892059326e-02
2.440748549997806549e-02
3.631757944822311401e-02
-1.340851560235023499e-02
1.745962724089622498e-02
-7.642532582394778728e-04
7.794062048196792603e-02
5.805617570877075195e-02
-4.334630444645881653e-02
3.330972045660018921e-02
4.609382525086402893e-02
6.515248678624629974e-03
2.036606706678867340e-02
-4.175065550953149796e-03
-2.268478646874427795e-02
-3.105604089796543121e-03
-4.029328003525733948e-02
9.376094676554203033e-03
1.485662534832954407e-02
5.679608439095318317e-04
-4.126603156328201294e-02
-5.015537887811660767e-02
8.764433860778808594e-02
-5.395399034023284912e-02
-2.679603733122348785e-02
-7.463187910616397858e-03
6.900431215763092041e-02
7.878827303647994995e-02
-8.409662544727325439e-02
4.485927522182464600e-02
9.431878104805946350e-03
-3.542598336935043335e-02
-8.462504483759403229e-03
4.057194665074348450e-02
3.797775506973266602e-02
-4.472220316529273987e-02
-2.398860454559326172e-02
1.083773747086524963e-02
1.003494709730148315e-01
4.992464929819107056e-02
1.893331669270992279e-02
4.984576627612113953e-02
1.443847566843032837e-01
3.537990152835845947e-03
-9.134005755186080933e-02
-4.727087169885635376e-02
3.251606971025466919e-02
3.990069031715393066e-03
-2.821782976388931274e-02
-5.141730606555938721e-02
7.178507000207901001e-02
6.285065412521362305e-02
5.437302589416503906e-02
1.947378367185592651e-02
1.090107411146163940e-01
-3.662592545151710510e-02
3.383369371294975281e-02
-6.291233748197555542e-02
3.297842293977737427e-02
-2.193712256848812103e-02
-1.648558825254440308e-01
2.559521608054637909e-02
-3.479013219475746155e-02
-5.637530982494354248e-02
-1.751265078783035278e-01
1.832848042249679565e-01
1.190350111573934555e-02
-9.154540486633777618e-03
-1.235620900988578796e-01
1.105945743620395660e-02
-1.988852210342884064e-02
2.652075141668319702e-02
-8.382291346788406372e-02
-6.009776145219802856e-02
5.353954061865806580e-02
4.533593729138374329e-02
-1.017737314105033875e-01
-1.659713536500930786e-01
-2.326523512601852417e-02
7.218945771455764771e-02
-1.270875148475170135e-02
-2.720453962683677673e-02
-1.347642298787832260e-02
6.473149359226226807e-02
-2.111912518739700317e-02
1.079616025090217590e-01
-2.964347228407859802e-02
5.823746696114540100e-02
-1.229816973209381104e-01
1.605813652276992798e-01
-3.465986112132668495e-03
4.148424044251441956e-02
-4.547796025872230530e-02
1.172217577695846558e-01
3.960843011736869812e-02
-7.251729816198348999e-02
-5.272518470883369446e-02
-1.054401043802499771e-03
-1.468510273844003677e-02
-1.480242796242237091e-02
-8.124057203531265259e-02
4.308243468403816223e-02
5.555669218301773071e-02
1.053300276398658752e-01
-6.030634418129920959e-02
-9.211427718400955200e-02
8.465269580483436584e-03
1.945225149393081665e-01
-7.851345092058181763e-02
6.694888323545455933e-02
3.938762471079826355e-02
-5.444253329187631607e-04
-9.889521636068820953e-03
1.310832351446151733e-01
7.148660719394683838e-02
-6.564244627952575684e-03
5.422905087471008301e-03
-3.295864677056670189e-03
6.220750045031309128e-03
4.595451988279819489e-03
-3.303787857294082642e-02
-3.701702877879142761e-02
4.240396432578563690e-03
-1.179681625217199326e-02
-5.690747126936912537e-02
4.600744321942329407e-02
4.670941829681396484e-02
-4.521661251783370972e-02
2.531409077346324921e-02
-3.312043100595474243e-02
3.273204667493700981e-03
-3.664533048868179321e-02
-5.561346188187599182e-02
1.867508701980113983e-02
3.207143023610115051e-02
-2.591677568852901459e-02
2.485582046210765839e-02
-7.002559304237365723e-02
4.599411413073539734e-02
7.293567061424255371e-02
-8.280311524868011475e-02
-1.612532287836074829e-01
-3.476981073617935181e-02
4.664424434304237366e-02
2.922439388930797577e-02
2.305205352604389191e-02
-1.783334650099277496e-02
-4.287587851285934448e-02
9.470343589782714844e-03
8.008421957492828369e-02
5.683677643537521362e-02
-5.099858716130256653e-02
2.065397612750530243e-02
-7.902494631707668304e-03
-1.571631245315074921e-02
-5.165643617510795593e-02
2.597721479833126068e-02
2.740303426980972290e-02
-2.490626880899071693e-03
-5.267569422721862793e-02
2.780472300946712494e-02
-7.312153000384569168e-03
-7.489152252674102783e-02
-2.144641056656837463e-02
-3.524344414472579956e-02
-1.957004144787788391e-02
-2.639966458082199097e-02
1.025535464286804199e-01
9.906806796789169312e-02
-5.347288027405738831e-02
1.924492791295051575e-02
8.822174370288848877e-02
-5.407405551522970200e-03
7.868120819330215454e-02
2.756044454872608185e-02
-4.741554707288742065e-02
-9.079732000827789307e-02
1.799972802400588989e-01
-1.019055396318435669e-01
-1.540940138511359692e-03
-6.496933102607727051e-02
1.037306636571884155e-01
-3.595802001655101776e-03
-3.174642100930213928e-02
-2.439551427960395813e-02
6.440995633602142334e-02
7.926698774099349976e-02
8.391750603914260864e-02
-8.703111112117767334e-02
-1.443321555852890015e-01
-2.466762624680995941e-02
8.010469377040863037e-02
-1.561789512634277344e-01
-2.077700383961200714e-02
-4.672190174460411072e-02
1.467142603360116482e-03
-4.179403930902481079e-02
6.978046149015426636e-02
2.846261486411094666e-02
1.147537492215633392e-02
2.848815545439720154e-02
-2.947435155510902405e-02
-1.277063135057687759e-02
-7.655289024114608765e-03
-1.861750707030296326e-02
-1.142389476299285889e-01
-5.262296646833419800e-02
6.661170627921819687e-03
9.321314096450805664e-02
-1.113810688257217407e-01
-4.645546898245811462e-02
-4.264047369360923767e-02
-6.303502619266510010e-02
-1.139013469219207764e-02
-1.896047219634056091e-02
-2.861718181520700455e-03
2.359736710786819458e-02
1.661560125648975372e-02
-9.957542642951011658e-03
-2.503774501383304596e-02
-9.300964325666427612e-02
1.851362548768520355e-02
-6.827247329056262970e-03
3.945274651050567627e-02
5.350488051772117615e-02
5.765579640865325928e-02
5.358435213565826416e-02
-7.338669151067733765e-02
-3.815543605014681816e-03
2.365996874868869781e-02
-5.904500186443328857e-02
-6.394963245838880539e-03
-4.392470046877861023e-02
7.714994996786117554e-02
2.841584570705890656e-02
-1.524192374199628830e-02
3.549118340015411377e-02
-1.311789266765117645e-02
3.064140491187572479e-02
6.279385089874267578e-02
9.681735187768936157e-02
-3.024094365537166595e-02
-2.003219351172447205e-02
7.864917814731597900e-02
-3.681986406445503235e-02
-2.729224786162376404e-02
-4.056813195347785950e-02
5.445624887943267822e-02
-4.562894999980926514e-02
7.289133965969085693e-02
-3.752392483875155449e-03
-1.040877215564250946e-02
9.591121226549148560e-02
5.261967703700065613e-02
1.994232274591922760e-02
3.585534170269966125e-02
3.938088566064834595e-02
3.363690525293350220e-02
-5.042637232691049576e-03
-4.662736132740974426e-02
-6.114554405212402344e-02
2.664884552359580994e-02
2.742732502520084381e-02
-5.529597029089927673e-02
4.746297001838684082e-02
4.800960794091224670e-02
-4.661011695861816406e-02
2.590749785304069519e-02
3.112825937569141388e-02
-2.224088832736015320e-02
-2.922999672591686249e-02
4.306226223707199097e-02
-1.102826930582523346e-02
-8.051938493736088276e-04
-5.013494752347469330e-03
2.262315526604652405e-02
-2.933154813945293427e-02
3.687731176614761353e-02
4.091919586062431335e-02
-1.600779034197330475e-02
-3.835742175579071045e-02
-5.019763112068176270e-02
1.285452395677566528e-02
-5.697381496429443359e-02
-1.362791843712329865e-02
-4.907039552927017212e-02
-4.472577944397926331e-02
6.081109121441841125e-02
-3.232778608798980713e-02
4.204756021499633789e-02
5.662684887647628784e-02
4.718717560172080994e-02
-4.968379437923431396e-02
-3.263050690293312073e-02
5.742788687348365784e-02
3.272537887096405029e-02
-4.509091842919588089e-03
2.508518472313880920e-02
1.912540174089372158e-04
2.601936832070350647e-02
1.131107099354267120e-02
6.095059216022491455e-02
4.317966476082801819e-02
1.264211442321538925e-02
2.166528999805450439e-02
4.916080087423324585e-02
4.102475475519895554e-03
-5.323770269751548767e-02
2.519386122003197670e-03
-4.518181830644607544e-02
5.433547124266624451e-02
-3.114229300990700722e-03
-5.783563479781150818e-02
-5.681695789098739624e-02
3.102943673729896545e-02
1.948796678334474564e-03
-6.278545409440994263e-02
-8.451280184090137482e-03
-1.107569132000207901e-02
-2.477521263062953949e-02
4.661952331662178040e-02
-3.860158100724220276e-02
-4.111615940928459167e-02
3.964039497077465057e-03
-4.804508015513420105e-02
3.389919549226760864e-02
-2.210616134107112885e-02
4.027014225721359253e-02
1.774025335907936096e-02
2.837987989187240601e-02
6.035153940320014954e-02
1.531289052218198776e-02
-3.900020569562911987e-02
-5.626406148076057434e-02
2.595247700810432434e-02
3.762217238545417786e-02
4.019507765769958496e-02
5.974784865975379944e-02
-3.706644102931022644e-02
2.242130972445011139e-02
-3.811506181955337524e-02
5.719489231705665588e-02
-4.809698835015296936e-02
-4.278228431940078735e-02
-2.897405438125133514e-02
-3.905333951115608215e-02
-1.424269657582044601e-02
-3.684046864509582520e-02
2.910500578582286835e-02
3.432577475905418396e-02
3.801636165007948875e-03
1.722790114581584930e-02
-4.882803931832313538e-02
2.789413789287209511e-03
-2.859802544116973877e-02
1.877211220562458038e-02
1.035801693797111511e-02
1.149302069097757339e-02
5.980104580521583557e-02
-1.379951462149620056e-02
-4.136469215154647827e-02
-5.875096470117568970e-02
-2.748171053826808929e-02
-6.346900761127471924e-02
5.424296483397483826e-02
4.841298796236515045e-03
-5.083224177360534668e-02
-4.190314933657646179e-02
-2.561534196138381958e-02
2.609130181372165680e-02
-2.853291295468807220e-02
-1.511415559798479080e-02
-1.009822241030633450e-03
2.727076783776283264e-02
-5.432830750942230225e-02
4.453848302364349365e-02
-4.207194596529006958e-02
4.202593117952346802e-02
-4.492724314332008362e-02
-1.235199347138404846e-02
-1.800117082893848419e-02
-2.710367739200592041e-02
1.839045621454715729e-02
-5.969009175896644592e-02
5.781300365924835205e-03
-2.848995663225650787e-02
-1.149008050560951233e-02
8.395755663514137268e-03
3.040387853980064392e-02
4.723748192191123962e-02
1.994604431092739105e-02
5.562247708439826965e-02
8.949338458478450775e-03
-4.436375573277473450e-02
4.900060966610908508e-02
2.749541215598583221e-02
3.124302253127098083e-03
-5.005171149969100952e-02
1.323533337563276291e-02
-4.140640422701835632e-02
2.594812773168087006e-02
-4.216025397181510925e-02
1.087152305990457535e-02
-4.656437039375305176e-02
2.413525711745023727e-03
-4.238581657409667969e-02
1.958245225250720978e-02
-2.983490191400051117e-02
9.052440524101257324e-03
-6.046032905578613281e-02
-2.976526692509651184e-02
3.717549145221710205e-02
-2.185277268290519714e-02
2.290305308997631073e-02
6.308357696980237961e-03
4.207990691065788269e-02
-4.445381835103034973e-02
-5.176736786961555481e-02
-6.146312132477760315e-02
-5.756960064172744751e-02
-1.495411037467420101e-03
1.940852589905261993e-02
4.424702748656272888e-02
-5.688804388046264648e-02
-9.745679795742034912e-03
-5.210437625646591187e-02
3.761563077569007874e-02
-3.620020300149917603e-02
-6.262128800153732300e-02
5.209847167134284973e-02
-3.451752662658691406e-02
1.350639667361974716e-02
-4.977842792868614197e-02
-6.102922931313514709e-02
5.386555567383766174e-02
-3.202622756361961365e-02
-2.992434427142143250e-02
4.787076264619827271e-03
-7.720940746366977692e-03
4.633470624685287476e-02
-3.455548733472824097e-02
-6.633038632571697235e-03
-1.341527141630649567e-02
5.337320640683174133e-02
1.032309886068105698e-02
4.762847721576690674e-02
-4.097027704119682312e-02
-2.549092285335063934e-02
5.757927149534225464e-02
-8.099793456494808197e-03
-3.473381698131561279e-02
2.828270196914672852e-02
-1.396383251994848251e-02
6.094587221741676331e-02
5.209157615900039673e-02
3.613866399973630905e-03
-2.555270446464419365e-03
-5.095848813652992249e-02
1.298476662486791611e-02
-5.341818556189537048e-02
-5.108883231878280640e-02
2.945230901241302490e-02
-6.513890344649553299e-03
-3.706998750567436218e-02
5.066009610891342163e-02
-2.652683854103088379e-02
-1.490735914558172226e-03
6.110527366399765015e-02
1.047612074762582779e-02
-5.680270120501518250e-02
-4.611221700906753540e-02
4.123201966285705566e-02
-3.184487298130989075e-02
2.054266817867755890e-02
1.476864609867334366e-02
-4.640819877386093140e-02
-1.707812212407588959e-02
-2.978536672890186310e-02
1.984727196395397186e-02
-5.670182872563600540e-03
5.578786507248878479e-02
-5.639712139964103699e-02
-1.811865158379077911e-02
5.429501459002494812e-02
2.998510934412479401e-02
4.244862869381904602e-02
-9.310129680670797825e-04
-1.292933523654937744e-02
-1.906926557421684265e-02
3.980043157935142517e-02
5.948710720986127853e-03
-6.196847930550575256e-02
4.936789721250534058e-02
-2.482135966420173645e-02
2.547002024948596954e-02
-5.782837048172950745e-03
-4.434537887573242188e-02
1.878562179626896977e-04
3.034366667270660400e-02
-1.771507039666175842e-02
5.808777734637260437e-02
-2.578362636268138885e-02
1.530839828774333000e-03
5.311512202024459839e-02
-1.224764622747898102e-02
1.409976370632648468e-02
2.811063453555107117e-02
-3.294456005096435547e-02
-3.814716637134552002e-02
1.437809225171804428e-02
-1.617281511425971985e-02
-6.164497230201959610e-03
-9.142135828733444214e-02
-3.477127477526664734e-02
7.012504618614912033e-03
4.142710939049720764e-02
-4.190606251358985901e-02
-3.659221902489662170e-02
3.028240613639354706e-02
9.335720539093017578e-02
-4.873598739504814148e-02
1.376884896308183670e-02
-2.300941199064254761e-02
-7.589105516672134399e-03
4.196463152766227722e-03
5.015227943658828735e-02
-1.084250360727310181e-01
-3.288142383098602295e-02
3.491509705781936646e-02
2.000247500836849213e-02
-8.869367092847824097e-02
6.344112008810043335e-02
-4.787162318825721741e-02
4.625980183482170105e-02
-9.488913416862487793e-02
3.632001206278800964e-02
2.009043470025062561e-02
-2.170782070606946945e-03
-1.442464888095855713e-01
2.224919013679027557e-02
-4.796399176120758057e-02
5.163554474711418152e-02
4.362946376204490662e-02
2.744334377348423004e-02
-5.997768417000770569e-02
-5.528712272644042969e-02
5.005145072937011719e-02
2.514454536139965057e-02
3.871279209852218628e-02
-1.022863984107971191e-01
-4.382027685642242432e-02
-6.919497996568679810e-02
2.475778944790363312e-02
-1.330037042498588562e-02
-4.492668434977531433e-02
-1.322089415043592453e-02
-3.358015045523643494e-02
5.170161649584770203e-02
-9.701079130172729492e-02
-1.786681413650512695e-01
2.229945734143257141e-02
2.178594470024108887e-02
4.050537198781967163e-02
7.213941216468811035e-02
3.431465104222297668e-02
2.543548867106437683e-02
9.780845791101455688e-02
-3.642996400594711304e-02
4.271371755748987198e-03
-1.520782895386219025e-02
-7.441753055900335312e-03
8.592257276177406311e-03
2.631160430610179901e-02
-6.965111941099166870e-02
-3.182081133127212524e-02
-2.706244587898254395e-02
1.285057980567216873e-02
-3.917674347758293152e-02
-3.608244284987449646e-02
-2.081053145229816437e-02
8.422449976205825806e-02
4.056494310498237610e-02
-3.671134263277053833e-02
3.985423222184181213e-02
8.634344488382339478e-02
7.899519056081771851e-03
-6.734648346900939941e-02
-6.350713223218917847e-02
4.321097582578659058e-02
2.049748413264751434e-02
-1.852536387741565704e-02
4.872848093509674072e-02
-7.311670109629631042e-03
3.315820544958114624e-02
4.294283688068389893e-02
7.854684442281723022e-02
2.347408607602119446e-02
3.588076308369636536e-02
-4.595332592725753784e-02
4.407978430390357971e-02
-6.977383047342300415e-02
-1.069317087531089783e-01
-6.503375247120857239e-03
9.135748445987701416e-02
-6.451104581356048584e-02
1.873452402651309967e-02
-5.719762668013572693e-02
-1.230945158749818802e-02
4.846680536866188049e-02
9.123168885707855225e-02
1.450140122324228287e-02
-2.367955073714256287e-02
4.236619174480438232e-02
1.823161728680133820e-02
-2.121393196284770966e-02
7.511857431381940842e-03
-9.617506526410579681e-03
4.240001365542411804e-02
1.198004335165023804e-01
6.122000142931938171e-02
-1.096591278910636902e-01
-2.666752971708774567e-02
7.583262864500284195e-03
1.010607182979583740e-01
6.972988694906234741e-02
4.646948352456092834e-02
-1.802380383014678955e-02
-2.052704803645610809e-02
-6.531702727079391479e-02
2.266314253211021423e-02
4.971896857023239136e-02
7.925925776362419128e-03
-8.190398663282394409e-02
2.589501067996025085e-02
-3.790792077779769897e-02
-7.829352281987667084e-03
-4.228418320417404175e-02
1.271711848676204681e-02
6.037325784564018250e-02
-9.478716552257537842e-02
4.922929406166076660e-02
9.159991145133972168e-02
6.014821305871009827e-02
2.434891415759921074e-03
-3.042132128030061722e-03
-3.772000595927238464e-02
4.098061844706535339e-02
7.011170685291290283e-02
-2.514688530936837196e-03
-2.422337234020233154e-02
4.047449678182601929e-02
-2.489112690091133118e-02
9.931957349181175232e-03
1.142462491989135742e-01
2.988816983997821808e-02
-2.893614815548062325e-03
-8.294752985239028931e-02
3.088727593421936035e-02
-7.238189876079559326e-02
-4.195412993431091309e-02
-1.360496729612350464e-01
-6.210518255829811096e-02
-4.335162416100502014e-02
-3.601922653615474701e-03
-1.011980883777141571e-02
9.200710058212280273e-02
-7.805287837982177734e-02
-2.312079630792140961e-02
6.450099498033523560e-02
4.797824099659919739e-02
-7.878155261278152466e-02
2.558954060077667236e-02
-4.435134679079055786e-02
2.803217247128486633e-02
-1.360058970749378204e-02
-4.766200482845306396e-02
-2.870872616767883301e-02
9.448601305484771729e-02
-3.058708086609840393e-02
-1.294172834604978561e-03
-4.312193766236305237e-02
5.081294104456901550e-02
1.237358991056680679e-02
1.641940511763095856e-02
3.669135645031929016e-02
-1.004713326692581177e-01
-9.732305258512496948e-02
-6.526961177587509155e-02
1.876353845000267029e-02
2.533769793808460236e-02
6.644397974014282227e-02
1.785270124673843384e-01
9.280456602573394775e-02
7.689020782709121704e-02
-1.331499963998794556e-02
1.497931629419326782e-01
3.129651769995689392e-03
2.032184600830078125e-02
-9.745318442583084106e-02
5.868754535913467407e-02
-2.926189918071031570e-03
3.148638829588890076e-02
-8.555362001061439514e-03
-3.793828189373016357e-03
4.167090728878974915e-02
-3.050242364406585693e-02
3.154507279396057129e-02
7.180801033973693848e-02
2.197219990193843842e-02
-4.201153665781021118e-02
5.277173966169357300e-02
8.060120791196823120e-02
-1.118578482419252396e-02
-7.252117991447448730e-02
4.624565597623586655e-03
4.803356528282165527e-02
6.938864290714263916e-02
-6.677535176277160645e-02
2.991125546395778656e-02
-2.230504602193832397e-01
7.233660668134689331e-02
2.395649626851081848e-02
-8.207931369543075562e-02
3.587270155549049377e-02
-3.395811840891838074e-02
-7.284208387136459351e-02
-5.377004668116569519e-02
-4.004637151956558228e-02
-3.398414934054017067e-03
9.459441527724266052e-03
5.763308703899383545e-02
-6.635332107543945312e-02
9.799565374851226807e-02
-4.927929490804672241e-02
2.518992405384778976e-03
2.459313534200191498e-02
-4.096834734082221985e-02
-1.403519324958324432e-02
-3.002263791859149933e-02
-3.952186554670333862e-02
-3.725784644484519958e-02
-5.527446046471595764e-02
6.227533146739006042e-02
7.953484356403350830e-02
5.643917247653007507e-02
-1.304245553910732269e-02
3.999700024724006653e-02
9.232935309410095215e-02
5.475733801722526550e-02
-4.055397119373083115e-03
-4.128925129771232605e-02
-5.572091415524482727e-02
-1.048487871885299683e-01
-6.118363235145807266e-03
-1.065934076905250549e-02
5.110756494104862213e-03
6.441030185669660568e-03
2.663562819361686707e-02
-1.624326407909393311e-02
-3.885752707719802856e-02
-6.900291889905929565e-02
9.955502301454544067e-02
-6.723187863826751709e-02
-3.284392505884170532e-02
2.779073826968669891e-02
7.800986617803573608e-02
1.229754649102687836e-02
6.776783615350723267e-02
2.829321101307868958e-02
-9.207770228385925293e-03
-4.522878676652908325e-03
-3.908012062311172485e-02
-6.022081151604652405e-02
-1.504310034215450287e-02
8.035545051097869873e-02
4.077938944101333618e-02
-2.122987993061542511e-02
-2.484712563455104828e-02
-2.513022534549236298e-02
8.146955072879791260e-02
-1.172393281012773514e-02
-3.146762773394584656e-02
-7.487940043210983276e-02
-4.183795675635337830e-02
1.184680834412574768e-01
-6.893161684274673462e-02
8.704476058483123779e-04
-2.839612029492855072e-02
-4.183572530746459961e-02
4.933812841773033142e-02
-5.474923551082611084e-02
-6.182649359107017517e-02
-3.519602864980697632e-02
6.669428944587707520e-02
-5.496670305728912354e-02
-1.053892541676759720e-02
4.237023741006851196e-02
-4.341511055827140808e-02
1.213495526462793350e-02
6.657896935939788818e-02
1.192937488667666912e-03
-8.085190784186124802e-04
-5.824750661849975586e-02
-3.180929226800799370e-03
-5.584980826824903488e-03
-5.877555161714553833e-02
-7.165500521659851074e-02
-2.975230850279331207e-02
-1.623898185789585114e-02
-1.791668124496936798e-02
1.724300347268581390e-02
6.863044947385787964e-02
1.216891128569841385e-02
-4.851688072085380554e-02
2.148826271295547485e-01
-1.225282773375511169e-01
-8.516475558280944824e-02
-1.813110779039561749e-03
-7.798377890139818192e-03
-4.412094131112098694e-02
-6.557223200798034668e-02
-4.572434350848197937e-03
7.418847084045410156e-02
4.915062338113784790e-02
2.354173734784126282e-02
-3.169185481965541840e-03
2.487180754542350769e-02
-4.260978661477565765e-03
-2.783098444342613220e-02
1.830460131168365479e-02
2.489113435149192810e-02
1.122417207807302475e-02
2.077414246741682291e-04
2.928733080625534058e-02
-3.725000470876693726e-02
7.206942886114120483e-02
1.125702820718288422e-02
-2.556712925434112549e-02
-3.681993857026100159e-02
1.353476382791996002e-02
-3.378063067793846130e-02
4.292427375912666321e-02
2.077155187726020813e-02
-5.952703580260276794e-02
2.834787964820861816e-02
1.161940470337867737e-01
-2.147677913308143616e-02
1.832742989063262939e-01
5.240472033619880676e-02
5.332483723759651184e-02
-1.707232557237148285e-02
-3.678843611851334572e-03
-9.332385659217834473e-02
-3.265558928251266479e-02
-3.405767306685447693e-02
-2.909577637910842896e-02
-2.989710122346878052e-02
8.689305931329727173e-02
1.559006329625844955e-02
-7.194533199071884155e-02
-8.050568401813507080e-02
-2.861922141164541245e-03
9.255684167146682739e-02
-2.372907474637031555e-03
2.163329860195517540e-03
-1.300426106899976730e-02
-5.539048835635185242e-02
1.054775938391685486e-01
-4.109501838684082031e-02
-2.196910418570041656e-02
3.718710690736770630e-02
9.426501393318176270e-02
-5.252589285373687744e-02
-7.639638334512710571e-02
1.463862955570220947e-01
3.879711404442787170e-02
-6.071462482213973999e-02
-3.419892117381095886e-02
-9.398424625396728516e-02
8.544694632291793823e-02
3.974288702011108398e-02
-4.411330819129943848e-02
-2.983182296156883240e-02
8.114904165267944336e-02
2.971287630498409271e-02
-4.969540610909461975e-02
-3.746259259060025215e-03
5.333774536848068237e-02
-3.414504975080490112e-02
2.421287447214126587e-02
4.243098199367523193e-02
2.319561690092086792e-02
-4.848925396800041199e-02
-4.936508461833000183e-02
1.037457212805747986e-01
-7.032801210880279541e-02
-4.182910174131393433e-02
-4.705869033932685852e-02
-2.974275313317775726e-02
-8.412095904350280762e-02
1.623119600117206573e-02
1.532280445098876953e-02
-3.551466763019561768e-02
-7.370865438133478165e-03
4.956670850515365601e-02
-1.179626863449811935e-02
-1.307331863790750504e-02
-5.239558219909667969e-02
-3.469038009643554688e-02
8.471246063709259033e-02
4.893642291426658630e-02
1.315209865570068359e-01
-2.350888773798942566e-02
-1.215312927961349487e-01
3.475654497742652893e-02
6.959578488022089005e-03
3.039910458028316498e-02
-9.333004802465438843e-02
5.458608269691467285e-03
-4.030104354023933411e-02
-4.282738268375396729e-02
1.121884435415267944e-01
-6.603499501943588257e-02
-8.993746340274810791e-02
-9.037911146879196167e-02
1.820201799273490906e-02
4.033312946557998657e-02
-4.589370451867580414e-03
6.154772266745567322e-02
-4.573321714997291565e-02
6.890891492366790771e-02
-5.089590325951576233e-02
-6.191003322601318359e-02
-3.382438048720359802e-02
3.163619711995124817e-02
-7.837097346782684326e-02
-5.488227307796478271e-02
3.339124843478202820e-02
1.521637290716171265e-01
1.010613632388412952e-03
-1.547063235193490982e-02
4.276467487215995789e-02
-3.758514299988746643e-02
-1.548186093568801880e-01
6.085690110921859741e-02
2.234314940869808197e-02
-6.961255520582199097e-02
-7.787689566612243652e-03
4.750267416238784790e-02
8.611872792243957520e-02
2.673578262329101562e-02
-3.405641764402389526e-02
-5.428814888000488281e-02
3.148300573229789734e-02
1.576447486877441406e-02
7.258513942360877991e-03
-4.810707643628120422e-02
-6.423371285200119019e-02
-2.647812105715274811e-02
4.455185309052467346e-02
1.403006762266159058e-01
3.886240720748901367e-02
-6.519249081611633301e-02
2.962963469326496124e-02
-3.700905293226242065e-02
1.006648018956184387e-01
2.299297787249088287e-02
8.270414173603057861e-02
-9.397919476032257080e-02
1.169410273432731628e-01
1.811685413122177124e-01
6.834436953067779541e-02
-1.324533578008413315e-02
-5.716082826256752014e-02
2.157269790768623352e-02
6.497447937726974487e-02
4.255627095699310303e-02
8.462233841419219971e-02
-1.391923800110816956e-02
-1.288352184928953648e-03
-5.165806040167808533e-02
9.028916060924530029e-02
-3.626489639282226562e-02
-1.342260278761386871e-03
3.732659295201301575e-02
6.035196408629417419e-02
-2.835112623870372772e-02
-6.451021879911422729e-02
-4.419847950339317322e-02
-3.233944252133369446e-02
-2.754930593073368073e-02
-2.806933596730232239e-02
-3.648324683308601379e-02
-4.973405227065086365e-02
-3.808522596955299377e-02
-3.274479880928993225e-02
4.743063822388648987e-02
4.646710306406021118e-02
5.016012117266654968e-02
2.754117362201213837e-02
6.139594130218029022e-03
4.845159128308296204e-02
-2.524538431316614151e-04
1.477544545195996761e-03
-2.815069444477558136e-02
9.598957002162933350e-02
-2.493285574018955231e-02
-2.623376436531543732e-03
5.525586009025573730e-02
-1.408318877220153809e-01
8.673497289419174194e-02
1.698136329650878906e-02
-4.412466287612915039e-02
-7.095673680305480957e-02
2.220372110605239868e-02
4.897683858871459961e-03
-6.528180092573165894e-02
3.662996366620063782e-02
-1.961725205183029175e-02
1.453517354093492031e-03
-5.658530630171298981e-03
-5.738947167992591858e-02
-2.838710695505142212e-02
2.851022593677043915e-02
1.629584655165672302e-02
5.775071680545806885e-02
5.759241804480552673e-02
-2.462879382073879242e-02
5.632197484374046326e-02
4.587021097540855408e-02
-1.859472319483757019e-02
-5.081234127283096313e-02
1.018323004245758057e-02
-8.034954778850078583e-03
3.936445340514183044e-02
-1.324203424155712128e-02
-2.192419394850730896e-02
-1.783220283687114716e-02
1.698707230389118195e-02
6.365696340799331665e-02
-7.739816606044769287e-02
3.694051131606101990e-02
-1.231017149984836578e-02
4.021844267845153809e-02
-4.117272794246673584e-02
-1.187369134277105331e-02
-6.175697222352027893e-02
2.902881707996129990e-03
-1.632149517536163330e-02
1.214148197323083878e-02
2.590428106486797333e-02
-7.507022004574537277e-03
3.178656846284866333e-02
3.538893302902579308e-03
2.558237640187144279e-03
-3.648182004690170288e-02
-2.450437471270561218e-02
-1.736625470221042633e-02
-4.472010955214500427e-02
4.386771097779273987e-02
5.451025813817977905e-02
3.243814781308174133e-02
-2.099038846790790558e-02
-1.520571298897266388e-02
3.329208120703697205e-02
-1.188373193144798279e-02
-4.381778649985790253e-03
-7.019745185971260071e-03
-4.565170407295227051e-02
1.403858698904514313e-02
4.959530383348464966e-02
3.076078370213508606e-02
-1.739799045026302338e-02
-1.554558705538511276e-02
4.616767168045043945e-02
1.794400066137313843e-02
3.455930948257446289e-02
1.818797364830970764e-02
6.348424404859542847e-02
2.600965276360511780e-02
-5.574345216155052185e-02
4.509181529283523560e-02
4.838120564818382263e-02
5.057634785771369934e-02
-6.337065249681472778e-02
-7.045524567365646362e-02
3.671079874038696289e-02
2.512367255985736847e-02
4.731740057468414307e-02
-7.127499580383300781e-02
-1.455224025994539261e-02
2.888790331780910492e-02
-4.497884586453437805e-02
-3.879848495125770569e-02
-5.088075622916221619e-02
-1.704172790050506592e-02
4.942726343870162964e-02
3.965889662504196167e-02
-6.562956422567367554e-02
5.248224362730979919e-02
-6.566060241311788559e-03
7.765348069369792938e-03
-3.641587868332862854e-02
9.958849847316741943e-02
5.506431311368942261e-02
1.920820027589797974e-02
2.174863032996654510e-02
2.622696338221430779e-03
4.006420448422431946e-02
-3.068409860134124756e-02
3.968719020485877991e-02
1.538043841719627380e-02
7.074401248246431351e-03
4.137095063924789429e-02
-6.218009628355503082e-03
-2.688613720238208771e-02
3.390351310372352600e-02
7.771838456392288208e-02
-6.561633199453353882e-02
-3.776143491268157959e-02
-3.867214918136596680e-02
-2.925276942551136017e-02
-8.472155779600143433e-02
-8.084752410650253296e-02
-3.475872054696083069e-02
-4.488657414913177490e-02
-7.368107140064239502e-02
-1.849313080310821533e-02
7.621990889310836792e-02
-1.850634999573230743e-02
-3.936151787638664246e-02
-8.669825270771980286e-03
-2.347072213888168335e-02
-9.028866142034530640e-02
-1.739832572638988495e-02
-8.795921504497528076e-02
-1.235802657902240753e-02
-6.036517024040222168e-02
-2.045546099543571472e-02
-4.730693995952606201e-03
1.851898268796503544e-03
-4.144360125064849854e-02
-3.018916957080364227e-02
-4.294553771615028381e-03
3.017774224281311035e-02
3.656072169542312622e-02
2.054929174482822418e-02
-3.110088640823960304e-03
8.250558376312255859e-02
4.932733252644538879e-03
2.618269622325897217e-02
9.184601902961730957e-02
-8.358238637447357178e-02
2.311401627957820892e-02
1.485360786318778992e-02
8.025358617305755615e-02
-7.494717836380004883e-02
-3.661723062396049500e-02
-5.917820706963539124e-02
-5.242079496383666992e-04
-6.596702337265014648e-02
-4.546041786670684814e-02
-7.670306134968996048e-03
-3.135102614760398865e-02
-5.806917324662208557e-02
8.579410612583160400e-03
2.232214063405990601e-02
3.513056412339210510e-02
1.101530864834785461e-01
-2.806498669087886810e-02
-2.015231363475322723e-02
-6.429842859506607056e-02
4.355693608522415161e-02
6.651405245065689087e-02
-1.553634274750947952e-02
-3.189644217491149902e-02
-2.876128628849983215e-02
6.186059117317199707e-02
5.683061853051185608e-02
6.943756341934204102e-02
9.257527440786361694e-02
2.925056591629981995e-02
-9.976034052670001984e-03
-8.183056861162185669e-02
-5.814361944794654846e-02
-8.142364025115966797e-02
7.656400091946125031e-03
-3.396493196487426758e-02
-2.314443700015544891e-02
-5.144669115543365479e-02
3.581039980053901672e-02
4.816825315356254578e-02
-3.512560203671455383e-02
4.956404119729995728e-02
-2.225076965987682343e-02
2.462267503142356873e-02
-5.891539156436920166e-02
-1.450395286083221436e-01
-3.122725710272789001e-02
-4.780864692293107510e-04
-1.166786402463912964e-01
-3.593485802412033081e-02
8.514843881130218506e-03
-3.463405370712280273e-02
-2.375949546694755554e-02
-1.831712201237678528e-02
6.406873464584350586e-02
2.484184317290782928e-02
7.057195156812667847e-02
3.640177473425865173e-02
-6.562035530805587769e-02
-4.429275169968605042e-02
9.091559797525405884e-02
1.763619109988212585e-02
6.907951086759567261e-02
4.687951132655143738e-02
4.458932951092720032e-02
5.651319399476051331e-03
-7.889109663665294647e-03
7.632066309452056885e-02
-6.330627202987670898e-02
1.026884745806455612e-02
4.747276380658149719e-02
-3.625223785638809204e-02
-1.296212431043386459e-02
6.011845543980598450e-02
-5.058529227972030640e-02
4.046614468097686768e-02
1.420454960316419601e-02
-3.886472433805465698e-02
6.722480803728103638e-02
-8.218657225370407104e-02
9.952621906995773315e-02
6.487188488245010376e-02
-2.652885951101779938e-02
-4.068770259618759155e-02
9.198628365993499756e-02
5.074128508567810059e-02
-2.481075190007686615e-02
-4.228943958878517151e-03
-1.477504242211580276e-02
4.662218037992715836e-03
1.201086025685071945e-02
1.532947737723588943e-02
1.090172454714775085e-01
-2.644568867981433868e-02
-1.104600820690393448e-02
-2.113061957061290741e-02
3.174344310536980629e-03
-3.970784693956375122e-02
4.833412822335958481e-03
-2.965297363698482513e-02
-6.152035295963287354e-02
2.751771174371242523e-02
-4.995991941541433334e-03
5.790149793028831482e-03
4.412453621625900269e-02
3.350717946887016296e-02
-3.449507430195808411e-02
4.022581037133932114e-03
3.188469260931015015e-02
-6.631661951541900635e-02
-4.031357914209365845e-02
7.289033383131027222e-02
-7.111608237028121948e-02
-3.717798739671707153e-02
5.132076516747474670e-02
-4.932790249586105347e-02
6.078786216676235199e-03
3.107705852016806602e-03
-6.484679132699966431e-02
-1.244392991065979004e-02
4.644112195819616318e-03
1.559975929558277130e-02
5.589497089385986328e-02
-6.728912144899368286e-02
-3.220614045858383179e-02
-6.005965638905763626e-03
4.341503232717514038e-02
1.244385354220867157e-02
-2.761949226260185242e-02
-5.626185983419418335e-02
3.852165117859840393e-02
2.381693013012409210e-02
1.553032360970973969e-02
3.773533040657639503e-03
-4.027757421135902405e-02
3.187704365700483322e-03
-6.105025112628936768e-02
4.637654125690460205e-02
1.166641991585493088e-02
4.539005830883979797e-02
-6.810496002435684204e-02
-3.680117800831794739e-02
-5.873573943972587585e-03
5.508377775549888611e-02
5.032809451222419739e-03
4.841252230107784271e-03
3.386817499995231628e-02
1.457889657467603683e-02
3.557139635086059570e-02
-2.153771743178367615e-02
-4.063405096530914307e-03
4.180655628442764282e-02
-2.560148760676383972e-02
3.571699932217597961e-02
-3.913839906454086304e-02
-3.270628396421670914e-03
-4.963795095682144165e-02
9.296523407101631165e-03
1.077286060899496078e-02
4.902787506580352783e-02
-5.195920169353485107e-02
-6.034564971923828125e-02
4.358247295022010803e-02
-4.760539159178733826e-02
-3.874913090839982033e-03
-1.502211391925811768e-02
-2.306213602423667908e-03
-4.215468838810920715e-02
2.212409302592277527e-02
-2.321016043424606323e-02
2.476263977587223053e-02
-2.512336475774645805e-03
2.531934902071952820e-02
-3.308861330151557922e-02
4.667495936155319214e-02
5.301915481686592102e-02
-3.768179565668106079e-02
-9.927648119628429413e-03
6.924733519554138184e-02
-5.092570092529058456e-03
-2.727225609123706818e-02
-2.998713590204715729e-02
1.447647158056497574e-02
4.546845331788063049e-02
2.340780338272452354e-03
-1.373058836907148361e-02
9.288856759667396545e-03
-1.839696429669857025e-02
3.115558996796607971e-02
-3.424180299043655396e-02
-5.132009088993072510e-02
-2.851627208292484283e-02
-5.157190188765525818e-02
-5.375721491873264313e-03
-3.378759697079658508e-02
-4.474355280399322510e-02
-1.431077346205711365e-02
6.330300867557525635e-02
5.820494145154953003e-02
1.529853674583137035e-03
-2.939962223172187805e-02
3.509825468063354492e-02
3.509095171466469765e-03
-4.723478108644485474e-03
-4.892010614275932312e-02
5.549095943570137024e-02
3.829639032483100891e-02
5.540079995989799500e-02
-3.320927266031503677e-03
2.899750694632530212e-02
4.429973289370536804e-02
5.480574443936347961e-03
-2.680103108286857605e-02
1.323195081204175949e-02
-3.373665735125541687e-02
-4.434396326541900635e-02
1.195779442787170410e-02
-6.831623613834381104e-02
-5.223859474062919617e-02
-1.628476753830909729e-02
-1.573293283581733704e-02
5.549384746700525284e-03
5.694637075066566467e-02
2.355028316378593445e-02
-1.848755031824111938e-02
5.746345967054367065e-02
5.348342005163431168e-03
-1.486645638942718506e-02
-1.751602627336978912e-02
4.848732054233551025e-02
3.703336045145988464e-02
3.977373987436294556e-02
4.582453146576881409e-02
2.679922431707382202e-02
5.293171852827072144e-02
-1.213263906538486481e-02
-2.713525295257568359e-02
2.372176386415958405e-03
-2.272725803777575493e-03
-3.585165366530418396e-02
1.913205534219741821e-02
-4.725421220064163208e-02
-5.181792750954627991e-02
2.527897991240024567e-02
-6.583674997091293335e-02
-4.239004850387573242e-02
-5.219278484582901001e-02
-1.734477817080914974e-03
3.105611540377140045e-02
1.308664493262767792e-02
-4.779332876205444336e-02
7.574219256639480591e-02
-7.626257371157407761e-03
-9.927445091307163239e-03
1.418126560747623444e-02
5.865728110074996948e-02
-5.147411674261093140e-02
-4.523047059774398804e-02
-4.887906834483146667e-02
-3.067655302584171295e-02
-6.930415052920579910e-03
4.258888307958841324e-03
4.017594456672668457e-02
-4.816062748432159424e-03
-4.954879358410835266e-02
1.742639020085334778e-02
-4.430244117975234985e-02
6.698147952556610107e-02
6.684850156307220459e-02
8.319917251355946064e-04
5.949648097157478333e-02
5.139871686697006226e-02
-4.388661589473485947e-03
2.630851231515407562e-02
-3.274937346577644348e-02
-3.894758597016334534e-02
-5.212300643324851990e-02
-9.434324689209461212e-03
-2.916815876960754395e-02
7.313639856874942780e-03
-2.642224356532096863e-02
-3.197580203413963318e-02
-3.179653361439704895e-02
3.520957008004188538e-02
-3.177874162793159485e-02
2.571597509086132050e-02
7.137598097324371338e-02
6.012737005949020386e-02
2.578806318342685699e-02
-3.074117563664913177e-02
4.017829522490501404e-02
-4.852913692593574524e-02
4.785015806555747986e-02
6.074456125497817993e-02
-1.924211718142032623e-02
-4.484575614333152771e-02
-5.634557083249092102e-02
4.276907071471214294e-02
-3.775951266288757324e-02
7.156345248222351074e-02
4.488706588745117188e-02
-1.393180340528488159e-02
-9.184674918651580811e-02
-1.108649000525474548e-02
-3.210625052452087402e-02
5.040727555751800537e-02
-4.258782416582107544e-02
-2.358062565326690674e-02
7.498882710933685303e-02
6.316988915205001831e-02
-3.377181664109230042e-02
3.555591404438018799e-02
-3.801381913945078850e-03
5.972452834248542786e-02
4.506042227149009705e-03
-5.937722045928239822e-03
5.899898335337638855e-02
2.925457805395126343e-02
-5.737348273396492004e-02
-4.144192487001419067e-02
3.781927004456520081e-02
-1.603547297418117523e-02
-2.385686151683330536e-02
-1.704972796142101288e-02
6.505656987428665161e-02
5.614102259278297424e-02
4.392813146114349365e-02
-1.724008843302726746e-02
3.650669008493423462e-02
2.212428487837314606e-02
-3.572605922818183899e-02
6.092990189790725708e-02
-5.544460937380790710e-02
2.642920427024364471e-02
1.465862710028886795e-02
-5.632102489471435547e-02
-4.882517457008361816e-02
1.420893892645835876e-02
-4.648944735527038574e-02
1.993701793253421783e-02
3.220934048295021057e-02
5.139130726456642151e-02
5.435580015182495117e-02
-4.213192313909530640e-02
-1.302736904472112656e-02
-2.661766484379768372e-02
-2.074947953224182129e-02
9.042689576745033264e-03
-4.982383549213409424e-02
-3.769273310899734497e-02
-6.282838527113199234e-03
2.147550322115421295e-02
5.222744494676589966e-02
5.374028533697128296e-02
-3.460814710706472397e-03
-3.349778428673744202e-02
1.915818639099597931e-02
-4.490083828568458557e-02
3.013308905065059662e-02
-3.480269759893417358e-02
-6.820283085107803345e-02
-4.777207970619201660e-02
-4.138546064496040344e-02
-5.377634614706039429e-02
3.793029859662055969e-02
-4.278021305799484253e-02
1.099394727498292923e-02
5.343047901988029480e-02
7.732909172773361206e-02
-4.346474260091781616e-02
-4.474536702036857605e-02
1.542452722787857056e-03
1.689400337636470795e-02
-1.852505840361118317e-02
-3.160429745912551880e-02
1.061100978404283524e-02
-5.945765972137451172e-02
-4.355314001441001892e-02
-1.892741583287715912e-02
-1.131011079996824265e-02
-2.465345151722431183e-02
-7.854324765503406525e-03
-5.430337414145469666e-02
-1.243023580173030496e-04
2.096365019679069519e-02
8.028861135244369507e-03
-2.551659755408763885e-02
-2.653412288054823875e-03
-3.793842718005180359e-02
9.682768955826759338e-03
2.638255059719085693e-02
-1.266456488519906998e-02
-6.119458377361297607e-02
5.206159502267837524e-02
5.265595391392707825e-02
-4.402574151754379272e-02
1.784384809434413910e-02
3.333612531423568726e-02
4.855393245816230774e-02
6.788640748709440231e-03
-6.557393819093704224e-02
-2.769381366670131683e-02
4.077050834894180298e-03
-5.481957271695137024e-02
-2.009082958102226257e-02
7.030980661511421204e-03
-5.366798490285873413e-02
-1.572296023368835449e-02
-5.513494089245796204e-02
-2.147651091217994690e-02
3.297156468033790588e-02
3.475208580493927002e-02
4.132175445556640625e-02
-4.925957880914211273e-03
5.374597385525703430e-02
-5.994977802038192749e-02
-9.918789379298686981e-03
5.321449786424636841e-02
-1.182494219392538071e-03
3.330980986356735229e-02
2.455360628664493561e-02
-4.935613274574279785e-02
7.196719944477081299e-02
-3.992836456745862961e-03
-2.046161703765392303e-02
3.171091526746749878e-02
2.101620100438594818e-02
-3.826640546321868896e-02
3.770889714360237122e-02
-5.996493622660636902e-02
-3.726784139871597290e-02
3.277725353837013245e-02
-1.874236017465591431e-02
9.403816424310207367e-03
-1.991289854049682617e-02
4.049188643693923950e-02
2.377022616565227509e-02
2.962739579379558563e-02
5.006389692425727844e-02
5.238094553351402283e-02
-5.439516529440879822e-02
3.795412555336952209e-02
5.525815114378929138e-02
2.257066220045089722e-02
3.785223932936787605e-03
-1.957598887383937836e-02
-4.383340477943420410e-03
1.085105258971452713e-02
-4.278916865587234497e-02
1.313133444637060165e-02
3.799832239747047424e-02
-2.178172813728451729e-03
-4.519991204142570496e-02
-1.723379269242286682e-02
-5.193486809730529785e-02
3.018166683614253998e-02
-1.190033461898565292e-02
-1.724843308329582214e-02
-2.752036787569522858e-02
5.146606359630823135e-03
-7.261514663696289062e-03
4.413686692714691162e-02
-2.360907196998596191e-02
-4.812882095575332642e-02
-6.928924005478620529e-03
-3.685803711414337158e-02
-4.939566180109977722e-02
-5.921970307826995850e-02
-1.507034804672002792e-02
-5.493504926562309265e-02
-4.444810375571250916e-02
-3.246619924902915955e-02
3.605182841420173645e-02
-5.509201437234878540e-02
-2.002154290676116943e-02
3.212110139429569244e-03
-2.736349962651729584e-02
-5.607032775878906250e-02
-6.127491220831871033e-02
-3.729351609945297241e-02
2.061430132016539574e-03
2.250066399574279785e-02
-2.177553251385688782e-03
-7.426795549690723419e-03
2.642532996833324432e-02
-9.430854581296443939e-03
7.449816912412643433e-02
2.981665544211864471e-02
1.940639689564704895e-02
3.115788474678993225e-02
-3.292494639754295349e-02
-3.309790417551994324e-02
8.057902567088603973e-03
-8.252606727182865143e-03
-2.289811708033084869e-02
-1.458711922168731689e-02
3.496612235903739929e-02
4.289671406149864197e-02
4.610398318618535995e-03
-1.168918702751398087e-02
4.276941344141960144e-02
5.949407815933227539e-02
1.070815883576869965e-02
4.150893911719322205e-02
-1.161709986627101898e-02
5.327875167131423950e-02
-4.228603839874267578e-02
5.653656274080276489e-02
3.961259871721267700e-02
2.314325235784053802e-02
2.316182292997837067e-02
-2.736030146479606628e-02
3.265432314947247505e-03
3.100118972361087799e-02
-6.177886202931404114e-02
-3.715162351727485657e-02
3.396426886320114136e-02
7.341390475630760193e-03
-2.696030028164386749e-02
-5.468047037720680237e-02
-4.758051410317420959e-02
1.956579275429248810e-02
1.130506210029125214e-02
-5.785986036062240601e-02
8.566248230636119843e-03
5.561111122369766235e-02
2.913791453465819359e-03
3.951870650053024292e-02
-2.272286079823970795e-02
6.200850754976272583e-02
4.559106379747390747e-02
5.629512667655944824e-02
5.397555232048034668e-02
4.922393336892127991e-02
-4.160952568054199219e-02
-7.743807975202798843e-03
-3.652185574173927307e-02
-5.100440233945846558e-02
2.295813895761966705e-02
4.162555187940597534e-02
-1.170311961323022842e-02
-5.482333153486251831e-02
2.402596548199653625e-02
-3.014870919287204742e-02
-1.501066517084836960e-02
-5.395482107996940613e-02
-5.169122293591499329e-02
-1.183790527284145355e-02
-3.923677653074264526e-02
-2.734358608722686768e-02
4.564278945326805115e-02
-2.049370110034942627e-02
-4.296145215630531311e-02
-5.133317783474922180e-02
4.191298410296440125e-02
-2.062654495239257812e-02
-3.845296800136566162e-02
-4.965257644653320312e-02
4.747157543897628784e-02
-4.871614277362823486e-03
-4.862737283110618591e-02
2.083157561719417572e-02
-5.962026119232177734e-02
-3.070794278755784035e-03
5.983082950115203857e-02
-2.473555319011211395e-02
1.970366202294826508e-02
-3.964450955390930176e-02
3.533312305808067322e-02
2.288577705621719360e-02
-4.646915569901466370e-02
3.970142826437950134e-02
-4.379507154226303101e-02
2.949523180723190308e-02
-1.457051560282707214e-02
5.664828792214393616e-02
-4.831823706626892090e-02
8.207159116864204407e-03
-5.397742614150047302e-02
-5.617640167474746704e-02
2.513874508440494537e-02
-6.696655880659818649e-03
-4.863806068897247314e-02
-1.605789293535053730e-03
9.101056493818759918e-03
-4.694236442446708679e-02
3.887497633695602417e-02
1.169317029416561127e-02
-5.750701576471328735e-02
3.018704988062381744e-02
2.193735726177692413e-02
-2.419835701584815979e-02
-3.557893633842468262e-02
4.824621230363845825e-02
2.438652887940406799e-02
5.277544725686311722e-03
-4.504849761724472046e-02
-3.052947483956813812e-02
2.292068861424922943e-02
-6.039802730083465576e-02
4.281245172023773193e-02
3.821191936731338501e-02
-6.353884190320968628e-02
-1.439688168466091156e-02
-5.691390018910169601e-03
8.193350513465702534e-04
-5.146799981594085693e-02
-1.996813109144568443e-03
2.124390937387943268e-02
-6.194402277469635010e-02
-5.245113000273704529e-02
5.073795095086097717e-02
5.422209948301315308e-02
-2.061143331229686737e-02
-4.330607876181602478e-02
-4.185613244771957397e-02
4.866522178053855896e-02
-7.723708637058734894e-03
-5.191051587462425232e-02
8.942710235714912415e-03
5.511765554547309875e-02
8.654490113258361816e-03
-3.713333234190940857e-02
-3.689566999673843384e-02
-3.088080510497093201e-02
2.478517964482307434e-02
-1.281511620618402958e-03
-3.334553539752960205e-02
3.879081457853317261e-02
2.918776124715805054e-02
6.259824335575103760e-02
-2.445543184876441956e-03
6.020946428179740906e-02
2.367809787392616272e-02
-6.153743341565132141e-02
2.025538124144077301e-02
-1.876949565485119820e-03
7.173584774136543274e-03
2.919607795774936676e-02
-4.122121632099151611e-02
-3.673736378550529480e-02
2.582893520593643188e-02
-1.290956977754831314e-02
1.082824426703155041e-03
5.162700265645980835e-02
-7.043746113777160645e-02
1.349963992834091187e-02
-4.975368082523345947e-02
4.994342476129531860e-02
4.280831664800643921e-02
2.519848942756652832e-02
5.558380112051963806e-02
-3.382446710020303726e-03
-2.737044915556907654e-02
4.878821596503257751e-02
9.966209530830383301e-02
-5.657166987657546997e-02
-1.363688893616199493e-02
-5.047162622213363647e-02
-5.614249780774116516e-02
5.828250572085380554e-02
-3.500791266560554504e-02
7.945355027914047241e-03
-4.444846138358116150e-02
2.240449562668800354e-02
-9.567237459123134613e-03
2.708094753324985504e-02
3.780008107423782349e-02
6.141392141580581665e-02
-1.113890856504440308e-02
-1.387988775968551636e-02
-9.615596383810043335e-02
5.231928080320358276e-02
1.942510716617107391e-02
4.150456935167312622e-02
1.879935711622238159e-02
6.336308270692825317e-02
5.972857028245925903e-02
1.740604639053344727e-02
-3.307662531733512878e-02
-1.134042721241712570e-02
3.943700715899467468e-02
1.040620431303977966e-01
5.704072862863540649e-02
-8.750931918621063232e-02
3.974389284849166870e-03
9.719682857394218445e-03
5.362216383218765259e-02
-7.831561379134654999e-03
6.732849776744842529e-02
-3.639010479673743248e-03
4.401464015245437622e-02
-1.336758770048618317e-02
3.803907334804534912e-02
4.012577235698699951e-02
1.842426694929599762e-02
6.368599832057952881e-02
2.033211104571819305e-02
-4.463686048984527588e-02
-2.609002403914928436e-02
9.422462433576583862e-02
1.045757066458463669e-02
-7.871747016906738281e-02
-6.798148155212402344e-02
1.626848941668868065e-03
-1.455986797809600830e-01
-3.947877511382102966e-02
4.541829973459243774e-02
-2.728551812469959259e-02
-5.786513909697532654e-02
4.856175929307937622e-02
4.006791859865188599e-02
3.497200086712837219e-02
-2.336964756250381470e-02
-4.768319893628358841e-03
7.465773075819015503e-02
8.411394432187080383e-03
3.208221495151519775e-02
1.472106389701366425e-02
5.512462928891181946e-02
2.469549700617790222e-02
-7.921390980482101440e-02
5.680383369326591492e-02
-2.486494742333889008e-02
-2.269530668854713440e-02
5.564928054809570312e-02
5.825949460268020630e-02
-4.590205103158950806e-02
-1.240473985671997070e-02
-5.547842010855674744e-02
5.604950245469808578e-03
-1.566405221819877625e-02
4.798655211925506592e-02
-2.502877451479434967e-02
1.761576510034501553e-03
1.574362255632877350e-02
-8.891638368368148804e-02
4.493622854351997375e-02
-1.234753895550966263e-02
7.990124076604843140e-02
-3.096037916839122772e-02
-2.238999493420124054e-02
8.053162693977355957e-02
1.324014365673065186e-01
3.517714515328407288e-02
5.712403729557991028e-02
1.261641234159469604e-01
3.237599506974220276e-02
2.151593938469886780e-02
-1.060140654444694519e-01
5.185550823807716370e-02
-1.090619042515754700e-01
-1.112409606575965881e-01
-3.312928974628448486e-02
-8.444860577583312988e-03
4.553585499525070190e-02
-1.209411621093750000e-01
8.136281743645668030e-03
-1.470163092017173767e-02
7.639051973819732666e-02
4.657872766256332397e-02
1.446363236755132675e-02
-3.372158855199813843e-02
-6.094843614846467972e-03
4.912497103214263916e-02
-2.402807772159576416e-02
-5.727590620517730713e-02
1.351794414222240448e-02
-1.485994607210159302e-01
1.046133637428283691e-01
-6.753992289304733276e-02
1.470724679529666901e-02
5.465757101774215698e-02
7.471350580453872681e-02
-5.069259554147720337e-02
2.575058024376630783e-03
5.862377583980560303e-02
-2.561198361217975616e-02
5.002127215266227722e-02
2.999300369992852211e-03
-4.045080393552780151e-02
-6.408659368753433228e-02
1.032983362674713135e-01
-8.077878504991531372e-02
-8.389353007078170776e-02
7.366993278264999390e-02
-2.930849790573120117e-02
-1.347695291042327881e-01
-3.913467004895210266e-02
5.400425940752029419e-02
-2.578846551477909088e-02
4.548117518424987793e-02
1.097996905446052551e-01
-1.028027734719216824e-03
-6.441091001033782959e-02
-7.771973032504320145e-03
9.280200116336345673e-03
-2.673453278839588165e-02
5.694940313696861267e-02
8.071614056825637817e-02
6.469252705574035645e-02
7.549740374088287354e-02
1.104093343019485474e-01
5.583860352635383606e-02
4.744594171643257141e-02
6.377445999532938004e-03
-3.301643580198287964e-02
1.044291704893112183e-01
7.284967601299285889e-02
-3.730830270797014236e-03
-3.519565984606742859e-02
4.524173960089683533e-02
3.886000812053680420e-02
5.003253370523452759e-02
-6.916444003582000732e-02
-1.932392269372940063e-02
-1.310126762837171555e-02
-2.617004141211509705e-02
-3.076438046991825104e-02
-4.822885245084762573e-02
-8.370563387870788574e-02
2.844105474650859833e-03
4.118402302265167236e-02
2.118283882737159729e-02
6.077246740460395813e-02
-1.661473140120506287e-02
-1.667592208832502365e-03
6.729861348867416382e-02
7.195265591144561768e-02
-2.144901081919670105e-02
-6.372603774070739746e-02
5.120172351598739624e-02
-1.526476144790649414e-01
2.289591543376445770e-02
-6.886576861143112183e-02
2.248697727918624878e-02
-1.216602921485900879e-01
9.493438899517059326e-02
-4.470474272966384888e-02
-6.256242096424102783e-02
1.018395349383354187e-01
-1.145644579082727432e-02
-1.786671578884124756e-02
9.197572246193885803e-03
1.098870709538459778e-01
-8.367857895791530609e-03
-4.502487555146217346e-02
4.500516131520271301e-02
3.987186774611473083e-02
2.286018617451190948e-02
3.039095737040042877e-02
-2.950856648385524750e-02
-6.374393589794635773e-03
-2.310888096690177917e-02
5.463135987520217896e-02
-3.550182795152068138e-03
-5.720869824290275574e-02
-5.398998036980628967e-02
2.428924106061458588e-02
-6.255511194467544556e-02
-3.228953480720520020e-02
7.464417070150375366e-02
-6.927599757909774780e-02
4.132518544793128967e-02
4.804759752005338669e-03
-2.482072822749614716e-02
2.600668184459209442e-02
-9.785016998648643494e-03
1.499128993600606918e-02
-5.432436987757682800e-02
4.422074556350708008e-02
1.366264466196298599e-02
-9.928230196237564087e-03
-6.704215705394744873e-02
-3.438110649585723877e-02
3.340056911110877991e-02
-2.670463174581527710e-03
4.029816016554832458e-03
3.951811790466308594e-02
3.220892325043678284e-02
6.361889094114303589e-02
-4.458334296941757202e-02
-6.469469517469406128e-02
2.945854142308235168e-02
-8.321774005889892578e-02
-3.705564886331558228e-02
2.231520973145961761e-02
-5.625683441758155823e-02
3.159559518098831177e-02
-3.473934903740882874e-02
-3.467875719070434570e-02
-4.280560836195945740e-02
4.015770554542541504e-02
2.628407627344131470e-02
1.749275438487529755e-02
2.563339658081531525e-02
-3.423024713993072510e-02
2.211007475852966309e-02
-1.634730026125907898e-02
-4.885603860020637512e-02
1.526710391044616699e-02
-1.428066566586494446e-02
3.245917707681655884e-02
9.077653288841247559e-03
-3.084371797740459442e-03
4.733736813068389893e-02
1.255562808364629745e-02
1.637987792491912842e-02
-4.102704301476478577e-02
4.652087017893791199e-02
-2.996645122766494751e-02
-3.001082874834537506e-02
-6.174409016966819763e-02
-4.265454411506652832e-02
2.871036343276500702e-02
3.775020828470587730e-03
2.310642041265964508e-02
-3.578449040651321411e-02
-6.334812194108963013e-02
6.450469046831130981e-02
1.873554103076457977e-02
4.256455972790718079e-02
3.524895384907722473e-02
2.512935781851410866e-03
-4.788345191627740860e-03
-1.834116526879370213e-03
1.849768497049808502e-02
-6.036728248000144958e-02
1.189834997057914734e-02
-3.515894338488578796e-02
-3.143578395247459412e-02
-5.953271314501762390e-02
-3.585125319659709930e-03
2.865435741841793060e-02
5.972321331501007080e-02
-4.524563997983932495e-02
5.396801978349685669e-02
-1.621547155082225800e-02
-3.439755877479910851e-03
7.613207399845123291e-02
-4.079313576221466064e-02
-3.120202384889125824e-02
-3.390949219465255737e-02
-1.116598211228847504e-02
-4.813102260231971741e-02
4.254270344972610474e-02
4.601055383682250977e-02
4.850960150361061096e-02
-1.719464920461177826e-02
-5.709934234619140625e-02
5.477490276098251343e-02
3.413921920582652092e-03
-6.293333135545253754e-03
1.842863112688064575e-02
3.866968676447868347e-02
-3.347476571798324585e-02
-4.162412509322166443e-02
4.625153541564941406e-02
6.669653952121734619e-02
8.980517275631427765e-03
-7.404521852731704712e-02
-1.545965299010276794e-02
5.052211508154869080e-02
2.191128954291343689e-02
2.059157565236091614e-02
5.826414749026298523e-02
1.518066320568323135e-02
-7.432714849710464478e-02
3.369123488664627075e-02
1.289416849613189697e-02
3.692188113927841187e-02
3.387460857629776001e-02
-3.075039200484752655e-02
1.163096260279417038e-02
-7.124854717403650284e-03
1.949746161699295044e-02
-2.281946875154972076e-02
-4.647802561521530151e-02
1.146488822996616364e-02
-2.398371137678623199e-02
3.477390483021736145e-02
-4.167070612311363220e-02
6.798013299703598022e-02
1.619876921176910400e-02
3.656561020761728287e-03
4.826205223798751831e-02
4.283051192760467529e-02
4.901529848575592041e-02
-9.023589082062244415e-03
6.067191064357757568e-02
3.584618121385574341e-02
3.978065028786659241e-02
-3.101121075451374054e-02
9.343383833765983582e-03
4.362050071358680725e-02
-6.357074528932571411e-02
-3.183219954371452332e-02
-2.967248857021331787e-02
-5.663552135229110718e-02
-3.705117851495742798e-02
-1.593270339071750641e-02
-7.478281855583190918e-02
3.574626147747039795e-02
-1.130522228777408600e-02
7.378680258989334106e-02
5.433294922113418579e-02
-1.797553338110446930e-02
2.360383979976177216e-02
4.304654151201248169e-02
1.075113285332918167e-02
3.841307759284973145e-02
5.668440088629722595e-02
2.997750230133533478e-02
2.238422259688377380e-02
5.577243864536285400e-02
-5.976451560854911804e-03
-2.078288607299327850e-02
-3.900599479675292969e-02
1.086617447435855865e-02
5.949804931879043579e-02
-8.330093696713447571e-03
1.915504038333892822e-02
2.069405280053615570e-02
-9.593706927262246609e-04
-2.532698586583137512e-02
-4.641519486904144287e-02
4.466800391674041748e-02
-1.846825703978538513e-02
1.035981439054012299e-02
-7.026071101427078247e-02
-5.294572934508323669e-02
2.671409584581851959e-02
-1.508837100118398666e-02
-2.465371601283550262e-02
-1.751507446169853210e-02
2.962945587933063507e-02
3.695101290941238403e-02
-5.114951729774475098e-02
-3.379584057256579399e-03
-1.823922991752624512e-02
5.727334320545196533e-02
-1.881342194974422455e-02
1.735837780870497227e-03
-3.944014385342597961e-02
6.936451792716979980e-02
-1.804673857986927032e-02
1.687256805598735809e-02
2.896159887313842773e-02
-2.963828295469284058e-02
7.380120921880006790e-03
-2.213302440941333771e-02
4.936573281884193420e-02
5.912553891539573669e-02
-5.838990211486816406e-02
4.430463165044784546e-02
-4.559339955449104309e-02
-4.055497795343399048e-02
-1.823140867054462433e-02
-5.055456981062889099e-02
6.527850776910781860e-02
3.157602250576019287e-02
-6.234689056873321533e-02
-4.101465642452239990e-02
-1.439637597650289536e-02
3.858971968293190002e-02
-7.133154571056365967e-02
4.467297717928886414e-02
7.689149677753448486e-02
-3.833515942096710205e-02
7.770448923110961914e-02
-2.373213879764080048e-02
-3.597152605652809143e-02
-4.190484806895256042e-02
-1.994344964623451233e-02
-4.987045004963874817e-02
2.821210306137800217e-03
-7.299990206956863403e-02
5.544361472129821777e-02
-2.847861126065254211e-02
-4.469829052686691284e-02
-6.789077818393707275e-02
4.691015928983688354e-04
-4.750723391771316528e-02
4.754764586687088013e-02
-7.462437730282545090e-03
-3.693800047039985657e-02
2.229360304772853851e-02
-7.251285016536712646e-02
2.740686573088169098e-02
-1.163819525390863419e-02
-2.830901183187961578e-02
-4.754474759101867676e-02
-1.532647851854562759e-02
4.146867990493774414e-02
-4.654380306601524353e-02
-5.425627157092094421e-02
4.646198824048042297e-03
-2.721876651048660278e-02
4.650427401065826416e-02
-6.019649282097816467e-02
6.478864699602127075e-02
-5.671127513051033020e-02
-3.987258672714233398e-02
3.793389769271016121e-03
-3.306590253487229347e-03
-2.437853999435901642e-02
1.808084896765649319e-03
-5.448096618056297302e-02
-4.853346198797225952e-02
-3.630799427628517151e-02
-4.289934411644935608e-02
-1.501324772834777832e-02
1.914211176335811615e-02
-4.399533197283744812e-02
-4.588974267244338989e-02
2.082085423171520233e-02
-2.776047401130199432e-02
-1.076698675751686096e-02
7.478117477148771286e-04
-4.650259017944335938e-02
4.782995581626892090e-02
8.844711817800998688e-03
2.344769891351461411e-03
-3.839363530278205872e-02
3.594715520739555359e-02
1.855083554983139038e-02
5.204895138740539551e-02
3.378694877028465271e-02
-5.574465170502662659e-02
-1.710019260644912720e-02
5.275091528892517090e-02
7.085385173559188843e-02
-3.522935509681701660e-02
-2.743900567293167114e-02
-9.417826076969504356e-04
-1.132323313504457474e-02
2.266573533415794373e-02
-3.547960519790649414e-02
1.581690460443496704e-02
5.759102478623390198e-02
-1.196276769042015076e-02
3.706213831901550293e-02
6.427626311779022217e-02
4.040562734007835388e-02
-2.477621287107467651e-02
-3.030148148536682129e-02
-1.423283852636814117e-02
-2.072058245539665222e-02
-5.432048346847295761e-03
2.641494013369083405e-02
-4.457667469978332520e-02
-3.548845276236534119e-02
2.930968068540096283e-03
3.157057985663414001e-02
-2.128189988434314728e-02
-4.106819629669189453e-02
8.368356525897979736e-02
5.931409541517496109e-03
-4.611779469996690750e-03
-3.308656066656112671e-02
-2.442403323948383331e-02
-4.263728857040405273e-03
-8.589346706867218018e-02
-6.569175422191619873e-02
7.532029878348112106e-03
8.287902921438217163e-02
7.078297436237335205e-02
4.151634499430656433e-02
-6.425832211971282959e-02
9.304814785718917847e-02
5.127038806676864624e-03
-1.586904749274253845e-02
5.291350185871124268e-02
-2.791456878185272217e-02
4.966223612427711487e-03
2.452533505856990814e-02
-8.020307123661041260e-02
5.103300139307975769e-02
1.103746332228183746e-02
-2.826665714383125305e-02
-1.531495805829763412e-02
1.976421661674976349e-02
-5.596849322319030762e-02
2.208902500569820404e-02
-3.722272813320159912e-02
-6.586218625307083130e-02
2.151568606495857239e-02
-2.020589821040630341e-02
-4.737001284956932068e-02
-7.162644714117050171e-02
-8.585597574710845947e-02
-1.071156654506921768e-02
-7.313490658998489380e-02
8.669714629650115967e-02
6.513915210962295532e-02
1.621809601783752441e-02
-4.212736338376998901e-02
-3.372872620820999146e-02
1.555528677999973297e-02
9.729182720184326172e-02
-7.766409777104854584e-03
-6.508959084749221802e-02
-7.811697572469711304e-02
-6.143332459032535553e-03
4.671356081962585449e-02
-3.091214224696159363e-03
-7.773206382989883423e-02
2.699198387563228607e-02
1.861116476356983185e-02
-7.996855303645133972e-03
2.525682188570499420e-02
-3.701980412006378174e-02
-1.097035477869212627e-03
2.387257060036063194e-03
4.659175500273704529e-02
-2.532248757779598236e-02
-9.817219339311122894e-03
1.824984140694141388e-02
4.061392694711685181e-02
-3.962806612253189087e-02
-5.408127605915069580e-02
2.984845079481601715e-02
9.061766415834426880e-02
-8.779883384704589844e-02
-8.168089389801025391e-02
4.705389961600303650e-02
-2.743710950016975403e-02
-5.365209653973579407e-03
-9.876332432031631470e-02
6.260257959365844727e-02
-1.000311039388179779e-02
1.129979081451892853e-02
5.355667695403099060e-02
5.377354472875595093e-02
9.347898513078689575e-02
-7.782093435525894165e-02
-5.608118325471878052e-02
7.320306450128555298e-02
2.673784084618091583e-02
-1.681144494796171784e-04
-2.067853696644306183e-02
8.983735740184783936e-02
-1.539663970470428467e-02
-1.357063092291355133e-02
8.262822404503822327e-03
5.568807944655418396e-02
4.779062047600746155e-02
-6.108114495873451233e-03
-3.843554109334945679e-02
3.721779584884643555e-02
6.417287141084671021e-02
4.766309261322021484e-02
-8.139885962009429932e-02
6.709234789013862610e-03
-6.015499681234359741e-02
-3.799859806895256042e-02
-5.163176357746124268e-02
-5.161505192518234253e-03
-2.269532158970832825e-02
-2.126926928758621216e-02
-2.081514708697795868e-02
8.603611029684543610e-03
3.711619600653648376e-02
-5.293430387973785400e-02
3.957499191164970398e-02
-8.230329304933547974e-02
2.880560420453548431e-02
2.294109575450420380e-02
7.108236849308013916e-02
-7.656247168779373169e-02
6.615691818296909332e-03
-6.839607842266559601e-03
3.256340697407722473e-02
-5.013960599899291992e-02
2.856323122978210449e-02
-9.749546647071838379e-02
4.924325644969940186e-02
3.520923852920532227e-02
-8.838199824094772339e-02
9.996925294399261475e-02
3.853717446327209473e-02
-2.645471692085266113e-02
-5.436109378933906555e-02
6.740756332874298096e-03
-4.759943485260009766e-02
7.118235528469085693e-02
-4.297216888517141342e-03
3.209574893116950989e-02
-2.247494272887706757e-02
6.461790949106216431e-02
2.921007014811038971e-02
-1.391493249684572220e-02
-8.234211057424545288e-02
-5.767977237701416016e-02
-6.560781598091125488e-02
-4.739494994282722473e-02
6.706976145505905151e-02
5.393245443701744080e-02
-1.836600713431835175e-02
8.567693643271923065e-03
7.263024896383285522e-02
-1.676226407289505005e-02
1.234977841377258301e-01
4.782850295305252075e-02
8.321017771959304810e-02
1.680564507842063904e-02
7.188910990953445435e-02
-8.429327607154846191e-02
2.772789075970649719e-02
8.550103008747100830e-02
3.245747834444046021e-02
9.674237668514251709e-02
-6.786419451236724854e-02
4.563513398170471191e-02
8.367123082280158997e-03
5.046781525015830994e-02
1.493070274591445923e-02
-2.065869607031345367e-02
-8.383335173130035400e-02
-2.884430065751075745e-02
-5.429081246256828308e-02
2.080605365335941315e-02
-5.281633930280804634e-04
5.480967462062835693e-02
-1.090662367641925812e-02
6.097868829965591431e-02
-2.212163433432579041e-02
6.590742617845535278e-02
8.013465441763401031e-03
1.099156439304351807e-01
-3.125502914190292358e-02
-3.304875642061233521e-02
-8.563933521509170532e-02
3.928571194410324097e-02
5.434915050864219666e-02
6.594763253815472126e-04
-8.301908522844314575e-02
-2.842526009771972895e-04
-4.691752418875694275e-02
-2.665139362215995789e-02
-8.348637819290161133e-02
3.695325285661965609e-04
-3.670613467693328857e-02
7.165998220443725586e-02
-9.461066126823425293e-02
5.672195553779602051e-02
-1.059109997004270554e-02
7.232755422592163086e-02
-8.758952468633651733e-02
4.926779493689537048e-02
1.226970329880714417e-01
1.665836200118064880e-02
6.430845707654953003e-02
1.275207195430994034e-02
4.392506554722785950e-02
-9.209322184324264526e-02
-5.967232584953308105e-02
-6.862910836935043335e-02
-6.816558539867401123e-02
1.380609869956970215e-01
-2.216750383377075195e-02
-1.747249625623226166e-02
-5.205397307872772217e-02
1.607741229236125946e-02
1.182992942631244659e-02
-5.750980600714683533e-02
-4.064036533236503601e-03
2.833953499794006348e-02
5.462834239006042480e-02
8.678160374984145164e-04
7.050240039825439453e-02
-2.522804588079452515e-02
5.463045462965965271e-02
3.420640900731086731e-02
4.085858911275863647e-02
3.325313702225685120e-02
2.347660437226295471e-02
-1.844706386327743530e-02
-4.080615565180778503e-02
-4.582806676626205444e-02
-3.424109518527984619e-02
6.543343514204025269e-02
3.003462031483650208e-02
-4.762352257966995239e-02
1.237724814563989639e-02
4.515687376260757446e-02
3.206010535359382629e-02
1.929293945431709290e-02
3.986804559826850891e-02
-1.007635146379470825e-01
-6.220093462616205215e-03
8.505012840032577515e-02
1.513790190219879150e-01
-2.099045552313327789e-02
-2.465801127254962921e-02
-1.630974002182483673e-02
-3.113769693300127983e-03
-2.922311984002590179e-02
-3.108447790145874023e-02
2.132336422801017761e-02
-1.352911442518234253e-02
8.180160075426101685e-03
-4.132242128252983093e-02
1.122014597058296204e-01
9.262846782803535461e-03
1.293412968516349792e-02
-5.891165882349014282e-02
-4.196426644921302795e-02
3.925218433141708374e-02
-1.975068449974060059e-02
8.213079534471035004e-03
3.593512345105409622e-03
-2.591766230762004852e-02
-1.863532699644565582e-03
2.893484383821487427e-02
-3.120739944279193878e-03
-3.320526331663131714e-02
-6.280932575464248657e-02
3.299879282712936401e-02
2.740426734089851379e-02
-1.193171273916959763e-02
-3.159695118665695190e-02
4.359760135412216187e-02
-3.387603908777236938e-02
6.387381814420223236e-03
-7.331048697233200073e-02
-1.818398572504520416e-02
1.481242477893829346e-02
-2.722065709531307220e-02
1.478081755340099335e-02
-2.738315984606742859e-02
-5.641850829124450684e-02
-1.420955080538988113e-02
-4.218246787786483765e-02
-3.006836585700511932e-02
-5.817425623536109924e-02
6.376959849148988724e-03
-3.039488196372985840e-02
4.142791405320167542e-02
-6.054068356752395630e-02
2.616468630731105804e-02
5.473217740654945374e-02
8.942662738263607025e-03
5.237063020467758179e-02
-3.805238381028175354e-02
-3.923783823847770691e-02
3.569824993610382080e-02
7.204354275017976761e-03
-3.321816399693489075e-02
-4.632231313735246658e-03
-5.880684405565261841e-02
4.972361773252487183e-02
1.901528611779212952e-02
9.004182368516921997e-02
3.447454795241355896e-02
-4.520729184150695801e-03
7.957574725151062012e-02
-4.487152211368083954e-03
4.613901302218437195e-02
7.593231857754290104e-04
6.511696428060531616e-02
-4.565845709294080734e-03
6.805875152349472046e-02
3.743296861648559570e-02
1.493126899003982544e-02
6.322368234395980835e-02
-1.815725304186344147e-02
5.116140097379684448e-02
8.211302012205123901e-02
-4.592743143439292908e-02
2.406331477686762810e-03
-2.911946550011634827e-02
-1.120069716125726700e-02
-7.947954535484313965e-02
1.104557770304381847e-03
2.245424839202314615e-04
-1.148709747940301895e-02
3.040568903088569641e-02
-2.029973827302455902e-02
-5.906828120350837708e-02
-1.990192756056785583e-02
-3.754683211445808411e-02
-2.875358797609806061e-02
1.727129449136555195e-03
5.030111409723758698e-03
5.892492458224296570e-02
5.342715606093406677e-02
-3.330993652343750000e-02
1.617185957729816437e-02
-2.343438006937503815e-02
5.838014185428619385e-04
5.578993633389472961e-02
5.935737863183021545e-02
7.320608943700790405e-02
-1.010028738528490067e-02
2.564038895070552826e-02
4.848551377654075623e-02
-5.629878956824541092e-03
-3.578338073566555977e-03
6.038447842001914978e-02
1.317957229912281036e-02
1.721694320440292358e-02
1.085546705871820450e-02
-2.549043856561183929e-02
2.973062172532081604e-02
1.520924735814332962e-02
-1.360765937715768814e-02
-1.800319924950599670e-02
-1.082981005311012268e-02
-1.847810490289703012e-04
-3.396620228886604309e-02
-1.285626925528049469e-02
-2.291350439190864563e-02
-5.724148079752922058e-02
-1.241955324076116085e-03
-4.272752255201339722e-02
-1.269631236791610718e-01
-1.560941990464925766e-02
3.451029583811759949e-02
-7.438385486602783203e-02
5.759104155004024506e-03
1.192260812968015671e-02
-2.202890627086162567e-02
1.234505977481603622e-02
3.322211327031254768e-03
-2.976887486875057220e-02
-2.013744786381721497e-02
-5.290280096232891083e-03
-5.557129904627799988e-02
-1.806477829813957214e-02
-6.712834537029266357e-02
-1.002465859055519104e-01
-2.931160666048526764e-02
-4.033549502491950989e-02
-3.491654619574546814e-02
2.108359150588512421e-02
1.954333670437335968e-02
3.840365260839462280e-02
-4.551294445991516113e-02
2.310526743531227112e-02
-1.713896868750452995e-03
5.290180072188377380e-02
-2.160543203353881836e-02
3.587571531534194946e-02
-5.381833389401435852e-02
-3.813391551375389099e-02
-1.600965671241283417e-02
8.566199801862239838e-03
-3.435316681861877441e-02
-4.619206115603446960e-02
-5.166117101907730103e-02
-9.307629615068435669e-02
3.242456912994384766e-02
2.525652572512626648e-02
-7.507533300668001175e-03
3.275573998689651489e-02
-3.480961918830871582e-02
2.957477048039436340e-02
-2.685779891908168793e-02
-7.701503485441207886e-02
5.957489833235740662e-02
2.414857409894466400e-02
-3.577101603150367737e-02
-7.397334277629852295e-02
-1.142488233745098114e-02
3.167493641376495361e-02
1.342181488871574402e-02
-6.946963071823120117e-02
9.175954386591911316e-03
-5.511707626283168793e-03
-1.221932843327522278e-02
-1.373353227972984314e-02
-2.366646006703376770e-02
2.844516560435295105e-02
2.390643768012523651e-02
-4.816336184740066528e-02
6.584687530994415283e-02
2.609668113291263580e-02
-7.700722198933362961e-03
-1.380960736423730850e-02
7.778136990964412689e-03
-2.166341617703437805e-02
-6.361959874629974365e-02
-3.973479568958282471e-02
-6.816829741001129150e-02
-3.861239179968833923e-02
4.349657148122787476e-02
6.423000991344451904e-02
1.755439094267785549e-03
9.823353961110115051e-03
7.371579110622406006e-02
4.415110871195793152e-02
-3.370908647775650024e-02
-2.340530045330524445e-02
5.244166404008865356e-02
3.563426062464714050e-02
-1.127234660089015961e-02
-5.566715076565742493e-02
-3.108995221555233002e-02
-5.082999914884567261e-02
-4.216402396559715271e-02
5.528211966156959534e-02
3.214562311768531799e-02
3.750511258840560913e-02
4.252673313021659851e-02
-6.121652666479349136e-03
-2.835450507700443268e-02
1.227522641420364380e-02
-3.801637515425682068e-02
-5.746826063841581345e-03
-6.950306147336959839e-02
-7.809011638164520264e-02
4.725860059261322021e-02
-2.158392453566193581e-03
-5.571584403514862061e-02
-5.074862018227577209e-02
-7.664566859602928162e-03
-6.698154378682374954e-03
-5.904047936201095581e-02
-7.887401431798934937e-02
2.929184213280677795e-02
8.642009459435939789e-03
8.562854491174221039e-03
-5.124806612730026245e-02
3.031404688954353333e-02
-4.804227501153945923e-03
-2.655116654932498932e-02
1.338531449437141418e-02
-1.433640811592340469e-02
-5.200706049799919128e-02
1.624509505927562714e-02
-3.186661005020141602e-02
-5.321422591805458069e-02
2.263459935784339905e-02
5.432750657200813293e-02
-4.236578941345214844e-02
2.832978218793869019e-02
-3.126950562000274658e-02
-5.244437232613563538e-02
1.577773876488208771e-02
-8.169527282007038593e-04
1.205298118293285370e-02
-3.101013228297233582e-02
1.993370242416858673e-02
5.082192644476890564e-02
-5.845117568969726562e-02
-4.053187556564807892e-03
-8.757288008928298950e-02
-2.995396591722965240e-02
-9.187269955873489380e-02
1.334151439368724823e-02
-3.930200263857841492e-02
-1.555843278765678406e-02
1.795561611652374268e-02
-4.329651594161987305e-02
2.867098664864897728e-03
-4.281372204422950745e-02
-2.033916860818862915e-02
5.218563973903656006e-02
-3.386668860912322998e-02
-4.454228281974792480e-02
3.140490874648094177e-02
-1.031504012644290924e-02
-8.188763633370399475e-03
-5.377063527703285217e-02
-2.773866802453994751e-02
5.214167386293411255e-02
5.456562340259552002e-02
7.150926161557435989e-03
7.693583611398935318e-03
-3.773252665996551514e-02
1.243499852716922760e-02
-5.624749884009361267e-02
-4.181291535496711731e-02
-4.455982521176338196e-02
-3.696032613515853882e-02
-1.500622020103037357e-03
-2.086898125708103180e-02
-2.457019872963428497e-02
6.891444325447082520e-02
2.722180075943470001e-02
5.526159424334764481e-03
2.588978223502635956e-02
4.644236341118812561e-02
6.775560230016708374e-02
4.025404527783393860e-02
-4.778260365128517151e-03
-3.307932615280151367e-02
-3.113271482288837433e-02
3.642086684703826904e-02
1.745732687413692474e-02
-4.193106293678283691e-02
-1.743883080780506134e-02
5.542903020977973938e-02
-7.036493718624114990e-02
4.331400245428085327e-02
-3.968421369791030884e-02
6.369849294424057007e-02
-1.045802235603332520e-02
3.955739736557006836e-02
-1.753200963139533997e-02
3.064837493002414703e-02
-4.438928514719009399e-02
2.165283076465129852e-02
-4.458019137382507324e-02
-1.193591300398111343e-02
5.220098793506622314e-02
3.371375426650047302e-02
2.759729512035846710e-02
-6.577147543430328369e-02
-4.150225967168807983e-02
1.302518695592880249e-02
3.487812355160713196e-02
-2.115750126540660858e-02
-7.019384205341339111e-02
-4.212221130728721619e-02
4.817590862512588501e-02
1.476495806127786636e-02
1.126169320195913315e-02
1.443642470985651016e-02
-5.236096214503049850e-03
-4.127269983291625977e-02
-4.032867401838302612e-02
8.477566763758659363e-03
3.367643803358078003e-02
9.542953968048095703e-02
6.171138212084770203e-02
5.560933426022529602e-02
-2.478322573006153107e-02
8.892447501420974731e-02
5.480393394827842712e-02
8.491214364767074585e-02
-3.243199363350868225e-02
5.297661572694778442e-02
6.750047206878662109e-02
-5.096932873129844666e-03
5.643711891025304794e-03
-3.553079068660736084e-02
-8.453096263110637665e-03
-8.875599503517150879e-02
-1.390578597784042358e-02
-3.340276703238487244e-02
3.630325570702552795e-02
-2.891660481691360474e-02
-1.581468060612678528e-02
3.130580484867095947e-02
1.080270204693078995e-02
-1.816231384873390198e-02
-3.710542619228363037e-02
-1.476290449500083923e-02
-6.631371099501848221e-03
1.326075755059719086e-02
8.602681010961532593e-02
5.851184949278831482e-02
-4.102380201220512390e-02
4.867370054125785828e-02
-1.133958809077739716e-02
9.393424540758132935e-02
-4.729173332452774048e-02
2.044665813446044922e-02
-4.464541748166084290e-02
8.231119811534881592e-02
2.753854542970657349e-02
-2.904438227415084839e-02
8.043210022151470184e-03
6.155499815940856934e-02
2.305676601827144623e-02
-3.664808114990592003e-03
2.480419725179672241e-02
3.731298446655273438e-02
-8.414895087480545044e-02
-1.018132269382476807e-01
-5.925022438168525696e-02
3.662842325866222382e-03
1.534909941256046295e-03
4.039217159152030945e-02
6.305000185966491699e-02
2.183244191110134125e-02
-3.083458915352821350e-02
5.401001870632171631e-02
-5.127572640776634216e-02
8.362284861505031586e-03
6.929358351044356823e-04
4.235894605517387390e-02
-7.793334778398275375e-03
-1.488112471997737885e-02
-2.895814739167690277e-02
2.665095962584018707e-02
-4.482356831431388855e-02
-1.080313790589570999e-02
2.487615682184696198e-02
-6.772042065858840942e-02
1.086498703807592392e-02
2.125497534871101379e-02
-2.677500247955322266e-02
6.542709656059741974e-03
-1.373791601508855820e-02
-5.455650761723518372e-02
2.028446830809116364e-02
1.768852584064006805e-02
-4.095080494880676270e-02
-7.043914496898651123e-02
-8.854865282773971558e-02
-4.865565150976181030e-02
8.959956467151641846e-03
5.907717347145080566e-02
-1.189243979752063751e-02
5.479606613516807556e-02
-5.582027509808540344e-02
4.315443709492683411e-02
-1.509021851234138012e-03
2.852269634604454041e-02
-7.715826481580734253e-02
1.961611770093441010e-02
-5.861847847700119019e-02
-4.496802017092704773e-02
2.674096077680587769e-02
-1.155579462647438049e-02
-9.146415442228317261e-02
-7.312455773353576660e-02
-1.565486192703247070e-02
-1.305932458490133286e-02
-3.522107377648353577e-02
1.580242998898029327e-02
-4.673911258578300476e-03
-1.647661998867988586e-02
-8.243211358785629272e-02
-3.490702062845230103e-02
-2.783722802996635437e-02
1.283959951251745224e-02
-1.089892536401748657e-02
4.248076584190130234e-03
-1.115662418305873871e-02
-3.991993144154548645e-02
-1.388393249362707138e-02
3.902110271155834198e-03
-2.112321183085441589e-02
4.884175211191177368e-02
5.246072541922330856e-03
2.954267151653766632e-02
-6.320688873529434204e-03
4.905109107494354248e-02
1.022949591279029846e-01
-9.268284775316715240e-03
-1.502076070755720139e-02
6.626778841018676758e-02
-9.483900852501392365e-03
-3.061766363680362701e-02
3.328092396259307861e-02
-1.300330087542533875e-02
-1.903805648908019066e-03
2.436531893908977509e-02
-6.146920472383499146e-02
-1.295085623860359192e-02
5.744979530572891235e-02
4.117024596780538559e-03
9.827722795307636261e-03
-1.896468736231327057e-02
-3.568515554070472717e-02
-3.068388439714908600e-02
3.283268958330154419e-02
-4.115185141563415527e-02
-2.291584201157093048e-02
-3.738077729940414429e-02
-8.187437430024147034e-03
-4.952808097004890442e-02
-5.325051397085189819e-02
-2.593318372964859009e-02
-3.628839924931526184e-02
-2.774833701550960541e-02
-5.722849629819393158e-03
-3.776452736929059029e-03
3.352751210331916809e-02
-2.747644856572151184e-02
1.043938286602497101e-02
-1.104842405766248703e-02
-7.577521353960037231e-02
-2.880121022462844849e-02
4.189036041498184204e-02
2.084530889987945557e-02
-6.977046281099319458e-02
-1.490988582372665405e-02
-3.341851383447647095e-02
2.683874219655990601e-02
-1.568211615085601807e-02
3.221733868122100830e-02
2.543057128787040710e-02
-5.259161442518234253e-02
1.199608482420444489e-02
3.905107453465461731e-02
-4.194084927439689636e-02
-2.568509243428707123e-02
3.800862282514572144e-02
-2.613197267055511475e-02
3.316087275743484497e-02
5.719493143260478973e-03
8.043961599469184875e-03
3.959240764379501343e-02
-5.856461822986602783e-02
-8.010555058717727661e-03
6.959167867898941040e-02
2.194099500775337219e-02
1.115079876035451889e-02
-1.857458800077438354e-02
9.702962823212146759e-03
-1.675771176815032959e-02
4.506341367959976196e-02
1.309532951563596725e-02
-5.497305840253829956e-02
-3.565285354852676392e-02
4.203357547521591187e-02
-3.981581423431634903e-03
-4.096084088087081909e-02
2.328038029372692108e-02
2.664529159665107727e-02
6.045803427696228027e-02
-4.937629774212837219e-02
-3.015218675136566162e-02
-5.342109501361846924e-02
-1.145669259130954742e-02
5.691841617226600647e-02
-4.742282629013061523e-02
4.439713060855865479e-02
-5.138532817363739014e-02
-1.448841579258441925e-02
4.549694806337356567e-02
4.571720585227012634e-02
-6.893976777791976929e-02
-1.744429767131805420e-02
4.255684465169906616e-02
5.676012113690376282e-02
2.956483978778123856e-03
5.804547667503356934e-02
-1.682129688560962677e-02
4.063815250992774963e-02
9.353694319725036621e-02
-1.290409080684185028e-02
7.414532452821731567e-02
2.793298917822539806e-04
4.366845265030860901e-02
2.835617959499359131e-02
-2.169975638389587402e-02
4.634559154510498047e-02
4.257960245013237000e-02
-2.201679721474647522e-02
6.292515248060226440e-02
3.690122067928314209e-02
-6.562012247741222382e-03
-4.133376851677894592e-02
-2.555950544774532318e-02
3.027414204552769661e-03
3.144852072000503540e-02
6.527093052864074707e-02
-6.891934201121330261e-03
-3.397420048713684082e-03
-5.318918451666831970e-02
4.102178290486335754e-02
7.348436396569013596e-03
4.956632107496261597e-02
2.712533576413989067e-03
5.542390421032905579e-02
-3.334335610270500183e-02
-6.476673483848571777e-02
-7.993558421730995178e-03
-2.959818579256534576e-02
-5.852660164237022400e-02
-1.333321351557970047e-02
5.811183899641036987e-02
5.006835795938968658e-03
7.457195967435836792e-02
-3.814638033509254456e-02
-1.872683688998222351e-02
-2.132827229797840118e-02
2.769125998020172119e-02
-4.727162420749664307e-03
-6.000010296702384949e-02
5.159319937229156494e-02
-1.482528354972600937e-02
-5.181480571627616882e-02
-4.015561193227767944e-02
7.870270311832427979e-02
-2.465679869055747986e-02
-1.556667685508728027e-02
6.948635727167129517e-02
-3.919177129864692688e-02
5.211455374956130981e-02
5.900415405631065369e-02
5.693313106894493103e-02
-3.023971617221832275e-02
-4.200547188520431519e-02
-1.494411937892436981e-02
-5.188719369471073151e-03
1.845071837306022644e-02
6.830225884914398193e-02
-2.408148534595966339e-02
