4.184857755899429321e-02
-4.432645812630653381e-02
5.889795348048210144e-02
-1.124406419694423676e-02
-1.950338133610785007e-03
4.387985914945602417e-03
-1.460109557956457138e-02
-3.844393650069832802e-03
6.627897918224334717e-02
2.858710475265979767e-02
1.221385970711708069e-01
3.017960302531719208e-02
3.338528051972389221e-02
-3.561138734221458435e-02
2.373255975544452667e-02
3.166473284363746643e-02
-9.854315780103206635e-03
-8.749638684093952179e-03
4.429341934155672789e-04
9.377539157867431641e-02
2.857028506696224213e-02
-4.390597343444824219e-02
2.069021202623844147e-02
1.312571391463279724e-02
-8.499670773744583130e-02
-2.224139682948589325e-02
-8.800943940877914429e-02
7.027666270732879639e-02
-9.262926131486892700e-02
5.731067061424255371e-02
-5.964277312159538269e-03
6.797641981393098831e-03
-1.066899858415126801e-02
-1.025282666087150574e-01
5.917084589600563049e-02
-3.844031319022178650e-02
-2.876266464591026306e-02
-6.756073236465454102e-02
-1.033914238214492798e-01
-1.260142307728528976e-02
-5.288604274392127991e-02
-3.548181056976318359e-02
-4.437793791294097900e-02
1.198372524231672287e-02
8.897428400814533234e-03
-3.219701349735260010e-02
2.193579077720642090e-02
6.243053823709487915e-03
2.450456097722053528e-02
8.623088896274566650e-02
6.519726663827896118e-02
5.309426039457321167e-02
3.960767760872840881e-02
-8.775526285171508789e-02
4.121046513319015503e-02
5.838183686137199402e-02
5.971987918019294739e-02
-9.665204584598541260e-02
2.554391138255596161e-02
-1.230564936995506287e-01
-4.862170293927192688e-02
1.115235779434442520e-02
-3.326155617833137512e-02
-1.508895009756088257e-01
-3.079738281667232513e-02
3.125256672501564026e-02
-3.132048621773719788e-02
-6.170383468270301819e-02
-2.953518927097320557e-02
-6.209944933652877808e-02
-8.120877295732498169e-02
-3.257744386792182922e-02
-8.235330134630203247e-02
2.133906446397304535e-02
1.252918969839811325e-03
4.624671861529350281e-02
-7.861571013927459717e-02
-7.570480555295944214e-02
-7.754804193973541260e-02
-1.550016459077596664e-02
1.478600502014160156e-01
-9.370851330459117889e-03
-6.692153960466384888e-02
-7.226373255252838135e-02
8.744299411773681641e-02
-3.686893731355667114e-02
6.131046265363693237e-02
-8.816382288932800293e-02
1.009879931807518005e-01
-3.042560769245028496e-03
3.949497640132904053e-02
3.599321469664573669e-02
-3.847241634503006935e-03
9.144212305545806885e-02
-3.884407225996255875e-03
1.957450993359088898e-02
-8.315750956535339355e-02
-8.376959711313247681e-02
6.197898834943771362e-02
1.934277452528476715e-02
-7.534962147474288940e-02
7.295151799917221069e-02
2.938026562333106995e-02
-1.082836613059043884e-01
4.499492794275283813e-02
5.390014499425888062e-02
8.953597396612167358e-02
-6.563679128885269165e-02
-8.026868104934692383e-02
-1.049885526299476624e-02
-2.280238084495067596e-02
6.307435035705566406e-02
7.469850033521652222e-02
2.293521072715520859e-03
-6.995506118983030319e-03
-1.990995742380619049e-02
8.958563953638076782e-02
8.393570035696029663e-02
-1.730947010219097137e-02
6.447923183441162109e-02
6.723260879516601562e-02
-5.662180483341217041e-04
-7.160919904708862305e-02
1.291688252240419388e-02
4.961849376559257507e-02
-4.034811258316040039e-02
-1.568712294101715088e-02
-2.336498908698558807e-02
-1.226241067051887512e-01
3.422588855028152466e-02
-3.615961968898773193e-02
-1.903547048568725586e-01
-5.058932676911354065e-02
1.777942961780354381e-04
-2.143581397831439972e-02
-9.206673130393028259e-03
1.583595573902130127e-02
-4.016028717160224915e-02
5.493229255080223083e-02
-1.078094076365232468e-02
-1.123866289854049683e-01
1.205760636366903782e-03
-3.051982820034027100e-02
4.153786227107048035e-02
-3.736865764949470758e-04
-4.034517332911491394e-02
-1.480596661567687988e-01
-5.584824085235595703e-02
-7.343286648392677307e-03
-3.581677749752998352e-02
6.162009667605161667e-03
-1.439496427774429321e-01
-4.720804747194051743e-03
-1.797781512141227722e-02
-7.443691045045852661e-02
-2.367616444826126099e-02
6.927344948053359985e-02
-3.586593270301818848e-02
-5.626526847481727600e-02
3.845782577991485596e-02
1.865446008741855621e-02
6.584806833416223526e-03
5.086269229650497437e-02
1.028726622462272644e-01
3.418106958270072937e-02
-5.802199617028236389e-02
-4.209809005260467529e-02
3.799247741699218750e-02
2.602482773363590240e-02
-1.070074364542961121e-01
-4.710519313812255859e-02
-1.448076032102108002e-02
4.295472055673599243e-02
8.342897146940231323e-02
2.990780770778656006e-02
-1.448155380785465240e-03
3.364086151123046875e-03
5.587018094956874847e-03
1.330758631229400635e-01
-4.626031219959259033e-02
-4.783012717962265015e-02
-1.500106602907180786e-02
7.361862808465957642e-02
-7.792359683662652969e-03
3.064741007983684540e-02
8.334382623434066772e-02
6.235913559794425964e-02
-1.339349001646041870e-01
7.764351367950439453e-02
-1.113944314420223236e-02
2.950934693217277527e-03
-3.289807215332984924e-02
2.353812754154205322e-02
9.444991499185562134e-02
7.665488868951797485e-02
-5.740825086832046509e-02
-6.615307927131652832e-02
4.831671714782714844e-02
-5.403170734643936157e-02
-2.067351527512073517e-02
-4.132277891039848328e-02
7.381547242403030396e-02
1.728539541363716125e-02
-4.369293153285980225e-02
-8.850481361150741577e-03
-1.530594751238822937e-02
-3.980750963091850281e-02
-6.296844780445098877e-02
-7.700175791978836060e-02
-6.060438975691795349e-02
-8.763359487056732178e-02
8.897092193365097046e-02
-9.671755135059356689e-03
5.442525818943977356e-02
9.981612861156463623e-02
1.279750466346740723e-02
3.297844901680946350e-02
7.639568764716386795e-03
2.969245985150337219e-02
-6.031209230422973633e-02
1.002333015203475952e-01
2.949362248182296753e-02
5.288323014974594116e-02
2.664236119017004967e-03
1.263727992773056030e-01
7.097517699003219604e-02
-6.707822438329458237e-03
-4.032694175839424133e-02
3.059184737503528595e-02
-4.493092000484466553e-02
-2.419119141995906830e-02
-4.729700833559036255e-02
-5.150147527456283569e-02
4.875070601701736450e-02
2.905972860753536224e-02
-8.887700736522674561e-02
1.280299127101898193e-01
4.700081422924995422e-02
7.401107996702194214e-02
9.141125530004501343e-02
3.984222188591957092e-02
9.982577525079250336e-03
6.244124472141265869e-02
5.777706950902938843e-02
-5.407890677452087402e-02
4.228311777114868164e-02
1.105968430638313293e-01
-3.918277844786643982e-02
-6.287955492734909058e-02
1.419352740049362183e-02
-3.924474492669105530e-02
1.173236221075057983e-02
-4.805847071111202240e-03
7.454188913106918335e-02
-5.039575695991516113e-02
-1.746260211803019047e-03
-5.739588662981987000e-02
2.415113151073455811e-02
4.462529346346855164e-02
-6.670141220092773438e-02
2.123666368424892426e-02
-4.207989200949668884e-02
4.315856471657752991e-02
-2.862070687115192413e-02
7.795578334480524063e-03
4.837189242243766785e-02
-3.092197328805923462e-02
1.339795440435409546e-02
-4.008350893855094910e-02
3.526714071631431580e-02
-5.728556774556636810e-03
-3.378814831376075745e-02
8.487854152917861938e-03
-1.137770712375640869e-03
-1.355605386197566986e-02
-6.285094469785690308e-02
1.719943434000015259e-02
5.535762757062911987e-02
7.225435972213745117e-02
-5.739410407841205597e-03
6.762281060218811035e-02
5.057843774557113647e-02
5.054263398051261902e-02
-3.970752470195293427e-03
-1.914613880217075348e-02
-1.104591763578355312e-03
-2.684677764773368835e-02
4.741253331303596497e-03
-2.541820518672466278e-02
3.103600256145000458e-02
-1.490174420177936554e-02
-2.629757672548294067e-02
-3.329227119684219360e-02
5.505100637674331665e-02
-2.509483508765697479e-02
3.826035559177398682e-02
-5.087269470095634460e-02
-2.453155815601348877e-02
3.498803079128265381e-02
-3.042774274945259094e-02
4.925524815917015076e-02
-4.146999493241310120e-02
7.720663212239742279e-03
-6.156654283404350281e-02
-4.849509522318840027e-02
-2.521009184420108795e-02
4.368047416210174561e-02
-5.199381336569786072e-02
-5.988546833395957947e-02
-3.643867326900362968e-03
6.070860475301742554e-02
5.734567344188690186e-02
-5.752554163336753845e-02
-4.710177332162857056e-02
-3.293657675385475159e-02
4.411114379763603210e-02
-3.945237956941127777e-03
-4.075340181589126587e-02
-4.209312796592712402e-02
-2.749261818826198578e-02
-4.584814980626106262e-02
-1.234939973801374435e-02
5.681797489523887634e-02
4.843890294432640076e-02
3.191601485013961792e-02
-3.021537885069847107e-02
5.481958389282226562e-02
-4.322977364063262939e-02
-3.402879228815436363e-03
-6.284423172473907471e-02
3.538925945758819580e-02
3.424965590238571167e-02
7.958269678056240082e-03
-3.193465247750282288e-02
3.148886561393737793e-02
4.937662556767463684e-02
4.771654028445482254e-03
-3.833063319325447083e-02
-2.891372330486774445e-02
-5.672564357519149780e-02
3.743330389261245728e-02
5.246801301836967468e-02
-1.429531723260879517e-02
-3.140468895435333252e-02
-5.356563255190849304e-02
5.648811534047126770e-02
5.685053393244743347e-02
1.430374383926391602e-02
1.875272020697593689e-02
4.318924248218536377e-02
-5.495178699493408203e-02
-4.075089469552040100e-02
4.077771678566932678e-02
2.231330424547195435e-02
3.514701873064041138e-02
5.365974083542823792e-02
-2.602260187268257141e-02
-5.575085803866386414e-02
3.906723484396934509e-02
-3.934966865926980972e-03
-3.795999661087989807e-02
5.574819166213274002e-03
3.312801569700241089e-02
-3.415498137474060059e-02
-4.978229105472564697e-02
-3.506147488951683044e-02
1.632772851735353470e-03
1.593900285661220551e-02
-4.857882391661405563e-03
8.335771970450878143e-03
1.281360071152448654e-02
-5.975532159209251404e-02
-1.341690868139266968e-02
-3.799147158861160278e-02
-4.087443277239799500e-02
5.677222460508346558e-02
1.708669960498809814e-02
-2.195015549659729004e-02
-2.625218406319618225e-02
1.316231302917003632e-02
-6.129278615117073059e-02
-4.163575917482376099e-02
-2.272206358611583710e-02
2.032151818275451660e-02
2.511491766199469566e-04
-3.617002069950103760e-02
-5.213835462927818298e-02
-5.100140348076820374e-02
-5.868562310934066772e-02
-8.804911631159484386e-04
-2.563363499939441681e-02
2.175337821245193481e-02
-2.838231064379215240e-02
3.585734218358993530e-02
-2.400335669517517090e-02
3.990473970770835876e-02
-1.912987977266311646e-02
4.990428686141967773e-03
-4.564870521426200867e-02
-3.216723352670669556e-02
1.131684985011816025e-02
4.559529572725296021e-02
-1.282161474227905273e-02
5.151308327913284302e-02
9.982812218368053436e-03
3.964941576123237610e-02
9.723040275275707245e-03
5.155843496322631836e-02
-2.296154573559761047e-02
-1.426302921026945114e-02
-5.984346196055412292e-02
3.038586862385272980e-02
-5.673597753047943115e-02
8.224832825362682343e-03
-6.042336672544479370e-02
-1.633452810347080231e-02
-3.945577517151832581e-02
-2.739388681948184967e-02
2.967937476933002472e-02
1.194926071912050247e-02
-2.015548525378108025e-03
-1.740069873631000519e-02
-4.386561736464500427e-02
1.243972964584827423e-02
-2.352520450949668884e-02
4.873388912528753281e-03
6.000073626637458801e-02
4.333332180976867676e-03
-2.347129024565219879e-02
-4.058532044291496277e-02
2.756625972688198090e-02
6.211736798286437988e-02
2.075144648551940918e-02
8.510811254382133484e-03
5.454761534929275513e-02
-3.652368113398551941e-02
-7.886785082519054413e-03
-9.074418805539608002e-03
-3.753643250092864037e-05
3.856211155652999878e-02
-3.208217024803161621e-02
-3.214290365576744080e-02
-4.881098866462707520e-02
6.773893535137176514e-02
4.388352483510971069e-02
-5.198100581765174866e-02
-3.743378072977066040e-02
1.286454964429140091e-02
-1.174665708094835281e-02
-6.239256635308265686e-02
1.877495460212230682e-02
-3.612435609102249146e-02
-2.362353727221488953e-02
-6.046837568283081055e-02
-5.007850378751754761e-02
-1.775542460381984711e-02
-1.218673959374427795e-02
-6.396155059337615967e-02
-3.768151160329580307e-03
-1.481845858506858349e-03
-4.840026423335075378e-02
-3.719289961736649275e-04
-1.079280767589807510e-02
-3.065061010420322418e-02
-5.532566457986831665e-02
4.462741687893867493e-02
-5.210943892598152161e-02
1.275891903787851334e-02
-1.661364175379276276e-02
-2.270199620397761464e-04
-5.532440915703773499e-02
1.645941659808158875e-02
3.991244733333587646e-02
5.459328182041645050e-03
-3.681241348385810852e-02
-1.909047737717628479e-02
-3.024533390998840332e-02
-5.922983214259147644e-02
-5.733231082558631897e-02
-2.415366657078266144e-02
-2.868563123047351837e-02
-4.307646304368972778e-02
-3.100007539615035057e-03
-5.112030729651451111e-02
1.572212204337120056e-02
-3.585013374686241150e-02
2.030277857556939125e-03
5.815119668841362000e-02
-4.663317278027534485e-02
-2.623137086629867554e-02
3.576206415891647339e-02
4.486742243170738220e-02
-7.106329500675201416e-02
3.410383313894271851e-02
2.498098835349082947e-02
1.869183965027332306e-03
-2.684308588504791260e-02
-2.069691754877567291e-02
-3.918440639972686768e-02
1.748823933303356171e-02
1.541519537568092346e-02
-3.916057944297790527e-02
5.191938951611518860e-02
-5.972822010517120361e-02
-4.467043280601501465e-02
1.502547319978475571e-02
-2.900682948529720306e-02
-3.422402963042259216e-02
5.529971048235893250e-02
3.102405741810798645e-02
-8.033791556954383850e-03
2.174378558993339539e-02
2.336459793150424957e-02
-2.850016579031944275e-02
2.419318305328488350e-03
5.320602795109152794e-04
5.827489122748374939e-02
-2.577075548470020294e-02
-2.402906771749258041e-03
-9.418437629938125610e-02
-4.402701929211616516e-02
-1.859967038035392761e-02
-6.002553272992372513e-03
9.861120022833347321e-03
-2.022895961999893188e-02
4.182440042495727539e-02
3.866270184516906738e-02
5.981389060616493225e-02
4.297626018524169922e-02
-5.579710751771926880e-02
-3.773554926738142967e-03
-3.467902168631553650e-02
-6.168768927454948425e-02
-7.383871078491210938e-02
-1.112705916166305542e-01
-5.940829962491989136e-02
6.168678775429725647e-02
-1.176395937800407410e-01
2.012704266235232353e-03
-1.538397073745727539e-01
5.729945376515388489e-02
-2.652226202189922333e-02
-2.321846783161163330e-02
4.574928432703018188e-02
-1.364953964948654175e-01
7.591445744037628174e-02
7.029458135366439819e-02
9.027261286973953247e-03
-4.667159169912338257e-02
-2.183851785957813263e-02
5.003674887120723724e-03
-6.596601009368896484e-02
-7.656983565539121628e-03
-1.272576302289962769e-02
-2.419037930667400360e-02
1.397320069372653961e-02
-1.182404756546020508e-01
-4.190191626548767090e-03
7.648160308599472046e-02
5.539604276418685913e-02
2.133939787745475769e-02
5.832050740718841553e-02
4.449829459190368652e-02
-7.731901854276657104e-02
-5.494637787342071533e-02
1.680666580796241760e-03
-3.772267326712608337e-02
2.860594727098941803e-02
2.486154809594154358e-02
-6.154811754822731018e-02
-8.899157494306564331e-02
-1.270765159279108047e-02
9.043283015489578247e-02
1.353831216692924500e-02
-2.360013686120510101e-02
-5.215178243815898895e-03
1.174339745193719864e-02
4.255120456218719482e-02
-1.852958090603351593e-02
-2.271540835499763489e-02
-3.308879956603050232e-02
-5.979223549365997314e-02
-1.680423691868782043e-02
4.141426831483840942e-02
-5.138687416911125183e-02
-4.364964738488197327e-02
-5.393254011869430542e-02
-5.710888281464576721e-02
5.298798158764839172e-02
-2.767411246895790100e-02
8.774770423769950867e-03
2.960835024714469910e-02
4.518601670861244202e-02
-8.118389174342155457e-03
-2.431057393550872803e-02
-6.724782288074493408e-02
1.005991175770759583e-01
-3.383138682693243027e-03
-2.536271885037422180e-02
-5.782897397875785828e-02
-6.209590355865657330e-04
5.075826495885848999e-02
-6.331139057874679565e-02
-4.991294071078300476e-02
3.373238071799278259e-02
1.658497937023639679e-02
-6.087243556976318359e-03
-3.048534132540225983e-02
-2.894357405602931976e-02
3.096451051533222198e-02
5.345775187015533447e-02
1.186055596917867661e-03
4.707903414964675903e-02
-2.191312424838542938e-02
1.313788257539272308e-02
-9.037817828357219696e-03
7.846058905124664307e-02
9.438836947083473206e-03
-4.078244417905807495e-02
-2.242557704448699951e-02
-8.724052459001541138e-02
1.721365936100482941e-02
2.910300903022289276e-02
-5.960959568619728088e-02
-5.683804675936698914e-02
2.886102907359600067e-02
-5.513959378004074097e-02
-1.278675198554992676e-01
-5.732486490160226822e-03
6.038193777203559875e-02
-1.866260915994644165e-02
-5.182725563645362854e-02
-5.704133957624435425e-02
-1.260954793542623520e-02
-4.967115074396133423e-02
6.681223213672637939e-02
6.410443037748336792e-02
-3.296835348010063171e-02
4.831269755959510803e-02
3.569089248776435852e-02
-3.787656128406524658e-02
-1.010211333632469177e-01
-5.387706309556961060e-02
-1.000197902321815491e-01
-3.496897965669631958e-02
-6.771471351385116577e-02
-3.963732346892356873e-02
-5.072168260812759399e-02
-4.708859324455261230e-02
6.660612672567367554e-02
3.066417947411537170e-02
-7.708085700869560242e-03
9.452553093433380127e-02
4.177699238061904907e-02
-4.286239296197891235e-02
3.511133603751659393e-03
-1.897262781858444214e-01
-3.758343681693077087e-02
-4.082345217466354370e-02
-3.011451475322246552e-02
-6.800799816846847534e-02
-6.582115590572357178e-02
3.448916599154472351e-02
1.017833277583122253e-01
-2.541309222579002380e-02
-3.416271181777119637e-03
-9.384592995047569275e-03
1.142803803086280823e-01
9.323301725089550018e-03
2.285634726285934448e-02
6.351687759160995483e-02
4.567386582493782043e-02
-3.483480215072631836e-02
-2.014596015214920044e-02
-4.272552579641342163e-02
5.341660603880882263e-02
3.790315240621566772e-02
-2.036002278327941895e-02
-8.017750829458236694e-02
-5.198190733790397644e-02
-1.074359640479087830e-01
-2.503827027976512909e-02
-2.639896981418132782e-02
7.670535892248153687e-02
1.635208278894424438e-01
-3.518414217978715897e-03
6.168895959854125977e-02
1.099731400609016418e-01
3.980997204780578613e-02
-2.478499338030815125e-02
-7.328744977712631226e-02
4.670196771621704102e-02
-1.886288821697235107e-02
-4.148053377866744995e-02
-2.170767448842525482e-02
-6.981059163808822632e-02
3.822086006402969360e-02
5.501614511013031006e-02
-4.022566974163055420e-02
-3.210867568850517273e-02
-2.065952168777585030e-03
4.755103960633277893e-03
4.275346547365188599e-02
1.826990768313407898e-02
-1.320600416511297226e-02
-1.039205715060234070e-01
3.642299026250839233e-02
-7.735100388526916504e-02
-7.232639938592910767e-02
-4.789673164486885071e-02
1.473943609744310379e-02
2.475747279822826385e-02
-6.702787429094314575e-02
-4.316238686442375183e-02
-3.326277062296867371e-02
1.145591307431459427e-02
-5.297193676233291626e-02
-4.715657234191894531e-02
2.102557569742202759e-02
6.637312471866607666e-02
-5.037626251578330994e-02
1.503138430416584015e-02
-2.133781835436820984e-02
7.400534115731716156e-03
2.281961590051651001e-02
4.141039028763771057e-02
1.294672023504972458e-02
-1.175519428215920925e-03
-4.269671626389026642e-03
4.746463894844055176e-02
5.542870983481407166e-02
-1.130467504262924194e-01
6.228212267160415649e-03
-1.118211075663566589e-02
2.249243855476379395e-02
8.752245455980300903e-02
4.498109221458435059e-02
-7.984440773725509644e-02
-3.863792121410369873e-02
-3.753023967146873474e-02
-2.277512848377227783e-02
1.811344549059867859e-02
-2.093766070902347565e-02
7.567064464092254639e-02
1.475629024207592010e-02
6.428716331720352173e-02
-4.870489984750747681e-02
-4.662840813398361206e-02
9.058430790901184082e-03
-3.376987529918551445e-03
-8.638304658234119415e-03
-1.040577609091997147e-02
1.190149709582328796e-01
-8.317846059799194336e-02
3.259862959384918213e-02
-7.210692018270492554e-02
5.710908398032188416e-02
-8.053362369537353516e-03
-3.227467089891433716e-02
-7.234762609004974365e-02
1.144135892391204834e-01
3.588072955608367920e-03
3.269663825631141663e-02
-4.865112900733947754e-02
-8.874677121639251709e-03
5.611640959978103638e-02
-2.174292691051959991e-02
-8.540432900190353394e-02
3.976002708077430725e-02
-1.328876335173845291e-02
4.757757112383842468e-02
-1.326977312564849854e-01
-1.093121170997619629e-01
1.222364790737628937e-02
5.336317792534828186e-02
1.145630031824111938e-01
3.547151386737823486e-02
1.258010864257812500e-01
9.147915989160537720e-02
1.172719672322273254e-01
6.460155360400676727e-03
-1.769028306007385254e-01
4.622144624590873718e-02
-1.279799044132232666e-01
-5.171358212828636169e-02
2.111938297748565674e-01
-1.209628488868474960e-02
2.547052688896656036e-02
-6.756894290447235107e-02
7.786206901073455811e-02
4.250367358326911926e-02
-2.026503533124923706e-02
1.497286707162857056e-01
1.355830878019332886e-01
8.388083428144454956e-02
9.364087134599685669e-02
8.703148365020751953e-02
-2.872781753540039062e-01
-1.533462852239608765e-01
-8.666597306728363037e-02
3.157356753945350647e-02
1.027380451560020447e-01
1.858999021351337433e-03
-1.301647722721099854e-01
7.555370032787322998e-02
2.109830640256404877e-02
6.568569689989089966e-02
4.109468683600425720e-02
-5.050299689173698425e-02
7.999411970376968384e-02
-1.025470625609159470e-02
1.354174166917800903e-01
-1.176031827926635742e-01
-9.957652539014816284e-03
-5.787935107946395874e-03
-1.515392446890473366e-03
1.635826937854290009e-02
-2.306121774017810822e-02
9.962663054466247559e-02
1.860064715147018433e-01
5.469085182994604111e-03
2.987978979945182800e-02
7.701818645000457764e-02
8.562231808900833130e-02
4.500003531575202942e-03
6.705897860229015350e-03
1.442885547876358032e-01
-1.081134676933288574e-01
-1.198497787117958069e-01
-1.118993759155273438e-01
-1.232710629701614380e-01
-7.253059744834899902e-02
1.771319285035133362e-02
-5.658411234617233276e-02
1.708866655826568604e-02
-1.592417433857917786e-02
4.753592982888221741e-02
1.258045583963394165e-01
3.761181607842445374e-02
-3.968570753931999207e-02
-1.199948638677597046e-01
8.741661161184310913e-02
3.299360163509845734e-03
-5.040569230914115906e-02
-2.205842733383178711e-02
2.690627239644527435e-02
1.430862545967102051e-01
1.488113868981599808e-02
-9.865334630012512207e-02
-2.103538960218429565e-01
1.549332886934280396e-01
-1.196532845497131348e-01
7.347425073385238647e-02
2.998687513172626495e-02
1.184810176491737366e-01
7.194353640079498291e-02
1.136213839054107666e-01
-7.667479105293750763e-03
1.030406802892684937e-01
5.398051813244819641e-02
3.382367640733718872e-02
-2.695108205080032349e-02
1.154337543994188309e-02
1.718392074108123779e-01
1.646611467003822327e-02
2.341519482433795929e-02
-3.293064609169960022e-02
3.461394459009170532e-03
8.136869221925735474e-02
-5.343603342771530151e-02
4.994981363415718079e-02
5.302841588854789734e-02
5.443333089351654053e-02
-2.341175265610218048e-02
-2.705391030758619308e-03
5.191591754555702209e-02
-1.129851266741752625e-01
-5.133634060621261597e-02
-1.833292096853256226e-02
-1.657574623823165894e-02
7.473163306713104248e-03
1.664056926965713501e-01
4.555978253483772278e-02
1.277869194746017456e-01
3.041580319404602051e-02
2.564933337271213531e-02
1.495965719223022461e-01
-1.502608601003885269e-02
1.614141464233398438e-01
-7.446016371250152588e-02
-1.305965632200241089e-01
6.562783569097518921e-02
6.542638689279556274e-02
-3.981814906001091003e-02
-1.345975846052169800e-01
2.175927348434925079e-02
-1.512453854084014893e-01
2.877916954457759857e-02
1.048875898122787476e-01
7.157155126333236694e-02
-4.092784225940704346e-02
-1.180774793028831482e-01
-3.389186412096023560e-02
4.939708113670349121e-02
9.097892791032791138e-02
-8.508756011724472046e-02
4.655133932828903198e-02
7.275992631912231445e-02
8.383555710315704346e-02
4.323220928199589252e-04
-1.585892960429191589e-02
2.974557504057884216e-02
1.708967685699462891e-01
-1.905644387006759644e-01
6.035704165697097778e-02
-6.369141489267349243e-02
1.877432875335216522e-02
-2.853721007704734802e-02
-6.626709550619125366e-02
-8.629936724901199341e-02
1.131968572735786438e-01
-5.471618846058845520e-02
3.081483766436576843e-02
1.063754111528396606e-01
-3.694611787796020508e-02
3.092373535037040710e-02
-4.768614843487739563e-02
9.663704037666320801e-02
2.249521762132644653e-02
-8.667564392089843750e-02
-5.861121416091918945e-02
-1.145134419202804565e-01
6.895495951175689697e-02
-1.507882773876190186e-01
-2.457852289080619812e-02
-4.945761058479547501e-03
2.496524900197982788e-02
-3.845574334263801575e-02
3.123917616903781891e-02
-4.753366112709045410e-02
-1.203869134187698364e-01
6.762266159057617188e-02
4.774342104792594910e-02
-9.763501584529876709e-03
-1.873869001865386963e-01
5.380702670663595200e-03
1.863408684730529785e-01
-1.560754477977752686e-01
-8.948550373315811157e-02
7.969453930854797363e-03
-8.577559143304824829e-02
-1.307208687067031860e-01
-2.621257305145263672e-02
-1.410080865025520325e-02
-3.203193470835685730e-02
4.553946107625961304e-02
-8.628395199775695801e-02
-8.319994062185287476e-02
-4.055152833461761475e-02
-4.166659712791442871e-02
-6.873310357332229614e-02
8.839742839336395264e-02
-1.222722455859184265e-01
1.352742463350296021e-01
8.827929198741912842e-02
-1.179358512163162231e-01
5.777871608734130859e-02
4.270624741911888123e-02
6.128288805484771729e-02
-3.249362111091613770e-03
-7.295229285955429077e-02
-1.635077223181724548e-02
-1.413249820470809937e-01
5.870170425623655319e-03
-2.823322266340255737e-02
-2.315078377723693848e-01
3.941398859024047852e-02
9.086524695158004761e-02
-1.034724153578281403e-02
6.745516508817672729e-02
9.558728337287902832e-02
-5.385713651776313782e-02
6.884013861417770386e-02
1.651218235492706299e-01
3.449651226401329041e-02
-2.964790537953376770e-02
-1.362858265638351440e-01
1.465793848037719727e-01
-5.270827934145927429e-02
-1.312175393104553223e-01
-4.481189418584108353e-03
2.403577091172337532e-03
2.610604763031005859e-01
-2.052065916359424591e-03
-1.306272577494382858e-02
-1.637548357248306274e-01
6.681786035187542439e-04
-1.573886871337890625e-01
-4.723393358290195465e-03
-1.004805415868759155e-01
-4.072532057762145996e-03
-6.661804020404815674e-02
2.366193942725658417e-02
-3.161196038126945496e-02
-1.938619166612625122e-01
-1.682973057031631470e-01
-3.241316229104995728e-02
-8.316019922494888306e-02
-1.499516963958740234e-01
1.433631777763366699e-01
-9.472157806158065796e-02
6.731324642896652222e-02
-9.966530650854110718e-02
1.427733600139617920e-01
-1.042258292436599731e-01
1.109936274588108063e-02
1.111908406019210815e-01
2.328427582979202271e-01
9.847394190728664398e-03
7.571689039468765259e-02
4.733632504940032959e-02
9.834537655115127563e-02
1.517949104309082031e-01
-2.503683231770992279e-02
-1.178020797669887543e-02
2.622724138200283051e-02
-5.346835777163505554e-02
4.970665276050567627e-02
9.665000438690185547e-02
-5.903674289584159851e-02
-6.539213936775922775e-03
1.019231453537940979e-01
1.414691954851150513e-01
4.795254021883010864e-02
3.680289257317781448e-03
8.095621317625045776e-02
7.455300539731979370e-02
3.789404779672622681e-02
-6.638829410076141357e-02
-3.271292150020599365e-02
-1.526024341583251953e-01
-1.551144383847713470e-02
2.860642783343791962e-02
-8.279282599687576294e-02
-8.251237682998180389e-03
-1.408469974994659424e-01
8.052548021078109741e-02
-4.636014997959136963e-02
1.480140388011932373e-01
5.263612791895866394e-02
-3.730206191539764404e-02
-1.753013730049133301e-01
2.310964912176132202e-01
-9.123656153678894043e-02
-5.762040615081787109e-02
-2.142350673675537109e-01
-5.049319565296173096e-02
-7.698445767164230347e-02
-5.636382848024368286e-02
-1.303517911583185196e-02
-1.004821062088012695e-01
5.745492503046989441e-02
-1.219112798571586609e-01
7.253971882164478302e-03
-1.136273145675659180e-01
8.045480586588382721e-03
2.157145552337169647e-02
-1.816217787563800812e-02
3.189345821738243103e-02
2.267216565087437630e-03
7.217201590538024902e-02
1.318307127803564072e-03
-5.920134484767913818e-02
1.366428136825561523e-01
9.536566212773323059e-03
7.725550979375839233e-02
2.187507413327693939e-02
7.115896791219711304e-03
4.748940840363502502e-02
2.359146438539028168e-02
-5.350428447127342224e-02
-8.699294924736022949e-02
-5.418329313397407532e-02
5.992865562438964844e-02
-1.608314923942089081e-02
1.363014131784439087e-01
-2.874404191970825195e-02
-9.518370963633060455e-03
1.211758479475975037e-01
-1.251445263624191284e-01
-3.119957074522972107e-02
3.093431890010833740e-02
9.727860242128372192e-02
1.372778974473476410e-02
-6.530160456895828247e-02
-1.449135225266218185e-02
-1.156007777899503708e-02
5.983427911996841431e-02
-3.186692669987678528e-02
-2.365758456289768219e-02
1.655873805284500122e-01
8.902281522750854492e-02
8.450088091194629669e-03
6.465586274862289429e-02
-1.377647221088409424e-01
1.104269102215766907e-01
7.537045329809188843e-02
4.503130912780761719e-03
-1.729722917079925537e-01
-8.755286782979965210e-02
-1.435468252748250961e-02
4.505789652466773987e-02
-1.985708475112915039e-01
-1.425747722387313843e-01
-1.186367589980363846e-02
3.476034849882125854e-02
-1.228860840201377869e-01
-1.753164231777191162e-01
1.569188758730888367e-02
-2.291751792654395103e-03
1.576501727104187012e-01
1.542679369449615479e-01
3.472506254911422729e-02
6.210515648126602173e-02
1.333514004945755005e-01
1.350018382072448730e-01
9.416184388101100922e-03
-7.642147690057754517e-02
4.390656203031539917e-02
1.353912949562072754e-01
4.648803174495697021e-02
4.462387040257453918e-02
-1.851798035204410553e-02
-9.511731564998626709e-03
1.671293191611766815e-02
3.029792569577693939e-02
-7.405590265989303589e-02
-3.136966004967689514e-02
-3.272777423262596130e-02
-4.604561254382133484e-03
-2.801486290991306305e-02
-7.952935993671417236e-03
1.435662657022476196e-01
1.632237993180751801e-02
-2.911894023418426514e-02
-3.588379826396703720e-03
1.898454874753952026e-02
2.413192950189113617e-02
-9.817515313625335693e-02
9.490882605314254761e-02
-9.005872160196304321e-02
3.480625571683049202e-03
2.481743507087230682e-02
1.347169876098632812e-01
-1.450072601437568665e-02
8.687683939933776855e-02
-4.332622885704040527e-02
1.511271893978118896e-01
-2.933743968605995178e-02
-1.559880934655666351e-02
9.838421642780303955e-02
4.866198077797889709e-02
8.637252263724803925e-03
-6.309778988361358643e-02
1.123060882091522217e-01
7.642195373773574829e-02
7.878891378641128540e-02
3.204398090019822121e-03
1.021217331290245056e-01
1.218061745166778564e-01
-4.099580273032188416e-02
3.886625636368989944e-03
1.606695204973220825e-01
8.646804839372634888e-02
-7.432153820991516113e-02
-2.199023030698299408e-02
7.964745163917541504e-02
-4.192308709025382996e-02
-1.072669997811317444e-01
-1.873350702226161957e-02
-1.709380596876144409e-01
-7.395789027214050293e-02
3.838799148797988892e-02
2.546186931431293488e-02
1.374673545360565186e-01
-2.355822734534740448e-02
-3.424207866191864014e-02
3.903526812791824341e-03
-1.120293363928794861e-01
-5.637317895889282227e-03
4.634379595518112183e-02
3.939119167625904083e-03
-3.089359030127525330e-02
6.510772742331027985e-03
1.918374677188694477e-03
2.626849338412284851e-02
3.186894953250885010e-01
-4.665432497859001160e-02
2.104889601469039917e-03
-2.534087374806404114e-02
5.931928008794784546e-02
-5.389268696308135986e-02
5.789751559495925903e-02
1.057104617357254028e-01
-7.653904147446155548e-03
3.450973704457283020e-02
8.214208483695983887e-02
-1.181496307253837585e-01
2.571431547403335571e-02
2.271143533289432526e-02
4.825830087065696716e-02
-8.386972546577453613e-02
1.376023981720209122e-02
-3.712680563330650330e-02
-1.263299286365509033e-01
3.862993791699409485e-02
-8.182296156883239746e-02
6.701068487018346786e-03
1.433977782726287842e-01
1.779552176594734192e-02
-1.425217092037200928e-01
-8.986189030110836029e-03
-7.727184891700744629e-02
1.185897737741470337e-02
-1.655549160204827785e-03
-1.525478530675172806e-02
6.721132434904575348e-03
-3.562588244676589966e-02
-5.623745173215866089e-02
-1.005607843399047852e-01
-7.597716152667999268e-02
1.150232926011085510e-02
-1.102605611085891724e-01
6.300124805420637131e-03
8.682615309953689575e-02
1.310462504625320435e-01
-9.839142672717571259e-03
4.004830121994018555e-02
3.084516152739524841e-02
1.480156928300857544e-01
-1.741953641176223755e-01
-2.368628233671188354e-02
-1.372864656150341034e-02
-3.426989167928695679e-02
-1.532643288373947144e-01
-3.475256636738777161e-02
-1.583345048129558563e-02
2.844104915857315063e-02
1.105164960026741028e-01
2.612009458243846893e-02
1.157741472125053406e-01
-1.238855645060539246e-01
4.730512388050556183e-03
4.655842483043670654e-02
-7.396148890256881714e-02
-5.071420967578887939e-02
8.834147453308105469e-02
2.576019801199436188e-02
-4.217294976115226746e-02
4.527623578906059265e-02
-1.212588176131248474e-01
-9.685268253087997437e-02
-7.537113875150680542e-02
-1.066737994551658630e-01
-8.281577378511428833e-03
-7.091101258993148804e-02
-9.425669908523559570e-02
-1.109331566840410233e-02
1.091638654470443726e-01
-8.843369781970977783e-02
-5.946292355656623840e-02
-6.556549668312072754e-02
-1.009258851408958435e-01
3.167574852705001831e-02
-4.351610317826271057e-02
-7.747414056211709976e-03
-5.381432548165321350e-02
-1.013241261243820190e-01
8.326604217290878296e-02
3.776477649807929993e-02
-7.784339040517807007e-02
-1.918221563100814819e-01
-1.899604126811027527e-02
1.377275865525007248e-02
2.438119053840637207e-02
-1.377611309289932251e-01
-7.204638794064521790e-03
-9.777045994997024536e-02
-7.502770423889160156e-02
-2.193952910602092743e-02
-4.674535617232322693e-02
3.612764924764633179e-02
-6.567613035440444946e-02
2.525645308196544647e-02
-1.669489443302154541e-01
6.551667302846908569e-02
-1.145485639572143555e-01
1.038194447755813599e-01
-9.197018295526504517e-02
2.156070247292518616e-02
1.806774362921714783e-02
-1.949689723551273346e-02
-1.105412021279335022e-01
-4.085008054971694946e-02
1.145980581641197205e-01
-7.251121848821640015e-02
2.054552920162677765e-02
-7.215195149183273315e-02
6.911593675613403320e-02
-1.765721440315246582e-01
-1.585371941328048706e-01
9.519974142313003540e-02
-1.845748163759708405e-02
4.910168936476111412e-04
3.313470482826232910e-01
4.167246446013450623e-02
1.212524101138114929e-01
7.093521207571029663e-02
-1.378391534090042114e-01
-5.548850819468498230e-02
-6.780479103326797485e-02
-1.892880052328109741e-01
-9.816084057092666626e-02
-1.972142793238162994e-02
-1.027848720550537109e-01
-1.126855239272117615e-01
-6.831204891204833984e-02
5.837891995906829834e-02
5.988911539316177368e-02
9.277182072401046753e-02
9.849060326814651489e-02
-6.802783906459808350e-02
-1.175842210650444031e-01
-9.524722397327423096e-02
1.963596092537045479e-03
7.300092279911041260e-02
-8.367160707712173462e-02
-1.198429241776466370e-01
6.817719340324401855e-02
8.407327346503734589e-03
-1.374864131212234497e-01
5.609673634171485901e-02
8.224182575941085815e-02
-8.344404399394989014e-02
7.372612133622169495e-03
1.109909713268280029e-01
7.059624791145324707e-02
2.538872696459293365e-02
-6.217056140303611755e-02
-1.607662625610828400e-02
1.403531432151794434e-01
3.327402472496032715e-02
-1.798921264708042145e-02
3.870182856917381287e-02
7.930992543697357178e-02
1.008443534374237061e-01
-1.244981884956359863e-01
-5.200690031051635742e-02
5.905389785766601562e-02
1.109339063987135887e-03
6.772200763225555420e-02
1.208000853657722473e-01
8.668823540210723877e-02
-7.889143377542495728e-02
-1.748105138540267944e-01
1.417956948280334473e-01
9.247905761003494263e-02
-1.149612441658973694e-01
-4.361245036125183105e-02
7.519427221268415451e-03
1.709961593151092529e-01
-5.619551613926887512e-02
1.327873021364212036e-01
-8.536250330507755280e-03
1.768703758716583252e-01
-5.797021463513374329e-02
-1.228728890419006348e-01
-3.884428413584828377e-03
1.842647558078169823e-03
-9.532938897609710693e-02
9.341966360807418823e-02
-2.288646437227725983e-02
3.744214773178100586e-02
-3.938561771064996719e-03
-1.094208434224128723e-01
-1.272025406360626221e-01
-1.259613484144210815e-01
8.818877488374710083e-02
-1.545211821794509888e-01
8.970389142632484436e-03
-1.128992214798927307e-01
-1.122035086154937744e-01
-1.913374662399291992e-02
-8.342375606298446655e-02
-1.620820537209510803e-02
1.903065480291843414e-02
6.405265070497989655e-03
8.593589067459106445e-02
-1.124660372734069824e-01
2.761294506490230560e-02
1.637247949838638306e-02
1.434353832155466080e-02
2.655280753970146179e-02
-1.044305413961410522e-01
4.678119346499443054e-02
-1.619591265916824341e-01
-5.195660516619682312e-03
-1.548935025930404663e-01
-7.026128470897674561e-02
-7.492878288030624390e-02
-5.026979744434356689e-02
-8.822152018547058105e-02
-1.616993099451065063e-01
-8.801561780273914337e-03
7.655642926692962646e-02
-1.169097051024436951e-01
-9.786844998598098755e-02
-8.591739088296890259e-02
3.606932610273361206e-02
-1.532042864710092545e-02
9.601923823356628418e-02
-8.784444630146026611e-02
-1.366614699363708496e-01
-3.462303802371025085e-02
1.977381408214569092e-01
1.487926244735717773e-01
4.252215102314949036e-02
2.310925424098968506e-01
1.772681325674057007e-01
1.688034981489181519e-01
4.519573994912207127e-04
4.705694317817687988e-02
1.091296672821044922e-01
3.753997385501861572e-02
6.574243307113647461e-02
5.904513224959373474e-02
-5.670670419931411743e-02
2.165387012064456940e-02
9.221041202545166016e-02
8.518425375223159790e-02
4.653029888868331909e-02
9.867426753044128418e-02
-1.654431074857711792e-01
-8.448962867259979248e-02
-4.364114627242088318e-02
2.270371280610561371e-02
-2.760364115238189697e-02
2.823039330542087555e-02
-6.040842738002538681e-03
7.300113141536712646e-02
-9.358735382556915283e-02
-2.171838469803333282e-02
2.431007027626037598e-01
-6.721178442239761353e-02
-3.904952481389045715e-02
-2.099744975566864014e-03
-4.005689173936843872e-02
8.360500633716583252e-02
-1.423632055521011353e-01
-6.318548321723937988e-02
4.621095955371856689e-02
-8.061897009611129761e-02
3.417125716805458069e-02
-1.116048097610473633e-01
1.476435512304306030e-01
4.618449881672859192e-02
3.242979571223258972e-02
9.690341539680957794e-03
1.573931891471147537e-03
9.713025391101837158e-02
7.594012469053268433e-02
1.886037439107894897e-01
1.401404738426208496e-01
-1.536630392074584961e-01
1.460335701704025269e-01
-4.171510040760040283e-02
-3.040217049419879913e-02
-3.890416771173477173e-02
-5.109927803277969360e-02
2.405354939401149750e-02
-4.058964177966117859e-02
4.939911141991615295e-02
-9.154432266950607300e-02
2.564488351345062256e-02
-3.571170568466186523e-02
-4.343341663479804993e-02
-1.365929841995239258e-01
-1.861292682588100433e-02
-2.622456848621368408e-02
-5.791340768337249756e-02
-5.336213484406471252e-02
6.737487763166427612e-02
-5.537253245711326599e-02
-4.507220908999443054e-02
-2.584809623658657074e-02
1.354095339775085449e-01
2.222421765327453613e-02
-2.120267599821090698e-02
-3.081985749304294586e-02
4.985706880688667297e-02
-1.027617137879133224e-02
-1.426129192113876343e-01
-2.008827589452266693e-02
6.932134274393320084e-03
-2.512481529265642166e-03
-9.692070633172988892e-02
-2.683959901332855225e-01
7.487057149410247803e-02
-5.671478807926177979e-03
1.281849592924118042e-01
-1.749244891107082367e-02
4.189536720514297485e-02
-8.941313624382019043e-02
-3.356632217764854431e-02
-2.091649621725082397e-01
1.097613275051116943e-01
2.970324456691741943e-02
-4.641374573111534119e-02
-1.168801337480545044e-01
8.929661661386489868e-02
-1.810143440961837769e-01
8.411045372486114502e-02
-1.711015589535236359e-02
-1.938884109258651733e-01
-1.001397222280502319e-01
1.005077362060546875e-01
4.643866419792175293e-02
-6.416281312704086304e-02
6.724609434604644775e-02
1.427309960126876831e-01
-4.319419339299201965e-02
-1.520955376327037811e-02
1.906410753726959229e-01
-6.243796669878065586e-04
1.483877748250961304e-01
6.516615301370620728e-02
-5.190939828753471375e-02
-1.166546437889337540e-02
1.169913038611412048e-01
-9.033787250518798828e-02
1.941030621528625488e-01
8.692465722560882568e-03
1.327104866504669189e-02
-6.808579713106155396e-02
-5.130570009350776672e-02
5.895409360527992249e-02
-1.059798225760459900e-01
4.269980639219284058e-02
-2.488725781440734863e-01
-1.239807680249214172e-01
-9.389491379261016846e-02
-1.308387145400047302e-02
9.187080711126327515e-02
1.466672718524932861e-01
1.485789269208908081e-01
-9.213966131210327148e-02
-1.980380266904830933e-01
-7.930361479520797729e-02
5.087704956531524658e-02
1.452925801277160645e-02
-1.696247756481170654e-01
-1.125348657369613647e-01
-1.090708076953887939e-01
2.669244073331356049e-02
-2.641717195510864258e-01
-3.619526028633117676e-01
-1.608115285634994507e-01
1.017156019806861877e-01
1.178694069385528564e-01
-1.956652104854583740e-01
-7.449632138013839722e-02
6.765777617692947388e-02
-1.669588238000869751e-01
-4.939609207212924957e-03
-1.394164748489856720e-02
-8.609168976545333862e-02
1.133450567722320557e-01
-1.983862817287445068e-01
1.669040918350219727e-01
1.564052253961563110e-01
1.612502485513687134e-01
-2.447719499468803406e-02
9.208118915557861328e-02
-1.015552952885627747e-01
1.020520478487014771e-01
-2.794257551431655884e-02
4.930630326271057129e-02
-2.399103790521621704e-01
1.098489016294479370e-02
8.865731209516525269e-02
-4.541267827153205872e-02
2.527837827801704407e-02
-1.643773913383483887e-01
7.041211239993572235e-03
-7.698697037994861603e-03
7.798134535551071167e-02
-1.852057315409183502e-02
2.274547703564167023e-02
6.919034570455551147e-02
1.641625910997390747e-01
-9.338815510272979736e-02
-8.841269463300704956e-02
-8.610702119767665863e-03
2.870560996234416962e-02
-3.891911357641220093e-02
-3.150212019681930542e-02
-1.221851166337728500e-02
-9.405060857534408569e-02
-1.437465250492095947e-01
-7.233336567878723145e-02
-7.369040045887231827e-03
-4.650908336043357849e-02
-1.521514169871807098e-02
1.964076608419418335e-02
4.126500338315963745e-02
1.394591387361288071e-02
1.125096753239631653e-01
-2.038845121860504150e-01
1.337836384773254395e-01
1.641099303960800171e-01
-7.692199200391769409e-02
-1.932405680418014526e-02
9.821145236492156982e-02
-4.401669278740882874e-02
-9.097047895193099976e-02
5.258841440081596375e-02
7.701078802347183228e-02
4.981329664587974548e-02
-1.678035967051982880e-02
6.033439561724662781e-02
-1.241757255047559738e-02
3.101440519094467163e-02
2.503475919365882874e-02
9.043853729963302612e-02
2.857381477952003479e-02
1.641909591853618622e-02
-1.469356846064329147e-02
3.220212645828723907e-03
2.250526286661624908e-02
1.594574004411697388e-01
1.155453026294708252e-01
4.606495052576065063e-02
-6.827079504728317261e-02
-1.291125416755676270e-01
6.243514269590377808e-02
7.501993328332901001e-02
-7.780733704566955566e-02
-1.530570387840270996e-01
-1.682564318180084229e-01
4.154009371995925903e-02
1.390632707625627518e-03
-3.361258804798126221e-01
1.199205443263053894e-01
7.244453579187393188e-02
9.341448545455932617e-02
-1.236667186021804810e-01
1.411709655076265335e-02
1.253090649843215942e-01
5.310084205120801926e-03
5.053456872701644897e-02
-1.571787288412451744e-03
-2.778587862849235535e-03
8.811734616756439209e-02
2.665926888585090637e-02
-4.078372195363044739e-02
4.855487868189811707e-02
5.021194741129875183e-02
-4.865271598100662231e-02
4.896610230207443237e-02
5.255781486630439758e-02
1.426285598427057266e-02
-1.525934189558029175e-01
-2.064583264291286469e-02
-3.033093921840190887e-02
-2.453463710844516754e-02
-1.284873336553573608e-01
7.705020904541015625e-02
-2.810538001358509064e-02
6.884360313415527344e-02
-1.748010665178298950e-01
7.505797594785690308e-02
1.282887905836105347e-01
-4.476066678762435913e-02
1.785523295402526855e-01
-7.832965999841690063e-02
1.666858792304992676e-02
2.562615647912025452e-02
1.498703509569168091e-01
2.769512832164764404e-01
3.397407382726669312e-02
-8.001507073640823364e-02
-1.197446230798959732e-02
1.096254140138626099e-01
1.641219109296798706e-01
9.193732589483261108e-02
-1.733924634754657745e-02
-1.152371466159820557e-01
1.406204700469970703e-02
4.740040749311447144e-02
1.248131971806287766e-02
4.908035043627023697e-03
6.283813714981079102e-02
2.146319719031453133e-03
1.428299248218536377e-01
5.119313672184944153e-02
-1.354711800813674927e-01
7.034616917371749878e-02
-9.410455822944641113e-02
-4.568711668252944946e-02
-1.912667751312255859e-01
-1.100605055689811707e-01
2.705222554504871368e-02
1.180414296686649323e-02
-4.421901330351829529e-02
4.749154299497604370e-02
9.221281856298446655e-02
-3.092354163527488708e-02
1.836482733488082886e-01
-4.309155419468879700e-02
3.290592133998870850e-02
1.191690415143966675e-01
1.164142563939094543e-01
5.371924117207527161e-02
1.008506193757057190e-01
-3.311818465590476990e-02
6.348969042301177979e-02
-9.718790650367736816e-02
1.229980774223804474e-02
1.679255962371826172e-01
-5.445874761790037155e-03
5.107459728606045246e-04
6.569439172744750977e-02
-8.104205131530761719e-03
-1.781816594302654266e-02
4.107429459691047668e-02
-5.395795777440071106e-02
1.953078359365463257e-01
7.449183613061904907e-02
-6.410868465900421143e-02
4.593989625573158264e-02
-4.055433347821235657e-02
2.477581985294818878e-02
-5.046065896749496460e-02
3.983838483691215515e-02
-8.915563672780990601e-02
9.092039614915847778e-02
9.830959886312484741e-02
3.042574226856231689e-02
-2.388819493353366852e-02
1.070469766855239868e-01
-1.506304740905761719e-01
4.545245319604873657e-02
8.539953082799911499e-02
1.956802606582641602e-02
-2.955155633389949799e-02
-4.233759362250566483e-03
2.714727306738495827e-03
-8.852378278970718384e-02
9.435667842626571655e-02
7.499846071004867554e-02
-1.696038246154785156e-02
-1.052703708410263062e-01
5.233083665370941162e-02
-4.425884783267974854e-02
6.859878450632095337e-02
1.586600788868963718e-03
5.653831362724304199e-02
-2.729413285851478577e-02
-3.968563675880432129e-02
3.905663639307022095e-02
1.014086902141571045e-01
6.584463268518447876e-02
-2.787865698337554932e-01
1.613415032625198364e-02
1.855990737676620483e-01
-3.183914721012115479e-02
1.385606639087200165e-02
2.366362810134887695e-01
1.696664988994598389e-01
-9.443225711584091187e-02
-7.084428519010543823e-02
-6.990577559918165207e-03
6.943954620510339737e-03
6.028494238853454590e-02
-1.041139359585940838e-03
-1.091697998344898224e-02
1.467363815754652023e-02
1.231684088706970215e-01
-7.706055790185928345e-02
1.073753368109464645e-02
-1.578339934349060059e-01
2.159658819437026978e-02
1.889833435416221619e-02
1.130639836192131042e-01
7.707328349351882935e-02
-4.844167456030845642e-02
4.618468228727579117e-03
2.401986569166183472e-01
6.177014485001564026e-02
-1.363757401704788208e-01
1.797125115990638733e-02
1.051106974482536316e-01
3.863631188869476318e-02
-1.465660929679870605e-01
-8.685676753520965576e-02
4.861883074045181274e-02
9.959986805915832520e-02
-2.590840868651866913e-02
3.276878967881202698e-03
7.807179540395736694e-02
-7.886209338903427124e-02
-8.243176341056823730e-02
1.195889711380004883e-01
-1.269097775220870972e-01
-6.707341969013214111e-02
-8.162785321474075317e-02
-6.767880916595458984e-02
-1.770925968885421753e-01
-1.248964220285415649e-01
4.041118954773992300e-04
-3.305541723966598511e-02
-2.916905283927917480e-01
9.052144736051559448e-02
1.152150779962539673e-01
1.171187907457351685e-01
2.755256742238998413e-02
6.754112988710403442e-02
6.777906417846679688e-02
-1.558924019336700439e-01
-1.203628927469253540e-01
1.735569089651107788e-01
-2.474919892847537994e-02
3.115216502919793129e-03
-1.401888281106948853e-01
2.641862332820892334e-01
-1.036272756755352020e-02
-2.158703049644827843e-03
8.525636047124862671e-02
3.053530752658843994e-01
7.428915798664093018e-02
-8.852791786193847656e-02
3.660315275192260742e-02
2.453414350748062134e-02
-2.379631698131561279e-01
2.601024135947227478e-02
9.443263709545135498e-02
1.251698434352874756e-01
1.891786232590675354e-02
1.612268835306167603e-01
8.542236872017383575e-03
-1.299179159104824066e-02
6.152764335274696350e-02
-3.406809642910957336e-02
9.169619530439376831e-02
-1.725382544100284576e-02
2.845270745456218719e-02
-3.145583346486091614e-02
-3.508793935179710388e-02
4.359330609440803528e-02
-8.379626274108886719e-02
1.097626537084579468e-01
1.198302134871482849e-01
-1.785356402397155762e-01
-1.437156461179256439e-02
1.368273645639419556e-01
1.345135718584060669e-01
-6.276470422744750977e-02
2.287994883954524994e-02
5.684295296669006348e-02
5.942973122000694275e-02
-6.518702954053878784e-02
1.533394027501344681e-02
3.819698840379714966e-02
4.399872198700904846e-02
6.598652899265289307e-02
-1.152642294764518738e-01
4.302308335900306702e-02
1.249289661645889282e-01
-2.515311241149902344e-01
1.077466364949941635e-02
-1.586995124816894531e-01
9.539756923913955688e-02
-2.505661249160766602e-01
-9.740038961172103882e-02
1.111403666436672211e-02
-1.778533458709716797e-01
-2.443522512912750244e-01
7.276353985071182251e-02
-1.740166172385215759e-02
1.923793703317642212e-01
5.884290440008044243e-04
-8.465318381786346436e-02
-3.728470578789710999e-02
3.924922272562980652e-02
4.119756817817687988e-02
-1.788411736488342285e-01
8.099979907274246216e-02
3.733154013752937317e-02
-2.247021906077861786e-02
2.087355107069015503e-01
2.248470634222030640e-01
1.728212088346481323e-01
1.600050479173660278e-01
1.335193216800689697e-01
1.956489682197570801e-02
1.226260662078857422e-01
4.883819445967674255e-02
-8.364968001842498779e-03
5.033038184046745300e-02
3.203526511788368225e-02
3.248789580538868904e-03
-1.287897229194641113e-01
-3.543297946453094482e-02
-5.568087473511695862e-02
-8.759689517319202423e-03
1.034890264272689819e-01
4.907996207475662231e-02
-7.237290591001510620e-02
-9.386087767779827118e-03
-8.902122825384140015e-02
4.887679591774940491e-03
4.798719659447669983e-02
2.136029452085494995e-01
-7.037807255983352661e-02
-8.842751383781433105e-02
-3.001772565767168999e-03
-6.785324960947036743e-02
-4.528128355741500854e-02
-1.215896010398864746e-01
-3.157496219500899315e-03
-8.415286242961883545e-02
-1.009067334234714508e-02
-5.414213240146636963e-02
1.193821132183074951e-01
1.541334949433803558e-02
-1.013497784733772278e-01
7.298050820827484131e-02
3.214178234338760376e-02
1.817867159843444824e-01
1.353854089975357056e-01
-1.267360616475343704e-02
8.927315473556518555e-02
6.588084995746612549e-02
3.807789087295532227e-02
-1.579467058181762695e-01
-1.483573019504547119e-02
4.063392430543899536e-02
1.756026409566402435e-02
-8.002491295337677002e-02
3.341597691178321838e-02
3.673477470874786377e-02
-1.050679683685302734e-01
7.510305941104888916e-02
1.554184257984161377e-01
-6.962785869836807251e-02
-1.205133050680160522e-01
4.143861308693885803e-02
6.368985772132873535e-02
-4.715224355459213257e-02
-1.643899083137512207e-02
7.077826559543609619e-02
-4.011718183755874634e-02
5.879120901226997375e-02
-1.322552263736724854e-01
3.185907611623406410e-03
-9.981393069028854370e-02
1.766267269849777222e-01
-6.841083616018295288e-02
-5.950505845248699188e-03
8.761729113757610321e-03
8.167859911918640137e-02
-6.820671260356903076e-02
-1.178749352693557739e-01
5.330570042133331299e-02
-7.759254425764083862e-02
1.338092386722564697e-01
-2.609321847558021545e-02
-3.498513251543045044e-03
1.534929275512695312e-01
9.714860469102859497e-02
-7.011585682630538940e-02
-1.749974302947521210e-02
-1.974742561578750610e-01
5.854619201272726059e-03
6.823797523975372314e-02
2.363959997892379761e-01
4.621184617280960083e-02
-2.354008518159389496e-02
8.724085986614227295e-02
5.992994457483291626e-02
-2.799327485263347626e-02
2.435218775644898415e-04
2.119354009628295898e-01
2.775326929986476898e-02
-8.575984090566635132e-02
3.383243456482887268e-03
-1.556093096733093262e-01
-1.769311539828777313e-02
4.483086988329887390e-02
4.755646921694278717e-03
6.949163228273391724e-02
-5.130896344780921936e-02
6.911071389913558960e-02
2.758593298494815826e-02
8.563397824764251709e-02
-2.146742120385169983e-02
5.571121349930763245e-02
9.495510160923004150e-02
1.424928456544876099e-01
7.005302608013153076e-02
1.115308608859777451e-02
1.451995074748992920e-01
-7.059224694967269897e-02
5.664408206939697266e-02
1.707262694835662842e-01
1.475282162427902222e-01
9.973265975713729858e-02
-2.801893055438995361e-01
4.611989483237266541e-02
-2.165879122912883759e-02
3.538733348250389099e-02
1.814880967140197754e-01
-1.163205578923225403e-01
-2.303015738725662231e-01
4.617779329419136047e-02
6.800773739814758301e-02
-9.062070399522781372e-02
-5.154420062899589539e-02
2.677825745195150375e-03
1.335643529891967773e-01
1.065541133284568787e-01
-1.634716987609863281e-01
-5.729552730917930603e-02
2.316263467073440552e-01
-7.955426722764968872e-02
1.391524076461791992e-01
-8.333537727594375610e-02
3.402483463287353516e-02
-6.397854536771774292e-02
-1.231259666383266449e-02
-9.805178642272949219e-02
-1.484730467200279236e-02
2.701031230390071869e-02
-8.756206929683685303e-02
-4.884390532970428467e-02
-2.880266308784484863e-02
-9.086968749761581421e-02
-1.692350357770919800e-01
6.416800618171691895e-02
4.373208153992891312e-03
3.274385631084442139e-02
-5.313709378242492676e-02
-5.975905805826187134e-02
-5.038536712527275085e-02
-2.105745300650596619e-02
-1.377640664577484131e-01
-3.610856831073760986e-02
-6.834571808576583862e-02
-4.634191095829010010e-02
4.627197235822677612e-02
-2.881415421143174171e-03
-3.137827664613723755e-02
1.096047461032867432e-01
-6.373288482427597046e-02
2.107280790805816650e-01
-1.300538182258605957e-01
-4.133893921971321106e-02
-3.235105797648429871e-02
6.232056021690368652e-02
-4.746427759528160095e-02
-8.983101695775985718e-02
-9.097770601511001587e-02
1.859733834862709045e-02
8.129647374153137207e-02
3.754569217562675476e-02
-1.381807625293731689e-01
4.450586065649986267e-02
-5.871902778744697571e-02
-5.184300988912582397e-02
7.057253271341323853e-02
1.659737154841423035e-02
1.609784811735153198e-01
1.404358595609664917e-01
7.864335924386978149e-02
-4.443810880184173584e-02
-1.379174441099166870e-01
7.098725438117980957e-02
3.322616219520568848e-02
3.316438198089599609e-02
1.861015893518924713e-02
9.375700354576110840e-02
7.623393833637237549e-02
-2.830919809639453888e-02
-4.478435218334197998e-02
-2.157315984368324280e-02
6.807635724544525146e-02
2.830765768885612488e-02
-4.513535648584365845e-02
-9.856371209025382996e-03
-1.004958078265190125e-01
-6.064141914248466492e-02
-6.297771632671356201e-02
3.130452707409858704e-02
-1.182278096675872803e-01
-1.581081897020339966e-01
1.554464995861053467e-01
-5.872373003512620926e-03
-4.823477938771247864e-02
-6.822582334280014038e-02
-1.183723062276840210e-01
7.561935484409332275e-02
-1.210697367787361145e-01
-3.224261105060577393e-02
8.421111851930618286e-02
5.142182484269142151e-02
2.824493870139122009e-02
-2.368971891701221466e-02
-3.642297908663749695e-02
6.301041692495346069e-02
5.922524631023406982e-02
5.012422800064086914e-02
4.393317736685276031e-03
1.314076781272888184e-02
-6.533740460872650146e-02
-3.322160243988037109e-02
-6.691024452447891235e-02
7.817371189594268799e-02
-3.205230459570884705e-02
1.149651128798723221e-02
-5.164747685194015503e-02
-6.182114128023386002e-03
6.471586413681507111e-03
-4.944774135947227478e-02
-7.052612304687500000e-02
2.874362096190452576e-02
6.144627183675765991e-02
-1.515841782093048096e-01
-3.342109918594360352e-02
4.558131843805313110e-02
-3.901774436235427856e-02
9.364815428853034973e-03
-1.968282274901866913e-03
1.652258634567260742e-01
4.260022193193435669e-02
2.419190481305122375e-02
-1.132680252194404602e-01
-7.640472799539566040e-02
1.038331165909767151e-01
-5.192457698285579681e-03
-1.318920552730560303e-01
-4.055220633745193481e-03
-7.163862138986587524e-02
8.241266012191772461e-02
6.829624623060226440e-02
2.822371898218989372e-03
7.715740799903869629e-02
9.005816653370857239e-03
1.128567382693290710e-01
-2.523309364914894104e-02
-2.967653423547744751e-02
-3.006685525178909302e-02
4.266854375600814819e-02
-1.526770293712615967e-01
7.517860084772109985e-02
-6.017757579684257507e-02
-1.337761729955673218e-01
-9.326823055744171143e-02
9.517551958560943604e-02
-5.161279439926147461e-02
-4.642511531710624695e-02
2.384290471673011780e-02
8.339513093233108521e-02
3.542135469615459442e-03
1.805858314037322998e-02
-2.327407151460647583e-02
2.032132633030414581e-02
2.438626438379287720e-01
1.398244053125381470e-01
-3.778632730245590210e-02
5.652345344424247742e-02
8.187324553728103638e-02
-1.050228774547576904e-01
-7.333182729780673981e-03
6.373328156769275665e-03
-1.787941157817840576e-02
-2.881042845547199249e-02
6.459689140319824219e-02
1.693632453680038452e-03
-4.264693707227706909e-02
-4.233545064926147461e-02
2.279058471322059631e-02
-2.537077292799949646e-03
-5.009907111525535583e-02
-1.032237559556961060e-01
-1.053564324975013733e-01
8.487793058156967163e-02
-4.961343482136726379e-03
-1.158127039670944214e-01
-1.885393708944320679e-01
7.132744789123535156e-02
1.102813985198736191e-02
-4.182301461696624756e-02
-3.938821330666542053e-02
-1.373300254344940186e-01
2.843024209141731262e-02
1.986050512641668320e-03
2.168090082705020905e-02
-4.340528510510921478e-03
-5.970115959644317627e-02
-4.518712684512138367e-02
-1.759122870862483978e-02
5.203132331371307373e-02
6.465765088796615601e-02
-1.727695018053054810e-01
6.765083968639373779e-02
-1.676351577043533325e-02
1.853212714195251465e-02
1.517101190984249115e-02
3.133403509855270386e-02
-4.468860849738121033e-02
1.595621854066848755e-01
1.363342702388763428e-01
-3.163094818592071533e-02
-1.472181677818298340e-01
-8.346728980541229248e-02
-5.786048248410224915e-02
1.067432686686515808e-01
-5.009335651993751526e-02
-1.563198748044669628e-03
3.340674936771392822e-02
-1.307684183120727539e-02
-6.025861576199531555e-02
1.159379351884126663e-02
1.154207885265350342e-01
1.989245600998401642e-02
1.410724781453609467e-02
-3.376689180731773376e-02
2.514651603996753693e-02
4.537340253591537476e-02
1.432088911533355713e-01
-8.501671999692916870e-02
-9.113215655088424683e-02
8.292041718959808350e-03
1.677817255258560181e-01
8.099842071533203125e-02
2.577589359134435654e-03
-2.738999575376510620e-02
-2.476658113300800323e-02
-3.027893602848052979e-02
-7.516722381114959717e-02
-4.378231987357139587e-02
2.651160769164562225e-02
-1.932427883148193359e-01
-1.374212652444839478e-01
-8.165952563285827637e-02
-1.354413628578186035e-01
3.264639154076576233e-02
-7.846605777740478516e-02
-2.829198725521564484e-02
1.280281413346529007e-02
-1.102070510387420654e-01
-7.880335301160812378e-02
-1.364928949624300003e-02
-3.250500187277793884e-02
1.078268066048622131e-01
-6.320055574178695679e-02
4.937859252095222473e-02
2.179391309618949890e-02
-8.847332745790481567e-02
5.687823519110679626e-03
8.340008556842803955e-03
-9.855857491493225098e-02
-4.664414003491401672e-02
1.157116144895553589e-02
-6.627862900495529175e-02
5.137162655591964722e-02
-7.648895680904388428e-02
9.455131739377975464e-02
-2.824337407946586609e-02
-5.421882495284080505e-02
2.027375251054763794e-01
1.723282597959041595e-02
-4.215188324451446533e-02
-1.418487280607223511e-01
-6.933195888996124268e-02
3.905161470174789429e-02
6.130022183060646057e-02
9.514925628900527954e-02
2.210663706064224243e-01
6.192163750529289246e-02
-1.146895374404266477e-04
-5.103513970971107483e-02
1.602093130350112915e-01
-1.383740603923797607e-01
-3.396252542734146118e-02
4.992488771677017212e-02
-4.215296939946711063e-04
-4.205423593521118164e-02
-6.405550241470336914e-02
4.919875413179397583e-02
9.920214861631393433e-02
-1.348034590482711792e-01
2.140657417476177216e-02
2.763547748327255249e-02
-1.273480653762817383e-01
-7.528121024370193481e-02
4.654270038008689880e-02
-2.220084369182586670e-01
-5.711522698402404785e-02
6.417883932590484619e-02
9.425933659076690674e-02
-1.171951740980148315e-01
8.784600347280502319e-02
7.199148833751678467e-02
-1.084169298410415649e-01
1.611282229423522949e-01
2.636259496212005615e-01
1.185260806232690811e-02
-6.503933668136596680e-02
2.474963217973709106e-01
3.655091673135757446e-02
9.370262920856475830e-02
-1.202376112341880798e-01
-1.444522887468338013e-01
1.760388165712356567e-02
-4.850283265113830566e-02
1.385140349157154560e-03
6.815825402736663818e-02
2.584467232227325439e-01
1.120233163237571716e-01
-2.025521099567413330e-01
-4.284417256712913513e-03
-2.614233493804931641e-01
-2.496000975370407104e-01
-4.642352461814880371e-02
-4.752977285534143448e-03
1.697332262992858887e-01
-2.940460667014122009e-02
-1.279117316007614136e-01
5.149980261921882629e-02
1.010984554886817932e-02
-9.123471379280090332e-02
8.173459023237228394e-02
8.254832029342651367e-02
-8.986010402441024780e-02
3.195961192250251770e-02
-3.226694092154502869e-02
-8.343796432018280029e-02
-1.605195254087448120e-01
-1.535747665911912918e-02
1.463677585124969482e-01
2.584203332662582397e-02
-1.460306495428085327e-01
1.119921579957008362e-01
9.861876070499420166e-02
-1.997161470353603363e-02
-9.824802726507186890e-02
-4.205080866813659668e-02
4.717417806386947632e-02
-1.869818270206451416e-01
1.619938313961029053e-01
4.186237603425979614e-02
-1.567469909787178040e-02
-4.640446230769157410e-02
1.970721185207366943e-01
3.014837019145488739e-02
-4.086566716432571411e-02
-2.745666308328509331e-03
7.444798201322555542e-02
7.871670275926589966e-02
1.507006678730249405e-02
-4.956461861729621887e-02
-7.971098646521568298e-03
5.522937700152397156e-02
3.091477043926715851e-02
1.215848550200462341e-01
-5.034379661083221436e-02
1.512717604637145996e-01
-1.332130283117294312e-01
-2.756250277161598206e-02
-9.975548088550567627e-02
4.312664270401000977e-02
8.026683330535888672e-02
2.395096234977245331e-02
1.333842426538467407e-01
1.578541845083236694e-01
-6.578126456588506699e-03
1.471832096576690674e-01
-3.959561139345169067e-02
6.570709496736526489e-02
-6.208379939198493958e-02
9.486513212323188782e-03
-9.831202030181884766e-02
-1.955439522862434387e-02
-9.244365990161895752e-02
1.516305357217788696e-01
-2.822991833090782166e-02
1.476283222436904907e-01
-2.326411306858062744e-01
-7.034284621477127075e-02
-1.567353028804063797e-03
1.100875660777091980e-01
6.647242605686187744e-02
-7.416073977947235107e-02
-3.015077905729413033e-03
-9.392304718494415283e-02
-3.354670107364654541e-02
-1.869805902242660522e-02
6.734817475080490112e-02
-1.915318816900253296e-01
-3.554973006248474121e-02
1.234186254441738129e-02
-4.783918708562850952e-02
-3.384016454219818115e-02
3.559582866728305817e-03
2.681645750999450684e-02
1.671812869608402252e-02
-8.868265151977539062e-02
-1.233150884509086609e-01
-8.851160109043121338e-02
8.886802941560745239e-02
-4.636856541037559509e-02
-1.633119285106658936e-01
-3.093168884515762329e-02
3.908699750900268555e-02
-5.826628580689430237e-02
1.432235240936279297e-01
1.859876960515975952e-01
-3.967511653900146484e-02
2.880761167034506798e-03
2.041253149509429932e-01
-1.102213114500045776e-01
4.773585125803947449e-02
1.489485502243041992e-01
-3.695462271571159363e-02
-1.103993132710456848e-01
-5.790245719254016876e-03
1.355358809232711792e-01
-2.353224158287048340e-02
-7.780824601650238037e-02
1.388781219720840454e-01
3.822069987654685974e-02
-1.195343881845474243e-01
9.100629389286041260e-02
2.911074645817279816e-02
2.588175833225250244e-01
-4.786005243659019470e-02
1.185216754674911499e-01
-1.575571149587631226e-01
1.448637396097183228e-01
-5.053741857409477234e-02
-2.019663453102111816e-01
3.459709510207176208e-02
-9.166508913040161133e-02
-4.992575943470001221e-02
-4.369338508695363998e-03
1.771343946456909180e-01
-4.255567118525505066e-02
-1.036733835935592651e-01
-2.703015208244323730e-01
7.099736481904983521e-02
3.554222360253334045e-02
6.520761549472808838e-02
5.340146273374557495e-02
-1.145412847399711609e-01
-2.892004698514938354e-02
-1.050224900245666504e-01
2.248781733214855194e-02
2.113385200500488281e-01
2.473503500223159790e-01
6.601108238101005554e-03
-5.450413376092910767e-02
-8.101946860551834106e-02
2.617886848747730255e-02
1.117329671978950500e-01
1.189918518066406250e-01
8.803361654281616211e-02
-1.602139919996261597e-01
5.303582549095153809e-02
5.952250212430953979e-02
3.101088665425777435e-02
-3.084907121956348419e-02
-5.920298397541046143e-03
-1.326947808265686035e-01
2.662803605198860168e-02
-3.726353496313095093e-02
-2.361261285841464996e-02
-1.371979117393493652e-01
4.613583534955978394e-02
-7.609978318214416504e-02
-2.546195499598979950e-02
1.133709624409675598e-01
-8.976012468338012695e-02
1.496565192937850952e-01
2.856805175542831421e-02
2.450485378503799438e-01
-5.260490253567695618e-02
3.686068579554557800e-02
-2.231241464614868164e-01
3.500427678227424622e-02
2.413586713373661041e-03
-1.838750019669532776e-02
9.108936041593551636e-02
-1.307806074619293213e-01
5.506363511085510254e-02
-1.143290922045707703e-01
2.566402219235897064e-02
2.185653336346149445e-02
9.225514531135559082e-02
1.758440211415290833e-02
1.194726526737213135e-01
-8.006585389375686646e-02
-6.535815447568893433e-02
-7.780136168003082275e-02
3.070238418877124786e-02
-9.683473408222198486e-02
-5.315091088414192200e-02
-1.480118781328201294e-01
-1.513180434703826904e-01
3.918312489986419678e-02
5.890672095119953156e-03
-1.315847784280776978e-01
-9.302873909473419189e-02
-8.397772163152694702e-02
3.121349215507507324e-02
8.206555992364883423e-02
-1.008536890149116516e-01
-1.180855333805084229e-01
-3.841470927000045776e-03
7.760843634605407715e-02
1.413444429636001587e-01
-5.250136554241180420e-02
-8.231068402528762817e-02
1.112764934077858925e-03
-1.281356811523437500e-01
-1.496544480323791504e-01
7.862514257431030273e-02
2.980242483317852020e-02
1.227085441350936890e-01
-4.507222026586532593e-02
1.086885035037994385e-01
2.527154982089996338e-01
7.780706137418746948e-02
3.206611797213554382e-02
-3.321235626935958862e-02
-7.601977139711380005e-02
-1.219155937433242798e-01
-1.877613365650177002e-01
-8.164642751216888428e-02
2.076498046517372131e-02
1.202483661472797394e-02
-5.646256729960441589e-02
-2.539373748004436493e-02
-6.759295612573623657e-02
-4.415010660886764526e-02
2.070935815572738647e-01
9.847860038280487061e-02
-6.725284457206726074e-02
-1.793443858623504639e-01
1.606707274913787842e-02
-1.803799867630004883e-01
3.158064559102058411e-02
-1.284693032503128052e-01
-6.653219461441040039e-02
6.566368788480758667e-02
1.709714904427528381e-02
-1.963155344128608704e-02
8.666131645441055298e-03
1.592873781919479370e-02
-2.372976206243038177e-02
6.849783658981323242e-02
-2.668360807001590729e-02
-5.261001735925674438e-02
-6.522256880998611450e-02
5.228959769010543823e-02
3.189597278833389282e-02
-7.338509894907474518e-03
3.608370572328567505e-02
2.201656810939311981e-02
-4.670455120503902435e-03
-1.915494725108146667e-02
-1.218823194503784180e-01
1.518346602097153664e-03
-2.819696068763732910e-02
-2.400557100772857666e-01
-1.245693862438201904e-01
-4.634873569011688232e-02
6.194639950990676880e-02
-2.233503609895706177e-01
4.338396713137626648e-02
-2.167591266334056854e-02
3.348326385021209717e-01
6.199209485203027725e-03
8.122264593839645386e-02
1.204184070229530334e-02
-1.284936368465423584e-01
1.420286446809768677e-01
4.185079410672187805e-02
1.025571897625923157e-01
-6.281748414039611816e-02
1.605457365512847900e-01
-8.597005158662796021e-02
3.147538751363754272e-02
1.163516715168952942e-01
2.396671622991561890e-01
-8.010171353816986084e-02
8.796253800392150879e-02
4.180101677775382996e-02
8.478937298059463501e-02
-7.401986420154571533e-02
5.591113865375518799e-02
7.662869524210691452e-03
4.932525381445884705e-02
6.600450724363327026e-03
-4.058804735541343689e-02
7.971432991325855255e-03
1.583365499973297119e-01
-8.510578423738479614e-02
-1.315816938877105713e-01
-3.359933942556381226e-02
1.160105839371681213e-01
5.046489834785461426e-02
-1.035652682185173035e-01
-8.881426416337490082e-03
-5.812195688486099243e-02
-1.792830228805541992e-02
-1.258259266614913940e-01
9.749145060777664185e-02
-1.936897188425064087e-01
-1.265704184770584106e-01
-6.866869330406188965e-02
-1.276970952749252319e-01
-1.072684079408645630e-01
-7.833145558834075928e-02
5.054052919149398804e-02
2.086733467876911163e-02
2.775334566831588745e-02
-7.541862130165100098e-02
2.948910370469093323e-02
-6.966971606016159058e-02
-4.731807485222816467e-02
-1.433834061026573181e-02
-9.458674490451812744e-02
2.854481153190135956e-02
-1.460214704275131226e-01
3.476070985198020935e-02
-8.509506285190582275e-02
-8.674506843090057373e-02
-8.040783926844596863e-03
-3.278675675392150879e-02
-1.279174089431762695e-01
-2.252173842862248421e-03
2.035940587520599365e-01
1.834913343191146851e-01
1.530848070979118347e-02
-1.594265997409820557e-01
-1.059735044836997986e-01
4.935637861490249634e-02
1.146327108144760132e-01
1.003054752945899963e-01
1.492535602301359177e-02
1.639493405818939209e-01
1.447312235832214355e-01
-4.994610324501991272e-03
1.674688160419464111e-01
1.294219195842742920e-01
7.355809211730957031e-02
-8.238262683153152466e-02
5.962964519858360291e-02
-4.493165761232376099e-02
-7.239698618650436401e-02
-1.678968034684658051e-02
-2.242649793624877930e-01
1.439795792102813721e-01
-2.458076737821102142e-02
-2.179715633392333984e-01
-8.694727718830108643e-02
1.557391732931137085e-01
-5.431368574500083923e-02
-4.297062754631042480e-02
5.214722827076911926e-02
-3.095470182597637177e-02
-1.057434920221567154e-02
-5.469207093119621277e-02
7.205042243003845215e-02
1.151229366660118103e-01
6.218777969479560852e-02
5.786488205194473267e-02
5.718155950307846069e-02
7.468839734792709351e-02
-1.180209890007972717e-01
-1.135478094220161438e-01
9.961654245853424072e-02
3.951653465628623962e-02
-5.037230625748634338e-02
-3.467809408903121948e-02
3.043025173246860504e-02
8.884131908416748047e-02
4.747832193970680237e-02
2.345506660640239716e-02
9.661187231540679932e-02
-9.793604910373687744e-02
-1.194411814212799072e-01
4.207268729805946350e-02
9.647904336452484131e-02
1.895650923252105713e-01
-1.146051660180091858e-01
-1.240107268095016479e-01
-5.871431156992912292e-02
4.863880947232246399e-02
1.003612354397773743e-01
-5.726958066225051880e-02
6.783892214298248291e-02
-2.364327572286128998e-02
8.339902013540267944e-02
3.954798355698585510e-02
2.200256735086441040e-01
9.211187064647674561e-02
1.731557250022888184e-01
-1.512619405984878540e-01
-1.298098266124725342e-01
-4.758670181035995483e-02
-1.773696392774581909e-02
1.228974387049674988e-01
5.092252045869827271e-02
1.906863152980804443e-01
-9.565913677215576172e-02
1.871783584356307983e-01
1.213330775499343872e-01
-4.200225695967674255e-02
8.409476839005947113e-03
1.863100081682205200e-01
-3.711632639169692993e-02
-1.493530273437500000e-01
-1.270237267017364502e-01
-1.699125766754150391e-01
-4.845592752099037170e-02
-1.032731682062149048e-01
8.152127265930175781e-02
1.466726958751678467e-01
-2.347657084465026855e-02
-1.447148155421018600e-03
1.512375771999359131e-01
-4.480323940515518188e-02
-6.740087270736694336e-02
1.235512085258960724e-03
8.337849378585815430e-02
7.015791535377502441e-02
-1.733240783214569092e-01
-1.202596127986907959e-01
-3.381233289837837219e-02
1.068328395485877991e-01
1.301920972764492035e-02
1.294045001268386841e-01
2.842704765498638153e-02
2.568873111158609390e-03
1.315743178129196167e-01
-2.965005673468112946e-02
6.117884069681167603e-02
2.001189440488815308e-01
-6.717555969953536987e-02
-1.134451329708099365e-01
1.038802042603492737e-01
3.438441827893257141e-02
7.826103270053863525e-02
-6.984731554985046387e-02
1.266754604876041412e-02
6.854841113090515137e-02
1.860264874994754791e-02
1.337988972663879395e-01
1.320305913686752319e-01
-9.318047761917114258e-02
5.726332310587167740e-03
-7.982470095157623291e-02
-1.833702810108661652e-02
-2.654483616352081299e-01
-1.839572377502918243e-02
1.514702104032039642e-02
-6.047406420111656189e-02
-1.264639943838119507e-01
-1.186536550521850586e-01
-5.410734564065933228e-02
8.909901976585388184e-02
-1.363905519247055054e-01
-1.469758450984954834e-01
-2.790671959519386292e-02
1.504371166229248047e-01
8.992154896259307861e-02
-1.154384538531303406e-01
-1.794475363567471504e-03
-8.350275456905364990e-02
-1.014257669448852539e-01
5.420437827706336975e-02
-1.342909187078475952e-01
-2.874963283538818359e-01
-3.607911616563796997e-02
-1.610003858804702759e-01
1.371074584312736988e-03
-6.262979656457901001e-02
-1.628830730915069580e-01
1.320118308067321777e-01
2.139087915420532227e-01
-8.091894537210464478e-02
-1.589197516441345215e-01
-8.858002722263336182e-02
-3.802984952926635742e-02
-3.381921444088220596e-03
-1.107257455587387085e-01
-1.584024578332901001e-01
-4.127930477261543274e-02
-1.305889897048473358e-02
2.106710970401763916e-01
1.515869200229644775e-01
9.140199981629848480e-03
-5.821126699447631836e-02
4.307372495532035828e-02
-3.268602490425109863e-02
-1.496637910604476929e-01
1.678398437798023224e-02
-8.380924165248870850e-02
1.175960898399353027e-01
1.722243614494800568e-02
1.165494024753570557e-01
6.597026437520980835e-02
1.225427463650703430e-01
1.175542827695608139e-02
5.503012239933013916e-02
-8.828275837004184723e-03
3.726040571928024292e-02
-4.056474566459655762e-02
4.231335222721099854e-02
-1.207151561975479126e-01
5.730538442730903625e-02
-1.526186335831880569e-02
5.277120042592287064e-03
-7.875764369964599609e-02
-2.287719771265983582e-02
5.295366421341896057e-02
-2.227653376758098602e-02
-1.522177457809448242e-02
-1.765349656343460083e-01
1.957342326641082764e-01
1.397769898176193237e-01
-1.578218191862106323e-01
-9.292910806834697723e-03
1.122361943125724792e-01
-4.840691760182380676e-02
2.728298492729663849e-02
-2.946875803172588348e-02
8.229755796492099762e-03
3.307659551501274109e-02
-8.782643079757690430e-02
-6.750268489122390747e-02
-8.817313611507415771e-02
8.104991912841796875e-02
6.649518013000488281e-02
-1.556062400341033936e-01
-2.481010109186172485e-01
-1.939111156389117241e-03
-1.012137979269027710e-01
-1.855705231428146362e-01
-6.560409069061279297e-02
1.198121160268783569e-02
-6.957930326461791992e-02
-1.241990029811859131e-01
5.858652293682098389e-02
-4.265123605728149414e-02
7.325198501348495483e-02
2.584418468177318573e-02
2.285264432430267334e-02
-3.258216381072998047e-02
3.734940662980079651e-02
2.420936711132526398e-02
-2.646254375576972961e-02
-4.976784344762563705e-03
4.861277062445878983e-03
1.982911489903926849e-02
1.331279892474412918e-02
8.653401397168636322e-03
1.619084365665912628e-02
-8.078712970018386841e-02
1.049554571509361267e-01
-9.101893752813339233e-02
2.149483188986778259e-02
-6.112699955701828003e-02
9.492573887109756470e-02
-4.023153707385063171e-02
8.374923490919172764e-04
-6.520954519510269165e-02
1.812892593443393707e-02
4.162620007991790771e-02
-4.955519363284111023e-02
-7.244224846363067627e-02
-5.175442621111869812e-02
-6.135296076536178589e-03
-5.965144559741020203e-02
-7.282641530036926270e-02
-7.342332601547241211e-02
-2.429821342229843140e-02
-5.211658403277397156e-02
-4.606491699814796448e-02
-7.051417976617813110e-02
2.708158083260059357e-02
1.536013931035995483e-01
-1.311966329813003540e-01
-2.706976048648357391e-02
1.042290776968002319e-01
-7.124130427837371826e-02
1.146793141961097717e-01
3.476294502615928650e-02
-5.127847194671630859e-02
-9.347986429929733276e-02
2.225321382284164429e-01
-8.338479325175285339e-03
-4.813615605235099792e-02
1.187818348407745361e-01
5.818757414817810059e-02
-3.620491549372673035e-02
1.251249015331268311e-01
5.713183805346488953e-02
-6.286288052797317505e-02
-5.345289781689643860e-02
-1.068179588764905930e-02
-8.984029293060302734e-03
-4.126924648880958557e-02
-2.889211522415280342e-03
-1.086861342191696167e-01
-8.710833638906478882e-02
1.631312370300292969e-01
1.567689329385757446e-01
1.435437146574258804e-02
1.467677205801010132e-01
-9.863785654306411743e-02
-1.132866963744163513e-01
2.562774904072284698e-02
6.381709873676300049e-02
-1.478325277566909790e-01
-4.204080998897552490e-02
-1.911916434764862061e-01
2.989807631820440292e-03
4.562743008136749268e-02
-1.285535246133804321e-01
1.360518392175436020e-02
4.900343716144561768e-02
1.521829962730407715e-01
9.528083354234695435e-02
-9.363402426242828369e-02
6.808103621006011963e-02
3.809177875518798828e-02
9.138639271259307861e-02
5.314990505576133728e-02
1.866108477115631104e-01
3.672821447253227234e-02
5.959995090961456299e-02
1.101323664188385010e-01
4.858375340700149536e-02
-5.219386890530586243e-02
-1.974535360932350159e-02
4.736588150262832642e-02
1.218054629862308502e-02
3.914505615830421448e-02
-1.631425768136978149e-01
-2.220860682427883148e-02
-8.853093534708023071e-02
-1.194264218211174011e-01
3.079185634851455688e-02
-1.961727626621723175e-02
1.320078819990158081e-01
-1.448818743228912354e-01
1.027533933520317078e-01
3.628718107938766479e-02
-4.497106000781059265e-02
-4.071474075317382812e-02
1.653690636157989502e-02
-1.493292488157749176e-02
-1.661536246538162231e-01
-1.615452021360397339e-01
5.161639675498008728e-02
1.527067273855209351e-01
5.683831870555877686e-02
-7.424957305192947388e-02
-1.026373058557510376e-01
6.383191049098968506e-02
2.821552753448486328e-02
-4.539026692509651184e-02
-4.909981042146682739e-02
4.674162343144416809e-02
-3.662629052996635437e-02
-5.528673902153968811e-02
-3.601978998631238937e-03
7.576755434274673462e-02
-1.543280780315399170e-01
-3.597302362322807312e-02
-8.501779288053512573e-02
1.420653760433197021e-01
-2.235569432377815247e-02
-1.390713173896074295e-02
1.391792087815701962e-03
7.535418123006820679e-02
2.345678582787513733e-02
-3.911429271101951599e-02
-3.047696128487586975e-02
-3.928070515394210815e-02
4.194968566298484802e-02
3.222493827342987061e-02
-1.294688731431961060e-01
-1.141661852598190308e-01
1.173855960369110107e-01
3.023486025631427765e-02
-1.840452402830123901e-01
-3.615016862750053406e-02
1.163839101791381836e-01
-4.370254278182983398e-02
3.708758577704429626e-02
1.649774461984634399e-01
5.395475029945373535e-02
9.559961408376693726e-02
-7.014004141092300415e-02
1.207982599735260010e-01
2.866644226014614105e-02
2.522838860750198364e-02
8.037944138050079346e-02
2.499160170555114746e-02
-5.169543996453285217e-02
5.033401399850845337e-02
1.549424976110458374e-02
3.847982501611113548e-03
5.623174458742141724e-02
-4.065286740660667419e-02
3.614453226327896118e-02
-8.726622909307479858e-02
8.315268903970718384e-02
4.922147095203399658e-02
-4.932993650436401367e-02
-9.316071867942810059e-02
-3.424004465341567993e-02
1.279892623424530029e-01
-1.147658228874206543e-01
3.815378993749618530e-03
-8.157802745699882507e-03
-1.355418860912322998e-01
-1.430860608816146851e-01
-1.527173668146133423e-01
-8.933814615011215210e-02
-1.252612918615341187e-01
-5.674642324447631836e-02
-1.835251152515411377e-01
-1.534875482320785522e-01
4.661453515291213989e-02
-1.142423450946807861e-01
-4.678112640976905823e-02
8.782685035839676857e-04
1.739232689142227173e-01
4.406550899147987366e-02
-5.297235026955604553e-02
5.770359188318252563e-02
1.259076893329620361e-01
1.842000754550099373e-03
-1.994877755641937256e-01
1.811033673584461212e-02
7.634355127811431885e-02
-4.235287383198738098e-02
-2.597407810389995575e-02
1.319468021392822266e-01
-1.159925982356071472e-01
-3.494597598910331726e-02
1.204850822687149048e-01
-1.389052271842956543e-01
6.234328448772430420e-02
-2.726524323225021362e-02
4.762661829590797424e-02
-8.197172731161117554e-02
-8.207584172487258911e-02
-1.879261247813701630e-02
3.176454827189445496e-02
2.091702222824096680e-01
1.677117496728897095e-01
9.973924607038497925e-02
9.073510020971298218e-02
-1.727137118577957153e-01
8.737708628177642822e-02
-4.638942331075668335e-02
-2.827908471226692200e-02
-1.126112788915634155e-01
-1.878436207771301270e-01
-9.293335676193237305e-02
-3.970432654023170471e-02
-1.085113827139139175e-02
-1.851744651794433594e-01
8.330364525318145752e-02
-8.665940910577774048e-02
2.128142565488815308e-01
1.121037155389785767e-01
2.710733935236930847e-02
-1.497105695307254791e-03
6.268078088760375977e-02
2.128476649522781372e-01
4.733256623148918152e-02
2.467572875320911407e-02
8.402608335018157959e-03
1.287619816139340401e-04
1.082290112972259521e-01
-7.894632965326309204e-02
-1.207727566361427307e-01
4.666522145271301270e-02
6.947302073240280151e-02
-1.960574537515640259e-01
-1.574737727642059326e-01
-6.787887960672378540e-02
-4.070404171943664551e-02
-4.284656420350074768e-02
2.120251953601837158e-02
2.013849467039108276e-02
-1.118513420224189758e-01
-7.803983241319656372e-02
-2.796468697488307953e-02
-1.871191896498203278e-02
-1.003469824790954590e-01
-1.346120834350585938e-01
-8.082944154739379883e-02
-1.221352517604827881e-01
1.561962068080902100e-01
9.520288556814193726e-02
4.326169565320014954e-02
-1.614589393138885498e-01
-3.035092726349830627e-02
-1.132969409227371216e-01
-6.590850651264190674e-02
-8.584294468164443970e-02
-3.697743266820907593e-02
-1.255866233259439468e-02
-4.508205503225326538e-02
-1.840573549270629883e-02
1.581098586320877075e-01
1.660683304071426392e-01
1.246445104479789734e-01
-1.615770608186721802e-01
-6.220510229468345642e-02
4.274178668856620789e-02
5.824512615799903870e-02
-1.119679883122444153e-01
8.773829787969589233e-03
4.408154636621475220e-02
5.616744980216026306e-02
-1.335070282220840454e-01
9.075913578271865845e-02
-2.432919666171073914e-02
-1.835227310657501221e-01
-4.077545925974845886e-02
1.659617573022842407e-01
7.186704874038696289e-02
-7.843571901321411133e-02
-4.395901560783386230e-01
1.565731316804885864e-02
8.817934989929199219e-02
-9.074756503105163574e-02
-2.963828481733798981e-02
1.263253986835479736e-01
9.157024323940277100e-02
2.204303629696369171e-02
-1.160224154591560364e-02
-6.217340473085641861e-03
3.233049437403678894e-02
-8.220484852790832520e-02
5.371188372373580933e-02
-8.118410408496856689e-02
9.009189903736114502e-02
4.662650823593139648e-02
-5.302759259939193726e-02
-8.333632349967956543e-02
-6.811949610710144043e-02
-2.787946723401546478e-02
-3.084551915526390076e-02
-4.313265532255172729e-02
4.495135694742202759e-02
-1.368931829929351807e-01
-7.728737778961658478e-03
3.950282931327819824e-02
-2.604914270341396332e-02
-5.933153256773948669e-02
3.484172746539115906e-02
-7.560770958662033081e-02
-1.074506435543298721e-02
1.035902872681617737e-01
-1.965824961662292480e-01
-2.687689661979675293e-02
7.684361189603805542e-02
1.197364274412393570e-02
1.709787058643996716e-03
-1.030346080660820007e-01
-3.549939766526222229e-02
-2.142228037118911743e-01
-4.143258184194564819e-02
-1.192224118858575821e-02
-1.262270212173461914e-01
-3.423075750470161438e-02
4.059534892439842224e-02
3.816870227456092834e-02
-1.525368541479110718e-01
9.589603543281555176e-02
8.170522749423980713e-02
-1.575804948806762695e-01
-1.470323204994201660e-01
5.175403133034706116e-02
-3.984551504254341125e-02
1.370391547679901123e-01
-2.823439240455627441e-02
2.548049204051494598e-02
2.891648374497890472e-02
-4.954976588487625122e-02
-1.159721016883850098e-01
-2.162607386708259583e-02
2.957223728299140930e-02
-2.268786281347274780e-01
8.051865547895431519e-02
-4.992765560746192932e-02
2.042068392038345337e-01
1.305533498525619507e-01
9.872145205736160278e-02
-4.822266101837158203e-02
7.096163183450698853e-02
3.622986376285552979e-02
-8.766096830368041992e-02
9.996633231639862061e-02
-2.310404367744922638e-02
-1.021675840020179749e-01
-8.996834605932235718e-02
8.710170537233352661e-02
-8.795957267284393311e-02
-1.335909515619277954e-01
-1.321574579924345016e-02
-6.640357896685600281e-03
-9.497155249118804932e-02
1.100178509950637817e-01
1.733214408159255981e-02
1.804847735911607742e-03
-3.290312830358743668e-03
5.506140738725662231e-02
3.150806203484535217e-02
5.549143627285957336e-02
-6.514354795217514038e-02
6.029081344604492188e-02
-1.782682724297046661e-02
-4.252783954143524170e-02
2.989093959331512451e-01
-8.404511958360671997e-02
-1.331988871097564697e-01
-1.365272402763366699e-01
-1.562077403068542480e-01
6.769677996635437012e-02
-7.414988428354263306e-02
-1.738183386623859406e-02
-6.748128682374954224e-02
2.116339467465877533e-02
5.704268068075180054e-02
-9.305116534233093262e-02
8.823097497224807739e-02
1.906158216297626495e-02
2.195958048105239868e-02
-1.665784232318401337e-02
1.753901839256286621e-01
-1.414820365607738495e-02
-6.057339534163475037e-02
9.512317925691604614e-02
6.755602359771728516e-02
-1.837524324655532837e-01
3.880733996629714966e-02
2.616030350327491760e-02
5.149557068943977356e-02
-1.041407790035009384e-02
5.081749707460403442e-02
-9.931594133377075195e-03
-8.004736155271530151e-02
2.912666834890842438e-02
-1.569872722029685974e-02
-4.513735696673393250e-02
-2.292638877406716347e-03
2.086138129234313965e-01
-1.211213544011116028e-01
2.026037499308586121e-02
-8.803998678922653198e-02
-3.148204088211059570e-02
-1.630899906158447266e-01
5.758275464177131653e-02
9.275739639997482300e-02
-9.471876546740531921e-03
-8.221988379955291748e-02
-3.150526434183120728e-02
1.237112209200859070e-01
-1.116473227739334106e-01
4.616815224289894104e-02
1.219393387436866760e-01
1.344683170318603516e-01
5.917286500334739685e-02
3.505681455135345459e-02
-5.833029374480247498e-02
1.492691487073898315e-01
1.013375222682952881e-01
9.402354806661605835e-02
-1.243213638663291931e-01
1.113752797245979309e-01
2.446015924215316772e-01
6.453000009059906006e-02
-7.642981410026550293e-02
2.232052385807037354e-01
4.145331680774688721e-02
1.785696446895599365e-01
1.800165623426437378e-01
-8.244168013334274292e-02
-1.225698515772819519e-01
1.100202798843383789e-01
3.341864645481109619e-01
-3.706698492169380188e-02
5.122371017932891846e-02
2.343770116567611694e-02
7.248155027627944946e-02
-1.248057335615158081e-01
2.457287907600402832e-02
-2.730641886591911316e-02
5.474535748362541199e-02
-8.723545819520950317e-02
-8.944270759820938110e-02
-1.302299201488494873e-01
-1.297668367624282837e-01
7.317463308572769165e-02
2.672177553176879883e-01
-4.973670933395624161e-03
-4.207193478941917419e-02
1.007122099399566650e-01
-1.196898967027664185e-01
5.866395682096481323e-02
-9.884878247976303101e-02
4.114247858524322510e-03
-4.216226562857627869e-02
1.900178343057632446e-01
-5.452518165111541748e-02
-2.344504930078983307e-02
-1.211127918213605881e-02
2.228583768010139465e-02
3.925989568233489990e-02
1.587570011615753174e-01
-1.000425666570663452e-01
2.538930857554078102e-03
4.191917926073074341e-02
2.215253189206123352e-02
-2.076245471835136414e-02
-1.325919181108474731e-01
3.958184644579887390e-02
9.945909678936004639e-02
-3.767102584242820740e-02
-3.737238422036170959e-02
5.060881376266479492e-02
1.176141053438186646e-01
-5.423874408006668091e-02
1.964458264410495758e-02
-3.885812184307724237e-04
3.783342987298965454e-02
-1.432313174009323120e-01
1.101079583168029785e-01
-3.591746836900711060e-02
-1.213572621345520020e-01
6.395845860242843628e-02
-5.706388130784034729e-02
-2.693593502044677734e-01
-4.439156502485275269e-02
7.223370671272277832e-02
1.089586392045021057e-01
-1.141996085643768311e-01
6.963999569416046143e-02
-4.675256088376045227e-02
1.260768324136734009e-01
1.430348679423332214e-02
-1.901951134204864502e-01
-4.646806791424751282e-02
1.990883648395538330e-01
-6.352385506033897400e-03
-1.165716573596000671e-01
-9.638966619968414307e-02
-1.175922993570566177e-02
5.949478968977928162e-02
-2.874604240059852600e-02
1.079415157437324524e-01
2.462232671678066254e-02
3.940511867403984070e-02
4.793884977698326111e-02
1.321317404508590698e-01
2.711969800293445587e-02
3.263076301664113998e-03
6.904871016740798950e-02
1.039671674370765686e-01
-1.434338241815567017e-01
6.414187699556350708e-02
1.154684741050004959e-02
8.528178185224533081e-02
-9.462307207286357880e-03
3.603002056479454041e-02
1.631224900484085083e-01
1.072081830352544785e-02
-4.304848145693540573e-03
-5.421079695224761963e-02
1.496004313230514526e-01
1.262733340263366699e-01
-1.740242987871170044e-01
3.516447544097900391e-02
-5.320217460393905640e-02
1.443578004837036133e-01
-4.009377211332321167e-02
9.282983094453811646e-02
-1.009821742773056030e-01
-5.351824685931205750e-02
-1.220649853348731995e-02
6.978913396596908569e-02
1.858683079481124878e-01
3.544105961918830872e-02
-9.180028736591339111e-02
1.648761928081512451e-01
7.818893343210220337e-02
-1.342336088418960571e-01
-1.582352668046951294e-01
-3.321318328380584717e-02
1.550170630216598511e-01
1.731701791286468506e-01
-3.733750283718109131e-01
-1.133132800459861755e-01
4.438816383481025696e-02
7.401759736239910126e-03
-1.017582342028617859e-01
-6.393113173544406891e-03
1.996289193630218506e-01
7.286103814840316772e-02
1.595451533794403076e-01
9.782796353101730347e-02
1.222540289163589478e-01
1.594836711883544922e-01
4.060578346252441406e-02
1.203647628426551819e-01
1.598682850599288940e-01
-1.231392323970794678e-01
-5.611834675073623657e-02
2.875431813299655914e-02
-9.601527452468872070e-02
2.792183496057987213e-02
-2.431363426148891449e-02
-1.795655675232410431e-02
4.788905382156372070e-02
-4.780276492238044739e-02
4.488495737314224243e-02
-6.158143654465675354e-02
1.551027037203311920e-02
1.334338188171386719e-01
-2.510645799338817596e-02
-4.636327922344207764e-02
-6.478024274110794067e-02
-2.069722265005111694e-01
-7.368282228708267212e-02
-1.257645189762115479e-01
-2.099297195672988892e-02
-1.002381816506385803e-01
1.630500890314579010e-02
-1.082907617092132568e-01
5.679355934262275696e-02
9.582794457674026489e-02
3.957078792154788971e-03
-1.758871525526046753e-01
1.963650621473789215e-02
1.973181813955307007e-01
-1.791526004672050476e-02
-2.501692809164524078e-02
9.897399693727493286e-02
2.995114028453826904e-02
-7.447430491447448730e-02
6.445818394422531128e-02
7.561329752206802368e-02
-4.025772679597139359e-03
1.198479384183883667e-01
1.474544703960418701e-01
2.256448753178119659e-02
9.220887906849384308e-03
1.708089187741279602e-02
-6.852710247039794922e-02
6.186029314994812012e-02
4.351942334324121475e-03
-1.648919433355331421e-01
-2.206642478704452515e-01
-1.450814008712768555e-01
7.718474417924880981e-02
9.844984114170074463e-02
3.869912773370742798e-02
1.202049013227224350e-02
-3.526671603322029114e-02
6.401176005601882935e-02
-1.044294163584709167e-01
6.585858762264251709e-02
3.767735138535499573e-02
-1.009788587689399719e-01
-1.040061190724372864e-01
4.145384952425956726e-02
-1.201909705996513367e-01
6.968863774091005325e-03
-7.118521630764007568e-02
-1.910011768341064453e-01
1.126117706298828125e-01
-9.894523024559020996e-02
-7.071845978498458862e-02
-1.624064147472381592e-01
-4.751536250114440918e-02
7.992227375507354736e-02
2.393189817667007446e-02
-6.018787622451782227e-02
-1.722369939088821411e-01
1.842069998383522034e-02
-8.183505386114120483e-02
3.416784480214118958e-02
-9.703987836837768555e-02
8.444678038358688354e-03
-6.552211195230484009e-02
5.159723386168479919e-02
-1.723111718893051147e-01
-5.287661403417587280e-02
-2.455527633428573608e-01
-1.655927300453186035e-01
9.772890806198120117e-02
-8.846821635961532593e-02
-1.369928121566772461e-01
2.507700324058532715e-01
1.583880744874477386e-02
-4.012340307235717773e-02
-4.723611753433942795e-03
-1.303649973124265671e-02
-8.079934120178222656e-02
1.403578221797943115e-01
8.977284282445907593e-02
5.772677063941955566e-02
-4.785246402025222778e-02
-1.006797514855861664e-02
2.110949903726577759e-01
-5.203552544116973877e-02
5.377083271741867065e-02
-1.069294363260269165e-01
2.604589611291885376e-02
5.090293288230895996e-02
2.592957392334938049e-02
4.440852999687194824e-02
-2.268871106207370758e-02
-1.025489345192909241e-01
1.525216102600097656e-01
-1.590579934418201447e-02
-5.135866254568099976e-02
-7.305796444416046143e-02
-2.807154133915901184e-02
5.174304917454719543e-02
-4.658782854676246643e-02
1.520699560642242432e-01
-1.159796025604009628e-02
3.343341499567031860e-02
-2.825315855443477631e-02
2.526827156543731689e-01
2.723194845020771027e-02
1.931983679533004761e-01
-1.334985047578811646e-01
5.154634267091751099e-02
-1.226488873362541199e-01
-1.401987075805664062e-01
3.890294209122657776e-02
1.520616114139556885e-01
-1.701785176992416382e-01
-2.101674377918243408e-01
-1.191453114151954651e-01
8.436806499958038330e-02
-6.883660703897476196e-02
-1.351643204689025879e-01
2.043093927204608917e-02
2.115917503833770752e-01
4.373466223478317261e-02
-9.280700236558914185e-02
8.497179299592971802e-02
5.505836009979248047e-02
-3.046132996678352356e-02
-4.111209884285926819e-02
-3.963316977024078369e-02
1.196017339825630188e-01
9.204963594675064087e-02
4.586605355143547058e-02
-3.929466381669044495e-02
5.252744071185588837e-03
3.815342672169208527e-03
-1.739444397389888763e-02
-2.336941361427307129e-01
6.527668237686157227e-02
1.252882778644561768e-01
6.941312551498413086e-02
-1.088824346661567688e-01
3.372895345091819763e-02
4.909091070294380188e-02
-2.045937925577163696e-01
-4.766466468572616577e-02
1.467698812484741211e-01
-6.055936589837074280e-02
1.000636722892522812e-02
1.343497168272733688e-02
-3.876343742012977600e-02
-3.193151950836181641e-02
-8.771278709173202515e-02
-1.325133349746465683e-02
2.141194045543670654e-02
7.177665084600448608e-02
-5.438676103949546814e-02
4.582884535193443298e-02
-7.097276300191879272e-02
-1.279609650373458862e-01
3.262643935158848763e-03
8.428690955042839050e-03
-1.050082743167877197e-01
2.920356765389442444e-02
-1.120445057749748230e-01
1.472801417112350464e-01
1.481631696224212646e-01
1.470012217760086060e-02
-1.185722053050994873e-01
-1.646212339401245117e-01
9.098272025585174561e-02
1.875029206275939941e-01
5.327856168150901794e-02
2.147775702178478241e-02
1.184228733181953430e-01
6.903886795043945312e-02
6.495312601327896118e-02
-2.858573570847511292e-02
-9.722282737493515015e-02
1.295097321271896362e-01
2.194767594337463379e-01
-7.441633939743041992e-02
-8.152245730161666870e-02
9.348566085100173950e-02
3.391677513718605042e-02
-7.926744222640991211e-02
-1.206048801541328430e-01
8.739998936653137207e-02
1.099435463547706604e-01
8.462236821651458740e-02
3.980605676770210266e-02
1.072135865688323975e-01
5.166018381714820862e-02
-1.885982602834701538e-02
1.291294693946838379e-01
1.083690077066421509e-01
9.294561110436916351e-03
-1.910041202791035175e-03
-3.811157494783401489e-02
9.838058799505233765e-02
1.226099431514739990e-01
3.228103369474411011e-02
4.511920362710952759e-02
1.108992099761962891e-01
-6.336154416203498840e-03
-1.860270276665687561e-02
1.322941333055496216e-01
-1.185754761099815369e-01
-2.996525354683399200e-02
-1.733032800257205963e-02
-3.153617307543754578e-02
1.330306939780712128e-02
-7.433873414993286133e-02
1.364747434854507446e-01
5.158289894461631775e-02
4.574603214859962463e-02
1.312809344381093979e-02
4.311631619930267334e-02
2.517050504684448242e-02
-7.420643419027328491e-02
-1.802044957876205444e-01
1.722157560288906097e-02
4.188950732350349426e-02
-6.301987171173095703e-02
-3.431449830532073975e-02
-1.864146888256072998e-01
2.032504528760910034e-01
1.523088365793228149e-01
-1.593580842018127441e-01
2.505294606089591980e-02
-1.167767867445945740e-01
-1.109049748629331589e-02
-5.302546173334121704e-02
-7.675021141767501831e-02
-1.420927643775939941e-01
1.307361386716365814e-02
1.016698591411113739e-02
-4.333649948239326477e-02
-1.563424803316593170e-02
1.096064224839210510e-01
-4.908818006515502930e-02
-1.740264333784580231e-02
9.272429347038269043e-02
6.120660528540611267e-02
9.211410768330097198e-03
1.370605677366256714e-01
-1.413680762052536011e-01
9.851450100541114807e-03
-1.783369183540344238e-01
4.682825505733489990e-02
-1.520944945514202118e-02
-4.285423830151557922e-02
7.487455382943153381e-03
-5.088328570127487183e-02
1.059005334973335266e-01
4.577389336191117764e-04
1.213103011250495911e-01
5.279812030494213104e-03
1.135023962706327438e-02
1.185994446277618408e-01
5.212713405489921570e-02
-3.260220400989055634e-04
1.676757633686065674e-01
1.403335668146610260e-02
-6.283356994390487671e-02
-4.009936749935150146e-02
2.930605225265026093e-02
-9.912556409835815430e-02
-2.728438936173915863e-02
-3.334286436438560486e-02
-2.452061744406819344e-03
1.340745091438293457e-01
-1.391267478466033936e-01
-5.880067124962806702e-02
1.181465759873390198e-01
8.663382381200790405e-02
-6.814058125019073486e-02
-5.555863305926322937e-02
5.490087717771530151e-02
-1.885098218917846680e-02
-9.208443760871887207e-02
-5.512195453047752380e-02
-2.152326669602189213e-05
1.341847237199544907e-02
8.678591251373291016e-02
2.076236754655838013e-01
1.518163364380598068e-02
-1.060673687607049942e-02
1.068639978766441345e-01
9.199021756649017334e-02
5.393923446536064148e-02
-7.888564467430114746e-02
-3.020825330168008804e-03
1.034530773758888245e-01
2.076810784637928009e-02
8.501886390149593353e-03
-3.372952714562416077e-02
-1.503806412220001221e-01
-1.854089275002479553e-02
-2.532634697854518890e-02
-1.440494209527969360e-01
-1.202008277177810669e-01
-3.864054009318351746e-02
5.623103305697441101e-02
-2.987539768218994141e-02
1.208310760557651520e-02
-1.142001226544380188e-01
4.628109559416770935e-02
4.418050404638051987e-03
-5.326640978455543518e-02
-5.832279846072196960e-02
1.412362009286880493e-01
1.239932142198085785e-02
1.988547481596469879e-02
-8.683726191520690918e-02
-4.421461746096611023e-02
4.170123487710952759e-03
-1.000486612319946289e-01
1.164734084159135818e-02
-4.295552521944046021e-02
6.189094483852386475e-02
-4.205507412552833557e-02
2.206940948963165283e-02
-6.156565621495246887e-02
2.458318695425987244e-02
-5.151931662112474442e-03
-7.915096729993820190e-02
7.740727812051773071e-02
1.140055805444717407e-02
-3.955847118049860001e-03
1.193679776042699814e-02
-1.615751981735229492e-01
7.486162334680557251e-02
4.096922278404235840e-02
7.344700396060943604e-02
1.696759276092052460e-02
-9.844195097684860229e-02
1.598286069929599762e-02
2.111156582832336426e-01
-1.972097754478454590e-01
-3.768185153603553772e-02
1.066824868321418762e-01
-5.466980859637260437e-02
-9.537161141633987427e-02
-1.856456547975540161e-01
2.189526893198490143e-02
3.098288550972938538e-02
-1.293063312768936157e-01
4.646808840334415436e-03
-7.097835093736648560e-02
9.259817004203796387e-02
9.174888581037521362e-02
-7.942412793636322021e-02
-9.419786930084228516e-02
1.451352685689926147e-01
8.851885795593261719e-03
7.779558002948760986e-02
6.358040031045675278e-03
1.555425673723220825e-01
-3.284173086285591125e-02
4.090778902173042297e-02
-3.196818754076957703e-02
1.133209094405174255e-01
1.342738792300224304e-02
-8.534853160381317139e-02
-1.077542006969451904e-01
3.548124805092811584e-02
1.118087172508239746e-01
3.758604452013969421e-02
-2.402468025684356689e-01
3.509431779384613037e-01
-2.315185777842998505e-02
-5.490911193192005157e-03
5.537374317646026611e-02
7.648729532957077026e-02
5.489471368491649628e-03
-1.143522039055824280e-01
-8.569404482841491699e-02
5.323933064937591553e-02
-1.843357086181640625e-02
-1.223381012678146362e-01
-1.405612826347351074e-01
-5.332227423787117004e-02
-2.135320939123630524e-02
3.533061360940337181e-03
-1.077247485518455505e-01
2.047489024698734283e-02
-7.612445205450057983e-02
-1.318833082914352417e-01
-8.233562111854553223e-02
1.239078119397163391e-01
1.794409006834030151e-02
7.251539826393127441e-02
-1.100112721323966980e-01
-1.096521243453025818e-01
1.923320256173610687e-02
1.448815017938613892e-01
4.024519026279449463e-02
-1.243073418736457825e-01
7.887700945138931274e-02
-6.160195171833038330e-02
5.389336124062538147e-02
-1.090948563069105148e-02
-7.781264930963516235e-02
-8.715332299470901489e-02
-1.434321254491806030e-01
5.562251433730125427e-02
-3.719361126422882080e-02
-9.748386591672897339e-02
-1.085228100419044495e-01
1.404880546033382416e-02
-1.043636128306388855e-01
1.212462130934000015e-02
-5.881299450993537903e-02
9.457739442586898804e-02
-5.335942655801773071e-02
1.119783222675323486e-01
6.970866024494171143e-02
-1.488069444894790649e-02
-3.564050421118736267e-02
-1.806622743606567383e-02
-1.516612172126770020e-01
2.642510086297988892e-02
1.656710654497146606e-01
5.374188721179962158e-02
2.579767955467104912e-03
1.192479506134986877e-01
2.990848198533058167e-02
4.770179837942123413e-02
6.290866434574127197e-02
-1.296346932649612427e-01
-5.534406751394271851e-02
-7.803614437580108643e-02
1.708602299913764000e-03
6.352618336677551270e-02
-8.436981588602066040e-03
-1.126877814531326294e-01
5.605949088931083679e-02
-7.748011499643325806e-02
2.610148116946220398e-02
9.940382838249206543e-02
-1.672976911067962646e-01
-5.555791780352592468e-02
-1.034982874989509583e-01
-8.767720311880111694e-02
1.669408008456230164e-02
-4.838167876005172729e-02
2.908260002732276917e-02
-3.945131599903106689e-02
6.493248045444488525e-02
-1.122088357806205750e-01
1.152076795697212219e-01
-6.791208684444427490e-02
-6.895168125629425049e-02
1.291255187243223190e-02
-4.041600227355957031e-02
-8.682414190843701363e-04
-1.512761693447828293e-02
-5.982984602451324463e-02
2.283911593258380890e-02
-1.661919429898262024e-02
-8.795572444796562195e-03
-2.927966788411140442e-02
3.932204563170671463e-03
-1.394998095929622650e-02
-9.050763398408889771e-02
3.544802311807870865e-03
2.469838410615921021e-02
4.022316262125968933e-02
4.608475416898727417e-02
