4.652715846896171570e-02
1.738329418003559113e-02
1.757031865417957306e-02
1.507052034139633179e-01
-3.411687910556793213e-02
1.182981431484222412e-01
-2.629356980323791504e-01
-1.953162103891372681e-01
8.201078511774539948e-03
-1.235170215368270874e-01
-2.180916815996170044e-02
1.002472043037414551e-01
1.888761073350906372e-01
2.359425276517868042e-01
-3.398173674941062927e-02
1.263588666915893555e-01
-1.753199994564056396e-01
-7.585095614194869995e-02
1.097330008633434772e-03
-7.610791176557540894e-02
1.328206211328506470e-01
1.300199031829833984e-01
1.894953399896621704e-01
-1.468201577663421631e-01
1.417924165725708008e-01
-2.477052621543407440e-03
-2.111033648252487183e-01
-1.222882717847824097e-01
-8.283039927482604980e-02
-1.177428215742111206e-01
-2.660015225410461426e-01
5.357961356639862061e-02
-2.415647059679031372e-01
1.226610988378524780e-01
1.011485755443572998e-01
1.965529620647430420e-01
1.598698347806930542e-01
1.201083660125732422e-01
-2.115072011947631836e-01
8.602673560380935669e-02
-7.173994183540344238e-02
-5.383565649390220642e-02
-6.680852174758911133e-02
-1.178933754563331604e-01
7.278615236282348633e-02
-1.422196924686431885e-01
2.174102216958999634e-01
-1.616976559162139893e-01
2.314934879541397095e-02
-2.454653754830360413e-02
-2.292502112686634064e-02
3.675793483853340149e-02
1.519607156515121460e-01
-8.524038642644882202e-02
1.331867426633834839e-01
8.895969949662685394e-04
9.122190624475479126e-02
3.333022072911262512e-02
-2.629619836807250977e-01
-6.618046015501022339e-02
-1.635402999818325043e-02
-2.111630886793136597e-01
-2.587139308452606201e-01
8.864692598581314087e-02
1.697755903005599976e-01
-2.774604363366961479e-03
-1.181758791208267212e-01
1.313621997833251953e-01
4.843229949474334717e-01
-4.086563587188720703e-01
2.201208174228668213e-01
-1.496733725070953369e-01
-9.487536735832691193e-03
-1.031779870390892029e-01
5.377714708447456360e-02
2.729892134666442871e-01
-2.279122546315193176e-02
1.040008664131164551e-01
-3.787527978420257568e-01
-3.758419305086135864e-02
7.691265642642974854e-02
-1.461676657199859619e-01
1.589171886444091797e-01
1.565222740173339844e-01
-2.144418507814407349e-01
-1.482834666967391968e-01
7.117566466331481934e-02
1.739639788866043091e-01
1.375403404235839844e-01
1.175910234451293945e-01
3.114726953208446503e-02
1.762690991163253784e-01
-4.368422552943229675e-02
-1.331159174442291260e-01
1.733250021934509277e-01
-8.444087207317352295e-02
3.217336237430572510e-01
-2.189525067806243896e-01
-6.861139833927154541e-02
2.633550465106964111e-01
-9.169171750545501709e-02
1.058931872248649597e-01
-2.607367336750030518e-01
5.888861138373613358e-03
-5.167378112673759460e-02
6.458964198827743530e-02
9.185352921485900879e-02
3.921324908733367920e-01
-5.291001498699188232e-02
1.637899577617645264e-01
-8.427798002958297729e-02
6.134219933301210403e-03
6.629195809364318848e-02
1.972168087959289551e-01
-6.708165258169174194e-02
-2.382216602563858032e-02
3.178198635578155518e-02
-9.207283705472946167e-02
6.069543585181236267e-02
-7.149568200111389160e-02
1.629462242126464844e-01
3.504182398319244385e-02
2.361653558909893036e-02
8.923095464706420898e-02
-2.160535901784896851e-01
-4.912240058183670044e-02
3.339031934738159180e-01
-2.147547714412212372e-02
-1.635497435927391052e-02
2.178607583045959473e-01
1.969909667968750000e-01
-3.261731937527656555e-02
1.083720549941062927e-01
-1.723571419715881348e-01
-1.820908337831497192e-01
-1.485161632299423218e-01
4.186722636222839355e-02
1.000009384006261826e-02
-4.627277702093124390e-02
2.703226804733276367e-01
1.044254228472709656e-01
-1.788298487663269043e-01
-4.255431145429611206e-02
2.011316120624542236e-01
-7.700532674789428711e-02
-1.279848217964172363e-01
1.580377817153930664e-01
-1.462637186050415039e-01
1.790489852428436279e-01
-1.275374740362167358e-01
1.624236069619655609e-02
-7.926578819751739502e-02
2.512889802455902100e-01
-2.012194693088531494e-02
-1.123657673597335815e-01
-9.564091265201568604e-02
-1.477467119693756104e-01
6.536511500598862767e-05
1.252536382526159286e-02
-3.993604332208633423e-02
7.162019610404968262e-02
-1.780455112457275391e-01
-8.644378930330276489e-02
3.997003287076950073e-02
6.159039586782455444e-02
8.543984591960906982e-02
-9.117891639471054077e-02
4.269735142588615417e-02
6.116043031215667725e-02
-6.537598371505737305e-02
1.271892637014389038e-01
4.818291962146759033e-02
-4.040386993438005447e-03
-2.242714166641235352e-02
-1.145067140460014343e-01
-2.574312090873718262e-01
-7.367490977048873901e-02
1.410579830408096313e-01
-3.789972513914108276e-02
-5.583852529525756836e-02
-2.512331604957580566e-01
2.783299684524536133e-01
1.535326987504959106e-01
-3.998713195323944092e-02
-1.043419688940048218e-01
-2.254479080438613892e-01
2.821913221850991249e-03
1.521031558513641357e-01
-2.771567702293395996e-01
2.018542587757110596e-01
-5.212181061506271362e-02
-7.091426849365234375e-02
7.793825119733810425e-02
3.431646618992090225e-03
-4.672839641571044922e-01
-6.540733575820922852e-02
1.182333230972290039e-01
3.573503345251083374e-02
2.533819898962974548e-02
8.334385603666305542e-02
1.342617720365524292e-01
6.496687978506088257e-02
1.083778366446495056e-01
-1.540134381502866745e-02
8.536288514733314514e-03
1.542522609233856201e-01
-1.364949494600296021e-01
-1.947234123945236206e-01
7.118862122297286987e-02
1.342016607522964478e-01
-7.359395921230316162e-02
-3.457287326455116272e-02
-1.416551470756530762e-01
7.206612825393676758e-02
6.061809137463569641e-02
-1.330279111862182617e-01
1.646746546030044556e-01
-5.724947899580001831e-02
-1.713498830795288086e-01
-2.126215957105159760e-02
-9.472075849771499634e-02
-9.751733392477035522e-02
-3.930077422410249710e-03
2.558339238166809082e-01
-1.569558866322040558e-02
1.856945157051086426e-01
3.601184487342834473e-02
-7.448726892471313477e-02
-2.078580558300018311e-01
-1.038303151726722717e-01
2.212607413530349731e-01
-1.782214790582656860e-01
-1.721299290657043457e-01
-2.363044582307338715e-02
6.543549895286560059e-02
2.157735824584960938e-02
-3.686215355992317200e-02
-1.115922629833221436e-02
3.449784517288208008e-01
-1.215156689286231995e-01
-2.704099938273429871e-02
5.719102546572685242e-02
-1.268119513988494873e-01
4.431461170315742493e-02
1.304766535758972168e-01
4.146969318389892578e-02
-7.572696777060627937e-04
-3.967850655317306519e-02
2.020062953233718872e-01
4.645098466426134109e-03
-1.506498754024505615e-01
1.387302130460739136e-01
1.512312591075897217e-01
-2.235081493854522705e-01
-9.593532234430313110e-02
4.653056338429450989e-02
1.166513562202453613e-01
2.250936115160584450e-03
-1.270636320114135742e-01
3.086273372173309326e-02
-8.558773994445800781e-02
-4.953956976532936096e-02
1.756845563650131226e-01
1.278045773506164551e-01
2.303192950785160065e-02
-9.853257983922958374e-02
-8.945629745721817017e-02
1.222977712750434875e-01
-1.018470153212547302e-01
1.339033097028732300e-01
-6.253105401992797852e-02
-1.157688051462173462e-01
-5.857400596141815186e-02
2.277535647153854370e-01
5.817554891109466553e-02
1.243012174963951111e-01
-1.219100132584571838e-01
4.784896224737167358e-02
-6.711699068546295166e-02
4.465270787477493286e-02
1.211299747228622437e-01
-3.179771825671195984e-03
-5.611133202910423279e-02
5.303427949547767639e-02
-1.256305128335952759e-01
-4.110917076468467712e-02
-7.265825290232896805e-03
2.142861299216747284e-02
9.017748385667800903e-02
1.512550661573186517e-04
2.910121576860547066e-03
6.045517325401306152e-02
-1.954414248466491699e-01
-3.292877925559878349e-03
-1.387439221143722534e-01
-3.614124283194541931e-02
1.035490110516548157e-01
1.013366505503654480e-01
-1.361251920461654663e-01
1.869254861958324909e-03
8.294681459665298462e-02
1.557243913412094116e-01
-3.025653958320617676e-01
-1.258075609803199768e-02
-1.521556265652179718e-02
-7.445898652076721191e-02
8.756659179925918579e-02
-2.613928020000457764e-01
-6.664241105318069458e-02
-6.221275031566619873e-02
4.277347028255462646e-02
2.814206480979919434e-01
-2.181354016065597534e-01
5.537569988518953323e-03
-4.385438561439514160e-02
-2.991802059113979340e-02
8.653123676776885986e-02
2.032574824988842010e-02
1.286839395761489868e-01
-1.259646471589803696e-02
-3.117289859801530838e-03
3.483856841921806335e-02
4.664952680468559265e-02
1.370767802000045776e-01
-1.052033379673957825e-01
2.605485543608665466e-02
4.137941449880599976e-02
1.908283084630966187e-01
-9.109560400247573853e-02
1.319921016693115234e-01
4.529355466365814209e-02
-1.314497292041778564e-01
1.518681794404983521e-01
-1.830841302871704102e-01
-1.746797859668731689e-01
2.602352201938629150e-01
-8.137267432175576687e-04
-6.985974311828613281e-02
5.419957265257835388e-02
1.030623614788055420e-01
-2.066426873207092285e-01
-4.926351085305213928e-02
-1.367732882499694824e-01
-1.689688265323638916e-01
-2.244683727622032166e-02
-8.379944413900375366e-02
1.569406837224960327e-01
-1.798347383737564087e-01
8.271703869104385376e-02
-2.127971202135086060e-01
6.850660592317581177e-02
5.885402113199234009e-02
2.893918752670288086e-02
-9.583634138107299805e-02
-4.838985577225685120e-02
-2.825432643294334412e-02
7.292979210615158081e-02
-4.727876931428909302e-02
-4.065748676657676697e-02
8.370110392570495605e-02
-1.619476377964019775e-01
-3.724272176623344421e-02
-8.162318170070648193e-02
-1.847126781940460205e-01
-1.490256041288375854e-01
-1.231037899851799011e-01
1.093229353427886963e-01
-3.167961537837982178e-01
-3.361909091472625732e-02
-1.272024065256118774e-01
1.512309610843658447e-01
-6.196686252951622009e-02
8.094799704849720001e-03
-8.463039994239807129e-02
1.976319104433059692e-01
-1.077396795153617859e-02
8.379989117383956909e-02
-6.468642503023147583e-02
-1.547480374574661255e-01
1.086953282356262207e-01
9.859065711498260498e-02
-2.640588879585266113e-01
7.371561229228973389e-02
-3.030779361724853516e-01
5.832853913307189941e-02
2.694801688194274902e-01
-1.103165671229362488e-01
-2.942660748958587646e-01
1.148839364759624004e-03
2.592515945434570312e-02
1.409147232770919800e-01
-2.625644020736217499e-02
-1.295025944709777832e-01
2.064457684755325317e-01
-7.087089866399765015e-02
-1.073185261338949203e-02
1.296603679656982422e-01
-3.468503803014755249e-02
4.513992369174957275e-02
1.047952845692634583e-01
-1.818222701549530029e-01
5.435147508978843689e-02
4.669695347547531128e-02
-3.283822536468505859e-01
-2.252699434757232666e-02
5.341475084424018860e-02
-1.063457205891609192e-01
2.067338488996028900e-02
6.638376414775848389e-02
2.589556761085987091e-02
-5.766772083006799221e-04
-3.357452899217605591e-02
-9.131769649684429169e-03
-5.454909056425094604e-02
-3.699451312422752380e-02
8.528582751750946045e-02
-6.972282379865646362e-02
-1.114248260855674744e-01
-3.589140251278877258e-02
-1.483136862516403198e-01
6.636279169470071793e-03
1.439287066459655762e-01
7.233311235904693604e-02
-1.370139718055725098e-01
1.395312249660491943e-01
-1.138196419924497604e-02
-2.529124356806278229e-02
1.736586242914199829e-01
-2.186395525932312012e-01
-7.533977925777435303e-02
-1.997614949941635132e-01
-2.867303192615509033e-01
1.496692895889282227e-01
-4.028423130512237549e-02
-8.357520401477813721e-02
1.206952147185802460e-02
-6.915186345577239990e-02
-3.801757469773292542e-03
1.187509670853614807e-01
1.847426593303680420e-01
-1.333605945110321045e-01
8.241797238588333130e-02
2.362246960401535034e-01
1.420368105173110962e-01
5.764862895011901855e-02
-9.760075807571411133e-02
-1.376803815364837646e-01
-6.151381507515907288e-02
-1.931679248809814453e-02
-1.163026914000511169e-01
5.363996326923370361e-02
2.350981980562210083e-01
1.989519745111465454e-01
-9.689164161682128906e-02
-3.788059949874877930e-01
-1.354823112487792969e-01
-9.217427670955657959e-02
8.443171530961990356e-02
1.204525604844093323e-01
2.284060418605804443e-01
1.225119680166244507e-01
1.429185643792152405e-02
5.852858349680900574e-02
9.708869457244873047e-02
4.166567325592041016e-02
-1.048872247338294983e-01
1.550240907818078995e-02
7.347869127988815308e-02
-1.030857563018798828e-01
-1.392866969108581543e-01
-3.078656792640686035e-01
-2.728588879108428955e-02
-3.525404492393136024e-03
-8.254376798868179321e-02
2.042255699634552002e-01
3.737160190939903259e-02
-2.624409496784210205e-01
2.993154525756835938e-01
-3.655285388231277466e-02
-1.325304955244064331e-01
8.030685037374496460e-02
7.394766807556152344e-02
8.380311727523803711e-02
-3.393682539463043213e-01
1.515771895647048950e-01
3.090847749263048172e-03
-1.396790742874145508e-01
-3.914462327957153320e-01
-2.219999022781848907e-02
8.484537154436111450e-02
-6.214573606848716736e-02
-1.409924775362014771e-01
2.137821614742279053e-01
1.606218814849853516e-01
-3.786167129874229431e-02
-1.336726099252700806e-01
9.055891633033752441e-02
7.441151887178421021e-02
7.418831437826156616e-02
1.283840984106063843e-01
1.541283428668975830e-01
4.258580207824707031e-01
1.821750700473785400e-01
-2.370042540132999420e-02
-1.534695737063884735e-03
6.686376780271530151e-02
1.324625760316848755e-01
1.070478707551956177e-01
-2.580709457397460938e-01
4.550413228571414948e-03
1.718970686197280884e-01
-8.331250399351119995e-02
1.102595962584018707e-02
3.617304144427180290e-03
1.354283988475799561e-01
-1.890788078308105469e-01
-2.472786158323287964e-01
-1.157746464014053345e-02
-1.916568428277969360e-01
-1.437829285860061646e-01
-1.130767688155174255e-01
-2.262763530015945435e-01
2.467644773423671722e-02
5.838559567928314209e-02
-2.545676529407501221e-01
-5.429293215274810791e-02
3.176636099815368652e-01
1.649607568979263306e-01
-6.485310196876525879e-02
1.279151719063520432e-02
-2.481673955917358398e-01
7.452241331338882446e-02
1.170198395848274231e-01
-1.998847536742687225e-02
2.522700279951095581e-02
1.598803699016571045e-01
-1.985864043235778809e-01
-1.576181352138519287e-01
-1.134859547019004822e-01
-4.655624926090240479e-02
1.660721004009246826e-01
-1.733982264995574951e-01
-1.400741655379533768e-02
-1.164085119962692261e-01
-3.385892882943153381e-02
-7.352533191442489624e-02
1.604901701211929321e-01
-3.423087596893310547e-01
-1.803101599216461182e-01
2.571777999401092529e-01
-8.971619606018066406e-02
3.953635692596435547e-01
-7.221239060163497925e-02
-2.785310447216033936e-01
-5.139188766479492188e-01
-3.968612253665924072e-01
-3.972684592008590698e-02
-4.962233826518058777e-02
2.338095605373382568e-01
-1.345779299736022949e-01
-6.524616852402687073e-03
2.512881457805633545e-01
1.596928201615810394e-02
8.089706301689147949e-03
-2.359507419168949127e-02
8.860108256340026855e-02
-6.775044649839401245e-02
1.008162871003150940e-01
2.746321558952331543e-01
3.059990704059600830e-01
-2.225007712841033936e-01
-1.411266773939132690e-01
-5.957837030291557312e-02
1.054548695683479309e-01
-1.503683030605316162e-01
5.434694141149520874e-02
7.881402224302291870e-02
-3.475713729858398438e-02
-5.166415590792894363e-03
1.418301761150360107e-01
1.348098069429397583e-01
2.421138435602188110e-01
9.772086888551712036e-02
3.137261793017387390e-02
2.640139162540435791e-01
-1.627604961395263672e-01
-3.261224329471588135e-01
-7.313609123229980469e-02
-1.265683490782976151e-02
-2.136936783790588379e-01
6.154103577136993408e-02
1.009578853845596313e-01
1.010702922940254211e-01
6.977226585149765015e-02
-8.243320137262344360e-02
-1.802333891391754150e-01
-1.849019229412078857e-01
1.765773147344589233e-01
-1.393938809633255005e-01
-1.711447089910507202e-01
-1.009198352694511414e-01
2.567014843225479126e-02
7.195409387350082397e-02
4.282101988792419434e-02
3.065911307930946350e-02
-4.992433637380599976e-02
-1.337440013885498047e-01
-1.256712432950735092e-02
1.220901384949684143e-01
1.657996475696563721e-01
1.378718465566635132e-01
9.305161237716674805e-02
-1.278323382139205933e-01
4.766636993736028671e-03
1.988586038351058960e-01
-2.251727133989334106e-01
-2.113409526646137238e-02
1.935252360999584198e-02
7.447947561740875244e-02
1.143633946776390076e-01
3.951575141400098801e-03
-4.735347349196672440e-03
2.855660393834114075e-02
-6.554201990365982056e-02
-1.177062466740608215e-02
-4.491590708494186401e-02
-3.195592164993286133e-01
1.285490840673446655e-01
-5.017061904072761536e-02
2.338676713407039642e-03
-8.444190025329589844e-02
3.362381458282470703e-01
1.235333159565925598e-01
3.182033896446228027e-01
-2.426277101039886475e-02
-6.584282382391393185e-04
2.212308347225189209e-02
1.642539538443088531e-02
2.433230169117450714e-02
4.245058819651603699e-02
-1.478416770696640015e-01
-3.698963671922683716e-02
9.109691530466079712e-02
-9.236321784555912018e-03
3.853203728795051575e-02
1.472303122282028198e-01
6.940953433513641357e-02
4.193394631147384644e-02
-1.164052262902259827e-01
-4.267984628677368164e-02
4.052729904651641846e-02
5.384960398077964783e-02
-9.766346216201782227e-02
4.822831228375434875e-02
9.407062083482742310e-02
1.699639670550823212e-02
-1.729195713996887207e-01
4.635695368051528931e-02
-1.909425407648086548e-01
-5.688071995973587036e-02
3.702879324555397034e-02
3.170931339263916016e-02
2.208586484193801880e-01
1.251713037490844727e-01
1.716802828013896942e-02
-1.937831789255142212e-01
-4.144459217786788940e-02
-1.097447574138641357e-01
-2.391647920012474060e-02
1.205672770738601685e-01
-1.280288696289062500e-01
-2.175424546003341675e-01
1.599377244710922241e-01
-1.519371848553419113e-02
-2.417959086596965790e-02
7.832250744104385376e-02
7.676766812801361084e-02
-9.172605723142623901e-02
4.848158359527587891e-02
5.793083086609840393e-02
1.195054054260253906e-01
1.563234478235244751e-01
-1.752040982246398926e-01
1.227196007966995239e-01
-1.581156998872756958e-01
-9.905052185058593750e-02
7.794895768165588379e-02
9.107255190610885620e-02
8.623272925615310669e-02
4.670359566807746887e-02
2.392198704183101654e-02
4.745563119649887085e-02
-1.117126047611236572e-01
1.562920212745666504e-01
-5.938748642802238464e-02
-1.834683716297149658e-01
8.559130877256393433e-02
1.483820080757141113e-01
1.335587948560714722e-01
2.843824028968811035e-02
8.662575855851173401e-03
4.746906459331512451e-02
9.577571600675582886e-02
1.057071238756179810e-01
-2.673484617844223976e-03
-8.836373686790466309e-02
5.229597911238670349e-02
1.762507557868957520e-01
-2.275993376970291138e-01
-8.450599759817123413e-02
3.501742780208587646e-01
-2.636743485927581787e-01
-2.586607262492179871e-02
-2.758717238903045654e-01
7.642441987991333008e-02
1.222280561923980713e-01
9.990788064897060394e-03
-8.615860715508460999e-03
9.004448354244232178e-02
1.569227688014507294e-02
1.293590068817138672e-01
-9.237480163574218750e-02
-5.982159078121185303e-02
9.328194707632064819e-02
1.379648149013519287e-01
1.999844983220100403e-02
1.527144014835357666e-01
-2.093781232833862305e-01
-1.911367774009704590e-01
-7.791715115308761597e-02
-1.707689166069030762e-01
1.232156753540039062e-01
2.893302962183952332e-02
6.357167661190032959e-02
-1.255385130643844604e-01
-9.354461729526519775e-02
-1.700689047574996948e-01
3.994750604033470154e-02
-9.554209187626838684e-03
-3.925903886556625366e-02
1.089300662279129028e-01
-3.527282923460006714e-02
-2.157031185925006866e-02
-1.279961615800857544e-01
3.284797817468643188e-02
1.136568859219551086e-01
5.773229897022247314e-02
-1.200266629457473755e-01
-3.957990184426307678e-02
-7.492854446172714233e-02
-4.090605676174163818e-02
4.078564792871475220e-02
2.282488718628883362e-02
-8.943731337785720825e-02
-2.309190034866333008e-01
3.814649581909179688e-02
-2.121514081954956055e-02
1.063673794269561768e-01
5.635020881891250610e-02
8.384752273559570312e-02
-4.062257707118988037e-02
7.996169477701187134e-02
1.254374999552965164e-02
1.323625352233648300e-02
4.689879715442657471e-02
-1.348229497671127319e-01
8.447138592600822449e-03
-4.717402160167694092e-03
-1.926731877028942108e-02
2.445525489747524261e-02
4.786714911460876465e-02
2.173296734690666199e-02
9.546716697514057159e-03
-1.079816371202468872e-02
1.851955950260162354e-01
-2.268709614872932434e-02
3.319657966494560242e-02
-1.044189780950546265e-01
6.103035807609558105e-02
-2.508623525500297546e-02
5.393734318204224110e-04
5.295968800783157349e-02
-2.061917819082736969e-02
-4.099628627300262451e-01
4.964482784271240234e-02
2.116005867719650269e-02
1.430567800998687744e-01
1.856834441423416138e-01
-3.006429597735404968e-02
8.901911228895187378e-02
1.011403053998947144e-01
-4.484151676297187805e-02
-1.499019712209701538e-01
-2.827042527496814728e-02
9.145063906908035278e-02
-1.829775422811508179e-02
-3.815599903464317322e-02
2.118447571992874146e-01
-1.864197701215744019e-01
5.820368230342864990e-02
1.678999662399291992e-01
-1.324011832475662231e-01
5.675991997122764587e-02
4.021474719047546387e-02
1.025759875774383545e-01
-4.133387655019760132e-02
3.488112613558769226e-02
-8.099665492773056030e-02
-4.931973293423652649e-02
6.707912683486938477e-02
-3.575593605637550354e-02
3.224514424800872803e-02
-8.731178194284439087e-02
-2.159816771745681763e-01
-6.924643367528915405e-02
3.637114167213439941e-02
-8.946559578180313110e-02
-1.417969614267349243e-01
-2.473247470334172249e-03
-4.288704693317413330e-02
-1.588656455278396606e-01
2.238799631595611572e-01
7.226580381393432617e-02
-2.066191844642162323e-02
7.729856297373771667e-03
1.331721991300582886e-01
-1.428954005241394043e-01
-1.303350925445556641e-01
-2.619811892509460449e-01
-3.447078168392181396e-02
-1.143207550048828125e-01
1.796341538429260254e-01
8.079264312982559204e-02
6.609035283327102661e-02
2.144369781017303467e-01
-5.130323022603988647e-02
3.662580996751785278e-02
-7.681036740541458130e-02
3.076065890491008759e-02
-1.408154964447021484e-01
-5.420427396893501282e-02
7.883264869451522827e-02
6.984638422727584839e-02
7.816125452518463135e-02
5.128578469157218933e-02
2.143867686390876770e-02
1.356824394315481186e-02
-4.488062579184770584e-03
-7.406019419431686401e-02
1.101120933890342712e-02
3.597001731395721436e-02
1.424598321318626404e-02
6.717307120561599731e-02
-9.259776771068572998e-02
8.725778758525848389e-02
1.269737780094146729e-01
1.519576460123062134e-01
6.299976259469985962e-03
1.504454854875802994e-02
4.187351092696189880e-02
-1.232537403702735901e-01
-4.530822392553091049e-03
4.433189518749713898e-03
-3.597728535532951355e-02
2.232286334037780762e-02
7.412258535623550415e-02
1.640277802944183350e-01
1.688969135284423828e-01
-8.342799730598926544e-03
-5.068710073828697205e-02
-1.223058179020881653e-01
-1.082396432757377625e-01
-9.831482544541358948e-03
-1.129133403301239014e-01
8.210295438766479492e-02
-3.236719593405723572e-02
-5.259630829095840454e-02
-1.413054913282394409e-01
-1.287347227334976196e-01
1.249894052743911743e-01
1.890410929918289185e-01
-1.648424367886036634e-04
3.979016840457916260e-02
3.260496258735656738e-02
1.254884875379502773e-03
-2.764602378010749817e-02
7.318823784589767456e-02
2.023588679730892181e-02
-1.556175947189331055e-02
-9.288402646780014038e-02
4.527610540390014648e-02
-6.412475556135177612e-02
1.179606691002845764e-01
-3.530875965952873230e-02
-1.601579599082469940e-02
-1.004249975085258484e-01
-4.320197179913520813e-02
1.140466853976249695e-01
6.533019989728927612e-02
1.097505763173103333e-01
1.238968297839164734e-01
-4.800013825297355652e-02
-9.778053313493728638e-02
1.363198161125183105e-01
2.325858548283576965e-02
-7.554417103528976440e-02
2.926752436906099319e-03
7.608167827129364014e-02
-5.907614156603813171e-02
-1.641654223203659058e-02
-4.996126890182495117e-02
1.051498427987098694e-01
-4.620579257607460022e-02
1.459384262561798096e-01
-5.564725771546363831e-02
7.992828264832496643e-03
-1.010984331369400024e-01
3.379109129309654236e-02
1.199986562132835388e-01
-1.195493787527084351e-01
-4.460701346397399902e-02
1.042469143867492676e-01
9.423420578241348267e-02
4.772244393825531006e-02
1.532050818204879761e-01
1.378082633018493652e-01
2.990780770778656006e-02
-4.765533655881881714e-02
-1.707608848810195923e-01
-5.834563169628381729e-03
-4.489181097596883774e-03
3.397180233150720596e-03
1.690370589494705200e-02
-9.229442477226257324e-02
3.013496054336428642e-03
-8.338437974452972412e-02
-2.082274705171585083e-01
-8.305966854095458984e-03
-9.645059704780578613e-02
5.057801306247711182e-02
7.227267324924468994e-02
3.444845229387283325e-02
-2.107266895473003387e-02
2.041530050337314606e-02
3.235140815377235413e-03
9.877930581569671631e-02
-5.314982309937477112e-02
-4.928464069962501526e-02
9.848844259977340698e-02
-4.682085290551185608e-02
-7.210921496152877808e-02
1.193606033921241760e-01
-3.708963096141815186e-02
-1.841676533222198486e-01
7.734297960996627808e-02
3.094131499528884888e-02
6.112787127494812012e-02
3.132259845733642578e-02
3.689789399504661560e-02
-1.706712320446968079e-02
2.734121680259704590e-02
-2.369986847043037415e-02
-2.955375052988529205e-02
-1.042800322175025940e-01
-2.355209179222583771e-02
-8.368384093046188354e-02
8.520870655775070190e-02
-1.326946765184402466e-01
-1.663003116846084595e-01
3.224962577223777771e-02
-4.564331844449043274e-02
1.210160404443740845e-01
-8.543948829174041748e-02
9.343563020229339600e-02
4.596368409693241119e-03
-4.034566134214401245e-02
2.827051840722560883e-02
5.698563158512115479e-02
4.649267718195915222e-02
-5.281757935881614685e-02
-8.322463184595108032e-02
6.843715161085128784e-02
5.470640957355499268e-02
-1.189945116639137268e-01
-5.248606204986572266e-02
1.982173919677734375e-01
-1.099434196949005127e-01
1.913455314934253693e-02
-2.016395330429077148e-02
1.257058382034301758e-01
-8.060843497514724731e-02
9.714958257973194122e-03
2.267117379233241081e-03
8.059377968311309814e-02
-9.737451374530792236e-02
-3.373263031244277954e-02
-9.212822467088699341e-02
2.995257079601287842e-02
9.397371113300323486e-02
-1.098726913332939148e-01
-1.079750359058380127e-01
-2.034531980752944946e-01
1.624610275030136108e-02
-8.963864296674728394e-02
-2.443573996424674988e-02
-5.533875524997711182e-02
-4.434373695403337479e-03
-5.319262854754924774e-03
2.318758517503738403e-02
9.885144978761672974e-02
-4.009571671485900879e-02
5.538539215922355652e-02
-8.767761290073394775e-02
-6.244701519608497620e-02
-9.279884397983551025e-02
9.824968129396438599e-02
4.953761398792266846e-02
-9.509169310331344604e-02
1.139876395463943481e-01
-1.914967149496078491e-01
7.776139676570892334e-02
-3.314663842320442200e-02
2.809872291982173920e-02
1.666336357593536377e-01
-6.697401404380798340e-02
1.457659006118774414e-01
-2.999521791934967041e-02
-6.408633291721343994e-02
-1.346259028650820255e-03
2.860052511096000671e-02
-1.010413542389869690e-01
1.384731829166412354e-01
-9.584151208400726318e-02
-1.176468878984451294e-01
-7.520560175180435181e-02
-4.047908633947372437e-02
7.841769605875015259e-03
-7.053196895867586136e-03
4.577447846531867981e-02
7.100455928593873978e-03
1.526378542184829712e-01
1.120223179459571838e-01
1.890667974948883057e-01
-3.075152821838855743e-02
-1.673971675336360931e-02
-3.794949129223823547e-02
-7.349093258380889893e-02
8.273324929177761078e-03
1.039643678814172745e-02
5.165311973541975021e-03
-2.091842330992221832e-02
-7.579047232866287231e-02
2.924229390919208527e-02
-2.432869188487529755e-02
-1.117243766784667969e-01
-5.483667179942131042e-02
2.319246763363480568e-03
8.743003942072391510e-03
7.621202617883682251e-02
3.867842629551887512e-02
1.752952486276626587e-01
-8.297431468963623047e-02
5.628883093595504761e-02
-2.182948589324951172e-02
1.239777579903602600e-01
-3.710685670375823975e-02
-6.364541500806808472e-02
-5.832797847688198090e-03
-1.803098469972610474e-01
-4.038024693727493286e-02
3.614805173128843307e-04
1.647238433361053467e-02
2.624370157718658447e-02
-8.559904992580413818e-02
1.332851946353912354e-01
-2.126071788370609283e-02
-6.116444244980812073e-02
-7.286506239324808121e-03
-1.078140363097190857e-01
-1.969929635524749756e-01
-1.387676317244768143e-02
6.123571097850799561e-02
4.745047166943550110e-02
-8.342020213603973389e-02
5.135170742869377136e-02
-6.524735689163208008e-02
1.106324568390846252e-01
1.203412190079689026e-01
6.316120922565460205e-02
-2.417893707752227783e-01
-5.029364675283432007e-02
8.469294756650924683e-02
1.500045880675315857e-02
-1.316308416426181793e-02
-1.718165576457977295e-01
-2.693814225494861603e-02
-1.269484162330627441e-01
5.531176552176475525e-02
6.834761798381805420e-02
7.886435091495513916e-02
-4.174454137682914734e-02
6.770425289869308472e-02
-6.082542985677719116e-02
-9.640040993690490723e-02
4.358814284205436707e-02
-2.079291827976703644e-02
-4.713166132569313049e-02
2.310394309461116791e-02
7.118515670299530029e-02
3.205972164869308472e-02
1.094202101230621338e-01
8.852712810039520264e-02
2.144809663295745850e-01
-9.362845122814178467e-02
5.862106103450059891e-03
1.439708471298217773e-01
-6.454348564147949219e-02
2.762542665004730225e-01
1.665789037942886353e-01
-7.379137724637985229e-02
3.655932471156120300e-02
-1.982588171958923340e-01
-5.015954957343637943e-04
-1.297938730567693710e-02
-1.476590521633625031e-02
7.307313382625579834e-03
1.328513622283935547e-01
1.498365122824907303e-02
-5.426073446869850159e-02
-8.586774766445159912e-02
-1.093500629067420959e-01
-5.518181249499320984e-02
2.720507420599460602e-02
-9.790977463126182556e-03
1.819253526628017426e-02
-1.071894392371177673e-01
1.344251930713653564e-01
-1.077990904450416565e-01
-6.888243556022644043e-02
7.776676118373870850e-02
5.386084318161010742e-02
8.568827615818008780e-05
2.454237826168537140e-02
-1.063203886151313782e-01
2.264420501887798309e-02
-3.156883642077445984e-02
-1.383039634674787521e-02
3.760834410786628723e-02
5.552815273404121399e-03
-1.050901785492897034e-01
2.196917682886123657e-01
2.242510672658681870e-03
4.403180500958114862e-04
-1.485145371407270432e-02
-1.320470273494720459e-01
-1.482432186603546143e-01
5.668638274073600769e-02
2.109825983643531799e-02
-2.352224588394165039e-01
-2.237778855487704277e-03
-1.180077642202377319e-01
-8.048305660486221313e-02
6.728333979845046997e-02
-6.132248044013977051e-02
-6.330915540456771851e-02
-3.332066908478736877e-02
-2.056200616061687469e-02
-1.124652177095413208e-01
4.242419078946113586e-02
2.480590157210826874e-02
5.451215431094169617e-03
8.744371682405471802e-02
-1.127441506832838058e-02
-6.018520146608352661e-02
7.293947786092758179e-02
7.290003448724746704e-02
1.517408937215805054e-01
-1.789977401494979858e-02
-3.027090243995189667e-02
4.155687615275382996e-02
-2.770200669765472412e-01
1.420894712209701538e-01
1.441791653633117676e-01
1.157466694712638855e-01
-7.297877222299575806e-02
9.623365849256515503e-02
8.609750866889953613e-02
3.789304196834564209e-02
-7.555902749300003052e-02
-1.605390757322311401e-01
-1.897545754909515381e-01
-9.981372207403182983e-02
9.457828104496002197e-02
2.238377034664154053e-01
-4.488964006304740906e-02
-7.823695242404937744e-02
1.520559191703796387e-01
-1.351979672908782959e-01
-2.353397943079471588e-02
3.659597411751747131e-02
8.064427971839904785e-02
9.061417728662490845e-02
6.774026155471801758e-02
-8.258197456598281860e-03
1.000483110547065735e-01
-2.308065071702003479e-02
-1.103818714618682861e-01
-7.341645658016204834e-02
2.260204218327999115e-02
8.295577764511108398e-02
-1.180451083928346634e-02
-8.492597937583923340e-02
2.895192056894302368e-02
-4.677185788750648499e-02
-3.469506651163101196e-02
6.254527717828750610e-02
-1.079764217138290405e-01
-7.952498644590377808e-02
3.288307413458824158e-02
2.655103988945484161e-02
-5.578020960092544556e-02
2.710683271288871765e-02
-5.877228081226348877e-02
-8.541901409626007080e-02
5.571897327899932861e-02
3.756017610430717468e-02
-3.084094822406768799e-02
1.747263781726360321e-02
-8.437924832105636597e-02
2.946293912827968597e-02
-6.861542165279388428e-02
4.369888827204704285e-02
1.198304118588566780e-03
-6.704938411712646484e-02
-1.490661595016717911e-02
5.764397978782653809e-02
-6.192190106958150864e-03
-3.154454380273818970e-02
-2.447813935577869415e-02
6.968416273593902588e-02
1.045720204710960388e-01
-4.987107589840888977e-02
-9.102306514978408813e-02
6.469106674194335938e-02
-9.324360638856887817e-02
5.368583649396896362e-02
2.169571444392204285e-02
8.145621046423912048e-03
-5.334173142910003662e-02
7.390648871660232544e-02
-2.432647533714771271e-02
5.860891938209533691e-02
-3.037823364138603210e-02
3.405935689806938171e-02
-6.327726691961288452e-02
-3.935357183218002319e-02
-2.361742407083511353e-02
-8.144851773977279663e-02
5.164036154747009277e-02
-6.744302809238433838e-02
2.245307341217994690e-02
-3.831955790519714355e-02
5.442987382411956787e-02
-2.702727168798446655e-02
-7.955916225910186768e-03
8.798362687230110168e-03
3.863780945539474487e-02
-6.145897880196571350e-02
-7.010528445243835449e-02
2.087913453578948975e-02
2.071935310959815979e-02
2.151953801512718201e-02
-7.365392893552780151e-02
-3.328737244009971619e-02
9.459876269102096558e-02
-2.511791698634624481e-02
7.410152256488800049e-02
-8.123064041137695312e-02
-1.081101745367050171e-01
3.421097993850708008e-02
-3.096553264185786247e-03
-1.805976219475269318e-02
-2.617213316261768341e-02
5.645497515797615051e-02
4.091888666152954102e-02
1.488773245364427567e-02
3.045852109789848328e-02
-5.468666553497314453e-02
-7.598132640123367310e-02
-7.125011086463928223e-02
-2.536134235560894012e-02
1.677221618592739105e-02
-6.040181964635848999e-02
1.066331565380096436e-02
-4.583573713898658752e-02
4.603979364037513733e-02
8.109437674283981323e-02
-3.954110294580459595e-02
-9.843092411756515503e-02
-6.197908893227577209e-02
-1.021626666188240051e-01
-1.792598515748977661e-02
-7.160191237926483154e-02
-4.922989010810852051e-02
6.805040873587131500e-03
4.024941846728324890e-02
-7.221549283713102341e-03
-3.873552754521369934e-02
7.618757896125316620e-03
2.183852717280387878e-02
-8.343143761157989502e-02
5.257479846477508545e-02
7.624830305576324463e-02
-7.621449977159500122e-02
-4.085787571966648102e-03
-6.053416058421134949e-02
-4.957930650562047958e-03
9.215806610882282257e-03
7.844819873571395874e-02
-1.115968525409698486e-01
2.430474013090133667e-02
4.928597435355186462e-02
-7.648207992315292358e-02
-1.575673669576644897e-01
7.964639365673065186e-02
-2.470140606164932251e-01
1.069424375891685486e-01
1.046783551573753357e-01
-2.456029355525970459e-01
-8.505187183618545532e-02
1.403374969959259033e-01
3.634192422032356262e-02
1.056830883026123047e-01
2.988808155059814453e-01
9.492992609739303589e-02
-5.107549577951431274e-02
2.166008800268173218e-01
3.367999941110610962e-02
-1.404963582754135132e-01
-8.307009935379028320e-02
4.291911050677299500e-02
1.056913807988166809e-01
2.835319191217422485e-02
-3.488495051860809326e-01
8.500076085329055786e-02
2.082031518220901489e-01
1.080359965562820435e-01
5.419672653079032898e-02
-1.061355695128440857e-01
-1.305436193943023682e-01
-8.611100725829601288e-03
6.356684956699609756e-03
-8.141346275806427002e-02
-2.205322384834289551e-01
1.897475421428680420e-01
-1.678915508091449738e-02
1.269062757492065430e-01
1.897874623537063599e-01
-1.778851300477981567e-01
1.457356214523315430e-01
-3.949414193630218506e-02
-2.731502652168273926e-01
6.800649315118789673e-02
6.800290197134017944e-02
1.734531223773956299e-01
-1.778605394065380096e-02
-6.574223935604095459e-02
2.323382198810577393e-01
2.836652658879756927e-02
-4.804679751396179199e-02
-8.438493311405181885e-02
1.025563385337591171e-02
-9.036229550838470459e-02
7.695037871599197388e-02
-5.708193778991699219e-02
-4.426019638776779175e-02
-1.960004419088363647e-01
-2.908239364624023438e-01
-3.263857448473572731e-03
8.105728775262832642e-02
-2.127532847225666046e-02
9.618256241083145142e-02
-1.539071369916200638e-02
-3.532468378543853760e-01
4.110035672783851624e-02
-7.464649528264999390e-02
-1.604941636323928833e-01
-4.230974987149238586e-02
-1.290335208177566528e-01
-1.684388071298599243e-01
-2.890069596469402313e-02
-8.555671572685241699e-02
-1.692274659872055054e-01
1.619081199169158936e-01
1.091257203370332718e-03
-3.487578406929969788e-02
9.975185617804527283e-03
-7.019449770450592041e-02
1.050009205937385559e-02
-2.776675159111618996e-03
-8.112199604511260986e-03
2.414240539073944092e-01
-9.737165272235870361e-02
3.556938841938972473e-02
8.365801721811294556e-02
-8.242195099592208862e-02
7.824217528104782104e-02
4.671116918325424194e-02
9.744845330715179443e-02
5.766786262392997742e-02
1.264333128929138184e-01
-1.458251774311065674e-01
7.525373715907335281e-03
4.527938365936279297e-02
-1.389253437519073486e-01
5.479197483509778976e-03
9.514597803354263306e-02
8.793270215392112732e-03
-1.495356857776641846e-01
6.239106506109237671e-02
1.804306358098983765e-01
2.334330976009368896e-01
-2.036299183964729309e-02
2.243820950388908386e-02
5.607639998197555542e-02
1.097621247172355652e-01
9.513493627309799194e-02
-9.254666045308113098e-03
7.262238860130310059e-02
-5.765636637806892395e-02
-7.397134322673082352e-03
-2.098702639341354370e-01
-6.686092168092727661e-02
4.840786010026931763e-02
5.891539156436920166e-02
-5.177008919417858124e-03
3.203721717000007629e-02
-1.872799396514892578e-01
-9.352926164865493774e-03
2.687981426715850830e-01
5.388821661472320557e-02
4.431305453181266785e-02
9.823702275753021240e-02
6.682050228118896484e-02
-9.358137100934982300e-02
9.619247913360595703e-02
1.093880236148834229e-01
-4.228553269058465958e-03
-2.716035582125186920e-02
-8.394075185060501099e-02
2.292935177683830261e-02
-4.485333338379859924e-02
7.443802803754806519e-02
-8.869839459657669067e-02
2.279256284236907959e-02
1.106700301170349121e-01
-5.835770815610885620e-02
7.465646415948867798e-02
5.121216922998428345e-02
-1.875312626361846924e-01
-4.887218773365020752e-02
-2.900349721312522888e-02
1.777404844760894775e-01
5.992405489087104797e-02
3.624407202005386353e-02
9.476020000874996185e-03
2.277652174234390259e-02
1.838996261358261108e-01
3.235484240576624870e-03
1.322554424405097961e-03
-1.487231403589248657e-01
-7.128895819187164307e-02
1.105170417577028275e-02
-1.010292470455169678e-01
1.319473534822463989e-01
-6.283041089773178101e-03
-5.451676994562149048e-02
-1.411204934120178223e-01
5.475043877959251404e-02
1.976428553462028503e-02
3.623710200190544128e-02
2.482928894460201263e-02
4.837913438677787781e-02
5.024366453289985657e-02
-3.730390220880508423e-02
-8.823925256729125977e-02
1.162728071212768555e-01
-1.872290223836898804e-01
6.173855066299438477e-02
1.396270245313644409e-01
-5.930884554982185364e-02
9.177024476230144501e-03
4.613428190350532532e-02
-1.059649363160133362e-01
-1.655654013156890869e-01
-1.139894127845764160e-01
-4.902084916830062866e-02
1.761826574802398682e-01
7.779701054096221924e-02
8.281191438436508179e-02
3.835902735590934753e-02
-1.183282285928726196e-01
-7.269477844238281250e-02
1.497271507978439331e-01
-3.028216399252414703e-02
-4.943888261914253235e-02
-4.849385470151901245e-02
1.895304769277572632e-01
5.326105654239654541e-02
9.621091187000274658e-02
7.290422916412353516e-02
-3.437323495745658875e-02
-6.921520829200744629e-02
1.083759218454360962e-01
2.929112641140818596e-03
-7.515122741460800171e-02
-5.211717635393142700e-02
1.723746210336685181e-01
1.394061595201492310e-01
1.836375892162322998e-01
-1.611234992742538452e-02
8.705420047044754028e-02
2.050767391920089722e-01
1.260950416326522827e-01
7.314232736825942993e-02
1.498843915760517120e-02
5.712473765015602112e-02
1.280411928892135620e-01
5.290691927075386047e-02
-1.024307236075401306e-01
-6.919202208518981934e-02
1.068495307117700577e-02
-1.035332307219505310e-01
8.037991821765899658e-02
2.676181122660636902e-02
-8.934637159109115601e-02
-3.428686559200286865e-01
2.601080201566219330e-02
-6.619900465011596680e-02
1.530738770961761475e-01
-8.534964919090270996e-02
-1.795602291822433472e-01
-1.368155051022768021e-02
2.212422043085098267e-01
1.175983250141143799e-01
-4.595506191253662109e-02
1.817806363105773926e-01
1.634119451045989990e-01
-8.793275058269500732e-02
9.071979671716690063e-02
-9.286704659461975098e-02
3.894507884979248047e-02
5.479860305786132812e-02
-1.147238686680793762e-01
2.280808240175247192e-01
-4.532232508063316345e-02
1.496167927980422974e-01
1.242007389664649963e-01
-4.765676334500312805e-02
-1.113521680235862732e-01
7.567844539880752563e-02
1.279498264193534851e-02
1.825593411922454834e-01
-1.479617878794670105e-02
-1.308484524488449097e-01
4.641842097043991089e-02
1.345320194959640503e-01
6.959762424230575562e-02
-1.262671202421188354e-01
-2.655706740915775299e-02
-5.286412686109542847e-02
3.196040634065866470e-03
2.030134052038192749e-01
2.636901438236236572e-01
1.671550422906875610e-01
4.785437136888504028e-03
2.945520281791687012e-01
4.214040935039520264e-02
-7.467091828584671021e-02
-3.066882491111755371e-02
1.889389306306838989e-01
-8.299732953310012817e-02
1.945625096559524536e-01
1.016134694218635559e-01
-7.015369832515716553e-02
-1.195194795727729797e-01
-6.830301135778427124e-02
7.442275434732437134e-02
-4.646754637360572815e-02
2.716637551784515381e-01
1.047351025044918060e-02
1.579419374465942383e-01
-1.023368351161479950e-02
-1.431231051683425903e-01
1.047729104757308960e-01
7.692836970090866089e-02
9.419365227222442627e-02
-8.236930519342422485e-02
-3.878362476825714111e-02
-4.735999181866645813e-02
-4.301506280899047852e-02
-8.935122936964035034e-02
9.495612233877182007e-02
-8.256860077381134033e-02
-2.395813465118408203e-01
8.350688964128494263e-02
4.301868379116058350e-01
-9.992256015539169312e-02
5.418238043785095215e-02
1.739879846572875977e-01
1.539084594696760178e-02
8.653870224952697754e-02
-7.403416186571121216e-02
-9.199380874633789062e-02
-2.229962348937988281e-01
-4.642982967197895050e-03
1.323016081005334854e-02
1.573554985225200653e-02
-2.219764888286590576e-01
-1.726874560117721558e-01
1.927646994590759277e-01
2.972204796969890594e-02
-1.252959482371807098e-02
1.000920236110687256e-01
5.269549787044525146e-03
-2.560530044138431549e-02
-5.084462091326713562e-02
-2.616341710090637207e-01
6.886538118124008179e-02
3.088697977364063263e-02
-1.419889368116855621e-02
6.789102405309677124e-02
1.127181947231292725e-02
-1.628724187612533569e-01
-7.157926261425018311e-02
1.705483905971050262e-02
-7.051517814397811890e-02
-3.481398336589336395e-03
1.572207510471343994e-01
1.067702379077672958e-02
-1.251348573714494705e-02
-1.155888959765434265e-01
-1.609507650136947632e-01
3.873912617564201355e-02
3.333664536476135254e-01
-7.191096246242523193e-02
7.836543023586273193e-02
9.130953252315521240e-02
-2.012413553893566132e-02
-5.971642211079597473e-02
-1.869220733642578125e-01
6.597650051116943359e-02
1.058552414178848267e-02
-9.706439450383186340e-03
-3.248795494437217712e-02
-5.074636265635490417e-02
-1.012808457016944885e-01
6.294572353363037109e-02
-2.143453434109687805e-02
-1.562328636646270752e-01
-1.145749725401401520e-02
-1.293661892414093018e-01
-9.837385267019271851e-02
1.124799065291881561e-02
1.401396095752716064e-01
-5.084099993109703064e-02
1.376444250345230103e-01
-1.939295977354049683e-02
-4.793207347393035889e-02
7.715056836605072021e-02
8.076844364404678345e-02
-1.456687450408935547e-01
-1.698353327810764313e-02
3.919077292084693909e-02
-1.045528724789619446e-01
-6.194609217345714569e-03
-8.679001033306121826e-02
-5.290863290429115295e-02
1.460598707199096680e-01
2.417405322194099426e-02
1.195839978754520416e-02
2.897754125297069550e-02
-9.461802989244461060e-02
-1.075424998998641968e-01
4.382321611046791077e-02
-6.189889833331108093e-02
6.633287668228149414e-02
2.714574337005615234e-02
2.227965975180268288e-03
-9.795422665774822235e-03
-1.397701352834701538e-01
1.059952378273010254e-02
-1.538985967636108398e-01
3.899667784571647644e-02
1.228058859705924988e-01
-8.924712240695953369e-02
7.484533637762069702e-02
-3.274558857083320618e-02
-6.813747435808181763e-02
1.803933233022689819e-01
1.636749133467674255e-02
-9.931301325559616089e-02
-7.401675451546907425e-03
1.544578671455383301e-01
7.701243460178375244e-02
-2.384471595287322998e-01
-1.004368215799331665e-01
-2.355191260576248169e-01
-9.126474708318710327e-02
1.521296203136444092e-01
7.585538178682327271e-02
-5.027431622147560120e-02
1.279642898589372635e-02
2.231855094432830811e-01
-2.554532513022422791e-02
-2.649343311786651611e-01
-7.598092406988143921e-02
-3.185956180095672607e-02
-1.255591362714767456e-01
-2.141735889017581940e-02
-5.148492753505706787e-02
-4.799554869532585144e-02
-5.358902364969253540e-02
-1.253641545772552490e-01
-5.524562299251556396e-02
-1.145923510193824768e-01
1.256558001041412354e-01
6.704150885343551636e-02
5.388920009136199951e-02
-1.369304805994033813e-01
1.023294627666473389e-01
-5.188027396798133850e-02
-2.514321170747280121e-02
-2.603375352919101715e-03
1.498313546180725098e-01
-3.058006167411804199e-01
7.841369509696960449e-02
5.075472220778465271e-02
4.865127056837081909e-02
2.757839486002922058e-02
-4.235068857669830322e-01
-3.144353628158569336e-02
1.775735467672348022e-01
2.565343081951141357e-01
8.745440840721130371e-02
7.604421675205230713e-02
-1.133665516972541809e-01
2.079183757305145264e-01
3.860744461417198181e-02
7.262644916772842407e-02
-3.643944859504699707e-01
8.044321089982986450e-02
1.044753193855285645e-01
5.895770341157913208e-02
1.262118369340896606e-01
7.352624088525772095e-02
-4.344933107495307922e-02
-1.850902885198593140e-01
1.890194714069366455e-01
-2.988355159759521484e-01
-1.371308416128158569e-02
3.812887519598007202e-02
9.510984271764755249e-02
4.865577444434165955e-03
1.044375821948051453e-01
-1.251583695411682129e-01
4.774285107851028442e-02
-3.633827343583106995e-02
-1.514012813568115234e-01
-1.501734741032123566e-02
2.338924854993820190e-01
1.413765847682952881e-01
2.402248233556747437e-01
2.119266241788864136e-01
1.154048889875411987e-01
2.008564025163650513e-02
1.361766904592514038e-01
4.369227588176727295e-02
-1.108224838972091675e-01
-1.515891551971435547e-01
1.976204663515090942e-01
1.760829091072082520e-01
7.834117114543914795e-02
-1.621002703905105591e-01
8.262051641941070557e-02
1.696869879961013794e-01
1.684685982763767242e-02
-2.060149312019348145e-01
2.259519547224044800e-01
7.476902101188898087e-03
1.154205128550529480e-01
5.784913152456283569e-02
1.619818508625030518e-01
-5.272744223475456238e-02
5.381081253290176392e-02
1.135852634906768799e-01
-1.619059033691883087e-02
-9.951634705066680908e-02
-1.322029083967208862e-01
-2.355890162289142609e-02
5.231999978423118591e-02
-5.219133198261260986e-02
1.586805284023284912e-01
-4.361157491803169250e-02
-1.481216847896575928e-01
-1.396913230419158936e-01
4.358331114053726196e-02
-3.084475994110107422e-01
-1.518123224377632141e-02
7.191620022058486938e-02
-2.066223919391632080e-01
-8.405982702970504761e-02
1.628617495298385620e-01
-2.746223807334899902e-01
-9.948378428816795349e-03
-4.204224422574043274e-02
7.212261110544204712e-02
4.973766859620809555e-03
1.113869175314903259e-01
-1.959154754877090454e-01
-1.101988330483436584e-01
-5.810780450701713562e-03
1.645472645759582520e-01
-6.764846295118331909e-02
-2.190584316849708557e-02
-1.537120342254638672e-01
2.234978377819061279e-01
2.797352075576782227e-01
-2.905749678611755371e-01
-2.409982867538928986e-02
-9.866506606340408325e-02
1.118572130799293518e-01
1.091606095433235168e-01
-6.316269934177398682e-02
-9.234555810689926147e-02
-3.138264417648315430e-01
-3.102190978825092316e-02
2.974550724029541016e-01
-1.732582598924636841e-01
-1.470987349748611450e-01
-1.177483145147562027e-02
2.455292791128158569e-01
4.186182469129562378e-02
-1.512362062931060791e-02
-6.386888772249221802e-02
7.026607543230056763e-02
4.045052453875541687e-02
-7.613224536180496216e-02
6.590419262647628784e-02
2.732418850064277649e-02
4.545951262116432190e-02
7.424517720937728882e-02
2.602184191346168518e-02
4.537280276417732239e-02
2.044184952974319458e-01
1.488090157508850098e-01
-1.713266670703887939e-01
2.042314410209655762e-02
2.038299739360809326e-01
-1.752804964780807495e-01
5.542535707354545593e-02
2.565312385559082031e-01
-4.362948238849639893e-02
1.092454269528388977e-01
-1.634733676910400391e-01
-4.328143224120140076e-02
2.194614261388778687e-01
-2.909469306468963623e-01
1.045346707105636597e-01
1.404343098402023315e-01
-5.769554525613784790e-02
-9.522294998168945312e-02
-3.973091021180152893e-02
-1.571504920721054077e-01
-1.713674329221248627e-02
-4.691826552152633667e-02
8.612573146820068359e-02
-5.811004340648651123e-02
1.526381820440292358e-01
1.798702031373977661e-01
-4.658361524343490601e-02
8.935632556676864624e-02
-9.519049525260925293e-02
2.250391431152820587e-02
3.435374051332473755e-02
1.049924939870834351e-01
5.807834118604660034e-02
-6.912525743246078491e-02
2.053475566208362579e-02
2.551414072513580322e-01
-9.949417412281036377e-02
-1.328253746032714844e-01
-4.581070318818092346e-02
-2.216104604303836823e-02
-1.833523958921432495e-01
-1.564472764730453491e-01
-5.656322464346885681e-02
5.066039413213729858e-02
6.454921513795852661e-02
-8.350177109241485596e-02
8.934731036424636841e-02
-3.806675598025321960e-02
7.133025676012039185e-02
1.550067812204360962e-01
8.665573596954345703e-02
-5.057619512081146240e-02
-2.736153639853000641e-02
1.063548680394887924e-02
-1.560795307159423828e-01
4.142871499061584473e-02
-1.443779654800891876e-02
-6.754354387521743774e-02
2.191042900085449219e-01
-2.008618175750598311e-04
-2.165350504219532013e-02
-6.331641972064971924e-02
-4.338488727807998657e-02
-6.070575118064880371e-02
2.532250806689262390e-02
2.123063206672668457e-01
-7.403866201639175415e-02
-8.668867498636245728e-02
8.248274773359298706e-02
4.033689573407173157e-02
1.628876626491546631e-01
-8.243620395660400391e-03
1.024893894791603088e-01
1.076147425919771194e-02
6.883343216031789780e-03
4.252284392714500427e-02
-1.136012524366378784e-01
-1.273339539766311646e-01
1.304502189159393311e-01
1.779706589877605438e-02
4.369864985346794128e-02
2.042640596628189087e-01
-1.556683913804590702e-03
-5.875815637409687042e-03
2.965038083493709564e-02
-7.733057439327239990e-02
1.548649519681930542e-01
-1.038804277777671814e-01
2.930785901844501495e-02
5.223921686410903931e-02
2.603890746831893921e-02
-1.579381674528121948e-01
8.365686982870101929e-02
1.021040081977844238e-01
1.488685160875320435e-01
-7.926443964242935181e-02
9.299591928720474243e-02
-1.604370176792144775e-01
-1.419948041439056396e-01
6.548751145601272583e-02
7.110890001058578491e-02
-1.845745593309402466e-01
9.563890099525451660e-02
-1.043315790593624115e-02
-2.696631848812103271e-01
5.813920497894287109e-02
-1.804376244544982910e-01
-1.738704144954681396e-01
-6.671612709760665894e-02
-9.836039692163467407e-02
-1.067316606640815735e-01
-4.959671944379806519e-02
4.530161246657371521e-02
1.405939757823944092e-01
6.942715845070779324e-04
-1.387237850576639175e-02
-6.911829859018325806e-02
3.393311053514480591e-02
-4.151037707924842834e-02
-1.546309590339660645e-01
-2.014559656381607056e-01
9.700419753789901733e-02
-5.213804543018341064e-02
7.771042175590991974e-03
8.247121423482894897e-02
7.162939757108688354e-02
1.193542107939720154e-01
-6.973973661661148071e-02
-1.153214555233716965e-02
2.537019364535808563e-02
2.050427198410034180e-01
8.922178298234939575e-03
-1.936785876750946045e-01
-1.212193146347999573e-01
2.430716753005981445e-01
-1.672309637069702148e-01
9.726420044898986816e-02
4.867140669375658035e-03
1.976497173309326172e-01
-3.246556967496871948e-02
-2.948814332485198975e-01
1.714371144771575928e-02
2.446803823113441467e-02
1.464761495590209961e-01
-5.550176650285720825e-02
-6.606200337409973145e-02
-9.108719229698181152e-02
-3.293318450450897217e-01
2.165681421756744385e-01
-2.502617612481117249e-02
-7.025620341300964355e-02
9.967043995857238770e-02
1.079526618123054504e-01
-1.053710579872131348e-01
-3.526681959629058838e-01
-2.607244551181793213e-01
1.223444659262895584e-02
1.345850378274917603e-01
-6.714436411857604980e-02
2.449555397033691406e-01
-4.673778265714645386e-02
7.440382987260818481e-02
-2.425850182771682739e-01
-1.695156693458557129e-01
-9.222347289323806763e-03
-1.664643585681915283e-01
1.729818731546401978e-01
-2.790017127990722656e-01
3.330321982502937317e-02
-7.288598455488681793e-03
2.770517766475677490e-01
1.854054480791091919e-01
2.027857005596160889e-01
6.463635712862014771e-02
7.683671265840530396e-02
-1.421019714325666428e-02
1.882996410131454468e-01
2.196872979402542114e-01
-5.309770628809928894e-02
1.758631318807601929e-01
-8.288102596998214722e-02
-1.556106656789779663e-01
-3.949053213000297546e-02
2.219741195440292358e-01
2.829275131225585938e-01
4.558811336755752563e-02
7.410101592540740967e-02
-4.392975941300392151e-02
6.710839271545410156e-02
1.912460662424564362e-02
-6.686169654130935669e-02
8.147479593753814697e-02
-4.877735674381256104e-02
-9.820040315389633179e-02
9.765833616256713867e-02
-4.970857128500938416e-02
-6.365131586790084839e-02
-7.182295620441436768e-02
-9.712667018175125122e-02
-3.769778832793235779e-02
-4.012924432754516602e-02
-1.787099055945873260e-02
-5.134684592485427856e-02
-7.821937650442123413e-02
-1.048333477228879929e-02
-6.599914282560348511e-03
7.475231308490037918e-03
6.433066725730895996e-02
-3.213206678628921509e-02
3.815553709864616394e-02
-1.203163340687751770e-02
1.671356856822967529e-01
-5.245313793420791626e-02
5.979300662875175476e-02
-3.688883036375045776e-03
-6.071680691093206406e-03
-4.073149710893630981e-02
6.178090348839759827e-02
-4.423542693257331848e-02
3.084682114422321320e-02
-7.834202796220779419e-02
-1.008132100105285645e-01
-1.654973812401294708e-02
3.775038197636604309e-02
-4.455982148647308350e-02
4.787836223840713501e-02
9.923530369997024536e-02
-8.478097617626190186e-03
-4.270477592945098877e-02
-8.192577399313449860e-03
2.028246968984603882e-02
-1.562668941915035248e-02
9.219821542501449585e-02
-2.551482804119586945e-02
4.320061951875686646e-02
-4.474068433046340942e-02
3.439198061823844910e-02
-7.583974301815032959e-02
-7.821822166442871094e-02
7.546202093362808228e-02
-1.181787326931953430e-01
-8.380433917045593262e-02
-1.079545989632606506e-01
-5.047012493014335632e-02
-3.795184940099716187e-02
3.508668765425682068e-02
3.010676614940166473e-02
7.748156040906906128e-02
8.709321916103363037e-02
3.759313374757766724e-03
2.315586619079113007e-02
-1.799450069665908813e-02
-5.616674944758415222e-02
9.895434230566024780e-02
-7.401428371667861938e-02
-7.490999996662139893e-02
5.564430728554725647e-02
-8.982743322849273682e-02
9.040512889623641968e-02
-5.548811703920364380e-02
7.109490223228931427e-03
-1.035106480121612549e-01
-7.453698664903640747e-02
-1.123848259449005127e-01
-6.197379156947135925e-02
2.933218376711010933e-03
-7.894457131624221802e-02
3.298415243625640869e-02
9.400535374879837036e-03
-3.143579140305519104e-02
-8.956016600131988525e-02
3.895573318004608154e-02
7.292535156011581421e-02
-1.322859153151512146e-02
4.919651150703430176e-02
6.586564332246780396e-02
1.855771802365779877e-02
-5.315967276692390442e-02
-5.409724265336990356e-02
-1.256180554628372192e-02
6.261731032282114029e-03
-1.052990779280662537e-01
-1.763009279966354370e-02
-4.525679349899291992e-02
4.283060133457183838e-02
9.071818739175796509e-02
-8.537988364696502686e-02
6.726626306772232056e-03
-4.670414328575134277e-02
-6.646134704351425171e-02
-6.416946183890104294e-03
8.806064724922180176e-02
8.717054873704910278e-02
-4.844729974865913391e-02
2.766306325793266296e-02
3.519757464528083801e-02
-3.270452842116355896e-02
-1.025540754199028015e-02
7.696733623743057251e-02
-5.829123035073280334e-02
5.389709025621414185e-02
-4.006114229559898376e-02
-8.570113778114318848e-02
-5.341476202011108398e-02
-6.729695480316877365e-03
2.966651320457458496e-02
1.168015599250793457e-01
-3.066335059702396393e-02
1.209865957498550415e-01
1.231342405080795288e-01
-4.456212371587753296e-02
4.987132921814918518e-02
-1.985805183649063110e-01
4.731781035661697388e-02
1.163825318217277527e-01
3.127594590187072754e-01
-3.998796921223402023e-03
-2.277309000492095947e-01
-2.226392738521099091e-02
1.080684438347816467e-01
1.679794043302536011e-01
1.804201118648052216e-02
1.585892140865325928e-01
9.624571353197097778e-02
1.658221036195755005e-01
-1.200906261801719666e-01
-4.463916644454002380e-02
8.234241604804992676e-02
-6.555289495736360550e-03
5.344141274690628052e-02
5.899510346353054047e-03
-1.425517648458480835e-01
1.894490793347358704e-02
-1.647541821002960205e-01
-8.331049978733062744e-02
-1.697072833776473999e-01
-2.003751546144485474e-01
-4.506059363484382629e-02
-7.023806124925613403e-02
7.026360183954238892e-02
-1.103141829371452332e-01
-2.332719564437866211e-01
-1.054551452398300171e-02
1.618934869766235352e-01
-5.217433348298072815e-02
-7.109019206836819649e-04
-1.568756252527236938e-01
1.401508301496505737e-01
-1.709429174661636353e-02
8.526627719402313232e-02
8.376418054103851318e-02
-2.504452317953109741e-02
-9.775833785533905029e-02
-3.140032291412353516e-02
-3.805919364094734192e-02
2.060041874647140503e-01
1.180249005556106567e-01
1.999362930655479431e-02
1.584508419036865234e-01
3.763255849480628967e-02
1.482136398553848267e-01
-1.399256661534309387e-02
7.644272595643997192e-02
2.059310860931873322e-02
3.592929337173700333e-03
1.602959334850311279e-01
9.522633627057075500e-03
2.384635992348194122e-02
-2.574326992034912109e-01
-3.328566253185272217e-02
5.902916193008422852e-02
9.137995075434446335e-04
1.718560755252838135e-01
-1.464066654443740845e-01
1.187705025076866150e-01
7.572485506534576416e-02
9.269824624061584473e-02
-1.037265211343765259e-01
-7.303893566131591797e-02
-1.480503529310226440e-01
1.042298898100852966e-01
-1.531179696321487427e-01
4.399248957633972168e-02
8.688399195671081543e-02
1.042359769344329834e-01
3.509973883628845215e-01
-6.847778707742691040e-02
9.298602491617202759e-02
7.662607729434967041e-02
1.224557384848594666e-01
3.673862898722290993e-03
-2.065002769231796265e-01
-1.047851070761680603e-01
-1.598891168832778931e-01
4.228025302290916443e-02
-2.337475493550300598e-02
-1.989269852638244629e-01
-3.094080090522766113e-02
1.750583015382289886e-02
7.271761447191238403e-02
-4.165255650877952576e-02
6.851524859666824341e-02
1.217512860894203186e-01
-6.552201509475708008e-02
3.715620189905166626e-02
6.074224412441253662e-02
-1.053849533200263977e-01
-8.797433972358703613e-02
-1.087210606783628464e-02
4.987069219350814819e-02
2.027929760515689850e-02
-1.827412545680999756e-01
2.241281121969223022e-01
-9.307131171226501465e-02
5.421315878629684448e-02
-1.638443022966384888e-01
1.421206295490264893e-01
1.319870501756668091e-01
4.676271229982376099e-02
6.113902851939201355e-02
-2.154745608568191528e-01
3.660246133804321289e-01
1.609832863323390484e-03
6.362167000770568848e-02
8.425767719745635986e-02
1.033229082822799683e-01
-6.229948718100786209e-03
8.461755514144897461e-02
6.471724808216094971e-02
-4.319350793957710266e-02
-1.259163022041320801e-01
1.383789777755737305e-01
8.616599440574645996e-02
6.518527865409851074e-02
1.256206817924976349e-02
1.548133790493011475e-02
8.836265653371810913e-02
-3.782351315021514893e-02
-1.649172008037567139e-01
-2.082772850990295410e-01
-3.244229853153228760e-01
4.052859172224998474e-02
2.071724683046340942e-01
7.601156830787658691e-02
6.300111860036849976e-02
3.013636469841003418e-01
6.398911774158477783e-02
-2.704508900642395020e-01
-1.356288343667984009e-01
-1.860913485288619995e-01
-1.504883766174316406e-01
9.518203884363174438e-02
-2.480946183204650879e-01
-3.404209390282630920e-02
5.737892910838127136e-02
-8.913889527320861816e-03
4.385518375784158707e-03
-7.551281154155731201e-02
6.419830024242401123e-02
-5.962674692273139954e-02
-2.179498374462127686e-01
1.718158870935440063e-01
6.286021322011947632e-02
-7.573602348566055298e-02
5.754455551505088806e-02
-1.092895865440368652e-02
-1.918339729309082031e-01
1.569566279649734497e-01
-3.705833479762077332e-02
9.571678191423416138e-02
5.050391703844070435e-02
1.722684055566787720e-01
7.940780371427536011e-02
3.106438927352428436e-02
-5.255424976348876953e-02
4.808583483099937439e-02
-2.727154493331909180e-01
-2.627111598849296570e-02
-2.938202619552612305e-01
9.701217710971832275e-02
-6.567164510488510132e-02
-7.164511084556579590e-02
2.954933792352676392e-02
8.937671035528182983e-02
-1.615845561027526855e-01
1.439503133296966553e-01
-1.310920119285583496e-01
-9.699016809463500977e-02
1.503647267818450928e-01
-2.202617824077606201e-01
-9.169389307498931885e-02
-1.184108257293701172e-01
-2.565409839153289795e-01
-5.818761512637138367e-02
-2.735554873943328857e-01
1.660154759883880615e-02
-4.780626595020294189e-01
-1.917629837989807129e-01
8.140039443969726562e-02
1.632661558687686920e-02
8.697645366191864014e-02
1.834857761859893799e-01
-1.387530565261840820e-01
8.335325121879577637e-02
1.960467100143432617e-01
6.146480329334735870e-03
2.423367947340011597e-01
2.127176523208618164e-01
-1.230454519391059875e-01
-2.391679445281624794e-03
-1.271478272974491119e-02
1.237431839108467102e-01
1.436754465103149414e-01
-2.025948613882064819e-01
-1.341203004121780396e-01
1.238258406519889832e-01
-1.295756399631500244e-01
7.780458033084869385e-02
-1.799749881029129028e-01
7.510814350098371506e-03
-2.264167964458465576e-01
-7.959493994712829590e-02
3.473038375377655029e-01
2.504749894142150879e-01
8.630192279815673828e-02
8.016605861485004425e-03
5.036075040698051453e-02
1.270145028829574585e-01
-1.221837177872657776e-01
1.926771178841590881e-02
-3.212727606296539307e-01
-8.052169531583786011e-02
-9.902489185333251953e-02
-6.594946980476379395e-02
9.527132660150527954e-02
3.494580090045928955e-02
5.391759425401687622e-02
-5.119178444147109985e-02
1.616850644350051880e-01
2.850302159786224365e-01
-8.593484759330749512e-02
2.064330875873565674e-01
-2.582985162734985352e-01
2.823679745197296143e-01
-8.620826154947280884e-02
-1.448642462491989136e-01
5.053398385643959045e-02
9.042163193225860596e-02
-1.966149546205997467e-02
1.231616511940956116e-01
-1.529817581176757812e-01
1.003723964095115662e-01
-1.161331236362457275e-01
1.952225118875503540e-01
-7.825914025306701660e-02
-1.221598014235496521e-01
3.874371526762843132e-03
-3.934379667043685913e-02
-1.628660112619400024e-01
9.104876965284347534e-02
2.738446891307830811e-01
-2.444678843021392822e-01
-5.569510161876678467e-02
-6.924002617597579956e-02
-1.292391568422317505e-01
1.129882559180259705e-01
-3.319289907813072205e-02
1.623245328664779663e-02
5.106180906295776367e-04
1.336190151050686836e-03
2.020208910107612610e-02
2.606262825429439545e-02
-1.786396801471710205e-01
-1.947724521160125732e-01
1.529980003833770752e-01
-7.872088253498077393e-02
8.054459840059280396e-02
1.214638352394104004e-01
-1.533445119857788086e-01
1.075414866209030151e-01
1.389774233102798462e-01
-2.705570869147777557e-02
-4.229054320603609085e-03
-1.538241803646087646e-01
1.298329532146453857e-01
-3.913267329335212708e-02
7.833297550678253174e-02
1.840495765209197998e-01
1.374346320517361164e-03
3.367915004491806030e-02
9.486074559390544891e-04
4.377527534961700439e-02
8.465228229761123657e-02
4.824538156390190125e-02
6.576935201883316040e-02
-4.518120083957910538e-03
5.983157455921173096e-02
2.132180333137512207e-02
1.549562364816665649e-01
8.397400379180908203e-02
1.758104711771011353e-01
7.370976358652114868e-02
-2.233371883630752563e-01
4.377103596925735474e-02
-1.152944788336753845e-01
4.386183246970176697e-02
-1.309334486722946167e-01
-9.382566809654235840e-02
1.476328074932098389e-01
7.287240773439407349e-02
-2.273136004805564880e-02
-9.894123673439025879e-02
-1.241198554635047913e-01
2.163627417758107185e-03
-2.505443990230560303e-01
-7.136010378599166870e-02
-1.989839971065521240e-01
1.037324965000152588e-02
1.408927589654922485e-01
-9.102764725685119629e-02
-6.891423463821411133e-02
-2.181194573640823364e-01
6.821146234869956970e-03
-1.827556639909744263e-01
1.233640164136886597e-01
-6.335453689098358154e-02
-9.285423159599304199e-02
8.484344929456710815e-03
7.598639000207185745e-03
-1.935313045978546143e-01
-8.464272320270538330e-02
9.061126969754695892e-03
-1.327776536345481873e-02
1.812541931867599487e-01
7.076186686754226685e-02
6.422769278287887573e-02
1.689619757235050201e-02
8.877547085285186768e-02
1.866039447486400604e-02
-3.214286640286445618e-02
9.020155668258666992e-02
-8.168535679578781128e-02
-2.654030546545982361e-02
-2.819361910223960876e-02
-6.135231256484985352e-02
2.970067551359534264e-03
-7.278987765312194824e-02
1.792139410972595215e-01
1.206521093845367432e-01
-5.285464599728584290e-02
-1.188610941171646118e-01
7.155738025903701782e-02
-4.047540947794914246e-02
9.912559762597084045e-03
5.151359364390373230e-02
2.036271095275878906e-01
2.362938076257705688e-01
-7.343555241823196411e-02
-4.685885086655616760e-02
-8.053426444530487061e-02
-1.989270150661468506e-01
1.397945135831832886e-01
-1.826904267072677612e-01
1.980260610580444336e-01
2.209925651550292969e-02
6.406876724213361740e-03
1.477432250976562500e-01
-2.393875457346439362e-02
-3.524784743785858154e-02
-1.033592447638511658e-01
-5.006242543458938599e-02
-8.417447656393051147e-02
-1.855078786611557007e-01
-6.286393105983734131e-02
-5.251943320035934448e-02
1.359907388687133789e-01
9.004586189985275269e-02
8.747548609972000122e-02
-1.152110621333122253e-01
-9.306184202432632446e-02
-1.856514960527420044e-01
-3.871364891529083252e-02
1.167687326669692993e-01
-6.395720690488815308e-02
-1.466932822950184345e-03
9.953361004590988159e-02
2.114596217870712280e-01
1.380646526813507080e-01
-1.147017553448677063e-01
2.850270867347717285e-01
4.597607254981994629e-02
2.202422469854354858e-01
-9.374883770942687988e-02
-4.767601937055587769e-02
-1.628638654947280884e-01
-2.907778136432170868e-02
6.777920573949813843e-02
1.077298074960708618e-01
-1.341838538646697998e-01
2.370358444750308990e-02
8.407727628946304321e-02
4.914452135562896729e-02
-9.561524726450443268e-03
2.648842632770538330e-01
-5.636632069945335388e-02
-5.831952020525932312e-02
1.875989401014521718e-04
-8.360724151134490967e-02
5.871679261326789856e-02
1.669409275054931641e-01
-5.828886851668357849e-02
-3.737918660044670105e-02
-8.385109156370162964e-02
9.570559114217758179e-02
-3.414240106940269470e-02
-3.023738786578178406e-02
-1.592262536287307739e-01
8.688683062791824341e-02
3.204881399869918823e-02
-3.024732135236263275e-02
8.021508902311325073e-02
-1.442083418369293213e-01
1.228041425347328186e-01
2.524872422218322754e-01
1.818739324808120728e-01
-5.055313929915428162e-02
-5.035407096147537231e-02
8.271013200283050537e-02
-8.927622437477111816e-02
2.998468838632106781e-02
-1.255379319190979004e-01
-2.684001326560974121e-01
6.492870301008224487e-02
-1.762688532471656799e-02
-1.714245975017547607e-01
2.865922823548316956e-02
-1.814759969711303711e-01
-9.373503923416137695e-02
-3.666919097304344177e-02
1.495100110769271851e-01
-1.684535741806030273e-01
-3.083377778530120850e-01
1.105186901986598969e-02
-2.178104668855667114e-01
9.637115895748138428e-02
1.400093585252761841e-01
-2.335883229970932007e-01
1.901507526636123657e-01
1.352584362030029297e-02
-1.527171861380338669e-02
7.228101603686809540e-03
-1.835082769393920898e-01
-4.278858006000518799e-02
1.174073815345764160e-01
1.022365465760231018e-01
1.945772618055343628e-01
2.060749381780624390e-01
-1.861343383789062500e-01
1.161262206733226776e-02
8.130253851413726807e-02
-1.318586170673370361e-01
1.430509835481643677e-01
-1.753251850605010986e-01
3.750544041395187378e-02
-1.784763783216476440e-01
3.201245516538619995e-02
1.388300359249114990e-01
1.726350486278533936e-01
2.055522501468658447e-01
9.805829077959060669e-02
-1.231733635067939758e-01
-1.294385790824890137e-01
1.199070885777473450e-01
-8.355536311864852905e-02
1.455413550138473511e-01
-3.515646755695343018e-01
2.105894237756729126e-01
-1.836211234331130981e-02
1.168223097920417786e-01
2.082864986732602119e-03
1.520193964242935181e-01
-2.327510528266429901e-02
1.685939133167266846e-01
1.610162556171417236e-01
-2.328692749142646790e-02
3.708000108599662781e-02
4.143709316849708557e-02
-1.062931586056947708e-02
1.048854142427444458e-01
-6.685900688171386719e-02
-1.490576565265655518e-01
1.668215692043304443e-01
-9.197681210935115814e-03
-2.370231151580810547e-01
-2.080150693655014038e-02
-7.236977666616439819e-02
-2.206244468688964844e-01
-1.175976395606994629e-01
1.428715419024229050e-02
-2.414549738168716431e-01
7.440053671598434448e-02
-5.718282610177993774e-02
-3.369332116562873125e-04
4.901711642742156982e-02
-2.441800199449062347e-03
-7.312934100627899170e-02
1.583871096372604370e-01
-5.986238270998001099e-02
-6.171748787164688110e-02
-2.504906356334686279e-01
-8.210242539644241333e-02
1.504271477460861206e-02
3.387729823589324951e-02
-9.890232235193252563e-02
-7.186346501111984253e-02
-3.057297319173812866e-02
8.499832823872566223e-03
1.774318814277648926e-01
2.693392708897590637e-02
6.016550213098526001e-02
-8.850837498903274536e-02
-3.650599718093872070e-02
3.414233028888702393e-02
4.673411324620246887e-02
3.287624940276145935e-02
-5.255026742815971375e-02
-1.369751244783401489e-01
7.258441299200057983e-03
3.165088593959808350e-02
-4.503182694315910339e-02
-3.500648587942123413e-02
1.127299442887306213e-01
2.406776100397109985e-01
-2.335022538900375366e-01
6.716646254062652588e-02
2.758317291736602783e-01
-2.931590378284454346e-02
6.730317324399948120e-02
-1.263256371021270752e-01
-1.072069406509399414e-01
2.202667593955993652e-01
2.088724076747894287e-01
5.659343674778938293e-02
6.704128533601760864e-02
-5.775492638349533081e-02
-6.143076345324516296e-02
-7.066399604082107544e-02
-3.942678496241569519e-02
4.813212901353836060e-02
1.007270812988281250e-01
7.356435805559158325e-02
-8.034961670637130737e-02
1.054515317082405090e-01
1.968433149158954620e-02
4.468633979558944702e-02
2.095783352851867676e-01
9.068944305181503296e-02
-9.228572249412536621e-02
2.601381391286849976e-02
-7.028129696846008301e-02
3.301866352558135986e-02
-2.303820401430130005e-01
-6.391974538564682007e-02
-1.737556979060173035e-02
8.548492193222045898e-02
8.941294997930526733e-02
8.964363485574722290e-02
1.893408298492431641e-01
-2.607682347297668457e-01
-7.891696691513061523e-02
-9.891238063573837280e-02
-5.599875003099441528e-02
5.815229564905166626e-02
1.197419688105583191e-01
1.109617352485656738e-01
7.101017050445079803e-03
-1.334744691848754883e-01
9.717660397291183472e-02
-1.555681377649307251e-01
-9.859349578619003296e-03
6.281822919845581055e-02
-8.641562424600124359e-03
-1.980622708797454834e-01
2.393659949302673340e-02
1.254363358020782471e-01
8.681148290634155273e-02
-1.929925754666328430e-02
1.993377655744552612e-01
6.241475418210029602e-02
3.682083785533905029e-01
8.127970993518829346e-02
-1.905636638402938843e-01
1.391697973012924194e-01
2.924291193485260010e-01
2.192559391260147095e-01
1.486153304576873779e-01
-1.402084715664386749e-02
3.005537390708923340e-02
-4.980394989252090454e-02
-1.724847033619880676e-02
2.075671106576919556e-01
4.094213619828224182e-02
4.389746487140655518e-02
9.473514556884765625e-02
5.933890119194984436e-02
5.539287254214286804e-02
-8.280456066131591797e-03
-2.162692695856094360e-02
-2.985694073140621185e-02
1.140374690294265747e-01
1.365558207035064697e-01
-9.476491808891296387e-02
2.679829597473144531e-01
4.165043309330940247e-02
1.484336256980895996e-01
8.936484903097152710e-02
1.388688236474990845e-01
-4.191981256008148193e-02
-9.290121495723724365e-02
-1.607624441385269165e-02
2.181147225201129913e-02
8.277075365185737610e-03
4.087668657302856445e-02
-7.061812281608581543e-02
-8.569056168198585510e-03
-3.504116833209991455e-02
-4.298985302448272705e-01
-1.819675229489803314e-02
-1.671280115842819214e-01
6.200610660016536713e-03
1.005567237734794617e-01
-2.960816919803619385e-01
1.687958389520645142e-01
6.768880039453506470e-02
4.939801990985870361e-02
-4.411185905337333679e-02
5.785790458321571350e-02
-1.086400821805000305e-01
2.628873102366924286e-02
-1.089202240109443665e-01
-1.026164088398218155e-02
1.376893073320388794e-01
-2.088600546121597290e-01
2.067720293998718262e-01
3.951120749115943909e-02
8.306269347667694092e-02
-1.991578191518783569e-01
2.617937028408050537e-01
1.028159409761428833e-01
-5.745507404208183289e-02
1.124091520905494690e-01
-7.271992415189743042e-02
2.450398355722427368e-02
7.483533769845962524e-02
-1.062160953879356384e-01
-3.374047577381134033e-02
1.617162972688674927e-01
7.829871028661727905e-02
-7.919679628685116768e-04
8.536178618669509888e-02
6.316404789686203003e-02
-2.237298786640167236e-01
2.476208955049514771e-01
-5.795475840568542480e-02
-1.483911722898483276e-01
1.670196205377578735e-01
-3.514842391014099121e-01
-3.941436111927032471e-02
-2.131408452987670898e-01
-1.550667881965637207e-01
3.032907247543334961e-01
-1.527050584554672241e-01
1.887941807508468628e-01
-8.360543847084045410e-02
-4.633985832333564758e-02
1.808992624282836914e-01
-2.755551040172576904e-01
-5.367977917194366455e-02
1.403894871473312378e-01
-1.043726950883865356e-01
1.306559890508651733e-01
-4.274204745888710022e-02
-1.395011097192764282e-01
-9.382778778672218323e-03
-1.455858945846557617e-01
4.968847334384918213e-02
2.083592414855957031e-01
3.108228184282779694e-02
1.566466987133026123e-01
7.738770544528961182e-02
1.354177296161651611e-01
-8.075186610221862793e-02
-6.949048489332199097e-02
-1.216638907790184021e-01
-8.571606874465942383e-02
-2.415724098682403564e-01
7.613724470138549805e-02
1.102078855037689209e-01
2.173314988613128662e-01
-7.636775076389312744e-02
9.350636601448059082e-02
1.302606463432312012e-01
1.948147714138031006e-01
4.208844155073165894e-02
8.424624055624008179e-02
-2.369308322668075562e-01
-2.907762229442596436e-01
1.135572120547294617e-01
-4.020989313721656799e-02
-5.906457826495170593e-02
1.364576667547225952e-01
-1.223725453019142151e-01
3.430526331067085266e-02
-8.050449192523956299e-02
8.216430991888046265e-02
1.807969957590103149e-01
5.641192570328712463e-02
9.685286134481430054e-02
-1.114743128418922424e-01
-4.959620535373687744e-02
-3.673324361443519592e-02
-3.611144050955772400e-02
-1.143486350774765015e-01
1.807874739170074463e-01
2.602451108396053314e-02
-2.257379293441772461e-01
2.055240049958229065e-02
3.494276478886604309e-02
9.658064693212509155e-03
-1.028787903487682343e-02
8.041486144065856934e-02
5.848614498972892761e-03
2.233337983489036560e-02
1.415373990312218666e-03
1.206872165203094482e-01
-8.643777668476104736e-02
-2.259823679924011230e-02
5.920653417706489563e-02
-2.776564657688140869e-01
7.255098968744277954e-02
-1.794724315404891968e-01
3.823610022664070129e-02
-2.401232020929455757e-03
-2.884744666516780853e-02
-1.086508333683013916e-01
-7.479710131883621216e-02
4.540285468101501465e-02
-6.333628296852111816e-02
-1.862054169178009033e-01
6.347844004631042480e-02
-1.286830902099609375e-01
2.342674136161804199e-02
-1.511837393045425415e-01
-3.766727745532989502e-01
7.465621083974838257e-02
5.337156727910041809e-02
4.885973408818244934e-02
-8.975498378276824951e-02
1.098815798759460449e-01
1.441493928432464600e-01
-2.498823851346969604e-01
-7.578265666961669922e-02
-2.033817768096923828e-02
-5.556624755263328552e-02
2.271992564201354980e-01
9.630985558032989502e-02
6.556004285812377930e-02
1.347880363464355469e-01
4.735342040657997131e-02
1.120905205607414246e-01
-5.352965090423822403e-03
-5.679760128259658813e-02
-9.717538207769393921e-02
9.898927062749862671e-02
-3.055382892489433289e-02
-1.480799913406372070e-01
5.365444347262382507e-02
5.965808406472206116e-02
1.811239570379257202e-01
8.186108618974685669e-02
-1.273212879896163940e-01
1.139686182141304016e-01
1.969273984432220459e-01
2.110955305397510529e-02
-1.007239986211061478e-02
-1.163438800722360611e-02
2.352932393550872803e-01
8.254960924386978149e-02
-2.338301157578825951e-03
-4.914958402514457703e-02
-1.200653538107872009e-01
-5.624066106975078583e-03
-1.525318920612335205e-01
-1.549708843231201172e-01
-3.862798213958740234e-02
-1.408107727766036987e-01
-1.682277619838714600e-01
-1.001227088272571564e-02
6.081083789467811584e-03
6.350171566009521484e-02
-3.581019863486289978e-02
-5.265413597226142883e-02
6.655392795801162720e-02
-3.160928562283515930e-02
-8.748737722635269165e-02
1.740023195743560791e-01
-1.319014187902212143e-02
7.612457871437072754e-02
1.590857505798339844e-01
1.048932224512100220e-01
-6.112765893340110779e-02
4.467637836933135986e-02
1.028060391545295715e-01
-1.294918209314346313e-01
-1.483096629381179810e-01
8.169018477201461792e-02
1.386308204382658005e-02
1.008244976401329041e-01
-1.189516112208366394e-01
-1.027588024735450745e-01
-7.045789808034896851e-02
8.777108043432235718e-02
5.206851661205291748e-02
-3.056797198951244354e-02
-3.568767383694648743e-02
1.243887096643447876e-02
-1.500732004642486572e-01
-4.952309653162956238e-02
-2.397297769784927368e-01
8.085524290800094604e-02
4.935681074857711792e-02
-2.067501842975616455e-02
-1.211990267038345337e-01
-1.020996794104576111e-01
-5.927259847521781921e-02
-1.948621422052383423e-01
-9.791284054517745972e-02
2.403373867273330688e-01
-2.580389380455017090e-02
8.912390470504760742e-02
2.690357156097888947e-02
-4.595994576811790466e-02
-3.295680880546569824e-02
5.264287069439888000e-02
5.849327892065048218e-02
-5.276827886700630188e-02
-1.162231713533401489e-01
-2.647482044994831085e-02
1.601191423833370209e-02
-2.328532189130783081e-02
-3.347611054778099060e-02
-1.091387644410133362e-01
4.253549128770828247e-02
-7.261255290359258652e-03
-1.563892513513565063e-02
7.990451157093048096e-02
2.418878823518753052e-01
3.245573937892913818e-01
-1.323422789573669434e-01
-7.321713026612997055e-03
8.466437575407326221e-04
-1.551267355680465698e-01
-1.468961089849472046e-01
1.692076586186885834e-02
2.091126516461372375e-03
1.115247234702110291e-01
-7.762947678565979004e-02
7.939743995666503906e-02
1.678992412053048611e-03
-4.703143984079360962e-02
1.347548677586019039e-03
3.596630692481994629e-01
-2.363484501838684082e-01
-1.238952502608299255e-01
-6.562996655702590942e-02
-2.134505808353424072e-01
-1.117987632751464844e-01
3.374687582254409790e-02
9.797396510839462280e-02
1.162298843264579773e-01
4.303717054426670074e-03
-1.417593508958816528e-01
-1.529471278190612793e-01
1.631207764148712158e-01
9.622961282730102539e-02
9.773225337266921997e-02
-1.585643552243709564e-02
-1.154638007283210754e-01
2.512666024267673492e-02
-2.396328747272491455e-01
4.293109849095344543e-02
-5.685214325785636902e-02
-4.313612729310989380e-02
1.529471855610609055e-02
-4.205384291708469391e-03
-3.405939042568206787e-02
-2.007880061864852905e-01
5.586094409227371216e-02
2.311887592077255249e-01
1.985876448452472687e-02
7.674421370029449463e-02
-2.569400966167449951e-01
7.709338515996932983e-02
1.931980848312377930e-01
-1.082327142357826233e-01
-1.233501881361007690e-01
-3.236847519874572754e-01
-7.733047753572463989e-02
3.039340674877166748e-02
1.865033507347106934e-01
2.076093256473541260e-01
-1.274724751710891724e-01
1.310340166091918945e-01
1.496787369251251221e-01
-2.150293737649917603e-01
5.557563900947570801e-02
4.930465668439865112e-02
-5.493341386318206787e-02
1.024157777428627014e-01
1.003235206007957458e-02
1.604161560535430908e-01
-1.349979043006896973e-01
6.683347746729850769e-03
-2.067012488842010498e-01
1.095185726881027222e-01
2.450843602418899536e-01
-8.212246745824813843e-02
4.164053127169609070e-02
-6.763625424355268478e-03
8.295351266860961914e-02
-2.284277975559234619e-02
1.703711599111557007e-01
9.264516085386276245e-02
4.096750169992446899e-03
-3.576614661142230034e-03
1.737827956676483154e-01
3.202514722943305969e-03
1.365458518266677856e-01
-1.291334927082061768e-01
6.706008315086364746e-02
1.784021258354187012e-01
-5.237841233611106873e-02
-6.772524863481521606e-02
8.771707862615585327e-02
1.417702734470367432e-01
4.003698751330375671e-02
-1.372513920068740845e-02
-1.115491986274719238e-01
1.357728391885757446e-01
-5.804905295372009277e-02
-1.756105870008468628e-01
1.055002436041831970e-01
1.517888456583023071e-01
5.588157474994659424e-02
-1.322259474545717239e-02
1.833205819129943848e-01
-4.765035957098007202e-02
-3.829639777541160583e-02
-1.215918455272912979e-02
-1.549418121576309204e-01
6.048021465539932251e-02
-1.448769122362136841e-01
7.049098610877990723e-02
-8.538171648979187012e-03
-1.949370950460433960e-01
2.297331951558589935e-02
-1.670517921447753906e-01
7.384281605482101440e-02
1.146517880260944366e-02
2.691736519336700439e-01
-1.158908754587173462e-01
4.391631856560707092e-02
-2.401877045631408691e-01
-1.560941934585571289e-01
1.590956300497055054e-01
7.402352057397365570e-03
9.763028472661972046e-02
-3.502593562006950378e-02
-6.610528379678726196e-02
2.072162777185440063e-01
8.287847042083740234e-02
-1.356137841939926147e-01
-2.460345625877380371e-01
-1.013161018490791321e-01
-1.281488239765167236e-01
2.499947994947433472e-01
-2.563525550067424774e-02
-2.046745866537094116e-01
2.187133766710758209e-02
-1.454225927591323853e-01
-7.670240849256515503e-02
-3.679016605019569397e-02
1.373667120933532715e-01
-3.371749222278594971e-01
9.555338323116302490e-02
1.207262054085731506e-01
-4.727005958557128906e-02
-8.726076222956180573e-03
-1.227901577949523926e-01
1.952202469110488892e-01
8.558741956949234009e-02
3.236750885844230652e-02
3.283865004777908325e-02
-9.739451855421066284e-02
-9.002088755369186401e-02
8.510339260101318359e-02
6.761439144611358643e-02
1.347182393074035645e-01
8.001295477151870728e-02
8.991698920726776123e-02
3.051447570323944092e-01
7.647663820534944534e-03
7.660220842808485031e-03
-2.003589123487472534e-01
-2.458054805174469948e-03
-7.787720859050750732e-02
1.391687542200088501e-01
-7.106438279151916504e-02
-1.472894847393035889e-01
5.063752830028533936e-02
1.001927107572555542e-01
2.281852066516876221e-01
2.320240018889307976e-03
-1.333631575107574463e-01
2.216093614697456360e-02
3.081610053777694702e-02
-1.388635635375976562e-01
-5.812307074666023254e-02
4.094679281115531921e-02
8.889377862215042114e-02
-1.048358082771301270e-01
1.724347621202468872e-01
-3.936690688133239746e-01
1.426767408847808838e-01
1.471977531909942627e-01
4.396717622876167297e-02
-5.279364064335823059e-02
-2.809684276580810547e-01
2.897834591567516327e-02
1.134578660130500793e-01
2.831101119518280029e-01
6.434463709592819214e-02
-1.765189319849014282e-02
-1.780412495136260986e-01
2.123791128396987915e-01
-2.400021851062774658e-01
1.373464912176132202e-01
-6.827282160520553589e-02
-1.117555126547813416e-01
7.906234264373779297e-02
1.015761643648147583e-01
7.303892821073532104e-02
-1.102310717105865479e-01
2.232545427978038788e-02
-1.125778853893280029e-01
-5.710533261299133301e-02
1.460578888654708862e-01
1.047268584370613098e-01
1.366565972566604614e-01
-1.003664955496788025e-01
1.435817629098892212e-01
6.051576510071754456e-02
1.060228571295738220e-01
-7.870748639106750488e-03
-6.284970790147781372e-02
7.390870898962020874e-02
3.933830931782722473e-02
7.784256339073181152e-02
1.884239763021469116e-01
-2.311282977461814880e-02
-3.038077652454376221e-01
-1.449377685785293579e-01
-2.316827327013015747e-01
9.809139370918273926e-02
-4.239517264068126678e-03
8.014919608831405640e-02
-1.093622148036956787e-01
1.872978955507278442e-01
-3.140448406338691711e-02
1.217350959777832031e-01
-2.057263255119323730e-01
-5.091826617717742920e-02
-2.503813616931438446e-02
4.095861688256263733e-02
8.513411134481430054e-02
2.928878366947174072e-02
-8.971714228391647339e-02
-6.338982284069061279e-02
-5.498028546571731567e-02
-9.752516448497772217e-02
-2.401357144117355347e-01
-1.987608708441257477e-02
-3.439821302890777588e-03
-1.448618620634078979e-01
1.967838592827320099e-02
1.361656934022903442e-01
3.930409625172615051e-02
-4.199510440230369568e-02
-5.702782794833183289e-02
-1.689460724592208862e-01
-9.977305680513381958e-02
1.016031503677368164e-01
1.549209058284759521e-01
-4.823974519968032837e-02
-1.013056188821792603e-01
7.182551175355911255e-02
-5.051167309284210205e-02
-1.344748139381408691e-01
4.004223644733428955e-02
-1.111649498343467712e-01
6.427569687366485596e-02
9.109398722648620605e-02
2.603710293769836426e-01
1.311148703098297119e-01
1.575493812561035156e-02
9.554320573806762695e-02
8.988135308027267456e-02
-2.527198567986488342e-02
3.839585185050964355e-02
8.236573636531829834e-02
-1.282726693898439407e-02
2.323792316019535065e-02
-6.578131020069122314e-02
-1.966412179172039032e-02
1.349029988050460815e-01
9.830404072999954224e-02
-2.156088948249816895e-01
3.613400086760520935e-02
-7.248504459857940674e-02
-9.896410256624221802e-02
4.409302026033401489e-02
1.234106048941612244e-01
1.895440518856048584e-01
-2.798084020614624023e-01
1.029679626226425171e-01
1.253853887319564819e-01
-8.435081690549850464e-02
5.385629087686538696e-02
-2.265815883874893188e-01
-3.653023391962051392e-02
1.325709670782089233e-01
6.041044835001230240e-03
3.246871754527091980e-03
2.402952313423156738e-01
1.385588943958282471e-01
-2.907873503863811493e-02
8.044267445802688599e-02
2.249205857515335083e-02
1.012619584798812866e-01
1.788883656263351440e-01
-4.704388603568077087e-02
-2.227636277675628662e-01
2.416394650936126709e-01
-9.513347595930099487e-02
-4.255729913711547852e-02
5.743047595024108887e-02
8.702027797698974609e-02
1.560871005058288574e-01
2.113864421844482422e-01
3.302625566720962524e-02
3.495658561587333679e-02
5.826446041464805603e-02
-1.330903619527816772e-01
5.685736984014511108e-02
1.699774563312530518e-01
-2.647659555077552795e-02
-1.409668289124965668e-02
1.102752983570098877e-01
1.233544386923313141e-02
2.795890904963016510e-02
-9.529896825551986694e-02
-1.016819197684526443e-02
1.072863638401031494e-01
-4.440269246697425842e-02
-1.086288020014762878e-01
5.724217742681503296e-03
-7.286514341831207275e-02
2.337336242198944092e-01
1.043453905731439590e-02
6.371819227933883667e-02
-2.170143835246562958e-02
-1.614897996187210083e-01
-2.430344931781291962e-02
2.957507222890853882e-02
-1.593141932971775532e-03
1.173128485679626465e-01
1.913500577211380005e-01
2.319080941379070282e-02
1.158036217093467712e-01
1.488226205110549927e-01
-8.729918301105499268e-02
-9.862587600946426392e-02
1.279014796018600464e-01
5.126704648137092590e-02
1.516837775707244873e-01
-1.302375346422195435e-01
-1.108737960457801819e-01
1.493864506483078003e-02
8.513757586479187012e-02
-1.147757545113563538e-01
5.207674112170934677e-03
-9.479566663503646851e-02
-8.523728698492050171e-02
1.331096291542053223e-01
2.155164033174514771e-01
1.038533728569746017e-02
8.841736242175102234e-03
-3.547524334862828255e-03
-1.128370463848114014e-01
-2.165539115667343140e-01
-4.962120950222015381e-02
-1.422364562749862671e-01
-3.887612000107765198e-02
7.852109521627426147e-02
-5.871875584125518799e-02
-8.579733967781066895e-02
4.874359071254730225e-02
-1.579889953136444092e-01
5.278295651078224182e-02
-1.279098987579345703e-01
3.365793079137802124e-02
4.870513454079627991e-02
1.571794897317886353e-01
-3.739726170897483826e-02
-1.284524612128734589e-02
-4.545404575765132904e-03
-1.389826834201812744e-01
5.272978171706199646e-02
1.970839500427246094e-01
-8.385845273733139038e-02
1.607718318700790405e-02
-1.010085940361022949e-01
1.745023280382156372e-01
-9.113088250160217285e-03
-4.845692217350006104e-02
5.633745342493057251e-02
-8.114942908287048340e-02
3.656817600131034851e-02
-3.103540837764739990e-01
-1.363562513142824173e-02
-1.498319357633590698e-01
1.143782958388328552e-01
-5.022042244672775269e-02
8.900033682584762573e-02
-8.124158531427383423e-02
5.968928709626197815e-02
-2.040552794933319092e-01
3.150271624326705933e-02
6.949862837791442871e-02
-8.577926456928253174e-02
-8.355405926704406738e-02
-5.426090583205223083e-02
-9.224195033311843872e-02
4.737640917301177979e-02
6.310115754604339600e-02
7.747094333171844482e-02
2.689501047134399414e-01
-8.287984877824783325e-02
1.530770212411880493e-01
6.688549369573593140e-02
8.235221356153488159e-02
1.800225675106048584e-01
9.079346060752868652e-02
-1.526515632867813110e-01
-7.004978507757186890e-02
8.384013921022415161e-02
-8.531355112791061401e-02
3.386634960770606995e-02
5.979637429118156433e-02
-3.907703235745429993e-02
1.577739119529724121e-01
8.652628213167190552e-02
2.886538207530975342e-01
2.765457378700375557e-03
-1.751845329999923706e-01
9.779060631990432739e-02
6.186157837510108948e-02
2.333258278667926788e-02
4.568582028150558472e-02
-2.764100907370448112e-03
-7.973618060350418091e-02
-5.848814919590950012e-02
-3.816672787070274353e-02
1.129643060266971588e-02
-5.045984685420989990e-02
-7.366234064102172852e-02
5.756731703877449036e-02
5.186681076884269714e-02
-3.041403554379940033e-02
2.441341802477836609e-02
-1.325130462646484375e-02
-3.825246989727020264e-01
1.362660620361566544e-02
3.616627678275108337e-02
6.136637926101684570e-02
-6.229297071695327759e-02
-1.318048499524593353e-02
5.211186781525611877e-02
9.342653304338455200e-02
-2.007967326790094376e-03
-8.706407248973846436e-02
2.090880125761032104e-01
-6.424695253372192383e-02
-3.131731599569320679e-02
-8.900201320648193359e-02
-3.218138590455055237e-02
2.392055094242095947e-02
1.616650968790054321e-01
-1.364955604076385498e-01
-6.257314234972000122e-02
-1.973540522158145905e-02
-1.349373720586299896e-03
-1.326503697782754898e-02
2.476970106363296509e-02
-5.137690156698226929e-02
2.594567835330963135e-01
2.464820444583892822e-01
5.219428613781929016e-02
-1.161005422472953796e-01
2.755228877067565918e-01
-1.848866343498229980e-01
-3.873076662421226501e-02
1.166794747114181519e-01
1.752611249685287476e-01
5.665655061602592468e-02
5.846306681632995605e-03
-4.316170513629913330e-02
8.953298442065715790e-03
2.342277765274047852e-02
1.246247068047523499e-02
2.260860055685043335e-03
-5.147597193717956543e-02
-1.720871031284332275e-01
-1.347186118364334106e-01
1.262726485729217529e-01
-1.121648494154214859e-02
1.426808349788188934e-02
8.398712612688541412e-03
7.489809393882751465e-02
1.678579114377498627e-02
-4.120200127363204956e-02
-1.289400309324264526e-01
4.275634884834289551e-02
6.728427112102508545e-02
7.601861655712127686e-02
1.934400945901870728e-02
1.317197978496551514e-01
9.173090010881423950e-02
6.871106475591659546e-02
3.444157913327217102e-02
6.494876742362976074e-02
-3.216543793678283691e-02
-1.594345569610595703e-01
1.188492029905319214e-01
8.017541468143463135e-02
4.495045915246009827e-02
9.281344711780548096e-03
1.628077626228332520e-01
-4.811734426766633987e-03
5.408386513590812683e-02
4.840049520134925842e-02
-8.318921178579330444e-02
-1.528492122888565063e-01
8.025068789720535278e-02
-7.812565565109252930e-02
8.292980492115020752e-02
1.788282021880149841e-02
-4.146159067749977112e-02
8.893396705389022827e-02
-4.054772108793258667e-02
1.495186984539031982e-01
9.598778933286666870e-02
8.130048960447311401e-02
-1.278419941663742065e-01
2.268822304904460907e-02
-5.245853960514068604e-02
8.591490238904953003e-02
4.135310277342796326e-02
-2.016872912645339966e-02
-2.688065171241760254e-02
-1.080118790268898010e-01
1.190180983394384384e-02
1.423836946487426758e-01
-1.323470100760459900e-02
5.530205368995666504e-02
-8.340795338153839111e-02
-1.376766413450241089e-01
2.144657224416732788e-01
1.519131362438201904e-01
3.885328397154808044e-02
-7.096963375806808472e-02
-2.606009878218173981e-02
-4.028328135609626770e-02
9.498710185289382935e-02
-7.924835383892059326e-02
7.014344632625579834e-02
-1.190682202577590942e-01
9.891071915626525879e-02
-3.473168238997459412e-02
1.309776026755571365e-02
-9.739740937948226929e-02
-1.614619493484497070e-01
3.675553202629089355e-02
-1.781167536973953247e-01
8.628705143928527832e-02
-9.816610813140869141e-02
1.068294569849967957e-01
1.336468309164047241e-01
2.368294596672058105e-01
7.929883897304534912e-02
7.003778219223022461e-02
-1.205761581659317017e-01
-2.812661603093147278e-02
6.195721030235290527e-02
5.934267863631248474e-02
-5.215679481625556946e-02
5.544389132410287857e-03
-6.809767335653305054e-02
1.548174172639846802e-01
1.785935368388891220e-03
-1.416646838188171387e-01
3.528460487723350525e-02
-9.636501967906951904e-02
2.331518195569515228e-02
-5.686632543802261353e-02
-3.730679303407669067e-02
-1.224777940660715103e-02
6.403861194849014282e-02
1.734522432088851929e-01
9.633608162403106689e-02
-7.775311172008514404e-02
8.769720047712326050e-02
-9.989863634109497070e-02
-1.893817484378814697e-01
2.665212750434875488e-02
-1.157181262969970703e-01
1.080206185579299927e-01
9.220676124095916748e-02
1.138323843479156494e-01
-4.680683463811874390e-02
-9.098939597606658936e-02
-8.847789466381072998e-02
1.373760253190994263e-01
3.122476860880851746e-02
-1.990239471197128296e-01
-6.954409927129745483e-02
-2.213406190276145935e-02
-5.794373527169227600e-02
6.029349192976951599e-02
1.296091973781585693e-01
-3.498767269775271416e-03
3.033520281314849854e-02
-3.073567748069763184e-01
8.683939278125762939e-02
-9.264595061540603638e-02
1.060076057910919189e-01
4.842577129602432251e-02
1.766701936721801758e-01
1.166281849145889282e-02
-1.004704460501670837e-01
-2.801511995494365692e-02
-2.278215289115905762e-01
-7.551945745944976807e-02
1.292068976908922195e-03
2.757512032985687256e-02
5.814676731824874878e-02
9.745864570140838623e-02
3.571672365069389343e-02
-2.576603554189205170e-02
1.450235247611999512e-01
-7.611686736345291138e-02
2.486560493707656860e-03
-8.989255875349044800e-02
8.774530887603759766e-02
-1.102389991283416748e-01
-1.834355853497982025e-02
-4.623294994235038757e-02
1.441757827997207642e-01
4.918126016855239868e-02
1.527476757764816284e-01
-1.245913803577423096e-01
1.377211660146713257e-01
-9.259040653705596924e-02
-8.418848738074302673e-03
-3.933105990290641785e-02
-8.445347845554351807e-02
9.124455042183399200e-03
-1.488228738307952881e-01
-2.990497648715972900e-02
1.385454088449478149e-01
8.547427132725715637e-03
1.699832677841186523e-01
-1.450960803776979446e-02
6.507923454046249390e-02
6.196249276399612427e-02
-5.423726048320531845e-03
-2.789897378534078598e-03
5.869416147470474243e-02
4.441104829311370850e-02
1.021404191851615906e-01
-9.973759949207305908e-02
4.620293900370597839e-02
3.593859076499938965e-02
7.365669310092926025e-02
-7.726523280143737793e-02
-1.020610854029655457e-01
1.182123422622680664e-01
-5.871130153536796570e-02
2.037432491779327393e-01
1.741350889205932617e-01
-1.916358917951583862e-01
7.489867508411407471e-02
2.376425778493285179e-03
-1.381474286317825317e-01
6.083749700337648392e-03
6.019522622227668762e-02
-7.955680601298809052e-03
1.281305402517318726e-02
-1.516480594873428345e-01
1.032214760780334473e-01
9.361487627029418945e-02
-8.489752560853958130e-02
7.142505049705505371e-02
-1.652280986309051514e-01
-4.585409071296453476e-03
-5.037186667323112488e-02
1.212874576449394226e-01
5.334386602044105530e-02
-4.942705482244491577e-02
3.053519502282142639e-02
-3.190507646650075912e-03
-2.713434398174285889e-01
4.005767405033111572e-02
-6.103806942701339722e-02
1.208795458078384399e-01
-1.785742864012718201e-02
-1.729544699192047119e-01
-9.334899485111236572e-02
3.332943469285964966e-02
1.297333091497421265e-01
4.727984964847564697e-02
-6.870973855257034302e-02
-3.101540207862854004e-01
1.659082472324371338e-01
3.089857846498489380e-02
7.829063385725021362e-02
1.060097739100456238e-01
2.292671650648117065e-01
9.661963582038879395e-02
3.999348729848861694e-02
-1.105488091707229614e-01
-2.726094126701354980e-01
1.817045547068119049e-02
-6.581373047083616257e-03
-6.353738158941268921e-02
1.062505468726158142e-01
1.771837174892425537e-01
-1.600802689790725708e-01
1.254568621516227722e-02
-1.417823135852813721e-01
-2.103924602270126343e-01
-5.173423513770103455e-02
4.270062223076820374e-02
2.259659348055720329e-03
-6.548900157213211060e-02
8.795831352472305298e-02
7.661739736795425415e-02
1.600024662911891937e-02
5.918440222740173340e-02
-1.370757520198822021e-01
-4.965887591242790222e-02
-8.077805489301681519e-02
3.402194008231163025e-02
-1.298733241856098175e-02
-5.830793455243110657e-02
-6.583220511674880981e-02
-2.079071849584579468e-01
-1.287635862827301025e-01
1.755821891129016876e-02
-8.828579634428024292e-02
1.395849417895078659e-02
8.813286572694778442e-02
1.182564869523048401e-01
-1.662265742197632790e-03
9.300427511334419250e-03
7.706715911626815796e-02
1.903462558984756470e-01
-1.921343356370925903e-01
1.028078347444534302e-01
-2.996496856212615967e-01
6.271664798259735107e-02
2.425093203783035278e-01
-5.644569545984268188e-02
2.369372099637985229e-01
-3.601479828357696533e-01
1.072583124041557312e-01
-2.691192626953125000e-01
-6.137243658304214478e-02
1.739551685750484467e-02
3.546935692429542542e-02
4.145836830139160156e-02
-1.367224305868148804e-01
2.585344910621643066e-01
2.058149725198745728e-01
2.046125084161758423e-01
-1.708000153303146362e-01
-3.683999180793762207e-02
-1.474285777658224106e-02
-4.838754236698150635e-02
2.138645350933074951e-01
1.298873275518417358e-01
-1.917166560888290405e-01
2.249388098716735840e-01
-3.865075483918190002e-02
-3.921083733439445496e-02
2.666690051555633545e-01
4.272870719432830811e-02
3.561925143003463745e-02
1.967209726572036743e-01
5.883225053548812866e-02
-2.327557355165481567e-01
2.021780163049697876e-01
2.423493117094039917e-01
-2.185658365488052368e-01
1.847957521677017212e-01
-1.212394684553146362e-01
5.180990695953369141e-02
-9.566131234169006348e-02
6.440007593482732773e-03
1.467557400465011597e-01
-1.259131729602813721e-01
1.019229441881179810e-01
1.769540645182132721e-02
-4.383186995983123779e-01
2.135999314486980438e-02
-5.405000597238540649e-02
8.995665609836578369e-02
4.196106493473052979e-01
-2.437765449285507202e-01
-1.808276027441024780e-01
1.801332831382751465e-01
1.360792964696884155e-01
5.645110085606575012e-02
-1.010649278759956360e-01
8.079513162374496460e-02
-3.565835580229759216e-02
2.300570309162139893e-01
-2.467163801193237305e-01
-3.642363548278808594e-01
4.288133978843688965e-02
1.836922019720077515e-02
4.528950899839401245e-03
5.491196364164352417e-02
2.263449877500534058e-01
-9.072338044643402100e-02
-5.389114096760749817e-02
-1.102935969829559326e-01
-3.724767267704010010e-02
9.045084565877914429e-02
-3.231592774391174316e-01
1.523243784904479980e-01
-5.840774998068809509e-02
1.076894551515579224e-01
7.400492578744888306e-02
-2.915807068347930908e-02
9.668060392141342163e-02
3.182394430041313171e-02
1.772500872611999512e-01
1.832374781370162964e-01
-8.875778317451477051e-02
-8.600524812936782837e-02
1.338518261909484863e-01
-9.025504440069198608e-02
-1.785471737384796143e-01
-1.888836920261383057e-02
-1.439038813114166260e-01
-9.949475526809692383e-02
9.481657296419143677e-02
1.088580191135406494e-01
6.229384243488311768e-02
-7.681878656148910522e-02
-3.028389811515808105e-01
1.901070475578308105e-01
5.020999163389205933e-02
-2.662548422813415527e-01
3.496953472495079041e-02
-6.629334390163421631e-02
-2.261292887851595879e-03
9.864635020494461060e-02
1.815280914306640625e-01
1.777890138328075409e-02
-1.823038160800933838e-01
1.664465218782424927e-01
-4.763768985867500305e-02
-4.441974684596061707e-02
8.174429833889007568e-02
1.518083214759826660e-01
3.347435221076011658e-02
-1.349117606878280640e-01
-1.173835843801498413e-01
-1.287490278482437134e-01
1.344621330499649048e-01
-2.546394169330596924e-01
2.894950564950704575e-03
-2.211348712444305420e-02
-1.675847619771957397e-01
-3.169495761394500732e-01
2.162220329046249390e-01
-1.620907932519912720e-01
-2.019473165273666382e-01
-4.767257720232009888e-02
-5.848720669746398926e-02
2.770882248878479004e-01
-9.174146503210067749e-02
1.053870618343353271e-01
-2.293618619441986084e-01
2.110371738672256470e-01
-6.176746264100074768e-02
1.833709776401519775e-01
-8.393407613039016724e-02
-2.242518812417984009e-01
4.324812814593315125e-02
-8.112046122550964355e-02
-1.697601079940795898e-01
6.378477066755294800e-02
-2.204894460737705231e-02
6.534319370985031128e-02
-7.779959589242935181e-02
9.050291031599044800e-02
-8.963259309530258179e-02
-8.210006356239318848e-02
1.820637285709381104e-02
7.191857695579528809e-02
1.673608124256134033e-01
-7.128527015447616577e-02
-9.402534365653991699e-02
3.035625442862510681e-02
7.510590553283691406e-02
2.210106253623962402e-01
-8.462458848953247070e-02
1.209870651364326477e-01
-7.598035037517547607e-02
-6.214790046215057373e-02
2.270764857530593872e-01
1.025539459078572690e-04
1.434727311134338379e-01
-1.106043308973312378e-01
-2.535436451435089111e-01
-1.213735714554786682e-01
-1.867740154266357422e-01
-1.149038970470428467e-01
-1.778882592916488647e-01
4.702705517411231995e-02
-9.623950719833374023e-02
1.842664778232574463e-01
4.996414855122566223e-02
1.699412316083908081e-01
7.561393827199935913e-02
3.256320953369140625e-02
-8.721671998500823975e-02
-4.415223374962806702e-02
1.480134576559066772e-01
1.288492139428853989e-02
1.170368641614913940e-01
1.948493570089340210e-01
-4.555195197463035583e-02
-4.828993976116180420e-02
5.514343082904815674e-02
2.470131404697895050e-02
