-8.939715474843978882e-02
-1.647328436374664307e-01
-5.532458797097206116e-02
6.595713645219802856e-02
8.234573900699615479e-02
-5.729595199227333069e-02
-1.009676530957221985e-01
1.306815445423126221e-01
-5.031468346714973450e-02
9.759489446878433228e-02
6.585679203271865845e-02
5.527489818632602692e-03
5.643372237682342529e-02
1.079427450895309448e-01
7.482124865055084229e-02
8.992641232907772064e-03
-1.260257214307785034e-01
2.252226769924163818e-01
7.765402644872665405e-02
3.965098876506090164e-03
-7.637970894575119019e-02
6.695525720715522766e-03
2.713067224249243736e-03
-2.487534098327159882e-02
-6.304769963026046753e-02
2.515557035803794861e-02
-3.555798530578613281e-02
4.380689188838005066e-02
-1.470403373241424561e-01
-1.420182585716247559e-01
1.236184686422348022e-02
1.403522398322820663e-02
-2.955429255962371826e-02
1.358146071434020996e-01
-1.258853226900100708e-01
-2.483524195849895477e-02
1.317442357540130615e-01
-4.499488323926925659e-02
1.124424263834953308e-01
-1.270120590925216675e-02
-6.051474483683705330e-04
1.203387696295976639e-02
2.146618068218231201e-02
4.822344332933425903e-02
5.726303160190582275e-02
-7.367968559265136719e-02
6.259827315807342529e-02
1.643248647451400757e-01
-4.526247084140777588e-02
7.375419884920120239e-02
8.597274310886859894e-03
-4.526716098189353943e-02
4.884838685393333435e-02
-5.006808787584304810e-02
5.034958943724632263e-02
5.311647430062294006e-02
9.515378624200820923e-02
-9.264432638883590698e-02
-4.751213639974594116e-02
1.060096174478530884e-01
-8.482953161001205444e-02
-6.662633270025253296e-02
1.211439147591590881e-01
5.175498127937316895e-02
-3.696636110544204712e-02
1.204718351364135742e-01
6.478311121463775635e-02
-1.039958372712135315e-02
3.161929175257682800e-02
-2.188085019588470459e-01
6.345432996749877930e-02
-4.474610555917024612e-03
9.965813905000686646e-02
3.441702574491500854e-02
-4.485308751463890076e-02
-8.006688207387924194e-02
-2.110584871843457222e-03
1.397535502910614014e-01
9.381881356239318848e-02
1.497340053319931030e-01
-7.132335007190704346e-02
-1.393753737211227417e-01
-4.219327121973037720e-02
1.436758670024573803e-03
-1.319306939840316772e-01
6.770788133144378662e-02
6.607063859701156616e-02
6.734319776296615601e-02
9.951266646385192871e-02
1.485977023839950562e-01
-2.594816870987415314e-02
6.982234865427017212e-02
1.998200565576553345e-01
-7.627787441015243530e-02
-7.489301264286041260e-02
1.640526801347732544e-01
-3.626156598329544067e-02
-1.306578665971755981e-01
-5.439886450767517090e-02
-1.193346828222274780e-01
2.521863020956516266e-02
-5.314680561423301697e-02
2.152374014258384705e-02
3.646992146968841553e-02
5.607559159398078918e-02
1.078658085316419601e-02
-7.354488596320152283e-03
-7.194861769676208496e-02
-1.593125611543655396e-01
4.877073690295219421e-02
-1.332018822431564331e-01
-1.899569928646087646e-01
-1.838719286024570465e-02
-7.523004896938800812e-03
6.460536271333694458e-02
-1.006356999278068542e-01
4.880560189485549927e-02
-3.310408443212509155e-02
-1.214933916926383972e-01
-9.172789752483367920e-02
-6.347915530204772949e-02
-2.273212186992168427e-03
-7.533366233110427856e-02
-6.070951744914054871e-02
-6.054230034351348877e-02
-2.691569738090038300e-02
-6.981392949819564819e-02
3.730870783329010010e-02
-1.567800529301166534e-02
-7.900311052799224854e-02
-7.745556067675352097e-04
2.695158869028091431e-02
-1.962528005242347717e-02
-5.652543529868125916e-02
6.055093929171562195e-02
5.795183777809143066e-02
7.548052817583084106e-02
3.640447044745087624e-03
8.828048408031463623e-02
-3.483314812183380127e-02
8.012329041957855225e-02
2.195954695343971252e-02
-6.568071246147155762e-02
5.825351551175117493e-02
-8.796383440494537354e-02
2.821808308362960815e-02
6.797052174806594849e-02
7.515573874115943909e-03
5.421850457787513733e-02
3.380778431892395020e-02
2.295232377946376801e-02
5.778477340936660767e-02
-4.720562137663364410e-03
-5.528255179524421692e-02
5.015398189425468445e-02
-7.797758281230926514e-02
4.861129820346832275e-02
6.594136357307434082e-02
4.816537722945213318e-03
-6.827498972415924072e-02
3.067481145262718201e-02
6.940352916717529297e-02
8.784564584493637085e-02
5.955525115132331848e-02
5.255554988980293274e-02
-7.437233626842498779e-02
-4.225571453571319580e-02
-5.585142225027084351e-02
-1.101929601281881332e-02
7.285636663436889648e-02
6.788529455661773682e-02
6.549100577831268311e-02
-4.581860825419425964e-02
-7.215685397386550903e-02
-3.741404274478554726e-03
-1.782771758735179901e-02
7.067633327096700668e-03
-2.404654398560523987e-02
3.047887422144412994e-02
2.889416739344596863e-02
-6.651436537504196167e-02
-6.079065799713134766e-02
-3.242454025894403458e-03
-2.465522289276123047e-02
-4.946201667189598083e-02
-2.687376178801059723e-02
5.874420702457427979e-02
2.077477239072322845e-02
1.081095635890960693e-02
-4.924016539007425308e-03
-4.653296619653701782e-02
-7.379470393061637878e-03
-8.323814719915390015e-02
-1.147897262126207352e-02
-4.006822407245635986e-02
7.980658859014511108e-02
-4.936730489134788513e-02
-4.217122122645378113e-02
2.368213422596454620e-02
4.053512215614318848e-02
-7.126571983098983765e-02
5.506860837340354919e-02
-7.422552257776260376e-02
-4.063138365745544434e-02
-8.424399048089981079e-02
-6.330052390694618225e-03
-7.312853634357452393e-02
-6.490714848041534424e-02
-2.956007234752178192e-02
-7.293990999460220337e-02
7.787444628775119781e-03
-1.118438225239515305e-02
2.270446345210075378e-02
7.135763019323348999e-02
4.113226383924484253e-02
-5.495608225464820862e-02
-3.005403652787208557e-02
-1.894113258458673954e-03
3.401604667305946350e-02
4.106135666370391846e-02
4.060850292444229126e-02
-9.436609223484992981e-03
8.411268889904022217e-02
-9.106428921222686768e-02
-1.542219333350658417e-02
-6.313635408878326416e-02
1.985497307032346725e-03
-4.870904982089996338e-02
-4.686906188726425171e-02
5.944908410310745239e-02
2.206621132791042328e-02
-4.588466882705688477e-02
9.125781361944973469e-04
-5.680033192038536072e-02
7.177212089300155640e-02
-2.609789930284023285e-02
2.193744294345378876e-02
-7.755533605813980103e-02
6.239080801606178284e-03
8.371731638908386230e-02
-9.463568776845932007e-02
6.200242042541503906e-02
-5.021826550364494324e-02
3.352721408009529114e-02
-3.467255830764770508e-02
-1.259228438138961792e-01
8.270948193967342377e-03
6.585170328617095947e-02
8.191903680562973022e-02
-3.029632382094860077e-02
3.358605783432722092e-03
2.200604416429996490e-02
2.059805579483509064e-02
7.065037637948989868e-02
2.053108438849449158e-02
-5.517367273569107056e-02
-1.182074099779129028e-01
8.060848340392112732e-03
-6.536994129419326782e-02
3.448521718382835388e-02
-7.287506014108657837e-02
6.383208930492401123e-02
-3.745679184794425964e-02
4.333131387829780579e-02
-3.534369915723800659e-02
1.045042797923088074e-01
-7.798109203577041626e-02
3.756897896528244019e-02
7.290498819202184677e-03
1.556525826454162598e-01
-2.960124285891652107e-03
2.714112028479576111e-02
-4.247834440320730209e-03
8.835817873477935791e-02
6.920687109231948853e-02
1.747275143861770630e-02
9.864897467195987701e-03
7.078783959150314331e-02
-3.066326098632998765e-05
6.217107176780700684e-02
9.624596685171127319e-02
2.469782531261444092e-02
-4.404374212026596069e-02
6.252163648605346680e-02
-7.559834420680999756e-02
8.711126446723937988e-02
-1.466056257486343384e-01
-7.924940437078475952e-02
8.375498652458190918e-02
4.298690706491470337e-02
-8.309043198823928833e-02
4.542392492294311523e-02
-4.499556869268417358e-02
-7.438595592975616455e-02
-2.748559229075908661e-02
-2.771475166082382202e-02
-1.887253373861312866e-01
5.910087004303932190e-02
1.843295432627201080e-02
1.326639438048005104e-03
-2.978059835731983185e-02
1.198852900415658951e-02
-8.467194437980651855e-02
5.911738798022270203e-02
-5.616629123687744141e-02
-5.646903067827224731e-02
1.168746617622673512e-03
-9.248805046081542969e-02
-1.201050058007240295e-01
-2.238560467958450317e-03
4.195759445428848267e-02
-3.635709732770919800e-02
7.689875364303588867e-02
7.848563790321350098e-02
-1.390449404716491699e-01
-4.500787705183029175e-02
2.823444269597530365e-02
-2.345456928014755249e-02
-7.936349511146545410e-02
-2.706162817776203156e-02
-6.177358329296112061e-02
-8.917272090911865234e-02
-6.640777457505464554e-03
-2.319857291877269745e-02
2.961974777281284332e-02
-4.216776043176651001e-02
-8.471907675266265869e-02
-6.967630982398986816e-02
1.329073458909988403e-01
-5.187081918120384216e-02
-1.386686861515045166e-01
-4.324653744697570801e-02
-3.943604230880737305e-02
7.732792943716049194e-02
1.409861743450164795e-01
-1.524399779736995697e-02
8.163585513830184937e-02
1.433384120464324951e-01
4.087944701313972473e-02
-3.578894212841987610e-02
6.468719989061355591e-02
1.655305363237857819e-02
-7.745074480772018433e-02
-1.166432872414588928e-01
-4.481935501098632812e-02
-7.004242390394210815e-03
-5.937155336141586304e-02
1.178674697875976562e-01
-2.301279455423355103e-02
-7.080496847629547119e-02
1.293451040983200073e-01
7.205878943204879761e-02
1.010649502277374268e-01
-9.753169119358062744e-02
9.120339900255203247e-02
2.553821541368961334e-02
3.862568736076354980e-02
-1.315174438059329987e-02
-5.545901507139205933e-02
4.849068820476531982e-02
-9.473869949579238892e-02
-1.113432943820953369e-01
5.826304852962493896e-02
4.085625708103179932e-02
-4.327694699168205261e-02
-8.649700134992599487e-02
7.017290592193603516e-02
8.895945549011230469e-02
-2.522367425262928009e-02
6.045307219028472900e-02
-3.182962909340858459e-02
2.720815315842628479e-02
-6.772842258214950562e-03
-6.930641829967498779e-02
-6.621609628200531006e-02
-3.938310593366622925e-02
-1.117327511310577393e-01
2.008098363876342773e-01
-8.047623932361602783e-02
-1.260238885879516602e-01
-9.719295799732208252e-02
-4.202787205576896667e-02
-5.123699083924293518e-02
-1.057957392185926437e-02
4.845560342073440552e-02
1.896921545267105103e-02
1.386717706918716431e-01
8.074890822172164917e-03
-1.382691562175750732e-01
3.715340048074722290e-02
4.773649945855140686e-02
-4.119805991649627686e-02
6.405509077012538910e-03
9.382423944771289825e-03
-1.125483661890029907e-01
9.141058661043643951e-03
-3.705688565969467163e-02
2.700044028460979462e-02
7.696148008108139038e-02
-1.016191542148590088e-01
-5.759886652231216431e-02
1.000612135976552963e-02
-4.704200476408004761e-02
2.970080124214291573e-03
9.355249255895614624e-02
-2.055221199989318848e-01
8.402350544929504395e-02
-1.327888946980237961e-02
-2.437104843556880951e-02
-5.987704545259475708e-02
-7.681604009121656418e-03
-2.537680789828300476e-02
-1.597549766302108765e-02
-3.984971344470977783e-02
7.439910620450973511e-02
-1.598768722033128142e-04
1.270034015178680420e-01
3.424192592501640320e-02
5.361861735582351685e-02
8.404318243265151978e-02
6.397478282451629639e-02
2.781942114233970642e-02
1.168026998639106750e-01
-1.152545586228370667e-01
7.013649493455886841e-02
-1.200547218322753906e-01
-3.986825048923492432e-02
-4.571503028273582458e-02
9.142889827489852905e-02
-1.423550844192504883e-01
4.921147599816322327e-02
8.075023442506790161e-02
-5.700870230793952942e-02
5.806758627295494080e-02
1.362015604972839355e-01
6.655900180339813232e-02
-1.486023142933845520e-02
1.797208636999130249e-01
7.986797392368316650e-02
-2.266167849302291870e-02
-8.967132121324539185e-02
-1.171222701668739319e-01
1.904833246953785419e-03
-6.837599724531173706e-02
-3.669255599379539490e-02
4.548550583422183990e-03
1.140740886330604553e-02
3.126196563243865967e-02
1.056681759655475616e-02
1.448140144348144531e-01
-2.223877236247062683e-02
1.378445178270339966e-01
5.388776212930679321e-02
7.019869983196258545e-02
1.059202253818511963e-01
1.193469911813735962e-01
1.639821380376815796e-02
-2.011485397815704346e-01
-6.071742251515388489e-02
-9.094264358282089233e-03
-1.283782161772251129e-02
1.867838203907012939e-02
1.552391201257705688e-01
-7.492519915103912354e-02
4.165959358215332031e-02
4.983336851000785828e-02
5.938817188143730164e-02
-3.977717086672782898e-02
-6.943862885236740112e-02
-1.688903383910655975e-02
-1.417585015296936035e-01
-8.406938612461090088e-02
7.009066641330718994e-02
-2.399987354874610901e-02
1.310855429619550705e-02
-1.014684811234474182e-01
-2.108647488057613373e-02
-3.032441250979900360e-02
-8.124357461929321289e-02
-1.206064373254776001e-01
1.201154068112373352e-01
6.983065512031316757e-03
7.600089907646179199e-02
3.820040076971054077e-02
-3.874137252569198608e-02
-7.140967249870300293e-02
1.380662340670824051e-02
-5.209133028984069824e-02
-5.320663005113601685e-02
-4.621897265315055847e-02
5.392841622233390808e-02
7.386317104101181030e-02
-9.174081683158874512e-02
-6.106906384229660034e-02
-4.186243191361427307e-02
-8.630409836769104004e-02
-5.005079135298728943e-02
-2.555465511977672577e-02
2.124344930052757263e-03
3.933388367295265198e-02
-2.077226713299751282e-02
-6.914952397346496582e-02
9.176537394523620605e-02
-2.359358035027980804e-02
-1.894064620137214661e-02
-5.395278334617614746e-02
-5.795086920261383057e-02
-2.288582362234592438e-02
3.219722537323832512e-03
3.253414109349250793e-02
3.071310743689537048e-02
1.699330098927021027e-02
-9.361459873616695404e-03
-1.607517898082733154e-02
1.030569225549697876e-01
-1.089223772287368774e-01
-6.553167104721069336e-02
8.730022609233856201e-02
5.918415635824203491e-02
3.585030138492584229e-02
-1.972668990492820740e-02
5.512467771768569946e-02
-6.191620975732803345e-02
-1.806041412055492401e-02
-6.163253448903560638e-03
-2.067767456173896790e-02
1.137543171644210815e-01
-5.221489444375038147e-02
-2.288607135415077209e-02
-3.909443970769643784e-03
9.067373350262641907e-03
-7.072710990905761719e-02
5.880928784608840942e-02
1.979492045938968658e-02
-8.012802153825759888e-02
1.036905199289321899e-01
6.525141745805740356e-02
-4.885675758123397827e-02
-8.233166299760341644e-03
-3.108244389295578003e-02
-6.593290716409683228e-02
6.855890154838562012e-02
-1.428401172161102295e-01
8.919317275285720825e-03
3.432376682758331299e-02
-3.919027745723724365e-02
9.527148306369781494e-02
2.259201742708683014e-02
2.309618890285491943e-02
-5.116615444421768188e-02
-4.440615698695182800e-02
-4.081356897950172424e-02
-1.030377298593521118e-02
-3.828255087137222290e-02
-7.171019911766052246e-02
-1.862152665853500366e-02
2.184357680380344391e-02
3.442533314228057861e-02
-1.048095598816871643e-01
-4.926716163754463196e-02
-6.940861791372299194e-02
-2.519108168780803680e-02
-8.294721692800521851e-02
2.682834456209093332e-04
8.889878168702125549e-03
-2.895579487085342407e-02
-2.915050648152828217e-02
5.393718555569648743e-02
-1.058891564607620239e-01
-6.688268482685089111e-02
-3.484855964779853821e-02
3.255497664213180542e-02
1.277668178081512451e-01
-5.845450237393379211e-02
1.817482560873031616e-01
4.056639596819877625e-02
2.656564116477966309e-02
1.064368709921836853e-01
7.652201503515243530e-02
4.329876974225044250e-02
-8.119090460240840912e-03
5.826284363865852356e-02
3.825032711029052734e-02
-5.022880434989929199e-02
-9.689011611044406891e-03
-7.141007483005523682e-02
1.939081703312695026e-03
1.146962568163871765e-01
-1.230007782578468323e-01
-4.852712154388427734e-02
-1.311057657003402710e-01
-4.651935398578643799e-02
1.064074933528900146e-01
4.068120568990707397e-02
-7.041515409946441650e-02
-9.257242828607559204e-02
5.480146035552024841e-02
-8.309373259544372559e-02
-3.788950294256210327e-02
8.554604649543762207e-02
-9.192445874214172363e-02
-7.210328243672847748e-03
5.730763450264930725e-02
3.402995690703392029e-02
-1.920057833194732666e-02
-6.236906722187995911e-02
-4.889301210641860962e-02
4.118146002292633057e-02
-6.252632476389408112e-03
-7.959355413913726807e-02
8.016739040613174438e-02
-6.786477565765380859e-02
-7.160957902669906616e-02
-3.945804387331008911e-02
7.575209438800811768e-02
4.633878171443939209e-02
1.035353317856788635e-01
-3.238067775964736938e-02
6.249070167541503906e-02
3.392840549349784851e-02
5.820522829890251160e-02
1.768873259425163269e-02
-5.849943030625581741e-03
8.110484480857849121e-02
3.553497418761253357e-02
1.889177714474499226e-03
-5.838717520236968994e-02
3.282780200242996216e-02
1.538708247244358063e-02
-1.742091327905654907e-01
1.113128941506147385e-02
8.169068023562431335e-03
6.551863998174667358e-02
-8.224876970052719116e-02
2.196070924401283264e-02
-9.322568029165267944e-02
1.668304949998855591e-02
7.554621249437332153e-02
-7.815270870923995972e-02
-9.742654114961624146e-02
8.748669177293777466e-02
1.782510429620742798e-02
4.585138708353042603e-02
-4.512438550591468811e-02
-4.446280375123023987e-02
7.443626224994659424e-02
-3.749080747365951538e-02
5.007778853178024292e-02
-8.414246141910552979e-02
5.758878309279680252e-03
-3.462822362780570984e-02
-1.505306921899318695e-02
2.917789854109287262e-02
4.701606184244155884e-02
-2.326175943017005920e-02
1.227044612169265747e-01
1.308799386024475098e-01
-1.601251773536205292e-02
4.300924763083457947e-02
1.012585498392581940e-02
-6.948017328977584839e-02
-1.064852550625801086e-01
-9.005678445100784302e-02
-1.438825577497482300e-01
4.338767006993293762e-02
5.890316516160964966e-02
-6.379214674234390259e-02
1.749391667544841766e-02
1.805451698601245880e-02
-1.171679422259330750e-01
-3.900981508195400238e-03
-9.006804972887039185e-02
-1.325221918523311615e-02
2.463068999350070953e-02
5.590019747614860535e-02
-1.144625544548034668e-01
-8.650853484869003296e-02
2.924215979874134064e-02
-7.037965953350067139e-02
2.459831722080707550e-02
8.609265834093093872e-02
-2.492741867899894714e-02
-6.775847822427749634e-02
3.696993365883827209e-02
-3.822647035121917725e-02
2.117100171744823456e-02
1.212206408381462097e-01
-1.320108175277709961e-01
2.348468871787190437e-03
1.222549974918365479e-01
-1.334744412451982498e-02
-9.201466292142868042e-02
1.030365973711013794e-01
-5.911517515778541565e-02
-3.349531441926956177e-02
-4.062607511878013611e-02
-5.306904017925262451e-02
1.150635331869125366e-01
-6.841707974672317505e-02
-2.759100869297981262e-02
7.673139125108718872e-02
1.609821245074272156e-02
-2.054089680314064026e-03
1.309547573328018188e-01
2.762467972934246063e-02
7.995261251926422119e-02
3.105191886425018311e-02
-4.713932052254676819e-03
-6.211988255381584167e-02
-1.248606573790311813e-02
-7.930101128295063972e-04
7.921686768531799316e-02
9.353216737508773804e-02
3.660248965024948120e-02
-1.252880319952964783e-02
-4.993399605154991150e-02
3.725378587841987610e-02
9.629293531179428101e-02
-8.654525130987167358e-02
9.804362058639526367e-02
-3.949589654803276062e-02
1.083067730069160461e-01
-8.144438266754150391e-02
8.280195295810699463e-02
7.682790607213973999e-02
1.516793370246887207e-01
5.377898737788200378e-02
-5.607787147164344788e-02
2.983720786869525909e-02
2.292807213962078094e-02
-4.158964380621910095e-02
5.085856840014457703e-02
-1.496626436710357666e-02
3.779684007167816162e-02
-7.192590832710266113e-02
-7.557462155818939209e-02
6.150500476360321045e-02
-8.874587714672088623e-02
3.310324857011437416e-03
-3.108549863100051880e-02
-4.485012590885162354e-02
2.985351532697677612e-02
5.061323195695877075e-02
-8.646680414676666260e-02
2.454310655593872070e-02
-1.504078656435012817e-01
-9.444960206747055054e-02
8.957853913307189941e-02
3.301891684532165527e-02
1.828025840222835541e-02
2.831204980611801147e-02
6.705401930958032608e-03
-5.256331525743007660e-03
2.955231629312038422e-02
3.046733699738979340e-02
-9.530044160783290863e-03
3.740911930799484253e-02
2.846514992415904999e-02
-1.152947992086410522e-01
-3.638390079140663147e-02
4.732753708958625793e-02
6.161611154675483704e-02
-1.006192807108163834e-02
-2.191618531942367554e-01
-2.626634016633033752e-02
-1.402035914361476898e-02
2.024922519922256470e-02
-1.008014008402824402e-01
1.083021536469459534e-01
-7.664193212985992432e-02
5.123466253280639648e-03
-1.921986415982246399e-02
-3.477884083986282349e-02
-7.082511484622955322e-02
8.629847317934036255e-02
5.644101649522781372e-03
1.049493849277496338e-01
8.831869810819625854e-02
4.106910526752471924e-02
5.133231356739997864e-02
-4.033742845058441162e-02
-4.676824435591697693e-02
2.387436479330062866e-02
-1.345019042491912842e-01
1.876535825431346893e-02
2.417128346860408783e-02
6.570849567651748657e-02
3.864355385303497314e-02
6.922102184034883976e-04
2.791693620383739471e-02
-7.803898304700851440e-02
8.578735589981079102e-02
1.181093230843544006e-01
6.921111047267913818e-02
-5.465103685855865479e-02
-1.035353392362594604e-01
-1.430214196443557739e-01
-3.802590072154998779e-02
-1.240914836525917053e-01
1.258484721183776855e-01
-5.734468623995780945e-02
-2.631023898720741272e-02
3.156531974673271179e-02
1.873686537146568298e-02
-5.786802247166633606e-02
-3.644618019461631775e-02
-1.238512620329856873e-01
-2.623751014471054077e-02
5.620758607983589172e-02
2.138452045619487762e-02
4.041941091418266296e-02
-2.975275367498397827e-02
9.567789733409881592e-02
2.254230156540870667e-02
2.634632587432861328e-02
-6.522472202777862549e-02
-1.668625697493553162e-02
1.352585703134536743e-01
9.433198720216751099e-02
7.707183063030242920e-02
-5.599529296159744263e-02
1.698806323111057281e-02
3.063692897558212280e-02
3.677843138575553894e-03
6.909492891281843185e-03
3.332698345184326172e-02
1.913908682763576508e-02
6.485773622989654541e-02
5.821987614035606384e-02
1.783575490117073059e-02
1.208552997559309006e-02
-7.435310631990432739e-02
5.236888304352760315e-02
1.124389022588729858e-01
7.632776349782943726e-02
1.110924929380416870e-01
8.890734985470771790e-03
-1.709543354809284210e-02
1.570319980382919312e-01
-1.286115776747465134e-02
-3.503534942865371704e-02
-4.379088431596755981e-02
7.365350425243377686e-02
-2.063319832086563110e-02
1.226021535694599152e-02
-7.091477513313293457e-02
5.510923266410827637e-02
-3.367596119642257690e-02
-8.474508672952651978e-02
-4.994038864970207214e-02
-5.982955172657966614e-02
-7.835746556520462036e-02
-6.992368400096893311e-02
2.255530469119548798e-02
1.002469751983880997e-02
8.179227262735366821e-02
-8.429598808288574219e-02
3.364594653248786926e-02
7.844015210866928101e-02
-8.023767173290252686e-02
-6.226131319999694824e-02
2.036595158278942108e-02
5.581552535295486450e-02
3.044686280190944672e-02
3.822917118668556213e-03
8.516890555620193481e-02
-9.595976211130619049e-03
3.067271597683429718e-02
-4.796586930751800537e-02
-4.493791610002517700e-02
-8.938746154308319092e-02
-4.240522626787424088e-03
8.632037788629531860e-02
-4.414041712880134583e-02
6.347969919443130493e-02
5.451333522796630859e-02
-4.347540065646171570e-02
8.015199005603790283e-02
-5.349599290639162064e-03
4.115587845444679260e-02
2.882728911936283112e-02
2.633761055767536163e-02
6.886427104473114014e-02
-3.287541866302490234e-02
-5.486300215125083923e-02
-4.351110383868217468e-02
-7.451757043600082397e-02
-8.940228074789047241e-02
-5.767460167407989502e-02
2.954750135540962219e-02
3.620310127735137939e-02
-8.380930125713348389e-02
-6.352732330560684204e-02
-7.972136884927749634e-02
-8.258771896362304688e-02
-6.346288323402404785e-02
-3.254292905330657959e-02
-4.443640261888504028e-02
-2.991469390690326691e-02
-3.794612362980842590e-02
-1.825923845171928406e-02
-4.485712572932243347e-02
-1.045860443264245987e-02
-8.887613564729690552e-02
8.399099111557006836e-02
-9.059786051511764526e-02
5.793723091483116150e-02
4.845302551984786987e-02
8.311546593904495239e-02
-3.560034558176994324e-02
5.706391483545303345e-02
-5.135131627321243286e-02
4.785989969968795776e-02
-1.083181984722614288e-02
-7.050400972366333008e-02
-3.758105635643005371e-02
-7.722723484039306641e-02
4.430980607867240906e-02
2.663521096110343933e-02
-4.967957362532615662e-02
3.170302882790565491e-02
6.495721638202667236e-02
-8.052762597799301147e-02
-8.593793213367462158e-02
3.701012209057807922e-02
-3.479841724038124084e-02
6.258242577314376831e-02
7.088053226470947266e-02
7.962241070345044136e-04
-1.168290060013532639e-02
4.693778231739997864e-02
-2.265670709311962128e-02
-6.431791931390762329e-02
-1.554938312619924545e-02
2.199858427047729492e-02
5.028960853815078735e-02
-4.440467339009046555e-03
8.724567294120788574e-02
3.552848845720291138e-02
-1.784925721585750580e-02
3.785152360796928406e-02
6.477952748537063599e-02
-5.232673883438110352e-02
-2.852305769920349121e-02
-3.006509691476821899e-02
-7.540256530046463013e-02
-3.395017236471176147e-02
-1.970088109374046326e-02
3.477067127823829651e-02
5.890601873397827148e-02
-5.142370611429214478e-02
-3.647527098655700684e-02
-5.071248114109039307e-02
4.945130646228790283e-02
6.101232394576072693e-02
3.417595475912094116e-02
-4.545326903462409973e-02
-2.612382546067237854e-02
-6.743162870407104492e-02
-9.239564836025238037e-02
4.979440942406654358e-02
-4.704738408327102661e-02
4.609929025173187256e-02
-2.364390902221202850e-02
5.498325452208518982e-02
-2.452820912003517151e-02
1.034719124436378479e-01
-5.193324014544487000e-02
1.141183897852897644e-01
-6.181656569242477417e-02
-1.132172346115112305e-01
1.736657926812767982e-03
-1.956810988485813141e-02
1.614177227020263672e-02
1.679472066462039948e-02
-5.809904634952545166e-02
1.068364456295967102e-01
1.283040493726730347e-01
-2.369539812207221985e-02
5.701641738414764404e-02
-7.679316401481628418e-02
-6.968568265438079834e-02
5.704858899116516113e-02
-1.638233475387096405e-02
-1.174504775553941727e-02
-1.009723693132400513e-01
6.085699051618576050e-02
-8.856123685836791992e-02
-4.387150332331657410e-02
-1.199701353907585144e-01
-2.800539880990982056e-02
-2.570615895092487335e-02
6.948606669902801514e-02
3.009658865630626678e-02
1.363565474748611450e-01
-3.647161647677421570e-02
1.378906369209289551e-01
1.515147648751735687e-02
1.410592719912528992e-02
1.280490756034851074e-01
-1.770360977388918400e-03
1.380503475666046143e-01
8.078174293041229248e-02
-2.939061224460601807e-01
-7.527499645948410034e-02
-6.023389846086502075e-02
3.019423969089984894e-02
8.316738903522491455e-02
5.616916809231042862e-03
-2.115451917052268982e-02
-4.926389083266258240e-02
-6.607484817504882812e-02
4.895563796162605286e-02
3.624523431062698364e-02
1.109742745757102966e-01
2.126743085682392120e-02
-5.996325984597206116e-02
-3.410630673170089722e-02
-2.607103623449802399e-02
-7.645883411169052124e-02
6.615436077117919922e-02
-3.749249503016471863e-02
-1.616121269762516022e-02
-5.834128707647323608e-03
-7.647681236267089844e-02
3.692170977592468262e-02
-1.844156682491302490e-01
3.797183558344841003e-02
4.429543763399124146e-02
7.713523507118225098e-02
-7.581090927124023438e-02
5.583548173308372498e-02
8.689201623201370239e-02
7.072769850492477417e-02
3.130863234400749207e-02
-7.814480364322662354e-02
7.251709699630737305e-02
-9.643797576427459717e-02
1.791950315237045288e-02
1.992828329093754292e-04
5.532742477953433990e-03
1.969827711582183838e-01
-2.014425769448280334e-02
8.210858702659606934e-02
9.197130799293518066e-02
-1.862765289843082428e-02
1.514063216745853424e-02
4.172903671860694885e-02
-1.036413572728633881e-02
-9.620170295238494873e-02
2.547377943992614746e-01
-4.989659041166305542e-02
-1.729811728000640869e-01
-1.216704174876213074e-01
-1.494075637310743332e-02
-1.138106435537338257e-01
2.575691975653171539e-02
-4.184587392956018448e-03
2.679513394832611084e-02
-1.186729297041893005e-01
-4.599944502115249634e-02
4.902022704482078552e-02
9.898856282234191895e-02
9.773149341344833374e-02
-2.404159121215343475e-02
1.146054416894912720e-01
2.031168714165687561e-02
-7.427468150854110718e-02
6.623999029397964478e-02
-5.845925211906433105e-02
-5.633633956313133240e-02
8.642613142728805542e-02
5.301503464579582214e-02
-3.911094740033149719e-02
7.768794149160385132e-02
1.587545424699783325e-01
-5.545359849929809570e-02
-9.819197654724121094e-02
1.302007287740707397e-01
7.379015535116195679e-02
-7.133718114346265793e-03
1.131758540868759155e-01
-8.037635684013366699e-02
1.461106091737747192e-01
4.640251770615577698e-02
-5.442617088556289673e-02
-6.838831305503845215e-02
4.564649239182472229e-02
-6.651812791824340820e-02
-1.695209927856922150e-02
4.649047553539276123e-02
-3.558278828859329224e-02
1.410175673663616180e-02
6.531395763158798218e-02
1.015813723206520081e-01
-4.960709810256958008e-02
-8.712062984704971313e-02
-7.604032009840011597e-02
-4.628295544534921646e-03
8.365500718355178833e-02
-1.147643178701400757e-01
-7.769791781902313232e-02
-5.866334587335586548e-02
2.989201620221138000e-02
5.547214299440383911e-02
1.505362540483474731e-01
3.293673694133758545e-02
2.923359721899032593e-02
6.193039193749427795e-02
-8.235109597444534302e-02
-1.247895061969757080e-01
1.031852364540100098e-01
-4.433828592300415039e-02
-7.590380311012268066e-02
-2.033593878149986267e-02
8.024251461029052734e-02
2.804371155798435211e-02
-7.313665002584457397e-02
-7.392623275518417358e-02
1.306921690702438354e-01
-7.226870208978652954e-02
-1.006003119982779026e-03
5.662691220641136169e-02
9.551636874675750732e-03
3.625248745083808899e-02
1.312273293733596802e-01
-8.995263278484344482e-02
-1.020808443427085876e-01
7.680828124284744263e-02
-5.644532851874828339e-03
-6.343939900398254395e-02
-6.673377752304077148e-02
-1.349808648228645325e-02
-6.953105796128511429e-03
-7.385436445474624634e-02
2.227889560163021088e-02
4.123221337795257568e-02
2.152494154870510101e-03
2.987475506961345673e-02
2.705549262464046478e-02
-6.525819003582000732e-02
6.087915599346160889e-02
1.658594608306884766e-01
-1.171410083770751953e-01
1.141070052981376648e-01
8.074841648340225220e-02
5.335511639714241028e-02
3.521123528480529785e-02
-5.017914250493049622e-02
3.266614302992820740e-02
1.288951039314270020e-01
5.837931763380765915e-03
3.676400706171989441e-02
1.235574670135974884e-02
-1.236867755651473999e-01
1.109910085797309875e-01
-7.753956317901611328e-02
-1.107499599456787109e-01
1.606533229351043701e-01
-8.545790798962116241e-03
3.004826791584491730e-02
-8.218067884445190430e-02
-1.066826432943344116e-01
-1.826049014925956726e-02
1.533846110105514526e-01
-5.238066986203193665e-02
6.022317707538604736e-02
-5.354312434792518616e-02
1.611583977937698364e-01
5.766599625349044800e-02
-1.186742857098579407e-01
-1.117894351482391357e-01
-7.874228060245513916e-02
-1.066031455993652344e-01
7.923088222742080688e-02
8.105552196502685547e-02
1.285661160945892334e-01
4.319891706109046936e-02
3.806485235691070557e-02
-1.602223217487335205e-01
-1.487510837614536285e-02
-6.549286842346191406e-02
5.076859891414642334e-02
4.844576120376586914e-02
9.047340601682662964e-02
-6.829684227705001831e-02
8.444102481007575989e-03
-8.054014295339584351e-02
-5.365222319960594177e-02
-3.985941782593727112e-02
1.433167159557342529e-01
9.628809988498687744e-02
1.767514739185571671e-03
-1.865709573030471802e-02
-9.318728744983673096e-02
1.496464163064956665e-01
-6.696076132357120514e-03
3.465620428323745728e-02
5.652773007750511169e-02
-1.104856282472610474e-01
-7.202345877885818481e-03
-7.844002544879913330e-02
-9.958826936781406403e-03
-9.783167392015457153e-02
-8.247646689414978027e-02
-5.814191699028015137e-02
-6.522542983293533325e-02
3.956279903650283813e-02
-5.279649421572685242e-02
-3.757071122527122498e-02
6.378047913312911987e-02
-4.375571757555007935e-02
4.794895276427268982e-02
1.077426895499229431e-01
3.005220927298069000e-02
3.529498819261789322e-03
-1.314722467213869095e-02
2.211363427340984344e-02
-2.783452160656452179e-03
8.785048872232437134e-02
-3.166815266013145447e-02
9.304485283792018890e-03
-6.926064938306808472e-02
1.050781905651092529e-01
1.069571524858474731e-01
-2.580117620527744293e-02
6.328123807907104492e-02
4.562526009976863861e-04
-1.133593171834945679e-02
7.249344140291213989e-02
7.847953587770462036e-02
7.587169110774993896e-02
-3.164078295230865479e-02
-4.841763898730278015e-02
2.572293393313884735e-02
8.394834399223327637e-02
1.666223630309104919e-02
-6.695371866226196289e-02
2.649310044944286346e-02
1.078877449035644531e-01
1.641838401556015015e-01
-5.531368032097816467e-02
-6.799814105033874512e-02
9.807120077311992645e-04
8.190996199846267700e-02
7.222802937030792236e-02
-2.271207422018051147e-02
-1.576773636043071747e-02
3.707982227206230164e-02
6.586290895938873291e-02
-2.852300740778446198e-02
-9.452905505895614624e-04
4.638883471488952637e-02
4.962922632694244385e-02
1.027361676096916199e-01
4.731064254883676767e-04
-6.300568580627441406e-02
-4.502211883664131165e-02
-1.167505607008934021e-02
2.772504836320877075e-02
4.959525540471076965e-02
5.059286486357450485e-04
-5.604566633701324463e-02
-4.523083567619323730e-02
5.096246674656867981e-02
-1.434293482452630997e-02
-9.928724169731140137e-02
-1.013493980281054974e-03
5.175554752349853516e-02
-2.060502022504806519e-02
-6.651062052696943283e-03
1.430194359272718430e-02
5.218746140599250793e-02
-8.257324807345867157e-03
7.528960704803466797e-02
-5.884940177202224731e-02
-6.505952775478363037e-02
4.809080436825752258e-02
-1.826795749366283417e-02
-3.942126408219337463e-02
-2.176116593182086945e-02
-7.477448787540197372e-03
-9.677471965551376343e-02
-4.554160404950380325e-04
-5.030351132154464722e-02
2.943344227969646454e-02
-7.086557894945144653e-02
-1.152470894157886505e-02
1.002078652381896973e-01
-5.989091470837593079e-02
2.090130373835563660e-02
-8.187647908926010132e-02
-1.109851617366075516e-02
-1.572206988930702209e-02
6.201148405671119690e-02
-9.130071103572845459e-02
7.906492799520492554e-02
4.077497124671936035e-02
-3.277514502406120300e-02
-1.248020119965076447e-02
-3.482855111360549927e-02
3.763075172901153564e-02
-4.764379467815160751e-03
-7.100257091224193573e-03
8.790004998445510864e-02
3.653103485703468323e-02
9.665198624134063721e-02
-3.181770071387290955e-02
1.280299127101898193e-01
-4.322995617985725403e-02
-4.903742577880620956e-03
8.783950656652450562e-02
-3.289468958973884583e-02
-6.817876710556447506e-04
-6.722482293844223022e-02
8.338713645935058594e-02
4.659030959010124207e-02
1.264519095420837402e-01
-8.330011367797851562e-02
-1.444876194000244141e-02
-1.885803937911987305e-01
-5.769346281886100769e-02
6.671328097581863403e-02
3.680254565551877022e-03
-5.385824292898178101e-02
-1.300448775291442871e-01
-1.093152016401290894e-01
5.149767547845840454e-02
-2.445236034691333771e-02
-5.584544315934181213e-02
2.946422435343265533e-02
-8.103260397911071777e-02
8.484218269586563110e-02
9.526691585779190063e-02
-4.479756951332092285e-02
-6.547770462930202484e-03
-5.106044560670852661e-02
9.469128400087356567e-02
-7.199257612228393555e-02
1.153761297464370728e-01
-1.210448667407035828e-01
7.653621584177017212e-02
-1.540171075612306595e-02
-1.647701859474182129e-02
-6.895257532596588135e-02
1.010092720389366150e-01
1.031373366713523865e-01
-5.449738353490829468e-03
1.514001563191413879e-02
4.193035140633583069e-02
1.155015304684638977e-01
6.496947258710861206e-02
8.719965117052197456e-04
-6.139384582638740540e-02
-1.201065704226493835e-01
1.546840816736221313e-01
3.071464970707893372e-02
1.131429150700569153e-02
4.327328875660896301e-02
-4.078587144613265991e-02
-1.353520900011062622e-01
-4.794034734368324280e-02
5.760321393609046936e-02
-5.595050007104873657e-02
-7.400698214769363403e-02
6.070625036954879761e-02
-8.168588578701019287e-02
-1.189738437533378601e-01
3.865046799182891846e-02
8.024474233388900757e-02
-8.055766113102436066e-03
7.586513459682464600e-02
3.481447696685791016e-02
7.699041068553924561e-02
-2.010125666856765747e-01
7.750880718231201172e-02
1.564735621213912964e-01
-1.880350336432456970e-02
8.849696069955825806e-02
2.016016282141208649e-02
-1.203213408589363098e-01
-7.122467458248138428e-02
5.532660335302352905e-02
2.181447297334671021e-01
-6.241360679268836975e-02
1.565159708261489868e-01
-2.891665399074554443e-01
5.147901177406311035e-02
-8.179961889982223511e-02
-4.351875931024551392e-02
1.093742400407791138e-01
4.401453770697116852e-03
3.334823623299598694e-02
-1.418331824243068695e-02
-1.603149808943271637e-02
4.360969737172126770e-02
2.264036564156413078e-03
1.810113638639450073e-01
7.975730299949645996e-02
7.414522767066955566e-02
3.109026513993740082e-02
8.138694800436496735e-03
7.017372548580169678e-02
7.696241140365600586e-02
-2.826318442821502686e-01
4.314548149704933167e-02
-7.306603342294692993e-02
3.785901889204978943e-02
-9.824042767286300659e-02
1.524951308965682983e-01
-1.298824250698089600e-01
2.048230729997158051e-02
-1.274317502975463867e-01
1.097956448793411255e-01
-2.478094771504402161e-02
-9.200877696275711060e-02
-6.322533637285232544e-02
-1.228340566158294678e-01
3.475580830127000809e-03
4.492153227329254150e-02
-8.207488805055618286e-02
-1.197300944477319717e-02
2.425622567534446716e-02
9.591634385287761688e-03
2.447829581797122955e-02
-5.763880908489227295e-02
-6.732321530580520630e-02
-6.062508746981620789e-02
-1.987368613481521606e-02
-8.420548401772975922e-03
-1.194364130496978760e-01
3.622231259942054749e-02
-4.609002266079187393e-03
3.960535675287246704e-02
1.147593464702367783e-02
-1.059082150459289551e-01
2.420797012746334076e-02
7.182182371616363525e-02
-1.218267306685447693e-01
-1.026159897446632385e-01
8.995107561349868774e-02
2.799789886921644211e-03
5.154843255877494812e-02
-1.645999401807785034e-01
-6.395085155963897705e-02
5.756742134690284729e-02
-1.514308433979749680e-02
-1.867361017502844334e-03
-4.096582904458045959e-02
-7.419723272323608398e-02
7.205428928136825562e-02
3.733438998460769653e-02
1.543426420539617538e-02
-1.585876569151878357e-02
1.069875955581665039e-01
5.961104109883308411e-02
1.399435549974441528e-01
1.033365204930305481e-01
-6.376315653324127197e-02
8.854379504919052124e-02
-1.134441122412681580e-01
-7.340156473219394684e-03
3.387005708646029234e-04
-3.131519630551338196e-02
-2.158612012863159180e-02
1.050599440932273865e-01
-9.709335863590240479e-02
6.536798924207687378e-02
-6.943877786397933960e-03
-1.079264190047979355e-02
2.409079112112522125e-02
7.882948964834213257e-02
4.756809771060943604e-02
9.078440070152282715e-02
-6.208659708499908447e-02
2.357971295714378357e-02
-6.345694512128829956e-02
-2.837645076215267181e-02
5.477391928434371948e-02
-2.980269491672515869e-02
-2.715504541993141174e-02
7.453982532024383545e-02
-5.124193802475929260e-02
1.717020757496356964e-02
2.016323432326316833e-02
1.001101061701774597e-01
8.143237233161926270e-02
3.622585535049438477e-02
2.767133153975009918e-02
-7.355273514986038208e-02
7.848045229911804199e-02
-7.717978954315185547e-02
-8.894141018390655518e-02
-5.496576055884361267e-02
-6.711862236261367798e-02
-8.546334505081176758e-02
-3.827050700783729553e-02
-3.862758725881576538e-02
1.777109503746032715e-02
-9.120342880487442017e-02
-8.171924389898777008e-03
-1.312590204179286957e-02
-6.977937370538711548e-02
6.773334741592407227e-02
9.009435027837753296e-02
8.865880221128463745e-02
-6.335121393203735352e-02
8.181622624397277832e-02
-9.030892699956893921e-02
-4.358461499214172363e-02
-7.634742651134729385e-03
-3.254203870892524719e-02
4.955800995230674744e-02
-1.861614547669887543e-02
-2.043865062296390533e-02
1.331160813570022583e-01
2.807316370308399200e-02
7.318354398012161255e-02
4.753729701042175293e-02
-2.799199521541595459e-02
-7.596063613891601562e-02
1.002636551856994629e-01
1.185155808925628662e-01
-9.694953262805938721e-02
8.608944714069366455e-02
6.747446954250335693e-02
3.660001233220100403e-02
2.934923022985458374e-02
-3.386381268501281738e-02
-6.190398707985877991e-03
8.038065582513809204e-02
-6.422342360019683838e-02
1.411268487572669983e-02
4.463037848472595215e-02
-5.900603160262107849e-02
-8.076523244380950928e-02
3.133307769894599915e-02
-9.065277129411697388e-02
-3.788596019148826599e-02
-3.491732478141784668e-02
2.270102687180042267e-02
1.588582098484039307e-01
-5.090671777725219727e-02
5.816732533276081085e-03
-8.176422677934169769e-03
3.754904260858893394e-03
-1.375631708651781082e-02
4.462250694632530212e-02
2.519435994327068329e-02
-2.218471653759479523e-02
1.106539145112037659e-01
1.362829376012086868e-02
1.209136545658111572e-01
-9.114770218729972839e-03
-4.784758016467094421e-02
4.426293075084686279e-03
5.311957374215126038e-02
8.291827142238616943e-02
-6.899763830006122589e-03
8.898463845252990723e-02
-1.219239532947540283e-01
-1.262011826038360596e-01
-6.922579556703567505e-02
3.605023398995399475e-02
2.716535702347755432e-02
1.177207157015800476e-01
-5.690226331353187561e-03
-2.996404841542243958e-02
-3.019936196506023407e-02
-3.636730834841728210e-02
-1.095591932535171509e-01
-1.032548993825912476e-01
-1.128831505775451660e-01
-8.326397836208343506e-02
-3.463560342788696289e-02
-1.109047047793865204e-02
-1.381637156009674072e-01
1.264135390520095825e-01
-2.965413779020309448e-02
-1.039278730750083923e-01
7.329744100570678711e-02
-3.484478965401649475e-02
1.956324651837348938e-02
-1.050061658024787903e-01
-1.987997069954872131e-02
-5.048829689621925354e-02
-6.215763837099075317e-02
-1.219734176993370056e-02
-7.877790927886962891e-02
1.118168160319328308e-01
6.448196654673665762e-05
-6.235832720994949341e-02
5.389568582177162170e-02
6.847110390663146973e-02
-2.835221216082572937e-02
-3.833035752177238464e-02
8.134742081165313721e-02
6.324294209480285645e-02
-4.866811633110046387e-02
-6.579978764057159424e-02
-9.530031661597604398e-07
-3.797962889075279236e-02
-3.547534719109535217e-02
-1.288983225822448730e-01
1.075121201574802399e-02
-1.460999548435211182e-01
2.703479304909706116e-02
4.685103520750999451e-02
1.170301344245672226e-02
8.107888698577880859e-02
-2.434227243065834045e-02
-7.048903405666351318e-02
2.385472320020198822e-02
1.087497267872095108e-02
1.460008770227432251e-01
-9.281455725431442261e-02
1.909771114587783813e-01
7.031154632568359375e-02
-6.609300523996353149e-02
-5.120778456330299377e-02
7.680073031224310398e-04
4.286991059780120850e-02
-3.738842904567718506e-02
-3.152952715754508972e-02
9.059050679206848145e-02
-1.885939389467239380e-01
-4.673547297716140747e-02
2.100145630538463593e-02
-2.822518348693847656e-02
-2.718408778309822083e-02
-2.800495922565460205e-02
-8.086866885423660278e-02
7.927002012729644775e-02
-1.320114172995090485e-02
-6.408898532390594482e-02
6.340638548135757446e-02
7.501679658889770508e-02
3.887205570936203003e-02
-9.900528006255626678e-03
1.015638187527656555e-01
8.829655498266220093e-02
6.906659156084060669e-02
-1.283867750316858292e-02
-3.161341696977615356e-02
6.264842301607131958e-02
-9.526665322482585907e-03
-8.668960630893707275e-02
-1.084632873535156250e-01
8.985826373100280762e-02
1.587404012680053711e-01
3.526254743337631226e-02
1.280602999031543732e-02
1.046863943338394165e-01
1.066807433962821960e-01
7.400204986333847046e-02
1.849731057882308960e-01
8.699174970388412476e-02
1.945562846958637238e-02
-3.532645106315612793e-02
-2.342424727976322174e-02
7.310261577367782593e-02
7.218351587653160095e-03
-3.382501751184463501e-02
-4.303813725709915161e-02
1.038433704525232315e-02
2.231842279434204102e-02
4.528209567070007324e-02
-1.913651078939437866e-02
-5.793774500489234924e-02
4.600902274250984192e-02
-6.510326266288757324e-02
-4.428537562489509583e-02
1.172678321599960327e-01
5.760906264185905457e-02
4.429507255554199219e-02
1.630852743983268738e-02
1.955600455403327942e-02
-3.979139029979705811e-02
5.207132548093795776e-03
-7.766385376453399658e-02
-8.929552137851715088e-02
3.584567923098802567e-03
3.737526759505271912e-02
-1.533326804637908936e-01
1.460845675319433212e-02
-3.181881830096244812e-02
-6.621158123016357422e-02
5.203192587941884995e-03
4.380482062697410583e-02
-1.583885401487350464e-03
1.344501227140426636e-01
-2.654221281409263611e-02
-5.050863325595855713e-02
4.663175344467163086e-02
8.791763335466384888e-02
6.467542052268981934e-02
6.083051487803459167e-02
-7.939057052135467529e-02
-7.217010855674743652e-02
-4.373343661427497864e-02
-9.220393002033233643e-02
9.256107360124588013e-02
6.495538353919982910e-02
7.111072540283203125e-02
9.069270640611648560e-02
3.497958183288574219e-02
1.171822622418403625e-01
7.017099857330322266e-02
-6.403728574514389038e-02
6.012444943189620972e-02
-7.466657459735870361e-02
-4.695414751768112183e-02
5.884425714612007141e-02
-3.401440382003784180e-02
3.802843391895294189e-02
-3.977990150451660156e-02
-1.206506509333848953e-02
3.102166764438152313e-02
7.519577443599700928e-02
1.678020805120468140e-01
1.487693786621093750e-01
5.038153752684593201e-02
1.771434023976325989e-02
8.187533915042877197e-02
1.030454859137535095e-01
1.028792262077331543e-01
2.621882408857345581e-02
1.952578686177730560e-02
5.918393842875957489e-03
3.414770215749740601e-02
-5.640447884798049927e-02
-1.796671422198414803e-03
-3.888297826051712036e-02
1.621043495833873749e-02
-1.216249838471412659e-01
-8.064768463373184204e-02
-8.388682454824447632e-02
-5.388225987553596497e-02
-3.255842253565788269e-02
-1.408725511282682419e-02
8.960182964801788330e-02
-1.134246494621038437e-02
-6.638413667678833008e-02
4.321131482720375061e-02
-6.553639471530914307e-02
7.527434080839157104e-02
6.753271073102951050e-02
-5.526154488325119019e-02
3.265041857957839966e-02
-6.799931079149246216e-02
-4.473845940083265305e-03
-4.840552061796188354e-02
-2.116776630282402039e-02
6.820061057806015015e-02
-8.926500380039215088e-02
4.651912674307823181e-02
7.436089217662811279e-02
-4.205632209777832031e-02
-3.180112689733505249e-02
-4.531939700245857239e-02
-7.009662687778472900e-02
3.618429601192474365e-02
-3.540518879890441895e-02
1.925114355981349945e-02
1.863116957247257233e-02
-5.589110776782035828e-02
2.994708158075809479e-02
-2.900201268494129181e-02
1.770239672623574734e-03
-6.100539490580558777e-02
-4.890279471874237061e-02
-3.971962258219718933e-02
6.500216200947761536e-03
7.934866845607757568e-02
-5.901136994361877441e-02
7.754384726285934448e-02
-1.568982750177383423e-02
6.982034444808959961e-02
7.002069801092147827e-02
5.395642295479774475e-02
5.617510899901390076e-02
5.207819491624832153e-02
-1.654317229986190796e-01
-1.715609617531299591e-02
7.013598829507827759e-02
7.780676335096359253e-02
-5.575108528137207031e-02
9.337773546576499939e-03
-7.295099645853042603e-02
2.632020600140094757e-02
-1.529454346746206284e-02
8.535792678594589233e-02
4.189297556877136230e-02
-9.420385956764221191e-02
2.699979394674301147e-02
6.293066591024398804e-02
-5.948699638247489929e-02
1.985360309481620789e-02
-9.655241668224334717e-02
2.487512864172458649e-02
5.156639590859413147e-02
7.819303125143051147e-02
8.714599907398223877e-02
2.252143248915672302e-02
6.715071946382522583e-02
3.452122677117586136e-03
9.030165523290634155e-02
-1.958515867590904236e-02
2.116110920906066895e-02
-4.161691665649414062e-02
5.008007213473320007e-02
6.689012795686721802e-02
-4.742084071040153503e-02
5.060574784874916077e-02
7.650533807463943958e-04
6.783677637577056885e-02
3.941148519515991211e-02
6.565258651971817017e-02
-4.120488092303276062e-02
4.344630613923072815e-02
8.109460584819316864e-03
-4.038150608539581299e-02
2.914361469447612762e-02
-4.948636516928672791e-03
4.244186356663703918e-02
-8.719054609537124634e-02
-6.344173848628997803e-02
6.016182899475097656e-02
-1.081832591444253922e-02
-8.306137472391128540e-02
4.447023570537567139e-02
-5.899789743125438690e-03
7.870310544967651367e-02
5.155528709292411804e-02
1.008754409849643707e-02
-8.975140005350112915e-02
1.034049093723297119e-01
-7.789240777492523193e-02
1.288738697767257690e-01
5.701241549104452133e-03
-5.048618093132972717e-02
2.374099195003509521e-02
3.763169050216674805e-02
-8.449703454971313477e-02
8.799771219491958618e-02
3.971774131059646606e-02
-8.100113272666931152e-02
-8.699051290750503540e-02
-5.822957679629325867e-02
3.985084965825080872e-02
6.878948211669921875e-02
-7.964230142533779144e-03
1.737928204238414764e-02
5.304045975208282471e-02
-1.092003434896469116e-01
6.528051942586898804e-02
6.885184347629547119e-02
-2.541296556591987610e-02
2.331147342920303345e-02
9.794830530881881714e-02
5.927222222089767456e-02
-1.136601716279983521e-01
-2.880642423406243324e-03
-6.054504308849573135e-03
-5.246171727776527405e-02
-1.669967360794544220e-02
-5.169216915965080261e-02
-5.919621884822845459e-02
7.742325216531753540e-02
-7.127217948436737061e-02
2.166950609534978867e-03
-4.550654906779527664e-03
-1.297434121370315552e-01
-4.933088272809982300e-02
2.933895215392112732e-02
4.168438166379928589e-02
7.283882796764373779e-02
-5.232835188508033752e-02
-8.813267201185226440e-02
1.061859577894210815e-01
6.755276024341583252e-02
2.719227410852909088e-02
3.787009418010711670e-02
1.320603638887405396e-01
2.593257836997509003e-02
4.262970760464668274e-02
-9.072235971689224243e-02
5.795653909444808960e-02
-9.278897941112518311e-02
1.247264146804809570e-01
5.117135494947433472e-02
5.444719642400741577e-02
-4.350678250193595886e-02
-5.351398885250091553e-02
-8.372789621353149414e-02
8.464229851961135864e-02
1.081342697143554688e-01
4.051072150468826294e-02
4.994641989469528198e-03
-6.493847072124481201e-02
-5.720119178295135498e-02
-3.716260567307472229e-02
-3.381055966019630432e-02
3.879543393850326538e-02
-7.000777870416641235e-02
6.568904221057891846e-02
3.363868594169616699e-02
1.843731477856636047e-02
-1.117646396160125732e-01
-5.872036144137382507e-02
1.095782890915870667e-01
2.585979551076889038e-02
1.210223138332366943e-01
9.973017126321792603e-02
9.818610548973083496e-02
-6.478559225797653198e-02
4.200559854507446289e-02
4.374607279896736145e-02
-7.447961717844009399e-03
1.939067803323268890e-02
-3.072003647685050964e-02
5.324100330471992493e-02
3.102963324636220932e-03
-2.557837404310703278e-03
7.419879734516143799e-02
-5.539354309439659119e-02
8.114349842071533203e-02
2.490053698420524597e-02
9.576198458671569824e-02
-1.937205903232097626e-02
-2.400970272719860077e-02
-2.846975252032279968e-02
-1.372809559106826782e-01
5.047516897320747375e-02
1.905709132552146912e-02
-7.433530688285827637e-02
7.052940875291824341e-02
-4.147407039999961853e-02
-8.070258051156997681e-02
-5.375676229596138000e-02
1.010425910353660583e-01
7.585872709751129150e-02
-4.258994013071060181e-02
4.958888143301010132e-02
7.483515888452529907e-02
1.285463571548461914e-01
1.277354210615158081e-01
6.419537216424942017e-02
-9.485624730587005615e-02
6.051636859774589539e-02
-1.406786441802978516e-01
-8.235929161310195923e-02
6.270767748355865479e-02
-8.150591701269149780e-02
-3.405966609716415405e-02
-9.736211597919464111e-02
1.157785058021545410e-01
-1.622487977147102356e-02
-1.623587161302566528e-01
1.247091367840766907e-01
9.358315914869308472e-02
9.084651619195938110e-02
5.951596796512603760e-02
-9.752357751131057739e-02
9.281074255704879761e-02
5.842687934637069702e-02
-1.529157459735870361e-01
-1.100564841181039810e-02
1.057696640491485596e-01
6.894758343696594238e-02
8.713387697935104370e-02
-2.732736244797706604e-02
1.062478870153427124e-02
-7.749168667942285538e-03
-7.410271465778350830e-02
-7.270599156618118286e-02
-1.621906906366348267e-01
8.229344338178634644e-02
6.863220781087875366e-02
3.235260024666786194e-02
-5.357981473207473755e-02
1.501897722482681274e-01
1.918664015829563141e-02
-3.199855983257293701e-02
7.972250133752822876e-02
-4.961159825325012207e-02
9.015317261219024658e-02
3.846161067485809326e-02
-1.569088250398635864e-01
3.830615803599357605e-02
5.544188246130943298e-02
8.957953751087188721e-02
5.784897133708000183e-02
-4.212595522403717041e-03
4.980535060167312622e-02
-8.130809664726257324e-02
1.075887009501457214e-01
2.454485930502414703e-02
6.029968708753585815e-02
-1.330665051937103271e-01
9.117433428764343262e-02
8.594240993261337280e-02
2.867181040346622467e-02
5.491025000810623169e-02
1.420429944992065430e-01
4.347546398639678955e-02
-2.490891702473163605e-02
-8.279338479042053223e-02
1.027934402227401733e-01
-8.949781768023967743e-03
-3.507689386606216431e-02
-5.664761736989021301e-02
6.982431560754776001e-02
-1.713425037451088428e-03
6.109721213579177856e-02
5.275022983551025391e-02
1.543811410665512085e-01
1.260564178228378296e-01
-6.920003890991210938e-02
-8.987151831388473511e-02
-2.237987145781517029e-02
1.470795180648565292e-02
-5.884243547916412354e-02
1.745749451220035553e-02
-1.137338951230049133e-02
-6.713845580816268921e-02
-1.420591864734888077e-02
4.221883416175842285e-02
-2.642775885760784149e-02
-1.543760579079389572e-02
1.690032333135604858e-01
-1.083534117788076401e-02
2.298374474048614502e-02
-8.226405084133148193e-02
1.377755030989646912e-02
1.428258717060089111e-01
-6.737758964300155640e-02
5.528757721185684204e-02
-8.881661295890808105e-02
2.550300396978855133e-02
-3.803167864680290222e-02
9.538438916206359863e-02
8.923188596963882446e-02
1.441692411899566650e-01
-2.651661634445190430e-02
3.459486365318298340e-02
-1.297245919704437256e-02
2.218390814960002899e-02
-2.909051813185214996e-02
5.141836404800415039e-02
9.648506343364715576e-02
6.300505995750427246e-02
7.258790731430053711e-02
-1.389644946902990341e-02
2.296722307801246643e-02
-6.222026050090789795e-02
1.665836572647094727e-02
1.879925280809402466e-02
8.119760453701019287e-02
4.283389449119567871e-02
-8.283150196075439453e-02
-6.932526826858520508e-02
-2.459417283535003662e-02
-1.325033511966466904e-02
1.260732710361480713e-01
4.772548750042915344e-02
8.092016726732254028e-02
8.069831132888793945e-02
-1.199920773506164551e-01
-2.578225918114185333e-02
-4.869719222187995911e-02
-8.141365647315979004e-02
4.235471040010452271e-02
-1.042951270937919617e-01
-7.649365067481994629e-02
1.269602030515670776e-01
9.610158391296863556e-03
-3.124997764825820923e-02
-6.453696638345718384e-02
-2.022325061261653900e-02
-3.366206213831901550e-02
-6.878729443997144699e-03
2.525406517088413239e-02
6.685337424278259277e-02
4.868240654468536377e-02
3.829918336123228073e-03
3.915049135684967041e-02
-1.074102297425270081e-01
7.854683324694633484e-03
8.495090156793594360e-02
8.079447597265243530e-02
5.099937692284584045e-02
-5.360317230224609375e-02
-8.833757042884826660e-02
-5.959521606564521790e-02
-2.345826290547847748e-02
-4.127728566527366638e-02
1.692138053476810455e-02
3.415509313344955444e-02
4.689341410994529724e-02
2.989296801388263702e-03
9.919762611389160156e-02
1.388746052980422974e-01
-7.707282900810241699e-02
7.969693839550018311e-02
1.832871884107589722e-02
1.301168650388717651e-02
2.504328638315200806e-02
1.110063716769218445e-01
-7.296460866928100586e-02
1.902258209884166718e-02
-2.886228635907173157e-02
-1.065412238240242004e-01
6.471372395753860474e-02
5.262085795402526855e-02
-8.107461035251617432e-02
1.172042712569236755e-01
1.854615751653909683e-03
1.191191375255584717e-01
-6.766353547573089600e-02
4.749340191483497620e-02
5.572129413485527039e-02
3.137272968888282776e-02
4.594601225107908249e-03
-3.946586698293685913e-02
8.866667747497558594e-02
3.451131656765937805e-02
-1.133451685309410095e-01
4.781919345259666443e-02
-1.162012200802564621e-02
-7.995571941137313843e-03
8.666084706783294678e-02
-5.526001751422882080e-02
4.772949591279029846e-02
-4.121969640254974365e-02
1.282729506492614746e-01
7.693550735712051392e-02
-1.437162421643733978e-02
4.561869055032730103e-02
5.421995744109153748e-02
8.647201210260391235e-02
1.289717946201562881e-02
4.289358481764793396e-02
-1.017225980758666992e-01
6.372127681970596313e-02
3.040445968508720398e-03
8.677589148283004761e-02
-1.366556137800216675e-01
7.393687963485717773e-02
5.957468226552009583e-02
3.471058979630470276e-02
-4.902489855885505676e-02
-9.031246416270732880e-03
2.981679886579513550e-02
-9.198418259620666504e-02
3.655103966593742371e-02
4.966988414525985718e-02
-5.683783814311027527e-02
-5.060408264398574829e-02
-5.416774004697799683e-02
1.346619576215744019e-01
1.108334511518478394e-01
2.264967188239097595e-02
6.193843111395835876e-02
-2.995808795094490051e-02
-1.589798484928905964e-03
-3.436732664704322815e-02
-3.859462961554527283e-02
1.711037568747997284e-02
4.123986884951591492e-02
3.552827611565589905e-02
-9.448783099651336670e-02
-6.304168701171875000e-02
-3.180982545018196106e-02
2.022949047386646271e-02
-1.946704275906085968e-02
7.584242522716522217e-02
3.771073743700981140e-02
6.035246327519416809e-02
1.323914378881454468e-01
5.350520089268684387e-02
8.182451128959655762e-02
1.068057715892791748e-01
1.413132622838020325e-02
8.419034630060195923e-02
1.651486568152904510e-02
-3.479195013642311096e-02
-1.946359500288963318e-02
-6.276678293943405151e-02
-1.579047553241252899e-02
-6.787217408418655396e-02
4.757660254836082458e-02
-7.747493684291839600e-02
-1.699774339795112610e-02
-5.169931799173355103e-03
-1.053679827600717545e-02
1.134697273373603821e-01
-4.028064757585525513e-02
2.834955975413322449e-02
-7.822526991367340088e-02
1.194647140800952911e-02
1.216614339500665665e-02
5.232489854097366333e-02
9.587961435317993164e-02
-1.108467206358909607e-01
1.223900467157363892e-01
1.213715597987174988e-01
-5.734886229038238525e-02
-1.620894297957420349e-02
-4.534772783517837524e-02
2.575646713376045227e-02
-7.486009504646062851e-03
4.046880081295967102e-02
3.835730999708175659e-02
-4.002456739544868469e-02
-8.372072130441665649e-02
5.237000063061714172e-02
1.808094419538974762e-02
-6.152376532554626465e-02
1.538617014884948730e-01
6.081239506602287292e-02
-1.485168635845184326e-01
1.303057819604873657e-01
-1.122054085135459900e-01
-2.291369996964931488e-02
7.631729543209075928e-02
-1.663194224238395691e-02
-5.408459901809692383e-02
-1.888883858919143677e-02
-5.633105337619781494e-02
-2.232593111693859100e-02
9.590847417712211609e-03
-7.075273245573043823e-02
-8.948671072721481323e-02
-1.593583673238754272e-01
-1.572674140334129333e-02
2.020650729537010193e-02
-1.513592302799224854e-01
-7.804341614246368408e-02
-1.930448226630687714e-02
5.588680133223533630e-02
4.577134735882282257e-03
-6.588235497474670410e-02
1.715466678142547607e-01
1.265709400177001953e-01
2.213029377162456512e-02
-6.189110502600669861e-02
1.190545409917831421e-01
-1.359756570309400558e-02
-1.343638449907302856e-01
1.163372322916984558e-01
-1.858772337436676025e-02
-2.486605197191238403e-02
-9.542824327945709229e-02
2.961917780339717865e-02
5.462759733200073242e-02
1.236850321292877197e-01
-1.258242577314376831e-01
-1.417641714215278625e-02
5.508808046579360962e-02
2.473860420286655426e-02
1.010065525770187378e-01
-1.440017372369766235e-01
-4.520347341895103455e-02
-1.838746853172779083e-02
1.341267526149749756e-01
-1.182708069682121277e-01
-2.524721808731555939e-02
-2.031004130840301514e-01
-8.662675321102142334e-02
8.070776611566543579e-02
-1.466366052627563477e-01
-7.317008078098297119e-02
-1.881098300218582153e-01
1.476842314004898071e-01
-1.385037600994110107e-02
3.752204589545726776e-03
2.077895216643810272e-02
-4.687947779893875122e-02
-1.614101380109786987e-01
5.714620277285575867e-02
-7.771583646535873413e-02
4.847117140889167786e-02
-4.392368346452713013e-02
-6.142810452729463577e-03
-4.673849046230316162e-02
-6.847649067640304565e-02
-3.071006946265697479e-02
3.062851913273334503e-02
-7.156778592616319656e-03
-2.192578651010990143e-02
-2.709397114813327789e-02
-9.833257645368576050e-03
2.858902793377637863e-03
-8.024602383375167847e-02
6.457802653312683105e-02
8.904535323381423950e-02
-7.117460668087005615e-02
6.872603297233581543e-02
9.181086905300617218e-03
4.305916279554367065e-02
-2.540246583521366119e-02
6.081004068255424500e-02
3.913503140211105347e-02
-7.384029775857925415e-02
-9.056159853935241699e-02
7.079793512821197510e-02
4.121308028697967529e-02
3.631922975182533264e-02
-3.766401484608650208e-02
-3.562856465578079224e-02
-8.758249878883361816e-02
-2.237276174128055573e-02
2.651841193437576294e-02
-9.931393899023532867e-03
2.257231972180306911e-05
-4.214026778936386108e-02
3.230429813265800476e-02
2.688412321731448174e-03
-7.544007897377014160e-02
8.505474776029586792e-02
2.792720682919025421e-02
3.234145417809486389e-02
-4.275561124086380005e-02
4.039582330733537674e-03
7.321510929614305496e-04
4.129205271601676941e-02
8.639311790466308594e-02
-1.229696534574031830e-02
-4.348574578762054443e-02
7.544943690299987793e-02
-1.453947392292320728e-03
-5.700355395674705505e-02
-2.974000014364719391e-02
3.746141912415623665e-03
-4.581787809729576111e-02
-5.621519312262535095e-02
3.197176381945610046e-02
-3.105725720524787903e-02
-5.431241542100906372e-02
-1.593966007931157947e-04
-8.985573798418045044e-02
4.632192105054855347e-02
-7.472692430019378662e-02
7.599617540836334229e-02
-4.518904164433479309e-02
7.590094208717346191e-02
2.642747014760971069e-02
-8.628528565168380737e-02
-7.015150785446166992e-02
1.462193485349416733e-02
6.715962290763854980e-02
-5.596990883350372314e-02
-5.553360283374786377e-02
-7.555737346410751343e-02
3.959687799215316772e-02
-1.408784464001655579e-02
8.755879104137420654e-02
-1.000278908759355545e-02
-5.159335583448410034e-02
-6.587623804807662964e-02
2.692189067602157593e-02
-8.992585539817810059e-02
-7.560982555150985718e-02
2.970933727920055389e-02
5.878483876585960388e-02
4.794467240571975708e-02
-1.444783341139554977e-02
-2.141736820340156555e-02
-5.437539145350456238e-02
1.482610497623682022e-02
-6.753383576869964600e-02
-6.474386900663375854e-02
-8.744472637772560120e-03
-6.901581585407257080e-02
-4.497058317065238953e-02
-3.387876227498054504e-02
3.666175156831741333e-02
5.281582940369844437e-03
5.979932472109794617e-02
-8.631946146488189697e-02
-1.778878085315227509e-02
4.337845370173454285e-03
-3.134778141975402832e-02
-6.294815987348556519e-02
-7.695040106773376465e-02
-7.011912763118743896e-02
-5.524841323494911194e-02
-4.277214035391807556e-02
3.624235466122627258e-02
5.591647233814001083e-03
-3.415219951421022415e-03
8.514779806137084961e-02
-8.965341001749038696e-02
5.570669472217559814e-02
5.356788635253906250e-02
-6.810022145509719849e-02
7.058923691511154175e-02
-2.962799975648522377e-03
-4.699248075485229492e-02
-4.594655334949493408e-02
-5.216860026121139526e-02
-5.268460512161254883e-02
4.927805066108703613e-02
6.614042446017265320e-03
-1.109193172305822372e-02
-1.075773313641548157e-01
-4.479116946458816528e-02
5.919490754604339600e-02
-4.334723949432373047e-02
-5.082502029836177826e-03
-4.742153361439704895e-02
5.434196069836616516e-02
-2.962360158562660217e-02
-1.063792929053306580e-01
1.080207079648971558e-01
-1.547434031963348389e-01
8.289732038974761963e-02
2.035538665950298309e-02
-2.166528813540935516e-02
-8.918978273868560791e-03
2.975034713745117188e-02
4.559146985411643982e-02
4.857441410422325134e-02
7.128130644559860229e-03
-1.258865594863891602e-01
-2.685054950416088104e-02
-2.103905007243156433e-02
-8.949860185384750366e-02
7.997919619083404541e-02
1.213804259896278381e-01
8.128247410058975220e-02
-9.001240134239196777e-03
6.651088595390319824e-02
-1.236271578818559647e-02
7.502522319555282593e-02
-1.024955734610557556e-01
-7.944591343402862549e-02
3.702413290739059448e-02
-8.285409212112426758e-02
5.796641111373901367e-02
-1.177903413772583008e-01
-9.440135955810546875e-02
9.959084540605545044e-02
1.590409502387046814e-02
5.104174464941024780e-02
9.849403798580169678e-02
2.253247797489166260e-02
2.759388461709022522e-02
8.792542666196823120e-02
8.079363405704498291e-02
-8.830690383911132812e-02
1.472030878067016602e-01
-3.033109707757830620e-03
8.981792628765106201e-02
3.325790166854858398e-02
-3.408172866329550743e-03
-2.532034926116466522e-02
3.608542028814554214e-03
3.040140867233276367e-02
-1.662189364433288574e-01
1.511055883020162582e-02
8.087793737649917603e-02
1.903797239065170288e-01
-5.631785839796066284e-02
2.957298187538981438e-03
-1.198685169219970703e-02
-7.040500640869140625e-02
1.375389192253351212e-02
7.033452391624450684e-02
1.823502779006958008e-01
8.764126151800155640e-02
-2.057189866900444031e-02
-8.330293931066989899e-04
3.647960722446441650e-02
-1.110267192125320435e-01
7.523040473461151123e-02
-9.621920436620712280e-02
-1.123738065361976624e-01
-6.129401270300149918e-03
-4.568291455507278442e-02
1.289648376405239105e-02
-7.981429994106292725e-02
1.358503699302673340e-01
-2.312370575964450836e-03
-4.914936423301696777e-02
9.993804618716239929e-03
-1.232488080859184265e-02
8.779621869325637817e-02
-1.749046146869659424e-02
7.195594161748886108e-02
3.106987848877906799e-02
4.069555178284645081e-02
4.860872775316238403e-02
2.823782712221145630e-02
7.642465829849243164e-02
1.338329613208770752e-01
-1.836204715073108673e-02
-6.178807839751243591e-02
-1.167658492922782898e-01
-3.430089727044105530e-02
-7.455020397901535034e-02
4.377553611993789673e-02
-1.349379308521747589e-02
-2.209178917109966278e-02
-1.370723098516464233e-01
1.485120356082916260e-01
-1.178306527435779572e-02
1.185565516352653503e-01
3.746084123849868774e-02
-4.289336875081062317e-02
1.942612677812576294e-01
-4.579759389162063599e-02
9.839919209480285645e-02
1.993942074477672577e-02
5.038211587816476822e-03
-3.612104058265686035e-02
-1.159507185220718384e-01
-2.333509735763072968e-02
-3.969660401344299316e-02
1.354729086160659790e-01
-5.930934473872184753e-02
5.901459604501724243e-02
-3.490562364459037781e-02
3.229057416319847107e-02
3.367391973733901978e-02
1.500761415809392929e-02
5.776372179388999939e-02
-2.034110575914382935e-02
-4.356135055422782898e-02
-9.495622362010180950e-05
3.777967765927314758e-02
-8.919767290353775024e-02
-7.262806594371795654e-02
-4.724326543509960175e-03
4.679141938686370850e-02
6.292098760604858398e-02
6.971454620361328125e-02
8.337546885013580322e-02
7.955249398946762085e-02
1.199769526720046997e-01
3.341777995228767395e-02
3.022667020559310913e-02
4.333182238042354584e-03
-1.839597970247268677e-01
1.741815917193889618e-02
4.260318353772163391e-02
-8.783754706382751465e-02
2.351086027920246124e-02
-3.644153475761413574e-02
-4.506605491042137146e-02
-2.640425786375999451e-02
5.190781876444816589e-02
-5.426684021949768066e-02
-1.049312879331409931e-03
5.260232719592750072e-04
6.938900053501129150e-02
3.622056916356086731e-02
4.866404086351394653e-02
6.772181391716003418e-02
-5.916769430041313171e-02
4.680083319544792175e-02
-9.804923832416534424e-02
1.218456551432609558e-01
-1.436706185340881348e-01
-7.482021115720272064e-03
1.680143028497695923e-01
6.372128427028656006e-02
-8.140315860509872437e-02
3.292217478156089783e-02
6.960763782262802124e-02
-4.383342713117599487e-02
1.741266064345836639e-02
5.239123012870550156e-03
-6.599445641040802002e-02
8.858512341976165771e-02
-6.390257179737091064e-02
-1.089197769761085510e-01
2.889511175453662872e-02
-1.098742932081222534e-01
-4.669555649161338806e-02
1.141997869126498699e-03
-3.305010870099067688e-02
5.013342946767807007e-02
5.486110597848892212e-02
2.777452208101749420e-02
-1.724738813936710358e-02
-8.733836002647876740e-03
1.975308917462825775e-02
-1.115366593003273010e-01
-1.364455074071884155e-01
9.006103128194808960e-02
1.061109006404876709e-01
-5.152530968189239502e-02
-2.155078575015068054e-02
-3.293688967823982239e-02
-7.354056835174560547e-02
-5.000650882720947266e-02
-9.479419887065887451e-02
8.011386543512344360e-02
2.736556529998779297e-02
1.422812789678573608e-01
2.904204418882727623e-03
8.036932349205017090e-02
1.599932461977005005e-01
-9.015011787414550781e-02
3.511459100991487503e-03
9.862344712018966675e-02
5.811963602900505066e-02
-1.205002814531326294e-01
1.519269347190856934e-01
-5.860767886042594910e-02
1.421435177326202393e-01
3.670991165563464165e-03
3.659933805465698242e-02
-4.037916660308837891e-02
-4.252197220921516418e-02
8.145664632320404053e-02
-5.604512989521026611e-02
9.566387534141540527e-02
4.056929796934127808e-02
5.361479893326759338e-02
-3.249195218086242676e-02
1.055311877280473709e-02
-7.507018744945526123e-02
3.278299421072006226e-02
5.799609422683715820e-02
-1.159212961792945862e-01
-1.129498779773712158e-01
5.337576568126678467e-02
-1.238488778471946716e-01
-1.542374491691589355e-01
8.085878938436508179e-02
1.330094188451766968e-01
-1.072872430086135864e-01
5.277488380670547485e-02
5.358656495809555054e-02
-8.076723664999008179e-02
-3.370802849531173706e-02
2.202687226235866547e-02
-9.141471982002258301e-02
-1.078880392014980316e-02
-5.687413364648818970e-02
-4.290664568543434143e-02
8.817064017057418823e-02
-1.277582999318838120e-02
3.494348749518394470e-02
5.466993525624275208e-02
-2.830683439970016479e-02
-2.568695135414600372e-02
3.404599428176879883e-02
-4.404544830322265625e-02
-7.538466900587081909e-02
7.175505161285400391e-02
-3.490754961967468262e-02
8.870389312505722046e-02
-3.416430577635765076e-02
4.087164415977895260e-04
7.664808630943298340e-02
-1.134728174656629562e-02
-5.012565851211547852e-02
-7.253797352313995361e-02
2.174441330134868622e-02
-3.923711925745010376e-02
-6.455197930335998535e-02
-3.086221590638160706e-02
-4.821268469095230103e-02
-8.718200773000717163e-02
-8.334994316101074219e-02
-1.864304579794406891e-02
2.247897349298000336e-02
-6.305789202451705933e-02
-8.744584023952484131e-02
1.919259503483772278e-02
-6.118764169514179230e-03
-1.038001757115125656e-02
-3.026267886161804199e-02
7.221464812755584717e-02
-3.195479512214660645e-02
6.331109255552291870e-02
-6.534936279058456421e-02
4.990709573030471802e-02
-6.855618208646774292e-02
3.505440428853034973e-02
-3.164124442264437675e-03
-4.917719587683677673e-02
-5.057377740740776062e-02
-6.243470124900341034e-04
4.173236712813377380e-02
-8.473109453916549683e-02
4.461725801229476929e-02
7.193516194820404053e-02
-5.099858343601226807e-02
6.643512845039367676e-02
2.162486873567104340e-02
-5.776941776275634766e-02
-4.858751222491264343e-02
-5.963813513517379761e-02
4.456942260731011629e-04
-7.606261223554611206e-02
5.104459077119827271e-02
1.918569765985012054e-02
3.962289169430732727e-02
5.739144235849380493e-02
6.784466654062271118e-02
-4.670997336506843567e-02
-4.578465968370437622e-02
-6.879459321498870850e-02
3.771878033876419067e-02
2.108815312385559082e-02
8.862112881615757942e-04
4.876921419054269791e-03
8.610022068023681641e-02
-3.499325364828109741e-02
-8.403358608484268188e-02
2.280971407890319824e-02
8.748677372932434082e-02
-7.815621048212051392e-02
3.862426429986953735e-02
-7.437086850404739380e-02
2.709853928536176682e-03
-3.589579835534095764e-02
-5.757785588502883911e-02
-8.200555294752120972e-02
-6.612453609704971313e-02
-5.489775165915489197e-02
3.641619160771369934e-02
-4.927065968513488770e-02
-4.259698465466499329e-02
2.179618226364254951e-03
6.361242383718490601e-02
2.049977332353591919e-02
5.377945303916931152e-02
1.418588450178503990e-03
4.421477392315864563e-02
-7.934728264808654785e-02
-5.904808267951011658e-02
4.519330337643623352e-02
7.240843027830123901e-02
8.113864064216613770e-02
-6.299158092588186264e-03
9.489723481237888336e-03
1.596893928945064545e-02
-8.290564268827438354e-02
-6.141078844666481018e-02
1.053008344024419785e-02
-5.103900283575057983e-02
7.846736162900924683e-02
2.145290002226829529e-02
-6.648259609937667847e-02
-1.178160123527050018e-02
2.178647741675376892e-02
-8.626760542392730713e-02
-5.611253529787063599e-02
-8.743783086538314819e-02
5.982067435979843140e-02
-6.430507637560367584e-03
-5.621030554175376892e-02
6.533474475145339966e-02
4.159237444400787354e-02
-9.826765954494476318e-02
-1.176027804613113403e-01
-4.884692654013633728e-02
4.113584011793136597e-02
5.447387322783470154e-02
1.300941966474056244e-02
1.502876821905374527e-02
-3.358463197946548462e-02
-9.242912381887435913e-02
8.140336722135543823e-03
-9.857422113418579102e-02
1.770534366369247437e-02
-1.458770781755447388e-01
7.868502289056777954e-02
-9.932141983881592751e-04
3.283513337373733521e-02
3.048657998442649841e-02
6.237018480896949768e-02
-7.639472931623458862e-02
1.042422140017151833e-03
-7.771474123001098633e-02
-1.246186904609203339e-02
-4.625557735562324524e-02
9.162763506174087524e-02
-4.768140614032745361e-02
9.699456393718719482e-02
-6.602746248245239258e-02
1.986779645085334778e-02
6.820585578680038452e-02
-5.792571976780891418e-02
-3.241291502490639687e-03
-1.065781526267528534e-02
-2.564698271453380585e-02
-5.458607152104377747e-02
-7.397218793630599976e-02
-1.933916658163070679e-01
9.136548638343811035e-02
-5.736866965889930725e-02
4.833818599581718445e-02
-1.090413033962249756e-01
3.961497545242309570e-02
7.645107805728912354e-02
5.730524286627769470e-02
8.612871170043945312e-02
2.598080970346927643e-02
1.791390776634216309e-02
-1.507534384727478027e-01
1.061747819185256958e-01
6.998162716627120972e-03
-8.631984889507293701e-02
-3.901867941021919250e-02
-4.359280690550804138e-02
-9.661309421062469482e-02
-1.276534050703048706e-02
3.049640217795968056e-04
-9.150054305791854858e-02
-1.625023037195205688e-01
-1.636886782944202423e-02
2.725263312458992004e-02
1.019401103258132935e-02
-5.920418724417686462e-02
-3.857146948575973511e-04
-1.302332133054733276e-01
4.462748020887374878e-02
-2.239592373371124268e-02
4.058199748396873474e-02
-3.341126488521695137e-03
3.081712871789932251e-02
-1.731931567192077637e-01
5.733931064605712891e-02
-8.806679397821426392e-03
-1.093971170485019684e-02
-2.421323955059051514e-02
-7.193753961473703384e-03
-1.217723414301872253e-01
1.031799390912055969e-01
-9.299563616514205933e-02
-4.022544622421264648e-02
-8.166214823722839355e-02
2.106031402945518494e-02
-2.975109592080116272e-02
-3.392904996871948242e-02
-3.473987057805061340e-02
-5.322734266519546509e-02
4.446912929415702820e-02
6.358199566602706909e-02
-7.587988674640655518e-02
5.481777340173721313e-02
1.202237084507942200e-01
2.215342968702316284e-02
-7.158739864826202393e-02
-5.283406004309654236e-02
9.943176805973052979e-02
3.399694338440895081e-02
1.005341932177543640e-01
1.059485133737325668e-02
8.435715734958648682e-02
5.893173813819885254e-02
2.444841153919696808e-02
-1.120197102427482605e-01
-1.024638395756483078e-02
-2.441161684691905975e-02
-3.814324364066123962e-02
-4.182824492454528809e-02
3.834367543458938599e-02
-7.408008445054292679e-03
5.091029778122901917e-02
9.733644872903823853e-02
-4.831266775727272034e-02
7.330682873725891113e-02
-1.512713963165879250e-03
1.178780570626258850e-01
-2.008371241390705109e-02
7.453078031539916992e-02
1.087136790156364441e-01
6.926828622817993164e-02
8.769514970481395721e-03
-9.661923348903656006e-02
7.879707217216491699e-02
-4.506812617182731628e-02
-2.410575374960899353e-02
-2.901691943407058716e-02
4.458291456103324890e-03
1.278999149799346924e-01
6.063915789127349854e-02
5.365189164876937866e-02
-9.267196059226989746e-03
-6.003875657916069031e-02
-1.025838479399681091e-01
-1.264265645295381546e-02
-5.033538118004798889e-02
8.109269291162490845e-02
-2.724841237068176270e-02
-7.810086011886596680e-02
8.863522112369537354e-02
-1.267773751169443130e-02
9.194345772266387939e-02
-4.078891500830650330e-02
-2.428892627358436584e-02
1.277651637792587280e-02
3.734712675213813782e-02
5.694195628166198730e-02
-1.451611518859863281e-02
2.528700232505798340e-02
-3.513056412339210510e-02
7.319168001413345337e-02
-1.358488500118255615e-01
-7.108046114444732666e-02
7.511762529611587524e-02
7.898291945457458496e-02
-8.722021430730819702e-02
-1.690651848912239075e-02
-9.114313870668411255e-02
2.635156922042369843e-02
2.226880751550197601e-02
-2.050500661134719849e-01
1.296296622604131699e-02
-1.268902514129877090e-02
7.177847623825073242e-02
-9.991580247879028320e-02
-3.455262258648872375e-02
-4.641786217689514160e-02
-2.305954135954380035e-02
7.424703985452651978e-02
1.245729718357324600e-02
6.205694377422332764e-02
-2.179730385541915894e-01
-7.552843540906906128e-03
-5.284027010202407837e-02
-5.772691220045089722e-02
-3.915079310536384583e-02
1.496113400207832456e-04
-4.662098363041877747e-02
-3.418716415762901306e-02
1.031793802976608276e-01
-9.689327329397201538e-02
-1.188188791275024414e-01
2.991970069706439972e-02
-4.172267392277717590e-02
-1.030339747667312622e-01
-9.683313220739364624e-02
-4.657397419214248657e-02
-7.112681865692138672e-02
-8.435837179422378540e-02
1.837869584560394287e-01
4.777108505368232727e-02
1.427158564329147339e-01
-7.510364800691604614e-02
-1.167074292898178101e-01
8.688448369503021240e-02
-1.458701193332672119e-01
-1.202076580375432968e-02
8.662722259759902954e-02
4.232021793723106384e-02
-7.386483252048492432e-02
8.889223635196685791e-02
6.218709517270326614e-03
2.390168979763984680e-02
5.224023386836051941e-02
-4.000421240925788879e-02
-4.398445133119821548e-03
5.274161230772733688e-03
6.242120265960693359e-02
-2.915546111762523651e-02
1.719067431986331940e-02
6.870205700397491455e-02
2.009680494666099548e-02
7.976295053958892822e-02
1.057612970471382141e-01
5.929157137870788574e-02
-1.551215946674346924e-01
6.347816088236868382e-04
-7.113930583000183105e-02
2.547659724950790405e-02
1.224371641874313354e-01
8.819952607154846191e-03
6.613375991582870483e-02
5.570504069328308105e-02
-1.885741390287876129e-02
-9.526909328997135162e-03
7.426528632640838623e-02
-4.463643208146095276e-02
-1.012890599668025970e-02
-8.253899961709976196e-02
4.418395832180976868e-02
1.193846613168716431e-01
3.383746370673179626e-02
1.052064523100852966e-01
-4.091635718941688538e-02
8.371583186089992523e-03
1.315397918224334717e-01
-3.138472791761159897e-03
2.391433343291282654e-03
1.075643002986907959e-01
1.484731435775756836e-01
8.962417393922805786e-02
-1.280911359935998917e-02
-8.594840764999389648e-02
6.383258104324340820e-02
-1.263659447431564331e-02
6.145588122308254242e-03
3.519689664244651794e-02
-8.679057657718658447e-02
8.482763916254043579e-02
-6.305124610662460327e-02
-4.518039897084236145e-02
-4.337720572948455811e-02
-7.613686844706535339e-03
-4.980560392141342163e-02
-7.055850327014923096e-02
7.602254301309585571e-02
2.449315972626209259e-02
5.491169169545173645e-02
-4.192757606506347656e-02
-3.916328772902488708e-02
2.406200394034385681e-02
-2.976631000638008118e-02
1.507389079779386520e-02
-3.766898810863494873e-02
-2.618680708110332489e-02
-7.663489133119583130e-02
2.060844376683235168e-02
6.135067343711853027e-02
1.517142355442047119e-01
2.237310819327831268e-02
1.165024489164352417e-01
-3.244702517986297607e-02
1.316063338890671730e-03
1.239695493131875992e-02
3.399401530623435974e-02
-9.859900921583175659e-02
-7.201684266328811646e-02
2.662950567901134491e-02
9.672550112009048462e-02
-1.153408959507942200e-01
1.063668206334114075e-01
4.983746260404586792e-02
-2.247850596904754639e-02
-6.404799968004226685e-02
3.734005615115165710e-02
-3.277648240327835083e-02
7.884843647480010986e-02
6.396733969449996948e-02
-1.855506747961044312e-02
-6.131825223565101624e-02
1.681761257350444794e-02
-3.859174624085426331e-02
-9.625542908906936646e-02
-1.849767379462718964e-02
-3.223059698939323425e-02
-3.083020262420177460e-02
-2.786065079271793365e-02
3.823360055685043335e-02
1.716551021672785282e-03
-1.439374983310699463e-01
1.210295259952545166e-01
1.231577526777982712e-02
-4.503824934363365173e-02
6.528411060571670532e-02
4.895805567502975464e-02
2.210226468741893768e-02
3.480958938598632812e-02
-2.166875638067722321e-02
2.147872000932693481e-02
8.887962996959686279e-02
-5.230089183896780014e-03
8.850006759166717529e-02
-1.342618279159069061e-02
-7.650929503142833710e-03
3.125304356217384338e-02
5.590185523033142090e-02
-1.623824425041675568e-02
-2.894221805036067963e-02
2.868334390223026276e-02
2.920787595212459564e-02
-1.554551068693399429e-02
-2.329448051750659943e-02
7.028344273567199707e-02
9.551959484815597534e-02
-1.256821490824222565e-02
-9.247783571481704712e-03
4.794266819953918457e-02
5.301160737872123718e-02
1.742125488817691803e-02
2.313169836997985840e-02
-8.391258120536804199e-02
1.006013751029968262e-01
-2.942133694887161255e-02
-1.023013740777969360e-01
-4.126267507672309875e-03
-8.207686990499496460e-02
-2.205486781895160675e-02
-9.650162607431411743e-02
2.615863084793090820e-02
-9.492713212966918945e-02
-2.814931422472000122e-02
1.461203396320343018e-01
4.459185060113668442e-03
-3.589522466063499451e-02
-6.027599051594734192e-02
3.236528718844056129e-03
-5.971851944923400879e-02
-1.516211405396461487e-02
-8.651086129248142242e-03
-8.114730566740036011e-02
1.717039942741394043e-02
7.852987945079803467e-02
-1.097168102860450745e-01
1.014895662665367126e-01
-5.220282450318336487e-02
1.349720060825347900e-01
5.957068875432014465e-02
-6.180346012115478516e-02
8.442965894937515259e-02
-6.583799421787261963e-02
2.677081897854804993e-02
-1.557600335218012333e-03
-2.816449850797653198e-02
-7.776131480932235718e-02
2.888315729796886444e-02
9.077535569667816162e-02
5.979140475392341614e-02
5.226023122668266296e-02
-1.232206374406814575e-01
-1.174431107938289642e-02
-6.417658179998397827e-03
1.267849374562501907e-02
-1.133136376738548279e-01
2.758346498012542725e-02
-3.308654949069023132e-02
5.398438125848770142e-02
-4.144819080829620361e-02
-2.956419624388217926e-02
5.781028419733047485e-02
-3.292515873908996582e-02
-3.811687976121902466e-02
-4.953892901539802551e-03
6.504763662815093994e-02
8.885627239942550659e-02
1.001964956521987915e-01
2.581225335597991943e-02
-1.410754863172769547e-02
-7.560703158378601074e-02
1.024525612592697144e-01
-3.250866895541548729e-03
1.518540550023317337e-02
6.234674900770187378e-02
-6.739246845245361328e-02
-4.007295891642570496e-02
3.649998456239700317e-02
1.659397482872009277e-01
6.317749619483947754e-02
4.999953322112560272e-03
-4.961146041750907898e-04
-8.285307884216308594e-02
1.455320231616497040e-02
-8.524589985609054565e-02
3.778366744518280029e-02
6.838411837816238403e-02
-6.548575311899185181e-02
-1.152669787406921387e-01
-1.337720640003681183e-02
5.408856272697448730e-02
-4.572065547108650208e-02
6.726836413145065308e-02
-7.350584119558334351e-02
1.221427470445632935e-01
2.600189112126827240e-02
-3.823474422097206116e-02
-5.862863361835479736e-02
-1.292634289711713791e-02
-4.270857572555541992e-02
3.132682293653488159e-02
-8.534009009599685669e-02
1.436843071132898331e-02
1.034111827611923218e-01
5.263121426105499268e-02
3.790589049458503723e-03
-8.006037212908267975e-03
-1.537301763892173767e-02
9.246369451284408569e-02
1.341134011745452881e-01
-4.600732773542404175e-02
5.641122534871101379e-02
-1.004411131143569946e-01
-2.243270725011825562e-02
-9.029142558574676514e-02
-2.886031940579414368e-02
-2.075470285490155220e-03
-3.255934640765190125e-02
-1.428843103349208832e-02
8.335307985544204712e-02
5.897691845893859863e-02
-3.100175969302654266e-02
1.193188577890396118e-01
-5.946213379502296448e-02
6.262307614088058472e-02
5.040891841053962708e-02
4.812956973910331726e-02
3.383480710908770561e-03
-6.154436618089675903e-02
1.621289402246475220e-01
-5.129699036478996277e-02
4.214490577578544617e-02
2.804544381797313690e-02
6.886349059641361237e-03
2.958793751895427704e-02
-6.661971099674701691e-03
8.036589622497558594e-02
-1.689778640866279602e-02
1.259122490882873535e-01
1.255304925143718719e-02
1.108627393841743469e-01
-7.798813749104738235e-03
-2.118694968521595001e-02
-1.136297285556793213e-01
1.578349918127059937e-01
-1.382582485675811768e-01
-5.799602344632148743e-02
-2.166710793972015381e-02
-5.869613587856292725e-02
8.040999621152877808e-02
-3.754501044750213623e-02
-3.314545005559921265e-02
2.834299206733703613e-02
-4.523310810327529907e-02
-3.898806124925613403e-02
9.867913275957107544e-02
-1.838476955890655518e-02
-1.815115474164485931e-02
-4.321321845054626465e-02
-5.275486037135124207e-03
5.662879347801208496e-02
4.821426235139369965e-03
-9.508582204580307007e-02
-7.967444509267807007e-02
2.361100725829601288e-02
-9.305772185325622559e-02
7.065655291080474854e-02
7.785891741514205933e-02
8.346155285835266113e-02
2.724195271730422974e-02
-6.837995350360870361e-02
1.234831437468528748e-01
1.470082439482212067e-02
-1.076081395149230957e-01
-5.767893418669700623e-02
-1.503189355134963989e-01
6.042396277189254761e-02
-4.280566796660423279e-02
8.364032208919525146e-02
4.081755504012107849e-02
1.806694120168685913e-01
-4.454648494720458984e-02
-4.749162122607231140e-02
6.773335486650466919e-02
7.423226721584796906e-03
7.070112228393554688e-02
6.162356957793235779e-02
1.879182271659374237e-02
-1.404388900846242905e-02
1.616558409295976162e-03
4.105995595455169678e-02
9.723506122827529907e-02
-1.169668883085250854e-01
9.689328074455261230e-02
-4.176120087504386902e-02
5.561992526054382324e-02
6.692288070917129517e-02
-8.662469335831701756e-04
-8.720482140779495239e-02
1.762710697948932648e-02
6.855895370244979858e-02
6.151941418647766113e-02
-7.730982452630996704e-02
1.117327138781547546e-01
5.790787935256958008e-02
-9.106347709894180298e-02
-6.630300730466842651e-02
-4.233317449688911438e-02
-1.462950259447097778e-01
3.209869191050529480e-02
5.844724178314208984e-02
-4.351223260164260864e-02
3.396957367658615112e-02
-5.524285882711410522e-02
1.019601076841354370e-01
-9.650753438472747803e-02
9.326210618019104004e-02
-4.490801133215427399e-03
8.882898837327957153e-03
3.626683354377746582e-02
9.304785728454589844e-02
2.281454950571060181e-02
5.868844687938690186e-02
-9.595316648483276367e-02
1.213739141821861267e-01
2.394613996148109436e-02
-1.756243780255317688e-02
1.414990425109863281e-02
-6.941082328557968140e-02
1.373945027589797974e-01
5.328375473618507385e-02
7.302325218915939331e-03
1.150980368256568909e-01
6.591416895389556885e-02
8.863975107669830322e-02
6.788650900125503540e-02
-9.381621330976486206e-02
1.692778170108795166e-01
-9.082120843231678009e-03
8.643828332424163818e-02
-1.583110727369785309e-02
1.185893174260854721e-02
-1.083471551537513733e-01
5.976251792162656784e-03
1.107371151447296143e-01
-3.834077343344688416e-02
5.152223259210586548e-02
-1.251776963472366333e-01
4.214344918727874756e-02
-4.612902179360389709e-02
-1.486519128084182739e-01
9.875870496034622192e-02
6.320320814847946167e-02
6.779641658067703247e-02
7.413407415151596069e-02
-1.029998138546943665e-01
-2.605967409908771515e-02
-4.701823368668556213e-02
-1.603497266769409180e-01
7.873064279556274414e-02
-1.800132729113101959e-02
-8.810354024171829224e-02
1.695400476455688477e-01
-1.190898716449737549e-01
1.153175160288810730e-01
-8.112476021051406860e-02
9.396872483193874359e-03
-4.962903261184692383e-02
-3.587745130062103271e-02
-1.093944907188415527e-01
7.283285260200500488e-02
-8.199686557054519653e-02
6.784490495920181274e-02
5.651903897523880005e-02
6.351105868816375732e-02
1.020714566111564636e-01
-4.682369530200958252e-03
-8.138805627822875977e-02
1.116174310445785522e-01
1.031841784715652466e-01
-1.195028871297836304e-01
-4.485413059592247009e-02
7.710106670856475830e-02
5.475678015500307083e-03
6.467925012111663818e-02
-1.728345751762390137e-01
7.274527847766876221e-02
-7.661552727222442627e-02
-2.863368578255176544e-02
5.972154438495635986e-02
4.021446034312248230e-02
-1.090200170874595642e-01
-1.540695317089557648e-03
-1.140297353267669678e-01
-8.890976011753082275e-02
-2.293744124472141266e-02
-7.207932323217391968e-02
6.621176842600107193e-03
8.485775440931320190e-02
4.049534350633621216e-02
1.182771772146224976e-01
-5.201116949319839478e-02
-9.601890295743942261e-02
-1.853702776134014130e-02
-7.846967875957489014e-02
6.356886774301528931e-02
-1.521836966276168823e-03
3.581432625651359558e-02
-1.163473539054393768e-02
-6.575218588113784790e-02
-2.965928986668586731e-02
7.400926202535629272e-02
6.978115439414978027e-02
4.985987767577171326e-02
2.071470208466053009e-02
-3.473696857690811157e-02
-7.512224465608596802e-02
-6.292842328548431396e-02
1.183756664395332336e-01
-6.059202831238508224e-03
-4.432916641235351562e-02
-6.758681684732437134e-02
-2.869705855846405029e-02
7.174120098352432251e-02
-2.954263426363468170e-02
-5.844065919518470764e-02
6.932100653648376465e-02
-5.028640851378440857e-02
3.761836513876914978e-02
-5.114167556166648865e-02
5.171298235654830933e-02
1.737221628427505493e-01
-7.459872961044311523e-02
1.020224764943122864e-01
1.636819392442703247e-01
-1.722902804613113403e-02
-6.142161414027214050e-02
-4.422313068062067032e-03
4.383389279246330261e-02
1.556519232690334320e-02
1.030861660838127136e-01
3.880998492240905762e-02
-4.062230139970779419e-02
1.060590147972106934e-02
-3.819480910897254944e-02
-2.785171940922737122e-02
-8.777064830064773560e-02
8.393997699022293091e-02
-8.805384486913681030e-02
2.389145828783512115e-02
8.323957771062850952e-02
8.190260082483291626e-02
-8.065734803676605225e-02
8.941127359867095947e-02
-1.004119124263525009e-02
-5.851861461997032166e-02
7.835008949041366577e-02
5.954511091113090515e-02
1.382257491350173950e-01
-6.559565663337707520e-04
1.641789078712463379e-02
5.004417151212692261e-02
-4.491963889449834824e-03
-1.054333224892616272e-01
-6.419728696346282959e-02
1.289767175912857056e-01
-1.715064793825149536e-02
4.763287305831909180e-02
-4.199697449803352356e-02
9.230025112628936768e-02
-5.589151009917259216e-02
7.860552519559860229e-02
4.676259681582450867e-02
3.966112807393074036e-02
9.573824703693389893e-02
4.072329029440879822e-02
-2.333866618573665619e-02
-1.414384841918945312e-01
4.821266233921051025e-02
1.334960460662841797e-01
1.220494583249092102e-01
-2.247213385999202728e-03
1.223773062229156494e-01
-7.690548151731491089e-02
9.834731370210647583e-02
-1.155352145433425903e-01
-6.447356194257736206e-02
-6.750356405973434448e-03
-5.423168465495109558e-02
-1.180739551782608032e-01
8.345974609255790710e-03
-2.200936339795589447e-02
-4.343572258949279785e-02
-4.901427403092384338e-02
4.781092517077922821e-03
1.120895594358444214e-01
-4.332142323255538940e-02
-3.291759267449378967e-02
-1.219399869441986084e-01
-1.614752598106861115e-02
7.765573263168334961e-02
-7.084053754806518555e-02
5.868880078196525574e-02
4.097365308552980423e-03
1.508268341422080994e-02
-5.687199905514717102e-02
-5.833515524864196777e-02
1.307783424854278564e-01
-1.818876527249813080e-02
1.291253324598073959e-02
7.728660851716995239e-02
-2.996777929365634918e-02
6.162881478667259216e-02
5.609432980418205261e-02
-2.363661304116249084e-03
-1.142248734831809998e-01
8.427810668945312500e-02
6.352445483207702637e-02
5.818729847669601440e-02
-4.998597130179405212e-02
4.935326799750328064e-02
-4.011382162570953369e-02
-3.445233777165412903e-02
-1.976357586681842804e-02
-5.443214997649192810e-02
8.551396429538726807e-02
-5.852542817592620850e-02
-4.224681854248046875e-02
1.763803511857986450e-02
-6.817568093538284302e-02
1.785136014223098755e-02
-1.244198158383369446e-01
-1.010848134756088257e-01
-1.139981150627136230e-01
1.493222452700138092e-02
-2.219758741557598114e-02
-1.966271921992301941e-02
1.128938868641853333e-01
-3.011740185320377350e-02
9.916436672210693359e-02
7.500004023313522339e-02
-1.416098773479461670e-01
1.042277738451957703e-02
9.094554185867309570e-02
-6.930748373270034790e-02
-1.277119573205709457e-02
1.315594464540481567e-01
-6.162453070282936096e-02
8.493709377944469452e-03
-1.358490530401468277e-02
7.869967073202133179e-02
-1.030731350183486938e-01
3.712143376469612122e-02
2.400231175124645233e-02
-7.504761219024658203e-02
-1.837235689163208008e-01
1.456654816865921021e-01
-6.217528134584426880e-02
6.748985499143600464e-02
1.024709083139896393e-02
-1.813203096389770508e-02
-5.704676732420921326e-02
3.464184235781431198e-03
-5.782487615942955017e-02
1.707258448004722595e-02
6.929356604814529419e-02
-6.870828568935394287e-02
-1.219903770834207535e-02
7.932572811841964722e-02
-1.702323928475379944e-02
-5.484584718942642212e-02
1.569676399230957031e-02
-4.749265313148498535e-02
-1.760367676615715027e-02
4.244653508067131042e-02
1.234116684645414352e-02
-2.289353637024760246e-03
5.454320460557937622e-02
1.002403199672698975e-01
5.503536760807037354e-02
-3.132342919707298279e-02
2.931626513600349426e-03
-8.793301880359649658e-02
-5.301388353109359741e-02
-4.448302090167999268e-02
3.033838048577308655e-02
-9.346008300781250000e-02
7.404413074254989624e-02
3.755588829517364502e-02
4.531787708401679993e-02
5.072485655546188354e-02
-1.116115320473909378e-02
-4.616880044341087341e-02
-1.973810791969299316e-02
-8.535574376583099365e-02
-2.992178127169609070e-02
-4.047945141792297363e-02
7.970769703388214111e-02
-9.897973388433456421e-02
-7.271241396665573120e-02
8.879851549863815308e-02
9.123677760362625122e-02
-1.293333619832992554e-01
9.092026203870773315e-02
-4.787163808941841125e-02
-6.912047415971755981e-02
-3.576058149337768555e-02
-6.072015687823295593e-02
7.565473020076751709e-02
-8.707209676504135132e-02
-3.175869956612586975e-02
-4.749817773699760437e-02
-5.127583071589469910e-02
6.917086988687515259e-02
-2.881846763193607330e-02
-5.844638124108314514e-02
1.853575557470321655e-01
7.348912954330444336e-02
-5.007019639015197754e-02
-1.075408011674880981e-01
8.720639348030090332e-02
2.749124355614185333e-02
-1.186316274106502533e-02
5.695402249693870544e-02
6.777571886777877808e-02
-3.062708489596843719e-02
-6.464602053165435791e-02
-1.109731644392013550e-01
-5.757820606231689453e-02
-7.818558067083358765e-02
-8.479947596788406372e-02
-8.045855909585952759e-02
-4.096280410885810852e-02
-9.104710072278976440e-02
7.595737278461456299e-02
7.581533491611480713e-02
-5.912857130169868469e-03
-2.709819562733173370e-02
1.097250357270240784e-02
-3.067757375538349152e-02
-5.694527924060821533e-02
-6.609370559453964233e-02
-8.646249026060104370e-02
5.612976476550102234e-02
6.691240519285202026e-02
-3.945212066173553467e-02
8.265082538127899170e-02
5.600473284721374512e-02
-2.571871131658554077e-02
-1.343818753957748413e-02
1.804824173450469971e-02
-4.210325330495834351e-02
-7.732731290161609650e-03
-7.788721472024917603e-02
-1.514641661196947098e-02
-3.827545791864395142e-02
3.035289421677589417e-02
-3.558867610991001129e-03
-1.057766936719417572e-02
6.309822946786880493e-02
-5.598377808928489685e-02
2.572879893705248833e-03
7.286030054092407227e-02
-1.535016484558582306e-02
3.236441686749458313e-02
7.602714747190475464e-02
-7.476715743541717529e-02
-5.267148464918136597e-02
3.824456781148910522e-02
6.196855008602142334e-02
8.033874444663524628e-03
4.179694503545761108e-02
-5.226423218846321106e-02
8.978007361292839050e-03
-2.945331484079360962e-02
-1.062448993325233459e-01
-8.236121386289596558e-02
3.295896947383880615e-02
-5.221302062273025513e-02
-9.546968154609203339e-03
-5.608478188514709473e-02
-5.534435622394084930e-03
7.303000986576080322e-02
3.734017536044120789e-02
4.116417467594146729e-02
2.664162032306194305e-02
-8.790346980094909668e-02
1.192097179591655731e-02
-4.622117429971694946e-02
6.085550785064697266e-02
3.160625323653221130e-02
5.216141790151596069e-02
-3.395704180002212524e-02
-7.067713141441345215e-02
5.981599539518356323e-02
-5.088773742318153381e-02
4.850269109010696411e-02
-1.374668814241886139e-02
-4.840132221579551697e-02
-8.097513765096664429e-02
5.550679937005043030e-02
8.375583589076995850e-02
-7.667506486177444458e-02
5.826877802610397339e-02
7.858923077583312988e-02
-9.249391406774520874e-02
-3.412594320252537727e-03
-5.280000343918800354e-02
-8.155220746994018555e-02
-8.779329061508178711e-02
-1.156562846153974533e-02
7.762359827756881714e-02
2.440273202955722809e-02
-5.529368296265602112e-02
-7.919118553400039673e-02
-8.479410409927368164e-02
-7.768440991640090942e-02
-8.878564834594726562e-02
4.442031960934400558e-03
1.753280125558376312e-02
-7.770867645740509033e-02
-8.577725384384393692e-05
6.975591182708740234e-02
-5.487778782844543457e-02
3.136425092816352844e-02
7.533106952905654907e-02
9.566928260028362274e-03
1.041459664702415466e-02
3.598137944936752319e-02
-1.983497478067874908e-02
-8.266376703977584839e-02
-6.134379655122756958e-03
-3.023592196404933929e-02
8.663024008274078369e-02
5.306184291839599609e-02
-8.054601401090621948e-02
-7.260997314006090164e-03
3.962213546037673950e-02
-6.700920313596725464e-02
-1.016822643578052521e-02
2.560691721737384796e-02
8.836752176284790039e-02
-8.737786859273910522e-02
-6.419750303030014038e-02
2.746687270700931549e-03
3.542776405811309814e-02
7.411707192659378052e-03
8.964560925960540771e-03
-2.233206108212471008e-02
2.350632473826408386e-02
-4.434133693575859070e-02
-1.144913583993911743e-01
9.343594312667846680e-03
3.842875361442565918e-02
6.706245988607406616e-02
-5.307441949844360352e-02
-6.195261701941490173e-02
8.011271059513092041e-02
2.601895481348037720e-03
6.882426142692565918e-02
5.700629577040672302e-02
3.653948009014129639e-02
-8.846854418516159058e-02
-9.016854315996170044e-02
-7.059494499117136002e-03
7.717075198888778687e-02
1.598346792161464691e-02
-2.341243997216224670e-02
-5.769813805818557739e-02
4.589087888598442078e-02
-3.982436284422874451e-02
1.366436779499053955e-01
4.505906254053115845e-02
-8.117187023162841797e-02
6.416707485914230347e-02
-6.120182201266288757e-02
-4.472277685999870300e-02
4.401006177067756653e-02
3.384603559970855713e-02
-8.565614372491836548e-02
1.866352371871471405e-02
6.461672484874725342e-02
-2.758790925145149231e-02
1.591063886880874634e-01
-1.206914409995079041e-01
8.726248145103454590e-02
-2.397378161549568176e-02
1.114958599209785461e-01
6.543439626693725586e-02
-9.607533365488052368e-02
-9.105511009693145752e-02
1.105244681239128113e-01
-2.643424319103360176e-03
1.321578631177544594e-03
-9.114620275795459747e-03
-5.349379405379295349e-02
-5.736013874411582947e-02
6.770241260528564453e-02
3.237882629036903381e-02
7.288601994514465332e-02
2.960731461644172668e-02
-2.195020206272602081e-02
-9.161672741174697876e-02
1.033979654312133789e-01
5.568639189004898071e-02
2.124896086752414703e-02
7.909635454416275024e-02
-4.339785501360893250e-02
1.031364947557449341e-01
7.373970746994018555e-02
1.053076051175594330e-02
-5.138245224952697754e-02
-6.486827880144119263e-02
4.610655084252357483e-02
3.742654994130134583e-02
-6.619507074356079102e-02
1.134206354618072510e-02
-1.004310771822929382e-01
6.935364753007888794e-02
-2.136291004717350006e-02
2.541732974350452423e-02
-1.951098442077636719e-02
-3.682946041226387024e-02
-5.142122041434049606e-03
-4.689301550388336182e-02
-3.526421729475259781e-03
4.221561551094055176e-02
-2.328093908727169037e-02
-7.175308465957641602e-02
-1.248443592339754105e-02
-8.822286128997802734e-02
-7.469259202480316162e-02
6.909964978694915771e-02
3.037874773144721985e-02
4.710600152611732483e-02
3.934032469987869263e-02
-3.216528892517089844e-02
2.963854372501373291e-02
1.321651786565780640e-02
4.032970964908599854e-02
-1.440518652088940144e-03
6.931631267070770264e-02
1.259338203817605972e-02
-3.936315700411796570e-02
1.111936941742897034e-01
-6.500236690044403076e-02
-6.540692597627639771e-02
8.144554495811462402e-02
-1.319407578557729721e-02
-5.481049045920372009e-02
4.847200959920883179e-02
2.096861600875854492e-02
-7.340069860219955444e-02
-5.208804085850715637e-02
-5.030721426010131836e-02
-3.564488887786865234e-02
1.086519286036491394e-01
-6.157648190855979919e-02
3.584280982613563538e-02
9.899054467678070068e-02
5.403354391455650330e-02
-1.207944080233573914e-01
-3.613488003611564636e-02
7.369130849838256836e-02
-7.874872535467147827e-02
6.800056993961334229e-02
-6.175821274518966675e-02
1.274774670600891113e-01
-4.225765168666839600e-02
-5.559321027249097824e-03
6.971719115972518921e-02
1.577155441045761108e-01
-4.052387923002243042e-02
-2.058712951838970184e-02
-2.156296931207180023e-02
1.051650848239660263e-02
-2.953651547431945801e-02
1.074105873703956604e-02
-1.986773917451500893e-03
5.127830803394317627e-02
7.481572777032852173e-02
-1.438607741147279739e-02
5.036816373467445374e-02
-2.452003210783004761e-02
-2.613758109509944916e-02
9.664640761911869049e-03
-1.788172498345375061e-02
9.686340391635894775e-02
4.177216812968254089e-02
-4.400380700826644897e-02
-7.989894598722457886e-02
1.013326048851013184e-01
-2.811430394649505615e-02
4.026519879698753357e-02
-1.862563891336321831e-03
-2.178525738418102264e-02
-2.779907779768109322e-03
2.636822313070297241e-02
-1.129111498594284058e-01
8.716586977243423462e-02
7.093922793865203857e-02
1.061788275837898254e-01
-1.057508587837219238e-01
-9.142803400754928589e-02
-8.857128210365772247e-03
-8.982814848423004150e-02
2.337350882589817047e-02
5.896811932325363159e-02
-1.238726526498794556e-01
2.458243444561958313e-02
-3.422283753752708435e-02
-3.233056142926216125e-02
1.707404665648937225e-02
-8.876106142997741699e-02
-2.332043647766113281e-02
5.069147329777479172e-03
1.405884772539138794e-01
8.375412225723266602e-02
-8.694718778133392334e-02
-3.656696155667304993e-02
-4.287520051002502441e-02
-3.552820906043052673e-02
1.434677280485630035e-02
-2.169257216155529022e-02
-1.008201465010643005e-01
-6.786165386438369751e-02
-3.592276200652122498e-02
9.442005306482315063e-03
3.849548473954200745e-02
6.753442343324422836e-03
-9.078370779752731323e-02
1.165316849946975708e-01
6.744508445262908936e-02
-2.796223200857639313e-02
1.044163182377815247e-01
-8.080904185771942139e-02
-1.073224321007728577e-01
4.458319395780563354e-02
-3.065548092126846313e-02
-4.455721005797386169e-02
2.469771355390548706e-02
-6.407035887241363525e-02
-4.760873690247535706e-02
6.165071204304695129e-02
-1.325520966202020645e-02
-1.035044193267822266e-01
2.535532461479306221e-03
-9.574884921312332153e-02
9.139021486043930054e-02
