6.307454407215118408e-02
3.441077470779418945e-02
-2.606444433331489563e-02
9.224116220138967037e-04
6.033986806869506836e-02
-2.134401164948940277e-02
-5.178827326744794846e-03
6.490240246057510376e-02
3.097593411803245544e-02
-2.069833688437938690e-02
-1.055030897259712219e-01
-4.919857531785964966e-02
6.606117635965347290e-02
-5.845377221703529358e-02
1.420198529958724976e-01
8.573552593588829041e-03
-1.121117621660232544e-01
2.767328731715679169e-02
-1.919079944491386414e-02
7.910350710153579712e-02
-3.340853750705718994e-02
3.108543530106544495e-02
2.756806276738643646e-02
1.081188116222620010e-02
-1.050684787333011627e-02
1.101796329021453857e-02
-3.334931796416640282e-03
3.607114776968955994e-02
-2.296620979905128479e-03
5.192075669765472412e-02
-1.399029698222875595e-02
1.053676102310419083e-02
2.402263227850198746e-03
6.708823144435882568e-02
7.429971545934677124e-02
-1.222762931138277054e-02
-8.120417594909667969e-02
-1.648578234016895294e-02
-2.529339864850044250e-02
-1.571146212518215179e-02
3.435669094324111938e-02
-2.571035549044609070e-02
9.339485317468643188e-02
1.475881040096282959e-01
1.555052399635314941e-02
-7.789255678653717041e-02
4.070458933711051941e-02
-8.675892651081085205e-02
4.851642996072769165e-02
4.685681685805320740e-02
4.865854978561401367e-02
5.551065504550933838e-02
9.712526947259902954e-02
5.577950179576873779e-02
-4.264331422746181488e-03
-3.619104623794555664e-02
-3.078296035528182983e-02
3.988130763173103333e-02
-2.629332989454269409e-02
-5.905039608478546143e-02
5.959058925509452820e-02
-1.228426694869995117e-01
1.911781877279281616e-01
-9.897372871637344360e-02
-3.537832945585250854e-02
1.438702456653118134e-02
1.416136045008897781e-02
7.110738754272460938e-02
-8.758535236120223999e-02
-5.553594604134559631e-02
1.624793373048305511e-02
-1.171900518238544464e-02
7.959904521703720093e-02
-9.461668133735656738e-02
-1.713502034544944763e-02
7.838468253612518311e-02
1.321124732494354248e-01
-8.565423637628555298e-02
-4.432811215519905090e-02
3.917447105050086975e-02
-4.684086516499519348e-02
-6.693243980407714844e-02
4.920347128063440323e-03
8.496826142072677612e-02
