8.601012080907821655e-02
3.835638985037803650e-02
4.809048026800155640e-02
3.812972456216812134e-02
-7.533027231693267822e-02
-3.689382970333099365e-02
1.009544953703880310e-01
1.028268318623304367e-02
1.266049593687057495e-01
-5.400599911808967590e-02
4.563339799642562866e-02
-5.319658666849136353e-03
2.512439154088497162e-02
1.095889043062925339e-02
-8.704178966581821442e-03
-4.177954792976379395e-02
2.901989221572875977e-02
-9.341860190033912659e-03
5.841084942221641541e-02
-5.190167203545570374e-02
-6.667093932628631592e-02
-3.800924122333526611e-02
-1.510142930783331394e-03
2.923171035945415497e-02
-6.746274232864379883e-02
7.981917262077331543e-02
9.806196391582489014e-02
-9.427817910909652710e-02
1.788211241364479065e-02
-3.129173070192337036e-02
-6.965209543704986572e-02
-4.981099069118499756e-02
-3.167873946949839592e-03
-1.112833395600318909e-01
2.794311940670013428e-02
-8.072945475578308105e-02
2.886408753693103790e-02
-1.789287477731704712e-02
7.406993955373764038e-02
1.063285674899816513e-02
-4.570955410599708557e-02
3.090057335793972015e-02
-5.505126714706420898e-02
3.620623797178268433e-02
6.948836613446474075e-03
-1.110891532152891159e-02
2.557333372533321381e-02
6.192864850163459778e-02
6.008471921086311340e-02
6.396429147571325302e-03
2.479651756584644318e-02
-4.669288545846939087e-02
-3.901958093047142029e-02
-8.472332358360290527e-02
4.989885166287422180e-02
-4.605462774634361267e-03
1.277168989181518555e-01
-2.454061806201934814e-02
7.502169162034988403e-02
1.153041273355484009e-01
1.486204862594604492e-01
1.241326257586479187e-01
-7.201055064797401428e-03
-6.312139332294464111e-02
-6.290158629417419434e-02
-8.132052421569824219e-02
-1.657547615468502045e-02
1.349924365058541298e-03
-4.732569679617881775e-02
1.080532073974609375e-01
1.343660205602645874e-01
-6.182819232344627380e-02
6.071348488330841064e-02
-9.451249986886978149e-02
5.424955859780311584e-02
1.307170558720827103e-02
-5.472913756966590881e-02
-6.517139822244644165e-02
1.721439883112907410e-02
5.957447458058595657e-03
1.532653719186782837e-02
-4.406042769551277161e-02
6.458450108766555786e-02
3.797979652881622314e-02
