-3.749641776084899902e-01
1.043527498841285706e-01
-2.390612214803695679e-01
2.836348414421081543e-01
-3.282860219478607178e-01
-2.832532227039337158e-01
3.004480153322219849e-02
4.355087578296661377e-01
1.151628512889146805e-02
-3.770500421524047852e-01
-5.142108350992202759e-02
4.097158014774322510e-01
3.350953161716461182e-01
3.421233966946601868e-02
2.656104266643524170e-01
3.657338619232177734e-01
1.760761141777038574e-01
-1.713474392890930176e-01
-1.762560755014419556e-01
1.527680009603500366e-01
-1.416962295770645142e-01
3.027633130550384521e-01
-3.543052077293395996e-01
3.847294151782989502e-01
-4.409894645214080811e-01
1.428533792495727539e-01
-5.907556414604187012e-01
4.451825320720672607e-01
-1.328337490558624268e-01
1.385766863822937012e-01
-1.531551331281661987e-01
-1.262268284335732460e-03
4.051922261714935303e-01
1.892776414752006531e-02
4.138712584972381592e-01
1.443535983562469482e-01
1.941933780908584595e-01
1.764111667871475220e-01
9.110494703054428101e-02
2.978233993053436279e-01
6.280222535133361816e-02
-1.933596730232238770e-01
7.400276064872741699e-01
-9.043394774198532104e-02
-5.089859962463378906e-01
-1.148109436035156250e-01
3.724163472652435303e-01
1.462532877922058105e-01
-1.312244962900876999e-02
-4.809162020683288574e-02
5.566705390810966492e-02
-4.366897046566009521e-01
1.484691500663757324e-01
-5.971570611000061035e-01
1.403650641441345215e-01
-2.558489441871643066e-01
-1.937253028154373169e-01
-7.851971387863159180e-01
6.167864203453063965e-01
5.820673704147338867e-01
-1.835516393184661865e-01
5.265620946884155273e-01
1.699895709753036499e-01
3.835786581039428711e-01
-3.491963818669319153e-02
-1.381692010909318924e-02
3.254277631640434265e-02
4.395889639854431152e-01
5.331373810768127441e-01
-4.633686542510986328e-01
1.705906987190246582e-01
2.232697047293186188e-02
-1.441050916910171509e-01
6.344693303108215332e-01
1.887390464544296265e-01
1.920486800372600555e-02
-2.930003106594085693e-01
3.317986428737640381e-01
-1.507059186697006226e-01
-1.236366629600524902e-01
2.454147934913635254e-01
3.049510419368743896e-01
4.797104597091674805e-01
5.765332579612731934e-01
3.427166044712066650e-01
-2.992545962333679199e-01
5.563857033848762512e-02
-1.725204847753047943e-02
-1.488763839006423950e-01
-1.274278312921524048e-01
3.956682980060577393e-01
-1.233985349535942078e-01
-1.341697424650192261e-01
2.386505603790283203e-01
2.110613137483596802e-02
-7.383921742439270020e-02
2.228850275278091431e-01
-4.633464217185974121e-01
-5.050901696085929871e-02
2.852198481559753418e-01
-2.508724927902221680e-01
-7.607356458902359009e-02
4.134944081306457520e-01
-1.856599152088165283e-01
1.602697968482971191e-01
1.082268357276916504e-01
4.665771126747131348e-01
3.761309012770652771e-02
1.398943513631820679e-01
-7.500336319208145142e-02
-3.070177733898162842e-01
1.569763123989105225e-01
1.378779709339141846e-01
4.106191173195838928e-02
-6.493195891380310059e-02
-3.074407577514648438e-01
1.162194907665252686e-01
5.464858934283256531e-02
1.894140392541885376e-01
-2.978811264038085938e-01
7.081172615289688110e-02
6.894042342901229858e-02
1.222029104828834534e-01
-1.069733351469039917e-01
-1.248135045170783997e-01
-9.733910858631134033e-02
-2.476799339056015015e-01
-1.795678734779357910e-01
2.201162725687026978e-01
-9.630782157182693481e-02
-5.650876834988594055e-02
2.942300215363502502e-02
-3.504905849695205688e-02
1.094935685396194458e-01
1.231350749731063843e-01
3.986919224262237549e-01
-9.567210078239440918e-02
-3.473365008831024170e-01
6.492409110069274902e-01
-4.821838736534118652e-01
1.903830021619796753e-01
1.274471282958984375e-01
1.158829182386398315e-01
-1.100624352693557739e-01
-2.781319916248321533e-01
-2.675711512565612793e-01
2.827092818915843964e-02
-1.537545919418334961e-01
-2.507388889789581299e-01
-4.450055658817291260e-01
1.564342230558395386e-01
-3.651828505098819733e-03
-2.958364188671112061e-01
1.157982051372528076e-01
2.171013355255126953e-01
-4.898959770798683167e-02
7.730471342802047729e-02
-1.314668506383895874e-01
-1.860622912645339966e-01
-6.492376327514648438e-02
9.827451407909393311e-02
1.469219326972961426e-01
7.351594418287277222e-02
3.246050775051116943e-01
-3.386820554733276367e-01
-2.627294957637786865e-01
7.439373433589935303e-02
1.467167884111404419e-01
-5.387130007147789001e-02
-2.485916763544082642e-01
5.342301726341247559e-01
6.555803120136260986e-02
1.437099277973175049e-01
2.749773263931274414e-01
2.466875873506069183e-02
1.414395719766616821e-01
-3.327198326587677002e-01
-1.547951847314834595e-01
8.641917258501052856e-02
5.338813066482543945e-01
1.005109399557113647e-01
-4.048219323158264160e-01
4.229085743427276611e-01
-7.896029949188232422e-01
-5.939019918441772461e-01
1.210156008601188660e-01
-7.172556519508361816e-01
-5.034695863723754883e-01
5.321072936058044434e-01
4.530994892120361328e-01
-1.874356418848037720e-01
-3.823188841342926025e-01
2.163860201835632324e-01
3.767436742782592773e-01
5.969783067703247070e-01
-3.248547017574310303e-02
2.598765790462493896e-01
1.406491249799728394e-01
2.983624041080474854e-01
-3.511206209659576416e-01
-7.771655321121215820e-01
1.778235733509063721e-01
1.470302790403366089e-02
5.111958980560302734e-01
2.768621742725372314e-01
-7.226890325546264648e-02
3.317761421203613281e-01
1.186413019895553589e-01
-1.083665564656257629e-01
-2.845766246318817139e-01
-2.811096310615539551e-01
2.250552624464035034e-01
-3.183467686176300049e-01
-2.571521997451782227e-01
3.700199127197265625e-01
-1.238282695412635803e-01
3.919643163681030273e-02
-2.779905498027801514e-01
-4.166496694087982178e-01
2.259905040264129639e-01
-4.715563952922821045e-01
1.688374578952789307e-01
-7.198202610015869141e-01
-9.146621823310852051e-02
3.879971504211425781e-01
1.874909996986389160e-01
3.232125937938690186e-01
-3.994554877281188965e-01
3.576375842094421387e-01
-3.385067880153656006e-01
-7.206048369407653809e-01
4.895997345447540283e-01
-2.388995736837387085e-01
-5.853850394487380981e-02
-6.645327061414718628e-02
-2.276318967342376709e-01
4.463731646537780762e-01
-2.005537152290344238e-01
1.824491471052169800e-01
9.230923652648925781e-02
4.434620141983032227e-01
-4.995623230934143066e-02
3.095050454139709473e-01
2.652898132801055908e-01
4.735659062862396240e-01
5.963677540421485901e-03
5.889040231704711914e-02
2.748236656188964844e-01
2.224077284336090088e-01
-6.243807077407836914e-01
-4.789128601551055908e-01
-3.679210692644119263e-02
2.261905968189239502e-01
2.482844889163970947e-01
-8.120444416999816895e-02
-1.465191692113876343e-01
8.508359640836715698e-02
-3.962407410144805908e-01
-2.303614169359207153e-01
2.567249536514282227e-01
-8.480454236268997192e-02
-3.800666034221649170e-01
-4.377107694745063782e-02
1.596879363059997559e-01
4.493378996849060059e-01
4.390806555747985840e-01
-5.927503705024719238e-01
-9.032774716615676880e-02
6.090458631515502930e-01
1.134198904037475586e-01
1.680117994546890259e-01
-4.945173859596252441e-01
-5.213415026664733887e-01
-6.380432844161987305e-01
4.530704021453857422e-01
2.775079607963562012e-01
3.111715614795684814e-01
-6.767060160636901855e-01
-3.839393258094787598e-01
-2.653768062591552734e-01
2.233585268259048462e-01
-6.281251311302185059e-01
-2.924794256687164307e-01
-1.716573536396026611e-01
1.888879984617233276e-01
-8.096125721931457520e-02
3.208648860454559326e-01
4.345283806324005127e-01
-6.263046711683273315e-02
-1.427758038043975830e-01
4.341658949851989746e-02
3.171331882476806641e-01
-5.450899526476860046e-02
-1.966695040464401245e-01
-3.444512188434600830e-01
4.525871276855468750e-01
-4.209447279572486877e-02
-4.759958758950233459e-02
-6.719403266906738281e-01
-8.917380124330520630e-02
1.891087740659713745e-01
5.335852876305580139e-02
-5.282143950462341309e-01
-3.763866722583770752e-01
-7.474939804524183273e-03
7.431555422954261303e-04
-4.713230729103088379e-01
3.040260672569274902e-01
1.924829632043838501e-01
5.826949700713157654e-02
-1.263425964862108231e-02
-3.270549774169921875e-01
4.331643581390380859e-01
-4.753624200820922852e-01
3.972842693328857422e-01
-4.621701538562774658e-01
1.381903886795043945e-01
2.798679172992706299e-01
3.212376832962036133e-01
-1.893453001976013184e-01
1.094167679548263550e-01
7.302550226449966431e-02
2.224877327680587769e-01
6.931066513061523438e-02
9.031456708908081055e-02
-1.699326783418655396e-01
1.070600003004074097e-01
-2.586642503738403320e-01
-9.579632431268692017e-02
-2.370464354753494263e-01
1.174390986561775208e-01
3.857469558715820312e-01
-1.229250952601432800e-01
-1.312981396913528442e-01
-1.120513901114463806e-01
-2.091023623943328857e-01
4.883767068386077881e-01
-4.627764821052551270e-01
-4.851427972316741943e-01
6.254650354385375977e-01
-3.706224560737609863e-01
5.553817749023437500e-01
-5.589843392372131348e-01
2.632816880941390991e-02
3.032039999961853027e-01
-2.068360801786184311e-03
1.073545217514038086e-01
-3.069213330745697021e-01
3.278493583202362061e-01
2.909453511238098145e-01
-6.323353946208953857e-02
7.805147767066955566e-02
3.472225666046142578e-01
-1.877508461475372314e-01
-1.808267980813980103e-01
5.764617323875427246e-01
6.583639234304428101e-02
-9.477180987596511841e-02
1.880191415548324585e-01
-1.266370564699172974e-01
2.759067155420780182e-02
4.249525070190429688e-01
3.150138854980468750e-01
3.509778678417205811e-01
-6.443064659833908081e-02
1.391721814870834351e-01
3.019598126411437988e-01
-9.452853351831436157e-02
-3.242770731449127197e-01
1.325833648443222046e-01
-6.052300930023193359e-01
6.230990961194038391e-02
-2.813954651355743408e-01
6.667724251747131348e-01
-2.250643074512481689e-01
8.486399799585342407e-02
-1.415737718343734741e-01
3.120716214179992676e-01
1.613251864910125732e-01
2.057265788316726685e-01
-1.048893779516220093e-01
-3.798731788992881775e-02
-8.681592345237731934e-02
6.586575508117675781e-02
-1.149875521659851074e-01
2.514458894729614258e-01
2.788462489843368530e-02
9.922599792480468750e-02
-2.617869973182678223e-01
1.994573026895523071e-01
4.164705276489257812e-01
2.157095670700073242e-01
-7.255201339721679688e-01
-2.867407351732254028e-02
-5.189335346221923828e-02
-5.117642879486083984e-01
3.545794486999511719e-01
3.474250435829162598e-01
-3.523870110511779785e-01
-2.811007015407085419e-02
-4.762229695916175842e-02
-2.526497840881347656e-01
-8.823492527008056641e-01
-3.890288770198822021e-01
-2.886984050273895264e-01
5.306512862443923950e-02
2.534948587417602539e-01
-2.704972624778747559e-01
-7.831670641899108887e-01
1.716708391904830933e-01
-8.294486403465270996e-01
2.551895007491111755e-02
-2.939193844795227051e-01
-1.848616003990173340e-01
-1.660898327827453613e-01
-1.489901542663574219e-01
2.238070070743560791e-01
1.703576892614364624e-01
4.442304074764251709e-01
-7.964909076690673828e-02
-4.385702311992645264e-01
1.450269073247909546e-01
-7.794408500194549561e-02
-1.359185110777616501e-02
-2.452630698680877686e-01
1.599005460739135742e-01
-4.415353238582611084e-01
-1.197394207119941711e-01
4.149987548589706421e-02
2.769289016723632812e-01
1.012680530548095703e-01
-6.728388369083404541e-02
-4.302650392055511475e-01
2.053671330213546753e-01
7.145164906978607178e-02
-1.502185165882110596e-01
-3.007258847355842590e-02
4.514880850911140442e-02
-2.640456259250640869e-01
2.993088066577911377e-01
-2.375621199607849121e-01
3.435117304325103760e-01
8.370523899793624878e-02
1.403803676366806030e-01
1.289425790309906006e-01
-2.263431698083877563e-01
-1.434449553489685059e-01
6.331565976142883301e-02
-5.266860499978065491e-02
-5.075508728623390198e-02
-2.391907619312405586e-03
-6.987625360488891602e-02
-1.200279965996742249e-01
1.026400402188301086e-01
-4.484357237815856934e-01
-3.039731681346893311e-01
-8.233554661273956299e-02
-5.864123813807964325e-03
2.289647459983825684e-01
-4.423872102051973343e-03
3.933029770851135254e-01
4.096381831914186478e-03
-3.835229203104972839e-02
-4.725099205970764160e-01
2.165293991565704346e-01
-9.099478833377361298e-03
-9.411941468715667725e-02
-9.020846337080001831e-02
-3.904595673084259033e-01
-6.749912630766630173e-03
1.238867789506912231e-01
1.553342193365097046e-01
5.230305716395378113e-02
-1.198740303516387939e-01
-2.457510307431221008e-02
3.971230238676071167e-03
-4.253843426704406738e-01
2.886621952056884766e-01
-4.387565329670906067e-02
1.593505889177322388e-01
-5.017479658126831055e-01
2.627704739570617676e-01
-3.737048506736755371e-01
5.150726437568664551e-01
4.725941922515630722e-03
1.675286293029785156e-01
2.625409662723541260e-01
-4.775979518890380859e-01
-9.950165450572967529e-02
-7.167453318834304810e-02
-4.007893502712249756e-01
-2.571433596312999725e-02
2.096173539757728577e-02
1.435212492942810059e-01
3.502888232469558716e-02
5.250880494713783264e-02
3.107576370239257812e-01
-1.334390491247177124e-01
-5.235110595822334290e-02
3.032956719398498535e-01
8.485749363899230957e-02
-2.097790837287902832e-01
-1.122010201215744019e-01
-3.828218579292297363e-01
-5.504299402236938477e-01
7.845970392227172852e-01
1.889774203300476074e-01
-6.661123633384704590e-01
8.818255066871643066e-01
1.003956794738769531e-01
2.062291055917739868e-01
1.258689016103744507e-01
3.715298771858215332e-01
-1.634459048509597778e-01
-5.571741983294487000e-02
-4.327935874462127686e-01
3.316710889339447021e-01
3.369012475013732910e-01
-2.694070935249328613e-01
3.094520866870880127e-01
-3.798345625400543213e-01
6.595501303672790527e-02
1.088532879948616028e-01
-3.785665035247802734e-01
1.669142246246337891e-01
1.694754809141159058e-01
1.145593822002410889e-01
-6.709989309310913086e-01
-6.109538078308105469e-01
-1.717298328876495361e-01
1.099160760641098022e-01
-1.939899027347564697e-01
-6.656754016876220703e-01
1.253267526626586914e-01
2.549212872982025146e-01
8.312203288078308105e-01
5.480987429618835449e-01
-5.995206236839294434e-01
3.266683816909790039e-01
8.351413160562515259e-02
-2.357988953590393066e-01
-4.135996103286743164e-01
-4.922751784324645996e-01
-5.793851017951965332e-01
-4.372352063655853271e-01
5.888034105300903320e-01
-2.577689290046691895e-01
1.249005794525146484e-01
-1.041312068700790405e-01
3.094589114189147949e-01
-2.650011517107486725e-02
-1.517247110605239868e-01
1.053708940744400024e-01
1.356562972068786621e-01
4.493734836578369141e-01
4.757042229175567627e-01
6.308245062828063965e-01
4.032496511936187744e-01
-3.847980201244354248e-01
1.490580886602401733e-01
8.172506839036941528e-02
-7.925103604793548584e-02
-8.743662238121032715e-01
4.074298739433288574e-01
2.282510250806808472e-01
-8.496159687638282776e-03
1.283711194992065430e-01
-6.291462182998657227e-01
-3.609810769557952881e-01
1.291098743677139282e-01
-2.406815886497497559e-01
1.194782778620719910e-01
2.926234528422355652e-02
2.635222077369689941e-01
1.476310491561889648e-01
1.345386803150177002e-01
2.176884114742279053e-01
-4.628778398036956787e-01
6.776176858693361282e-03
1.250030398368835449e-01
4.013295769691467285e-01
1.938788145780563354e-01
2.526521384716033936e-01
-8.212268352508544922e-02
2.925345897674560547e-01
6.130821108818054199e-01
-5.313523411750793457e-01
-3.058985471725463867e-01
3.854303061962127686e-01
-2.113286852836608887e-01
-1.775477528572082520e-01
-7.489194720983505249e-02
-2.342630326747894287e-01
-3.060290813446044922e-01
8.449637144804000854e-02
-1.554906070232391357e-01
-3.575978800654411316e-02
5.561280250549316406e-01
-1.386971175670623779e-01
1.977818459272384644e-01
-5.670452713966369629e-01
-9.907837957143783569e-02
1.712772101163864136e-01
1.383331837132573128e-03
1.164741255342960358e-02
-4.568972438573837280e-02
-1.727186292409896851e-01
-2.671396732330322266e-01
-2.731575667858123779e-01
-5.571941733360290527e-01
-1.427702456712722778e-01
1.912234574556350708e-01
5.020491313189268112e-03
3.788642585277557373e-02
3.101434931159019470e-02
-2.065424025058746338e-01
-1.831733584403991699e-01
-8.877579867839813232e-02
-5.939731001853942871e-01
3.024545609951019287e-01
-4.234871864318847656e-01
-4.079096019268035889e-01
-2.425525896251201630e-02
-7.744877040386199951e-02
2.015973627567291260e-01
-1.089204549789428711e-01
2.638351321220397949e-01
-2.256871908903121948e-01
3.186380565166473389e-01
-5.497752130031585693e-02
8.489735424518585205e-02
-4.418462216854095459e-01
8.929248154163360596e-02
-4.291466623544692993e-02
7.201411295682191849e-03
1.057115793228149414e-01
1.750747114419937134e-01
-1.668218225240707397e-01
-1.280681937932968140e-01
4.868658259510993958e-02
2.529004216194152832e-01
3.749285340309143066e-01
-6.562887877225875854e-02
1.803168654441833496e-01
2.573222815990447998e-01
1.276971846818923950e-01
1.462425012141466141e-02
-1.861428618431091309e-01
-1.786561310291290283e-01
1.464440077543258667e-01
-2.412634156644344330e-02
2.898895740509033203e-01
3.974465429782867432e-01
-8.031975477933883667e-02
-9.339384734630584717e-02
6.394061446189880371e-02
1.996800601482391357e-01
6.435652077198028564e-02
-8.840776979923248291e-02
1.917279660701751709e-01
-1.201077327132225037e-01
2.262339228764176369e-03
-4.839113354682922363e-02
6.191053986549377441e-02
-2.897237241268157959e-01
1.320157498121261597e-01
-4.238480236381292343e-03
-1.258958876132965088e-01
-4.247789382934570312e-01
-7.688002288341522217e-02
-2.938868999481201172e-01
3.436817526817321777e-01
1.141867116093635559e-01
-5.208442211151123047e-01
-1.085523888468742371e-02
-2.175558656454086304e-01
-1.806817352771759033e-01
1.527641266584396362e-01
-7.302519679069519043e-02
-1.225644424557685852e-01
1.578797772526741028e-02
-2.551591694355010986e-01
-8.751146495342254639e-02
-2.362855225801467896e-01
-6.818439364433288574e-01
1.517718285322189331e-01
5.470843911170959473e-01
3.760785982012748718e-02
1.410942617803812027e-02
5.371039360761642456e-02
3.772986233234405518e-01
3.362667858600616455e-01
1.668182611465454102e-01
-2.346886098384857178e-01
-5.066617727279663086e-01
2.702476978302001953e-01
4.698448348790407181e-03
-2.510743588209152222e-02
3.118817210197448730e-01
-7.972293347120285034e-02
2.198292016983032227e-01
2.668544352054595947e-01
2.983886189758777618e-02
-6.288201361894607544e-02
-7.612510025501251221e-02
2.590842247009277344e-01
-2.554270625114440918e-02
-4.716650545597076416e-01
-5.229200702160596848e-03
2.877688035368919373e-02
1.977258324623107910e-01
5.534319579601287842e-02
-5.415579080581665039e-01
-1.944068372249603271e-01
2.635818719863891602e-01
1.880227923393249512e-01
3.999866843223571777e-01
1.350386142730712891e-01
7.333134859800338745e-02
7.309108227491378784e-02
-8.600769937038421631e-02
1.988421194255352020e-02
1.515999585390090942e-01
-2.024083435535430908e-01
4.001580551266670227e-02
2.901344932615756989e-02
3.064168393611907959e-01
1.684822738170623779e-01
2.046766281127929688e-01
-3.237386466935276985e-03
-6.668353080749511719e-02
4.711835980415344238e-01
-2.968636155128479004e-01
-2.961898446083068848e-01
6.981919407844543457e-01
-4.658385813236236572e-01
-3.631812036037445068e-01
2.944305539131164551e-01
3.589693009853363037e-01
7.264135777950286865e-02
-3.292936384677886963e-01
5.026958510279655457e-02
-5.088891386985778809e-01
1.022201180458068848e-01
-9.936168789863586426e-02
8.029376156628131866e-03
3.324106931686401367e-01
-9.022561460733413696e-02
-2.837254106998443604e-02
-1.780600547790527344e-01
-9.184567630290985107e-02
-1.911240816116333008e-01
-3.686017990112304688e-01
-1.626179516315460205e-01
5.082080513238906860e-02
-9.531045332551002502e-03
-2.198881953954696655e-01
2.247947454452514648e-01
2.192203700542449951e-01
3.784782811999320984e-02
3.148821294307708740e-01
6.133899092674255371e-02
1.419022530317306519e-01
-4.174695312976837158e-01
8.496281504631042480e-02
2.441840022802352905e-01
1.036482080817222595e-01
1.541725546121597290e-01
-1.207929924130439758e-01
-1.394903212785720825e-01
-2.394270151853561401e-01
1.203968599438667297e-01
-1.539079248905181885e-01
1.066688001155853271e-01
7.328701671212911606e-03
2.996043264865875244e-01
1.641698628664016724e-01
-4.054540023207664490e-02
-2.639929056167602539e-01
-2.313485741615295410e-02
3.313522636890411377e-01
2.785171382129192352e-02
-2.498784363269805908e-01
-3.930473923683166504e-01
5.740989372134208679e-02
6.579080969095230103e-02
2.705852314829826355e-02
2.810073494911193848e-01
2.259433120489120483e-01
3.398099243640899658e-01
-4.189874976873397827e-02
-1.360109448432922363e-01
-1.856786310672760010e-01
1.017342582345008850e-01
-5.038799643516540527e-01
5.608277767896652222e-02
2.389059811830520630e-01
-1.315049529075622559e-01
-2.535950541496276855e-01
-2.201411724090576172e-01
1.950313299894332886e-01
1.288158744573593140e-01
-4.336522147059440613e-02
1.147752255201339722e-01
3.202055096626281738e-01
3.528414070606231689e-01
-1.363939698785543442e-02
-5.643292665481567383e-01
-2.629466652870178223e-01
-8.050920069217681885e-02
1.641380600631237030e-02
-2.999300062656402588e-01
-6.900045275688171387e-02
-7.356544584035873413e-02
-1.402345597743988037e-01
-9.112393110990524292e-02
-7.000365853309631348e-02
-9.120910428464412689e-03
1.487045586109161377e-01
1.316712051630020142e-01
6.305387616157531738e-01
2.244801493361592293e-03
2.777843475341796875e-01
3.422856330871582031e-01
-1.385948807001113892e-01
-2.741426415741443634e-02
-1.719031780958175659e-01
-1.439226865768432617e-01
2.863579094409942627e-01
-1.321014016866683960e-01
-1.888554841279983521e-01
1.088124737143516541e-01
-3.050609529018402100e-01
-1.183144077658653259e-01
-1.530350279062986374e-02
-6.941783428192138672e-01
2.395335733890533447e-01
6.020753830671310425e-02
2.882206141948699951e-01
9.772786498069763184e-02
