-1.413211077451705933e-01
2.711081318557262421e-02
-4.494337737560272217e-02
-2.334933169186115265e-02
-6.896173208951950073e-02
-8.954473584890365601e-02
-1.402373164892196655e-01
-1.003117412328720093e-01
4.480982944369316101e-02
-1.286478787660598755e-01
-9.392215311527252197e-02
1.391177773475646973e-01
1.221210509538650513e-01
6.571590900421142578e-02
3.321552649140357971e-02
1.422508507966995239e-01
-3.602547571063041687e-02
5.143235623836517334e-02
1.665284484624862671e-02
-1.034027412533760071e-01
1.170389279723167419e-01
1.841257885098457336e-02
-4.210352897644042969e-02
-1.962434500455856323e-01
-3.971080780029296875e-01
1.286415010690689087e-01
1.474875509738922119e-01
3.133838474750518799e-01
8.959277719259262085e-02
3.489893972873687744e-01
1.672019064426422119e-02
1.803106628358364105e-02
1.590451747179031372e-01
-1.421415060758590698e-01
1.628548838198184967e-02
-2.315893582999706268e-02
1.798368990421295166e-01
6.410168111324310303e-02
1.377582699060440063e-01
-6.436745822429656982e-02
-5.323187448084354401e-03
2.087635919451713562e-03
2.392703481018543243e-02
-2.650379836559295654e-01
1.579363793134689331e-01
1.135672349482774734e-02
-1.481430698186159134e-02
3.339719474315643311e-01
-1.871714591979980469e-01
9.517373517155647278e-03
-2.993712387979030609e-02
1.187825575470924377e-01
1.022932454943656921e-01
-6.728368997573852539e-02
1.855770312249660492e-02
2.859871983528137207e-01
2.261303216218948364e-01
-5.348118022084236145e-02
-1.754906773567199707e-02
-7.432370632886886597e-02
8.328673988580703735e-02
4.406289458274841309e-01
3.563188016414642334e-02
2.417040616273880005e-01
1.481651663780212402e-01
-1.168640628457069397e-01
3.098372556269168854e-02
-3.245130479335784912e-01
-3.658889234066009521e-01
1.773056536912918091e-01
2.226539887487888336e-03
-1.073221340775489807e-01
7.877910882234573364e-02
3.803613036870956421e-02
-2.768945097923278809e-01
2.807068824768066406e-01
2.899812720715999603e-02
-2.072853296995162964e-01
3.753257393836975098e-01
-4.897693544626235962e-02
-3.337368741631507874e-02
-1.615174673497676849e-02
-2.624448202550411224e-02
1.573313213884830475e-02
2.807662189006805420e-01
6.615138798952102661e-02
-5.711448937654495239e-02
4.005276262760162354e-01
-1.219171807169914246e-01
-1.306924819946289062e-01
1.069280877709388733e-01
-6.616728752851486206e-02
-1.113903820514678955e-01
-7.705664634704589844e-02
1.723132729530334473e-01
-1.326682418584823608e-01
-3.038446903228759766e-01
2.780799865722656250e-01
-2.296440750360488892e-01
2.482887543737888336e-02
-1.977272927761077881e-01
1.131608411669731140e-01
-1.269211620092391968e-01
-2.105339989066123962e-02
-7.991828769445419312e-02
-2.650369703769683838e-01
2.573601342737674713e-02
-2.197427302598953247e-02
6.613688077777624130e-03
-1.489256173372268677e-01
2.754060551524162292e-02
-1.550896018743515015e-01
-1.633181422948837280e-01
1.488018482923507690e-01
-6.644769012928009033e-02
-5.268961936235427856e-02
-5.540531128644943237e-02
-1.475012153387069702e-01
6.466172635555267334e-02
2.216323837637901306e-02
-3.636799454689025879e-01
1.927248537540435791e-01
1.521963905543088913e-02
-2.526496350765228271e-02
-8.550701290369033813e-02
-4.547501355409622192e-02
2.657903917133808136e-02
1.132063046097755432e-01
-1.401833444833755493e-02
-4.400163888931274414e-02
1.885592006146907806e-02
-3.452881798148155212e-02
1.504318863153457642e-01
-1.085737943649291992e-01
6.759641319513320923e-02
2.214540727436542511e-03
3.255244344472885132e-02
2.701223827898502350e-03
-1.318307667970657349e-01
-5.927621945738792419e-02
-3.170515298843383789e-01
-3.090072236955165863e-02
1.257767230272293091e-01
-2.161681950092315674e-01
2.528622150421142578e-01
8.018669672310352325e-03
-2.893698401749134064e-02
3.244337067008018494e-02
2.757656574249267578e-01
-1.017780229449272156e-01
-1.654082834720611572e-01
2.961872145533561707e-02
1.211079861968755722e-02
2.040026336908340454e-02
-2.183219492435455322e-01
-3.075144067406654358e-02
1.370767503976821899e-01
3.811295628547668457e-01
-2.623511254787445068e-01
-3.900192677974700928e-02
-1.311173737049102783e-01
-4.818473383784294128e-02
1.501761078834533691e-01
1.193364262580871582e-01
-1.045193672180175781e-01
-2.004131227731704712e-01
-9.045747667551040649e-02
2.710152268409729004e-01
-2.798713147640228271e-01
-1.035223230719566345e-01
-5.296450480818748474e-02
-2.027917802333831787e-01
2.184576094150543213e-01
-1.215538308024406433e-01
1.807943880558013916e-01
-7.197602093219757080e-02
3.311410248279571533e-01
-1.299095302820205688e-01
-4.313625767827033997e-02
-1.933854520320892334e-01
1.177138760685920715e-01
4.424849525094032288e-02
-1.364495009183883667e-01
-2.707681059837341309e-01
-6.264643371105194092e-02
-1.535449922084808350e-01
-1.480002254247665405e-01
-4.746009781956672668e-02
-4.117650911211967468e-02
2.800168991088867188e-01
9.719338850118219852e-04
-1.094057038426399231e-01
-1.035020723938941956e-01
-1.343297064304351807e-01
2.613352239131927490e-01
-1.780129969120025635e-01
1.447776407003402710e-01
-2.106970250606536865e-01
5.969902873039245605e-02
8.370196819305419922e-02
-7.368599623441696167e-02
-1.871943026781082153e-01
6.239911913871765137e-02
9.828536212444305420e-02
2.325415611267089844e-01
3.816091716289520264e-01
1.872509568929672241e-01
-8.947630971670150757e-02
9.930402040481567383e-03
1.947514340281486511e-02
1.384064555168151855e-01
1.727082580327987671e-01
-4.434918239712715149e-02
-2.506514787673950195e-01
-2.264500036835670471e-02
7.056543976068496704e-02
2.073093950748443604e-01
4.573260247707366943e-02
5.362133681774139404e-02
9.351963549852371216e-02
2.889418303966522217e-01
-8.878978341817855835e-02
2.038000524044036865e-01
-5.022860169410705566e-01
2.046982795000076294e-01
-7.518799975514411926e-03
1.763319075107574463e-01
3.564302623271942139e-01
2.312552481889724731e-01
-1.180894374847412109e-01
-8.802925050258636475e-02
1.060498058795928955e-01
-2.363249063491821289e-01
6.079511716961860657e-02
-2.306375652551651001e-01
1.362500637769699097e-01
5.003416538238525391e-02
7.971826195716857910e-02
-8.975879102945327759e-02
1.526129990816116333e-01
2.372258007526397705e-01
1.219496205449104309e-01
-2.313885688781738281e-01
-1.519874930381774902e-01
-3.256725147366523743e-02
1.513233035802841187e-01
3.217842057347297668e-02
-1.721326708793640137e-01
7.375714927911758423e-02
4.469846934080123901e-02
-2.196828648447990417e-02
-1.088941395282745361e-01
7.954434305429458618e-02
3.946523368358612061e-02
-2.131277024745941162e-01
-3.807140141725540161e-02
2.074493020772933960e-01
1.333267837762832642e-01
1.588962376117706299e-01
-7.308032363653182983e-03
2.216127216815948486e-01
1.099489256739616394e-01
-1.613406836986541748e-01
-9.596810489892959595e-02
-1.540237963199615479e-01
1.443493962287902832e-01
-1.527343317866325378e-02
2.485276013612747192e-02
-3.986771404743194580e-02
5.457856133580207825e-02
4.273909628391265869e-01
-6.943387538194656372e-02
2.457499504089355469e-02
1.990939974784851074e-01
-1.000034883618354797e-01
1.140670850872993469e-01
-1.460439860820770264e-01
-2.349871844053268433e-01
-1.485901772975921631e-01
-1.640451401472091675e-01
-4.757362976670265198e-02
5.824359878897666931e-02
-2.771836146712303162e-02
-1.462086141109466553e-01
-1.712347120046615601e-01
2.054116576910018921e-01
8.586342632770538330e-02
-1.609505526721477509e-02
1.983487159013748169e-01
-7.943623512983322144e-02
2.149621695280075073e-01
-1.317176669836044312e-01
4.919626191258430481e-02
-1.549491733312606812e-01
-7.854569703340530396e-02
6.342747807502746582e-02
-3.369244560599327087e-02
-1.118068993091583252e-01
7.399321068078279495e-03
3.059886693954467773e-01
-1.542913615703582764e-01
-1.199140399694442749e-01
1.009912043809890747e-01
4.686903581023216248e-02
-6.471025943756103516e-02
-8.233257383108139038e-02
1.019818112254142761e-01
-3.647737205028533936e-02
-2.586637139320373535e-01
-7.746045291423797607e-02
-5.729977414011955261e-02
-2.292490750551223755e-01
-2.523665428161621094e-01
-1.993504166603088379e-01
-1.058789417147636414e-01
-4.835567250847816467e-02
1.172122731804847717e-01
-1.341970413923263550e-01
1.201000958681106567e-01
1.000949665904045105e-01
7.936929911375045776e-02
2.412932962179183960e-01
1.813176274299621582e-01
-1.178763508796691895e-01
1.400405317544937134e-01
-2.930342592298984528e-02
6.095506250858306885e-02
-3.664693981409072876e-02
-4.286857694387435913e-02
1.967283040285110474e-01
-1.558884531259536743e-01
1.204780340194702148e-01
2.061507403850555420e-01
2.122670114040374756e-01
-1.387578547000885010e-01
-4.733201581984758377e-03
2.406233996152877808e-01
-6.400151643902063370e-03
-2.210318446159362793e-01
2.027839869260787964e-01
1.360036879777908325e-01
2.791493535041809082e-01
-1.718489825725555420e-01
-1.014216616749763489e-01
-3.209166228771209717e-01
1.325872093439102173e-01
-4.139565303921699524e-02
-2.858577370643615723e-01
-6.235279515385627747e-02
-3.077561557292938232e-01
3.040409460663795471e-02
1.177051737904548645e-01
-5.334462523460388184e-01
1.720110140740871429e-02
3.582274615764617920e-01
9.348775446414947510e-02
-8.636543899774551392e-02
1.971021592617034912e-01
-2.419396070763468742e-03
-1.154470294713973999e-01
-2.538263797760009766e-01
-8.109374344348907471e-02
1.570580303668975830e-01
6.919570267200469971e-02
2.701783478260040283e-01
-1.808491945266723633e-01
-8.363762497901916504e-02
2.060032337903976440e-01
-3.727315738797187805e-02
7.188314944505691528e-02
-2.720078527927398682e-01
-1.805392652750015259e-02
3.436315059661865234e-02
-3.041917085647583008e-01
1.298125535249710083e-01
-2.665349543094635010e-01
4.922634735703468323e-02
1.983080953359603882e-01
-2.463801056146621704e-01
-6.433981005102396011e-03
-3.407855629920959473e-01
4.350386932492256165e-02
-9.316782653331756592e-02
-1.502609401941299438e-01
4.450840055942535400e-01
-3.967076539993286133e-02
-6.649976223707199097e-02
2.357670804485678673e-03
-7.566218078136444092e-02
8.838906884193420410e-02
2.194080203771591187e-01
-2.405762523412704468e-01
6.040057539939880371e-02
-2.453571930527687073e-02
1.455788910388946533e-01
1.194323599338531494e-01
-8.097010664641857147e-03
-3.386716591194272041e-03
5.570124462246894836e-02
2.304725348949432373e-01
8.277148008346557617e-03
-1.183995082974433899e-01
9.045570343732833862e-02
8.740030229091644287e-02
1.115020364522933960e-01
-5.904876068234443665e-02
-2.323757559061050415e-01
-1.579358875751495361e-01
1.078971251845359802e-01
-6.887703388929367065e-02
2.279799878597259521e-01
1.669389456510543823e-01
-8.823731541633605957e-02
2.471062988042831421e-01
1.357779353857040405e-01
1.136668622493743896e-01
-2.799721658229827881e-01
2.284293808043003082e-02
-3.393420204520225525e-02
1.523579210042953491e-01
-2.594587206840515137e-01
-8.864285051822662354e-02
3.501539826393127441e-01
-2.239249646663665771e-01
-5.553233437240123749e-03
-1.251928210258483887e-01
-8.943545073270797729e-02
1.009169444441795349e-01
-1.675819456577301025e-01
2.860379219055175781e-01
7.473574578762054443e-02
2.781146951019763947e-02
-2.243911623954772949e-01
-5.899981036782264709e-02
-8.857019245624542236e-02
-1.676636338233947754e-01
1.879180371761322021e-01
-3.471599891781806946e-02
8.189167082309722900e-02
-4.540075734257698059e-02
2.664272189140319824e-01
-2.689635455608367920e-01
-2.840230241417884827e-02
1.324757188558578491e-01
1.251986622810363770e-01
5.667689442634582520e-02
-1.344632357358932495e-01
2.704243659973144531e-01
6.711089517921209335e-03
-1.948808580636978149e-01
-9.485071524977684021e-03
7.026126235723495483e-02
2.354020327329635620e-01
1.596257686614990234e-01
5.174508318305015564e-02
-2.138350605964660645e-01
1.734738796949386597e-01
-9.753941744565963745e-02
-3.141926229000091553e-01
2.454805560410022736e-02
-1.054193079471588135e-01
-2.226403653621673584e-01
4.292688891291618347e-02
-1.153049916028976440e-01
2.364334464073181152e-01
4.217026382684707642e-02
-3.016191422939300537e-01
-1.406572312116622925e-01
-2.109863236546516418e-02
-1.848812773823738098e-02
7.222615927457809448e-02
-3.824633061885833740e-01
-7.818377763032913208e-02
9.851013869047164917e-02
5.523617845028638840e-03
-1.046043485403060913e-01
-2.685533463954925537e-01
5.792243406176567078e-02
1.392545402050018311e-01
-1.788791418075561523e-01
-2.931565046310424805e-01
8.792822249233722687e-03
-5.859373137354850769e-02
-2.687130272388458252e-01
-1.272305566817522049e-02
-4.050567280501127243e-03
4.438745975494384766e-02
-1.035863980650901794e-01
-4.322012886404991150e-02
-2.030999809503555298e-01
-9.176835417747497559e-02
3.126443326473236084e-01
-3.278915584087371826e-02
3.896095156669616699e-01
-3.781986236572265625e-02
-3.963684663176536560e-02
2.135581569746136665e-03
-1.130940020084381104e-01
-2.162779569625854492e-01
-1.625881940126419067e-01
-1.282112859189510345e-02
-2.609752118587493896e-01
-8.200427889823913574e-02
-3.301965594291687012e-01
2.847745418548583984e-01
3.016178682446479797e-02
-1.647217869758605957e-01
9.597141295671463013e-02
-1.456280499696731567e-01
-1.738563328981399536e-01
-1.946447342634201050e-01
1.785004884004592896e-02
-2.332087010145187378e-01
-3.842271566390991211e-01
1.325037479400634766e-01
5.735464692115783691e-01
6.889031827449798584e-02
2.737224847078323364e-02
9.201565384864807129e-02
-2.060545831918716431e-01
7.441982626914978027e-02
8.477877825498580933e-02
-2.434284090995788574e-01
3.826071321964263916e-02
1.697586178779602051e-01
1.831629276275634766e-01
-7.267574965953826904e-02
-1.773533225059509277e-01
-1.471728682518005371e-01
1.105795651674270630e-01
1.713269799947738647e-01
-1.375762373208999634e-01
2.303132414817810059e-01
9.496740251779556274e-02
1.363693028688430786e-01
1.686970293521881104e-01
-2.413752675056457520e-01
-5.080822855234146118e-02
1.464267224073410034e-01
5.988690629601478577e-02
1.538349688053131104e-01
-2.309940159320831299e-01
3.104895353317260742e-02
5.481924489140510559e-02
-9.827512502670288086e-02
1.630672216415405273e-01
3.254970535635948181e-02
2.163164317607879639e-01
6.670466810464859009e-02
-2.643835246562957764e-01
-7.715757936239242554e-02
1.619916968047618866e-02
-1.911004185676574707e-01
-1.183542236685752869e-01
-2.698881030082702637e-01
4.066775366663932800e-02
-2.353581637144088745e-01
1.842807084321975708e-01
2.864190377295017242e-02
5.515393614768981934e-01
4.557164385914802551e-02
-1.026084572076797485e-01
-3.939214348793029785e-02
-1.236553415656089783e-01
1.514147818088531494e-01
7.479554042220115662e-03
2.602251172065734863e-01
5.605862289667129517e-02
1.427723467350006104e-01
4.219714552164077759e-02
-2.627738714218139648e-01
-3.096315264701843262e-01
2.107089012861251831e-01
4.287277162075042725e-02
3.996277451515197754e-01
1.913222521543502808e-01
2.359071820974349976e-01
-1.562574803829193115e-01
3.684642165899276733e-02
-1.656022518873214722e-01
1.130780130624771118e-01
5.470429360866546631e-02
-2.190371602773666382e-01
-5.627982690930366516e-02
2.102392539381980896e-02
1.050643324851989746e-01
3.169755935668945312e-01
6.020640581846237183e-02
1.679332228377461433e-03
-8.592973649501800537e-02
1.446343064308166504e-01
5.401425063610076904e-02
1.476648449897766113e-01
-7.433871924877166748e-02
-2.158976644277572632e-01
-9.146519750356674194e-02
-4.515834897756576538e-02
1.572412103414535522e-01
-1.400220543146133423e-01
9.331820160150527954e-02
9.744064509868621826e-02
1.554724425077438354e-01
-5.447963625192642212e-02
-1.639418900012969971e-01
7.632889598608016968e-02
-1.837397217750549316e-01
8.524538576602935791e-02
-6.147789210081100464e-02
-2.008653581142425537e-01
1.089492812752723694e-01
-5.655146762728691101e-02
3.189012110233306885e-01
3.940417170524597168e-01
-9.284176863729953766e-03
-2.694317698478698730e-01
1.181178092956542969e-01
-2.564669251441955566e-01
4.132566601037979126e-02
-9.663737565279006958e-02
-2.777126431465148926e-01
2.843364477157592773e-01
1.124040111899375916e-01
6.834930926561355591e-02
-9.585697948932647705e-02
-2.803918421268463135e-01
-7.212384790182113647e-02
4.986479133367538452e-02
2.814557552337646484e-01
-7.288227230310440063e-02
4.657112527638673782e-03
-9.818641096353530884e-02
-1.831434369087219238e-01
3.376075997948646545e-02
6.981328129768371582e-02
1.914952099323272705e-01
-2.020237296819686890e-01
-6.590858846902847290e-02
1.169726401567459106e-01
-1.335171610116958618e-01
2.224346548318862915e-01
-9.811189770698547363e-02
1.865912042558193207e-02
-1.873523443937301636e-01
1.690452545881271362e-01
-6.860780715942382812e-02
-4.961848258972167969e-02
-2.304559350013732910e-01
-1.393993943929672241e-01
-2.563753724098205566e-02
7.146318908780813217e-03
-6.159785762429237366e-02
-1.083486825227737427e-01
-1.982327848672866821e-01
-6.852304935455322266e-02
4.894389212131500244e-02
2.010885328054428101e-01
-1.861477643251419067e-01
-3.092554807662963867e-01
-1.208568215370178223e-01
-1.965333670377731323e-01
-2.510434091091156006e-01
-2.674106799531728029e-04
-1.300354599952697754e-01
-2.456867843866348267e-01
6.140673533082008362e-02
3.210570663213729858e-02
-1.264993548393249512e-01
2.617456391453742981e-02
6.253842730075120926e-03
1.425911039113998413e-01
8.413757383823394775e-02
4.485550150275230408e-02
-2.722114324569702148e-01
5.897319316864013672e-02
1.905362606048583984e-01
-2.909752130508422852e-01
3.150380030274391174e-02
1.247852891683578491e-01
6.495378445833921432e-03
-7.377835363149642944e-02
1.103639304637908936e-01
1.412393897771835327e-01
1.839631646871566772e-01
-1.594446003437042236e-01
1.146593615412712097e-01
-2.459727376699447632e-01
3.193443119525909424e-01
8.079078979790210724e-03
2.323547750711441040e-01
4.452638328075408936e-02
-4.267053212970495224e-03
-4.142741113901138306e-02
-3.812155127525329590e-01
-9.838265180587768555e-02
2.227604947984218597e-02
1.191733554005622864e-01
8.279088139533996582e-02
5.085838958621025085e-02
-1.100793480873107910e-01
-3.613760471343994141e-01
-2.378526926040649414e-01
5.531205981969833374e-02
9.099344909191131592e-02
1.949695348739624023e-01
-1.310995817184448242e-01
-4.068313837051391602e-01
-6.643407046794891357e-02
9.320417046546936035e-02
-2.883240394294261932e-02
1.123581826686859131e-01
-3.053534030914306641e-02
-1.748802065849304199e-01
1.043452396988868713e-01
6.031049415469169617e-02
2.691716328263282776e-02
-2.544922828674316406e-01
2.316429466009140015e-01
8.272164314985275269e-02
2.600854635238647461e-01
-3.511576950550079346e-01
9.277603775262832642e-02
-1.959012001752853394e-01
3.707112744450569153e-02
1.014751940965652466e-02
-7.957835495471954346e-02
-3.953048288822174072e-01
1.683318316936492920e-01
-1.567002981901168823e-01
1.416204124689102173e-01
4.015234112739562988e-02
2.942434847354888916e-01
6.877955049276351929e-02
-1.659686909988522530e-03
-3.932558000087738037e-02
-2.442705258727073669e-02
-1.197885349392890930e-01
-1.461503505706787109e-01
5.347504839301109314e-02
3.021374642848968506e-01
1.458721458911895752e-01
1.609052121639251709e-01
3.326472938060760498e-01
2.818159461021423340e-01
-2.001141197979450226e-02
-3.766618967056274414e-01
2.767072431743144989e-02
3.623679280281066895e-01
1.487176865339279175e-01
1.332734972238540649e-01
-6.353388726711273193e-02
-1.597959548234939575e-01
-1.444758921861648560e-01
9.242497384548187256e-02
1.726695001125335693e-01
1.989442259073257446e-01
1.467493921518325806e-01
-4.737672582268714905e-02
7.003983482718467712e-03
-5.967510119080543518e-02
6.953651551157236099e-03
-1.175165474414825439e-01
-4.174859076738357544e-02
-7.423288375139236450e-02
-9.829477220773696899e-02
1.208899021148681641e-01
3.505283296108245850e-01
-1.153670549392700195e-01
-3.070645779371261597e-02
-9.630100429058074951e-02
-1.354430168867111206e-01
-1.056882273405790329e-02
3.354888036847114563e-02
2.134667783975601196e-01
2.460268139839172363e-01
1.765859499573707581e-02
5.475154146552085876e-02
-2.259451001882553101e-01
-1.779689490795135498e-01
9.299435466527938843e-02
-4.309331625699996948e-02
1.353863626718521118e-01
2.678342759609222412e-01
-2.331846952438354492e-01
1.947572380304336548e-01
-3.725640177726745605e-01
-3.108621388673782349e-02
-7.763019204139709473e-02
-1.062402427196502686e-01
1.467079669237136841e-01
2.443937659263610840e-01
5.388276651501655579e-02
2.911260128021240234e-01
-2.529815137386322021e-01
-8.669490367174148560e-02
-4.508259147405624390e-02
-8.485228568315505981e-02
-1.160204689949750900e-02
-1.805476546287536621e-01
-8.320473134517669678e-02
-1.439298409968614578e-02
-1.410160511732101440e-01
2.894658148288726807e-01
4.966590926051139832e-02
-1.283219605684280396e-01
-6.788775324821472168e-02
1.286567747592926025e-01
-2.221588417887687683e-02
2.677251100540161133e-01
1.311982125043869019e-01
2.203565388917922974e-01
-2.793870568275451660e-01
6.705547869205474854e-02
2.047813534736633301e-01
-1.277097873389720917e-02
-3.561266958713531494e-01
2.154554706066846848e-03
-1.568015664815902710e-01
-9.116698056459426880e-02
8.533886075019836426e-02
-1.009317487478256226e-01
9.276232123374938965e-02
7.035296410322189331e-02
-4.696172103285789490e-02
-1.542935371398925781e-01
1.152235418558120728e-01
3.154242411255836487e-02
-7.242855429649353027e-02
-3.338238969445228577e-02
-4.430471733212471008e-02
-2.783641815185546875e-01
5.778051167726516724e-02
8.079885691404342651e-02
-2.484020404517650604e-02
1.920712925493717194e-02
-1.396815776824951172e-01
-7.451217621564865112e-02
-1.242403537034988403e-01
-1.914298832416534424e-01
-1.635455340147018433e-01
-2.243649363517761230e-01
